tree
version=v4
num_class=1
num_tree_per_iteration=1
label_index=0
max_feature_idx=201
objective=binary sigmoid:1
feature_names=num__tenure num__MonthlyCharges num__TotalCharges num__ABSOLUTE_DIFF_MonthlyCharges_ num__ABSOLUTE_DIFF_TotalCharges_ num__ABSOLUTE_DIFF_tenure_ num__MonthlyCharges_0 num__TotalCharges_0 num__tenure_0 num__COSINE_MonthlyCharges_ num__COSINE_TotalCharges_ num__COSINE_tenure_ num__EXPONENTIAL_WEIGHTED_STD_MonthlyCharges_com_0_5_ num__EXPONENTIAL_WEIGHTED_STD_TotalCharges_com_0_5_ num__EXPONENTIAL_WEIGHTED_STD_tenure_com_0_5_ num__EXPONENTIAL_WEIGHTED_VARIANCE_MonthlyCharges_com_0_5_ num__EXPONENTIAL_WEIGHTED_VARIANCE_TotalCharges_com_0_5_ num__EXPONENTIAL_WEIGHTED_VARIANCE_tenure_com_0_5_ num__MonthlyCharges_tenure num__TotalCharges_MonthlyCharges num__tenure_MonthlyCharges num__Contract_Month_to_month_MonthlyCharges num__Contract_Month_to_month_TotalCharges num__Contract_Month_to_month_tenure num__Contract_One_year_MonthlyCharges num__Contract_One_year_TotalCharges num__Contract_One_year_tenure num__Contract_Two_year_MonthlyCharges num__Contract_Two_year_TotalCharges num__Contract_Two_year_tenure num__Dependents_No_MonthlyCharges num__Dependents_No_TotalCharges num__Dependents_No_tenure num__Dependents_Yes_MonthlyCharges num__Dependents_Yes_TotalCharges num__Dependents_Yes_tenure num__DeviceProtection_No_MonthlyCharges num__DeviceProtection_No_TotalCharges num__DeviceProtection_No_tenure num__DeviceProtection_No_internet_service_MonthlyCharges num__DeviceProtection_No_internet_service_TotalCharges num__DeviceProtection_No_internet_service_tenure num__DeviceProtection_Yes_MonthlyCharges num__DeviceProtection_Yes_TotalCharges num__DeviceProtection_Yes_tenure num__InternetService_DSL_MonthlyCharges num__InternetService_DSL_TotalCharges num__InternetService_DSL_tenure num__InternetService_Fiber_optic_MonthlyCharges num__InternetService_Fiber_optic_TotalCharges num__InternetService_Fiber_optic_tenure num__InternetService_No_MonthlyCharges num__InternetService_No_TotalCharges num__InternetService_No_tenure num__MonthlyCharges_MultipleLines_No num__MonthlyCharges_MultipleLines_No_phone_service num__MonthlyCharges_MultipleLines_Yes num__MonthlyCharges_OnlineBackup_No num__MonthlyCharges_OnlineBackup_No_internet_service num__MonthlyCharges_OnlineBackup_Yes num__MonthlyCharges_OnlineSecurity_No num__MonthlyCharges_OnlineSecurity_No_internet_service num__MonthlyCharges_OnlineSecurity_Yes num__MonthlyCharges_PaperlessBilling_No num__MonthlyCharges_PaperlessBilling_Yes num__MonthlyCharges_Partner_No num__MonthlyCharges_Partner_Yes num__MonthlyCharges_PaymentMethod_Bank_transfer_automatic_ num__MonthlyCharges_PaymentMethod_Credit_card_automatic_ num__MonthlyCharges_PaymentMethod_Electronic_check num__MonthlyCharges_PaymentMethod_Mailed_check num__MonthlyCharges_PhoneService_No num__MonthlyCharges_PhoneService_Yes num__MonthlyCharges_SeniorCitizen_No num__MonthlyCharges_SeniorCitizen_Yes num__MonthlyCharges_StreamingMovies_No num__MonthlyCharges_StreamingMovies_No_internet_service num__MonthlyCharges_StreamingMovies_Yes num__MonthlyCharges_StreamingTV_No num__MonthlyCharges_StreamingTV_No_internet_service num__MonthlyCharges_StreamingTV_Yes num__MonthlyCharges_TechSupport_No num__MonthlyCharges_TechSupport_No_internet_service num__MonthlyCharges_TechSupport_Yes num__MultipleLines_No_TotalCharges num__MultipleLines_No_tenure num__MultipleLines_No_phone_service_TotalCharges num__MultipleLines_No_phone_service_tenure num__MultipleLines_Yes_TotalCharges num__MultipleLines_Yes_tenure num__OnlineBackup_No_TotalCharges num__OnlineBackup_No_tenure num__OnlineBackup_No_internet_service_TotalCharges num__OnlineBackup_No_internet_service_tenure num__OnlineBackup_Yes_TotalCharges num__OnlineBackup_Yes_tenure num__OnlineSecurity_No_TotalCharges num__OnlineSecurity_No_tenure num__OnlineSecurity_No_internet_service_TotalCharges num__OnlineSecurity_No_internet_service_tenure num__OnlineSecurity_Yes_TotalCharges num__OnlineSecurity_Yes_tenure num__PaperlessBilling_No_TotalCharges num__PaperlessBilling_No_tenure num__PaperlessBilling_Yes_TotalCharges num__PaperlessBilling_Yes_tenure num__Partner_No_TotalCharges num__Partner_No_tenure num__Partner_Yes_TotalCharges num__Partner_Yes_tenure num__PaymentMethod_Bank_transfer_automatic_TotalCharges num__PaymentMethod_Bank_transfer_automatic_tenure num__PaymentMethod_Credit_card_automatic_TotalCharges num__PaymentMethod_Credit_card_automatic_tenure num__PaymentMethod_Electronic_check_TotalCharges num__PaymentMethod_Electronic_check_tenure num__PaymentMethod_Mailed_check_TotalCharges num__PaymentMethod_Mailed_check_tenure num__PhoneService_No_TotalCharges num__PhoneService_No_tenure num__PhoneService_Yes_TotalCharges num__PhoneService_Yes_tenure num__SeniorCitizen_No_TotalCharges num__SeniorCitizen_No_tenure num__SeniorCitizen_Yes_TotalCharges num__SeniorCitizen_Yes_tenure num__StreamingMovies_No_TotalCharges num__StreamingMovies_No_tenure num__StreamingMovies_No_internet_service_TotalCharges num__StreamingMovies_No_internet_service_tenure num__StreamingMovies_Yes_TotalCharges num__StreamingMovies_Yes_tenure num__StreamingTV_No_TotalCharges num__StreamingTV_No_tenure num__StreamingTV_No_internet_service_TotalCharges num__StreamingTV_No_internet_service_tenure num__StreamingTV_Yes_TotalCharges num__StreamingTV_Yes_tenure num__TechSupport_No_TotalCharges num__TechSupport_No_tenure num__TechSupport_No_internet_service_TotalCharges num__TechSupport_No_internet_service_tenure num__TechSupport_Yes_TotalCharges num__TechSupport_Yes_tenure num__gender_Female_MonthlyCharges num__gender_Female_TotalCharges num__gender_Female_tenure num__gender_Male_MonthlyCharges num__gender_Male_TotalCharges num__gender_Male_tenure num__MonthlyCharges_1 num__TotalCharges_1 num__tenure_1 num__NATURAL_LOGARITHM_MonthlyCharges_ num__NATURAL_LOGARITHM_TotalCharges_ num__NATURAL_LOGARITHM_tenure_ num__PERCENT_CHANGE_MonthlyCharges_ num__PERCENT_CHANGE_TotalCharges_ num__PERCENT_CHANGE_tenure_ remainder__gender_Female remainder__gender_Male remainder__SeniorCitizen_No remainder__SeniorCitizen_Yes remainder__Partner_No remainder__Partner_Yes remainder__Dependents_No remainder__Dependents_Yes remainder__PhoneService_No remainder__PhoneService_Yes remainder__MultipleLines_No remainder__MultipleLines_No_phone_service remainder__MultipleLines_Yes remainder__InternetService_DSL remainder__InternetService_Fiber_optic remainder__InternetService_No remainder__OnlineSecurity_No remainder__OnlineSecurity_No_internet_service remainder__OnlineSecurity_Yes remainder__OnlineBackup_No remainder__OnlineBackup_No_internet_service remainder__OnlineBackup_Yes remainder__DeviceProtection_No remainder__DeviceProtection_No_internet_service remainder__DeviceProtection_Yes remainder__TechSupport_No remainder__TechSupport_No_internet_service remainder__TechSupport_Yes remainder__StreamingTV_No remainder__StreamingTV_No_internet_service remainder__StreamingTV_Yes remainder__StreamingMovies_No remainder__StreamingMovies_No_internet_service remainder__StreamingMovies_Yes remainder__Contract_Month_to_month remainder__Contract_One_year remainder__Contract_Two_year remainder__PaperlessBilling_No remainder__PaperlessBilling_Yes remainder__PaymentMethod_Bank_transfer_automatic_ remainder__PaymentMethod_Credit_card_automatic_ remainder__PaymentMethod_Electronic_check remainder__PaymentMethod_Mailed_check
feature_infos=[-1.2876433357076105:1.6048973164615647] [-1.5590808125059858:1.7922019960146014] [-1.0075584110313642:2.8123085290869621] [-1.3732146786845074:2.5784136684430314] [-1.2060160305473682:2.9812805775614346] [-1.3806058593655879:2.085520697994244] [-1.5590808125059858:1.7922019960146014] [-1.0075584110313642:2.8123085290869621] [-1.2876433357076105:1.6048973164615647] [-1.6559001007418339:1.28083675737467] [-1.4494730056648946:1.3788448272519644] [-1.3817056216017931:1.468542093412087] [-2.1069659842313064:2.9120514491963907] [-1.7999143369867856:3.453290194399262] [-2.2206246960958627:2.5445546925480507] [-1.2271680645847816:4.0856026757025683] [-1.0062234280601949:5.244261772359744] [-1.2909408643849078:3.3694664154107454] [-2.2341056533153125:0.44760640505790078] [-3.2651149458719058:0.30626793132177549] [-0.44693294684006207:2.2374721019568433] [-0.94578599855614531:2.0421339744444649] [-0.55131773754116165:5.326954298091076] [-0.62565944941363161:3.9018159256242755] [-0.45220912380176848:3.4929283089938705] [-0.39603358032404679:4.7545425139783877] [-0.45876691721978413:3.2581002793627971] [-0.47447813133895117:3.324411347121635] [-0.4452253856704893:3.8163752346607369] [-0.53198941927685561:2.2497124897430973] [-1.1925123852191379:1.8230401606876878] [-0.72227767372610163:3.30795962274903] [-0.85309021038297506:2.0821984027466391] [-0.56000664080333362:3.0756557513555887] [-0.44472849595122205:4.6249667369757201] [-0.52785862556153662:2.7258360060020284] [-0.83236515237594266:2.1196961096541744] [-0.5194368877823935:4.605073361324] [-0.56149002555798422:3.2893793256907413] [-0.51378647107731878:2.5926444251643499] [-0.37891228946356265:4.9940595223046564] [-0.38826659388096679:3.8990813930579238] [-0.6941127114517337:2.1253460400249216] [-0.58503282081547725:3.1417451360629092] [-0.61694867536681908:2.232745741525108] [-0.69083945667266644:2.4904562274286692] [-0.49326158338330245:4.0456477840023153] [-0.53455640144671934:2.8250327897971115] [-0.87338041832362256:1.6952042412161779] [-0.6083220647327694:3.1012042274848013] [-0.63157797459584752:2.4767121011933835] [-0.51378647107731878:2.5926444251643499] [-0.37891228946356265:4.9940595223046564] [-0.38826659388096679:3.8990813930579238] [-0.77212164892543145:2.5502676885873572] [-0.31848462784650311:4.8400029898855816] [-0.79748739490364495:1.9211044460429221] [-0.82275277973335137:2.1088573760840346] [-0.51378647107731878:2.5926444251643499] [-0.69938517712198289:2.1740803828739428] [-0.92389534221972613:1.8355826094435725] [-0.51378647107731878:2.5926444251643499] [-0.60732995136117784:2.5588949716925633] [-0.66134279473815105:3.0588037530045731] [-1.0561863544743169:1.7951848622458408] [-0.85329483658360894:2.324438411931244] [-0.8257003353735729:2.126775697750682] [-0.47441685519710863:3.2826387125277332] [-0.46649816220304485:3.3326000799133659] [-0.66425725581590622:2.4139432100240814] [-0.44939676443749926:4.8543185513408833] [-0.31848462784650311:4.8400029898855816] [-1.7359836349186288:1.6466528147216684] [-1.4550070558081643:1.8534403853777899] [-0.41710791332726999:3.3706824178186463] [-0.76586616718195977:2.3458638724201935] [-0.51378647107731878:2.5926444251643499] [-0.7702854427792577:1.8918388429553319] [-0.76988805514082803:2.3613911675699044] [-0.51378647107731878:2.5926444251643499] [-0.76701356733785586:1.8921979101812898] [-0.9097252306979825:1.8717801628438113] [-0.51378647107731878:2.5926444251643499] [-0.6204416706814615:2.4330536013965216] [-0.48865681981963915:5.4516614546243956] [-0.59192594514286456:3.0681457609234637] [-0.24129326755631633:7.8467854132151649] [-0.25813255831089899:5.6875005505868863] [-0.63462047416298939:3.0501649434399831] [-0.68981401699383549:2.0947777003655546] [-0.52108360110011431:4.5819706249277239] [-0.5634469568684557:3.2696091656734354] [-0.37891228946356265:4.9940595223046564] [-0.38826659388096679:3.8990813930579238] [-0.5798617808862867:3.1869166039220462] [-0.61471973022058302:2.2403480307661368] [-0.58044780376417782:3.7600632029454921] [-0.63108139447280165:2.8373523478381442] [-0.37891228946356265:4.9940595223046564] [-0.38826659388096679:3.8990813930579238] [-0.50999022067282607:3.6040757305513487] [-0.54392075423984843:2.471911490356046] [-0.4762326631124893:4.9586629973026017] [-0.58602364982459332:2.6428140508719737] [-0.69435489121772742:3.1779412796940254] [-0.78729290287767617:2.1138933277021961] [-0.52293187950140729:4.9267435933213708] [-0.6168134979326112:3.0661572054435422] [-0.65576048851083912:3.1841018051580816] [-0.76798420830082204:1.9230249528535812] [-0.40538916607642006:4.5775389463569791] [-0.45768857285834197:2.9396387115011788] [-0.39549286558827301:4.6808720196461611] [-0.45059339100023316:2.9754052875082322] [-0.44084708492738045:5.0156875831152918] [-0.47799837662810996:3.6374119876219915] [-0.29520807663003279:9.7369819907579664] [-0.36876678910603733:4.8637694577014425] [-0.24129326755631633:7.8467854132151649] [-0.25813255831089899:5.6875005505868863] [-0.92767342987711732:2.8062526083924402] [-1.1651692169296075:1.6805201242515022] [-0.84141223651002284:3.1034750023868196] [-1.0682562946782461:1.7596375257228889] [-0.32179746997629316:5.6679928914231166] [-0.34310374184548087:4.2249599697365561] [-0.49426591042210105:4.8979402824613247] [-0.53135783534532288:3.2690612545296216] [-0.37891228946356265:4.9940595223046564] [-0.38826659388096679:3.8990813930579238] [-0.61419959941225544:3.0397486339948481] [-0.64115119405788601:2.2405634065705966] [-0.49757441549527859:4.9101695937348149] [-0.53373840188009425:3.2285959871928589] [-0.37891228946356265:4.9940595223046564] [-0.38826659388096679:3.8990813930579238] [-0.61090196312078071:3.0475067428180771] [-0.63811344996453523:2.2565937849654474] [-0.57305342292020733:3.9487189716425513] [-0.62086302024508577:2.8711376853576849] [-0.37891228946356265:4.9940595223046564] [-0.38826659388096679:3.8990813930579238] [-0.52104988730123203:3.4802121351092921] [-0.55369379733700141:2.4472055830344237] [-0.841143503416522:2.2075900762549461] [-0.58223095230995991:3.8037813026459566] [-0.68513171615649926:2.3417335496517846] [-0.8354786796715522:2.2264231023881544] [-0.5846248674561072:3.7849712108095845] [-0.68415522293669118:2.3361864384112332] [-1.5590808125059858:1.7922019960146014] [-1.0075584110313642:2.8123085290869621] [-1.2876433357076105:1.6048973164615647] [-1.8911839063049838:1.2667235859632604] [-2.6017817001912769:1.3677664440185366] [-2.2207859226309639:1.0214948884585298] [-0.99965520637874117:3.635086143257507] [-0.29579214220398092:12.840457105301496] [-0.41657322126113533:5.3859585618080521] [0:1] [0:1] [0:1] [0:1] [0:1] [0:1] [0:1] [0:1] [0:1] [0:1] [0:1] [0:1] [0:1] [0:1] [0:1] [0:1] [0:1] [0:1] [0:1] [0:1] [0:1] [0:1] [0:1] [0:1] [0:1] [0:1] [0:1] [0:1] [0:1] [0:1] [0:1] [0:1] [0:1] [0:1] [0:1] [0:1] [0:1] [0:1] [0:1] [0:1] [0:1] [0:1] [0:1]
tree_sizes=1297 1300 1284 1193 1408 1304 1092 1303 1412 1311 1303 1202 1304 1303 1415 1415 1417 1527 1204 1199 1311 1197 1200 1414 1081 1195 1091 1194 1102 1425 1095 1096 1419 1311 1207 1206 1413 1300 1200

Tree=0
num_leaves=11
num_cat=0
split_feature=21 48 22 152 30 121 139 127 114 122
split_gain=1555.47 131.327 106.213 92.7492 84.6478 79.7892 43.9838 30.9614 30.0342 15.0158
threshold=-0.37222937598274669 1.0000000180025095e-35 -0.32607451583219949 -1.0228332760019816 1.4270264094018634 -0.31541476088247056 1.3433873766564728 -0.45218243763959487 0.85429905085178248 -0.50363231886477722
decision_type=2 2 2 2 2 2 2 2 2 2
left_child=3 2 -2 -1 6 7 -5 -3 -7 -4
right_child=1 5 9 4 -6 8 -8 -9 -10 -11
leaf_value=-0.92843371722175339 -0.82469270977970666 -0.75340729961712349 -0.91871760233685185 -1.0884887104825294 -0.94655430564502585 -0.89612073430410433 -1.009048004229679 -0.81160755233085191 -0.82047037668629497 -0.985253286596107
leaf_weight=38.839020296931267 83.923511743545532 144.42650923132896 45.084490925073624 218.59146881103516 37.472823560237885 56.209235519170761 53.867183655500412 93.291717782616615 77.287699207663536 39.424533024430275
leaf_count=135 218 288 153 1056 136 180 224 232 198 156
internal_value=-1.01581 -0.829773 -0.887442 -1.04315 -1.05752 -0.803606 -1.07278 -0.776248 -0.852323 -0.949757
internal_weight=0 539.648 168.433 348.77 309.931 371.215 272.459 237.718 133.497 84.509
internal_count=2976 1425 527 1551 1416 898 1280 520 378 309
is_linear=0
shrinkage=1


Tree=1
num_leaves=11
num_cat=0
split_feature=21 46 60 24 152 96 57 72 57 5
split_gain=1188.41 137.464 82.8169 77.0273 46.8274 27.0889 27.0518 18.3743 10.1619 8.26067
threshold=-0.44392395380442157 -0.35445768033638297 -0.31983963301321827 1.8721288029823404 -0.69691320251813094 -0.10396997154596234 -0.053837765425338482 -0.26499312151054838 0.46785647213047793 -0.28218547146986644
decision_type=2 2 2 2 2 2 2 2 2 2
left_child=3 2 6 5 -4 8 -2 -3 -1 -5
right_child=1 7 4 9 -6 -7 -8 -9 -10 -11
leaf_value=-0.082677459770418613 0.077501932089392267 0.097312976305927154 0.20354508550570027 0.056309842081134258 0.14781622006883216 -0.0080642045256114139 0.15612442268746057 0.028820358486140275 -0.031354739027290551 0.0040620230904886891
leaf_weight=152.53271171450615 69.173447638750076 53.521997421979904 269.52219498157501 39.038127362728119 143.15598675608635 47.961639612913132 44.65419140458107 44.463396772742271 28.372438311576843 36.130888789892197
leaf_count=771 230 169 528 147 363 209 108 169 130 152
internal_value=0 0.151873 0.167811 -0.037964 0.184213 -0.060679 0.108345 0.0662327 -0.0746282 0.0311963
internal_weight=0 624.491 526.506 304.036 412.678 228.867 113.828 97.9854 180.905 75.169
internal_count=2976 1567 1229 1409 891 1110 338 338 901 299
is_linear=0
shrinkage=0.0787454


Tree=2
num_leaves=11
num_cat=0
split_feature=21 0 24 48 0 4 73 78 85 81
split_gain=931.039 88.9882 73.5104 66.0388 55.6871 23.9238 23.5956 22.7768 13.5539 11.6817
threshold=-0.40775371634483781 -1.0228332760019816 2.87338206375088 0.65726646880095951 -1.1043132943729443 -0.59641102752439557 1.1386093088146365 1.4274111941914003 -0.51567445126648259 0.47790918648374198
decision_type=2 2 2 2 2 2 2 2 2 2
left_child=2 8 4 5 -1 -3 -6 -5 9 -2
right_child=1 3 -4 7 6 -7 -8 -9 -10 -11
leaf_value=0.059269869738425726 0.15903720457409348 0.093477363750763542 0.091232050404519996 0.14706450755393585 -0.058666257996130074 0.012238469218112676 0.0073729380133192111 0.098658567453626042 0.14680054806329898 0.19944416461608636
leaf_weight=33.241697087883949 72.853300511837006 45.988664999604225 30.662563502788544 187.01448735594749 225.72475746273994 43.967468053102493 39.405498087406158 88.944064691662788 92.72897581756115 113.46349522471428
leaf_count=113 152 141 101 412 1126 167 167 234 200 182
internal_value=0 0.137906 -0.0248735 0.112363 -0.0368053 0.0537706 -0.0488511 0.131463 0.171401 0.183644
internal_weight=0 644.96 329.035 365.915 298.372 89.9561 265.13 275.959 279.046 186.317
internal_count=2995 1488 1507 954 1406 308 1293 646 534 334
is_linear=0
shrinkage=0.0787454


Tree=3
num_leaves=10
num_cat=0
split_feature=21 47 80 21 8 175 74 145 80
split_gain=745.029 73.7951 54.1851 61.2236 48.6243 22.3741 20.8762 10.7092 9.64051
threshold=-0.40775371634483781 -0.27792111600448216 1.3019471332361676 -0.44650754219439176 -0.77839322088909368 1.0000000180025095e-35 1.9877739564473857 -0.36271787083088286 1.0037387634975115
decision_type=2 2 2 2 2 2 2 2 2
left_child=2 4 3 5 8 -1 -6 -3 -2
right_child=1 7 -4 -5 6 -7 -8 -9 -10
leaf_value=-0.072249445179232763 0.14253945746170371 0.031189022187232452 0.036314351506566304 0.043250451175055653 0.08558132227870198 -0.0092696501944871251 0.13529610389649926 0.085116206826408664 0.17143179838812181
leaf_weight=162.29990890622139 253.28062339127064 48.762257859110832 73.202386870980263 44.380762308835983 142.29193122684956 44.586902007460594 82.884976208209991 42.94520191848278 99.843173250555992
leaf_count=866 486 169 278 159 365 204 176 132 160
internal_value=0 0.122068 -0.0233045 -0.0406734 0.132475 -0.0586765 0.103881 0.0564423 0.150709
internal_weight=0 670.008 324.47 251.268 578.301 206.887 225.177 91.7075 353.124
internal_count=2995 1488 1507 1229 1187 1070 541 301 646
is_linear=0
shrinkage=0.0787454


Tree=4
num_leaves=12
num_cat=0
split_feature=27 60 0 24 115 31 73 45 123 31 12
split_gain=390.74 176.076 76.0975 61.6737 40.5321 33.6589 27.8545 27.7281 19.9254 4.46637 1.9604
threshold=1.0000000180025095e-35 -0.63744223037154391 -0.77839322088909368 1.0000000180025095e-35 0.29364106666878403 0.048257141235165349 1.2027697566622559 0.32379588892725003 -1.0093418400865555 0.42467335154427227 0.30601221893122632
decision_type=2 2 2 2 2 2 2 2 2 2 2
left_child=1 3 7 8 -4 -5 9 -3 -1 10 -2
right_child=6 2 4 5 -6 -7 -8 -9 -10 -11 -12
leaf_value=0.097455756418321521 -0.10129641762690855 0.14682060175012107 0.042975171505582943 -0.065171169519520344 0.10502582693959241 0.041352541062543172 0.0078904998297261997 0.096115312586817298 0.039052904355743275 -0.053293640621410433 -0.075553986894277239
leaf_weight=51.328458249568939 35.538821324706078 244.26008719205856 121.27617159485817 51.59948642551899 141.36643640697002 28.581237033009529 30.756406605243683 92.087838560342789 123.09144163131714 33.445048198103905 37.917023897171021
leaf_count=130 206 404 393 281 340 113 128 217 392 174 216
internal_value=0 0.0848192 0.108136 0.0299624 0.0763737 -0.0271997 -0.0581478 0.132938 0.0562398 -0.0771477 -0.0880086
internal_weight=0 853.591 598.991 254.601 262.643 80.1807 137.657 336.348 174.42 106.901 73.4558
internal_count=2994 2270 1354 916 733 394 724 621 522 596 422
is_linear=0
shrinkage=0.0787454


Tree=5
num_leaves=11
num_cat=0
split_feature=21 46 64 81 26 77 133 123 157 102
split_gain=446.459 73.2963 70.9936 42.1872 24.4276 35.6226 24.3511 22.6834 20.7154 3.29562
threshold=-0.44650754219439176 -0.42075782195558975 1.2073600203503283 -0.61723060523360995 -0.22646271743337276 0.13317579247215247 -0.14182856968499494 -0.85223662784204801 -0.28292971335505129 1.0211045670521577
decision_type=2 2 2 2 2 2 2 2 2 2
left_child=2 3 4 7 9 -6 -5 -2 -3 -1
right_child=1 8 -4 6 5 -7 -8 -9 -10 -11
leaf_value=-0.079830527223546499 0.093725984162526629 0.070486432514250436 0.04802616740396512 0.12518269085531539 -0.05605636097703913 0.038721787621211819 0.082560363745457707 0.025496648573484909 0.0085366987995342744 -0.049889431967258514
leaf_weight=82.311312854290009 67.363211169838905 67.314782857894897 63.928439527750015 353.40835447609425 62.21398089826107 40.661307111382484 108.67852361500263 54.78925909101963 66.572263017296791 31.527374923229218
leaf_count=483 159 180 228 627 337 164 250 173 227 166
internal_value=0 0.0922357 -0.0248951 0.104279 -0.0464061 -0.0185954 0.115158 0.063123 0.0396834 -0.0715384
internal_weight=0 718.126 280.642 584.239 216.714 102.875 462.087 122.152 133.887 113.839
internal_count=2994 1616 1378 1209 1150 501 877 332 407 649
is_linear=0
shrinkage=0.0787454


Tree=6
num_leaves=9
num_cat=0
split_feature=22 85 25 97 123 46 97 44
split_gain=430.507 72.5654 71.2939 48.1629 34.6039 25.1112 13.1622 7.99696
threshold=-0.54442700123442889 0.29767481674825685 1.4716317395244869 -0.60699504904008672 -1.0093418400865555 -0.44000409257443135 -0.077095449520358947 0.19442265166491021
decision_type=2 2 2 2 2 2 2 2
left_child=2 3 6 4 -2 -5 7 -1
right_child=1 -3 -4 5 -6 -7 -8 -9
leaf_value=-0.080231512736388816 0.10596445758594758 0.011358786043091275 0.035055821620304205 0.11567058952267426 0.028775492106290039 0.070830089956543149 -0.017937282192998893 -0.041384840264256297
leaf_weight=92.096873015165329 57.224324911832809 69.269997388124466 77.540222957730293 424.25810441374779 97.159489572048187 94.734764814376831 45.959723919630051 51.088490843772888
leaf_count=570 125 218 287 752 296 241 213 274
internal_value=0 0.0881047 -0.0285337 0.0959995 0.0573866 0.107486 -0.0546023 -0.0663711
internal_weight=0 742.647 266.685 673.377 154.384 518.993 189.145 143.185
internal_count=2976 1632 1344 1414 421 993 1057 844
is_linear=0
shrinkage=0.0787454


Tree=7
num_leaves=11
num_cat=0
split_feature=21 85 48 96 46 148 145 46 27 85
split_gain=365.389 60.7227 50.5036 40.1822 22.2857 17.4658 15.0531 13.1322 17.6368 2.49502
threshold=-0.45555010155928771 0.29767481674825685 1.0644282866706749 -0.57417237261252529 -0.44000409257443135 -0.57434199946265496 1.188291220573884 -0.27295783411897717 1.2960413958272285 0.34850914599917809
decision_type=2 2 2 2 2 2 2 2 2 2
left_child=2 3 7 5 -5 -2 -4 9 -9 -1
right_child=1 -3 6 4 -6 -7 -8 8 -10 -11
leaf_value=-0.062540229694050473 0.075888733522855675 0.010697644803961589 0.046485705925998676 0.10631339612199062 0.064317137013920403 0.022564966089033828 -0.017311273373340909 -0.0050453059362042451 -0.076941814163736466 -0.090543717622839193
leaf_weight=40.285674855113029 88.54460734128952 69.289310663938522 53.734478741884232 425.19056707620621 96.05390465259552 66.841902822256088 40.009879499673843 55.920426607131958 34.033183842897415 38.664104580879211
leaf_count=250 220 217 191 752 241 197 164 275 212 257
internal_value=0 0.0809073 -0.0270923 0.0880971 0.0985744 0.0529507 0.0192573 -0.0528171 -0.0322468 -0.0762544
internal_weight=0 745.92 262.648 676.631 521.244 155.387 93.7444 168.903 89.9536 78.9498
internal_count=2976 1627 1349 1410 993 417 355 994 487 507
is_linear=0
shrinkage=0.0787454


Tree=8
num_leaves=12
num_cat=0
split_feature=193 80 138 123 64 144 5 57 107 126 25
split_gain=296.905 62.0984 61.9964 28.4197 29.9019 27.7328 20.0145 16.2601 14.3766 12.6388 11.5151
threshold=1.0000000180025095e-35 1.257664311414074 -0.56653160907076772 -0.65585511253641371 0.60450898106484774 0.54248284503050004 0.2548200515013751 0.34067727989050273 -0.54008494161227449 -0.40177155418692484 0.42901748438145637
decision_type=2 2 2 2 2 2 2 2 2 2 2
left_child=1 7 5 9 -5 8 -3 10 -2 -4 -1
right_child=2 6 3 4 -6 -7 -8 -9 -10 -11 -12
leaf_value=-0.083016753596239237 0.034306631546411684 -0.010349117075780541 0.10646997411323199 0.015711645457001794 0.082614990115942255 0.077618785373404942 0.063880432291940931 -0.0123888630997867 -0.020447288119963158 0.075952997858850763 -0.030221508514497016
leaf_weight=93.158438965678215 64.226345673203468 45.680837512016296 250.77031952142715 65.400528624653816 112.99294048547745 52.483288258314133 44.43130224943161 42.657079771161079 55.371071457862854 126.65869545936584 35.333017125725746
leaf_count=635 182 179 430 196 236 119 152 221 189 263 175
internal_value=0 -0.0266572 0.0712004 0.0839874 0.0580877 0.0298981 0.026251 -0.0545141 0.00895673 0.096229 -0.068499
internal_weight=0 261.261 727.903 555.822 178.393 172.081 90.1121 171.149 119.597 377.429 128.491
internal_count=2977 1362 1615 1125 432 490 331 1031 371 693 810
is_linear=0
shrinkage=0.0787454


Tree=9
num_leaves=11
num_cat=0
split_feature=22 30 139 123 8 90 145 127 16 156
split_gain=256.301 59.3817 51.4158 25.8252 23.6054 21.4257 19.5384 18.2739 11.6371 9.68844
threshold=-0.53729928193302035 1.4270264094018634 -0.59661301534506639 0.090394645624996786 -0.57469317496168693 -0.31431617395995209 -0.55693705572885976 -0.24104804375765354 0.29464075459647315 -0.23820856813535876
decision_type=2 2 2 2 2 2 2 2 2 2
left_child=1 5 4 7 6 8 -2 -4 -1 -7
right_child=2 -3 3 -5 -6 9 -8 -9 -10 -11
leaf_value=-0.075762426299134475 0.020247807002582816 0.05470169252760592 0.093876741985211287 0.036570517455150511 -0.015639672711513293 0.023640575635224079 0.084772177830179984 0.058612026245259213 -0.028440686399084057 -0.037151719688319991
leaf_weight=97.360605254769325 68.332905203104019 46.866913199424744 349.69715262949467 81.013197481632233 52.551301777362823 33.623724117875099 50.68396757543087 123.22562894225121 48.164901584386826 31.470370054244995
leaf_count=641 196 148 629 209 173 159 116 287 262 157
internal_value=0 -0.0254643 0.0659844 0.0776509 0.028317 -0.0433028 0.0477259 0.0846881 -0.0601003 -0.00575005
internal_weight=0 257.487 725.504 553.936 171.568 210.62 119.017 472.923 145.526 65.0941
internal_count=2977 1367 1610 1125 485 1219 312 916 903 316
is_linear=0
shrinkage=0.0787454


Tree=10
num_leaves=11
num_cat=0
split_feature=22 60 65 35 25 22 0 75 123 60
split_gain=184.394 51.9618 46.9825 31.2147 26.11 24.1954 17.4576 13.2417 11.2152 9.88351
threshold=-0.54442700123442889 0.69587790430773477 1.6860784233488972 -0.46007332073729562 0.1425127957775075 1.6174959413500936 -0.65617319333264967 0.47051039566980984 -0.77368402171979433 0.27871910816208784
decision_type=2 2 2 2 2 2 2 2 2 2
left_child=2 3 4 6 9 8 -2 -6 -3 -1
right_child=1 5 -4 -5 7 -7 -8 -9 -10 -11
leaf_value=-0.065577274922630824 0.059700073205002473 0.096647860481824083 0.065389646762346237 -0.015877627430602604 0.019136094653036416 0.03811437762170225 0.013606696398917378 -0.044578738683516361 0.065859006956881544 -0.010932713784215247
leaf_weight=101.99445080012083 189.62519456446171 230.63208670914173 36.236849278211594 59.614134415984154 66.705450788140297 77.657411515712738 69.672459825873375 29.027655944228172 107.58330248296261 25.694827988743782
leaf_count=709 442 393 111 196 286 183 212 155 226 130
internal_value=0 0.0594153 -0.0177827 0.0355024 -0.0312725 0.0777529 0.0473149 -0.000183174 0.0868542 -0.0545812
internal_weight=0 734.785 259.659 318.912 223.422 415.873 259.298 95.7331 338.215 127.689
internal_count=3043 1652 1391 850 1280 802 654 441 619 839
is_linear=0
shrinkage=0.0787454


Tree=11
num_leaves=10
num_cat=0
split_feature=22 47 64 103 2 25 91 126 137
split_gain=157.47 46.657 42.0767 35.0916 24.0896 21.2254 12.3213 12.1592 5.54539
threshold=-0.54442700123442889 -0.09127727204649165 1.2223862177402953 -0.51875619772674808 0.33381264432037488 0.1425127957775075 -0.43035473039130662 0.17870359011122214 1.9148575141751025
decision_type=2 2 2 2 2 2 2 2 2
left_child=2 3 5 4 -2 8 -5 -7 -1
right_child=1 -3 -4 6 -6 7 -8 -9 -10
leaf_value=-0.068500027211486333 0.078667534477234333 0.0002379004609320703 0.035355966810085931 -0.00080616577794883216 0.032129074154919349 0.018642943591902782 0.048617999936294586 -0.045088824002791544 -0.024649689629442646
leaf_weight=84.091149590909481 438.08218938112259 84.93038609623909 69.989177957177162 60.087331295013428 81.856338322162628 49.301024228334427 65.232399582862854 29.772688493132591 22.713077023625374
leaf_count=628 851 271 237 187 196 222 147 164 140
internal_value=0 0.0551036 -0.016684 0.0623252 0.0713408 -0.0362788 0.0249205 -0.00535324 -0.0591748
internal_weight=0 730.189 255.867 645.258 519.939 185.878 125.32 79.0737 106.804
internal_count=3043 1652 1391 1381 1047 1154 334 386 768
is_linear=0
shrinkage=0.0787454


Tree=12
num_leaves=11
num_cat=0
split_feature=22 24 81 148 103 4 0 11 0 24
split_gain=155.138 45.6699 28.2931 21.9105 21.0691 16.86 13.7235 10.9282 7.6316 6.14949
threshold=-0.53729928193302035 1.9502997386237377 -0.18316608642080995 -0.55502190137854257 -0.473911229661518 -0.15760845726513759 1.0000000180025095e-35 -0.53809967492877242 -1.0228332760019816 0.37357533462278258
decision_type=2 2 2 2 2 2 2 2 2 2
left_child=1 5 3 8 6 9 -4 -7 -2 -1
right_child=2 -3 4 -5 -6 7 -8 -9 -10 -11
leaf_value=-0.081527761083945799 0.066952164878742892 0.032279027062805672 0.07739321173708838 -0.0064044916326317387 0.029159635705979233 -0.049859346809635871 0.041132912828225704 0.0058566674736014257 0.027830146569749609 -0.031586258980319665
leaf_weight=56.382416196167469 66.384352445602417 76.918240308761597 367.1654646396637 69.798189416527748 89.628826841711998 37.906397692859173 78.572415843605995 51.468103282153606 57.874089375138283 20.976610019803047
leaf_count=438 145 275 704 219 225 233 186 300 162 120
internal_value=0 -0.017915 0.0546593 0.0288998 0.0639965 -0.0410707 0.0710014 -0.0177742 0.0487309 -0.0679857
internal_weight=0 243.652 729.423 194.057 535.367 166.734 445.738 89.3745 124.258 77.359
internal_count=3007 1366 1641 526 1115 1091 890 533 307 558
is_linear=0
shrinkage=0.0787454


Tree=13
num_leaves=11
num_cat=0
split_feature=21 73 138 132 24 3 149 47 57 108
split_gain=133.949 44.4983 23.7805 27.2508 20.3672 18.0108 14.333 11.5989 9.19194 8.01313
threshold=-0.45555010155928771 1.1602285901545952 -0.56653160907076772 -0.21575826681151591 0.20392777216698352 0.12540285650461999 -0.62123143832527605 2.428414621386382 0.34716601418846066 -0.14145960518503728
decision_type=2 2 2 2 2 2 2 2 2 2
left_child=1 4 6 8 7 -5 -2 -1 -4 -6
right_child=2 -3 3 5 9 -7 -8 -9 -10 -11
leaf_value=-0.084792636167600438 0.042846455519126969 0.034424620867171678 0.05399094420378972 0.013364220403941866 0.010858033587489704 0.06728664649269088 -0.0031142575304731615 -0.018310713255062373 0.07979811646446365 -0.038068225004359919
leaf_weight=61.176195278763771 115.47343099117279 72.197318941354752 131.63659292459488 107.77170117199421 44.312363639473915 59.679893627762794 66.191246807575226 22.169747330248356 244.61021591722965 39.048632644116879
leaf_count=507 289 252 280 280 244 130 208 160 457 200
internal_value=0 -0.0172171 0.0507664 0.059008 -0.0395821 0.0325822 0.0261002 -0.0671087 0.070769 -0.0120604
internal_weight=0 238.904 725.363 543.698 166.707 167.452 181.665 83.3459 376.247 83.361
internal_count=3007 1363 1644 1147 1111 410 497 667 737 444
is_linear=0
shrinkage=0.0787454


Tree=14
num_leaves=12
num_cat=0
split_feature=21 45 99 27 123 69 64 144 122 78 54
split_gain=132.183 40.2499 34.3862 29.2781 26.1691 18.128 13.273 11.7521 11.6863 10.6583 2.21188
threshold=-0.19202408578232086 0.99623714404309038 0.71334365276305367 1.0000000180025095e-35 -0.45947359723077941 1.1298456716814731 1.426742502243848 0.45893829078149256 -0.83182313159084642 0.083765259072988638 -0.19692189062609175
decision_type=2 2 2 2 2 2 2 2 2 2 2
left_child=2 4 3 8 9 -6 -5 -3 -1 -2 -4
right_child=1 7 10 6 5 -7 -8 -9 -10 -11 -12
leaf_value=0.049962797190371819 0.086353676754805514 -0.017774224153299018 -0.056934187804945829 -0.059564714866382373 0.0038622638313980692 0.059175997928761839 0.010693799328311082 0.034049925074382467 0.005194271578835381 0.060114391403281661 -0.09302700186452123
leaf_weight=48.623256765305996 160.71994233131409 55.152122735977173 19.373334668576717 58.766943335533142 72.703239530324936 74.271775096654892 23.277502685785294 53.408958539366722 141.01387386023998 238.34988014400005 23.062622457742691
leaf_count=140 289 170 163 416 198 156 91 138 578 485 202
internal_value=0 0.0515138 -0.0106271 -0.000330139 0.0602202 0.0318143 -0.0396311 0.00772178 0.016673 0.0706819 -0.0765496
internal_weight=0 654.606 314.118 271.682 546.045 146.975 82.0444 108.561 189.637 399.07 42.436
internal_count=3026 1436 1590 1225 1128 354 507 308 718 774 365
is_linear=0
shrinkage=0.0787454


Tree=15
num_leaves=12
num_cat=0
split_feature=21 46 41 28 123 115 64 120 80 60 103
split_gain=113.846 38.5283 31.1574 25.3595 19.8012 15.497 12.4514 10.3841 9.78949 9.71731 2.2249
threshold=-0.19202408578232086 -0.3439065102577652 0.71334365276305367 -0.44019950749804754 -0.45947359723077941 0.46511649851253828 1.4375613643646243 -0.91875862278236853 0.64947618892076175 0.15900735992702655 0.55752303583877427
decision_type=2 2 2 2 2 2 2 2 2 2 2
left_child=2 4 3 7 8 -6 -5 -1 -2 -3 -4
right_child=1 9 10 6 5 -7 -8 -9 -10 -11 -12
leaf_value=0.046464345776356782 0.056258966238215635 0.027497610627755433 -0.053749070477451574 -0.057425653061550931 0.001952712832385571 0.055753361452066358 0.011098094645439387 0.0044440903793055231 0.081768930790401109 -0.018235111636102936 -0.091071805865862304
leaf_weight=49.170961908996105 246.69222208857536 64.517236366868019 17.694583006203175 56.730841428041458 61.815400645136833 71.713917449116707 23.154278755187988 141.14683606475592 149.99949724972248 52.054680749773979 22.49614405632019
leaf_count=146 505 179 150 417 164 151 90 572 275 162 215
internal_value=0 0.0480645 -0.00995095 -0.000328905 0.0570761 0.0308472 -0.0375644 0.0153006 0.065905 0.00707586 -0.07464
internal_weight=0 646.793 310.394 270.203 530.221 133.529 79.8851 190.318 396.692 116.572 40.1907
internal_count=3026 1436 1590 1225 1095 315 507 718 780 341 365
is_linear=0
shrinkage=0.0787454


Tree=16
num_leaves=12
num_cat=0
split_feature=60 103 40 8 47 54 158 158 9 9 158
split_gain=113.6 45.6854 32.9906 29.0993 23.0575 18.6435 18.4568 12.9186 6.36908 5.13587 2.06717
threshold=-0.20623562703504797 -0.2496863893353676 -0.033890369514570751 0.89194715571564132 -0.09127727204649165 1.0000000180025095e-35 -0.35901767048084282 -0.36634475447391252 -0.40345084954481664 0.47589158996620945 -0.3173306548008758
decision_type=2 2 2 2 2 2 2 2 2 2 2
left_child=2 5 3 4 -1 6 -2 -7 -5 -4 -11
right_child=1 -3 9 8 -6 7 -8 -9 -10 10 -12
leaf_value=0.029843794360958582 0.089212395146468768 -0.010545829090715237 -0.090635664646157965 -0.022096768197614202 -0.02953708845626573 0.05064120983830106 0.049657338646825089 0.0096906884964503143 -0.071276140754924111 -0.061597493069302907 -0.023747355575164209
leaf_weight=162.23241020739079 136.92012571543455 75.420739479362965 24.669890984892845 35.307786531746387 54.059249766170979 153.18757198750973 157.050641708076 69.414944030344486 30.37840298563242 19.225761473178864 16.735948830842972
leaf_count=428 257 263 192 197 250 331 404 201 183 150 148
internal_value=0 0.0467042 -0.010269 0.00106189 0.0150023 0.0550628 0.0680806 0.0378715 -0.0448412 -0.062965 -0.0439828
internal_weight=0 591.994 342.609 281.978 216.292 516.573 293.971 222.603 65.6862 60.6316 35.9617
internal_count=3004 1456 1548 1058 678 1193 661 532 380 490 298
is_linear=0
shrinkage=0.0787454


Tree=17
num_leaves=13
num_cat=0
split_feature=60 84 128 123 121 21 12 138 131 63 54 157
split_gain=97.5325 33.3697 29.3576 32.5085 25.9813 21.8179 15.2027 13.0932 10.0987 9.51549 4.1389 2.88643
threshold=-0.20623562703504797 -0.34284981433439649 -0.033890369514570751 0.56171028235851939 -0.11779744552267134 0.86337177152053191 0.15031672476151736 -0.54204351911583604 1.3400275938741959 -0.036351901283060116 -0.18063566838338199 -0.27388614336548928
decision_type=2 2 2 2 2 2 2 2 2 2 2 2
left_child=2 4 3 9 7 -3 -6 -2 -5 -1 11 -4
right_child=1 5 10 8 6 -7 -8 -9 -10 -11 -12 -13
leaf_value=0.029662312667881583 0.038509108604474401 -0.02635627901820713 -0.063485845370403526 -0.078824019835276343 0.0015026605730836691 0.034642236060034845 0.053320484678757066 0.077797302784163067 -0.020087042376570212 -0.006305548756002758 -0.088119877986066422 -0.019004250293465856
leaf_weight=134.24079316854477 69.186625733971596 57.17934001237154 21.238169848918915 29.554547861218452 71.121529534459114 99.861172586679459 69.33498103171587 219.37836661189795 47.039684139192104 69.079255551099777 21.290155105292797 15.757361717522143
leaf_count=383 172 216 177 184 224 228 176 440 242 249 171 142
internal_value=0 0.0434896 -0.00961581 0.000971044 0.0548579 0.0124323 0.027082 0.0683775 -0.0427513 0.017442 -0.0604586 -0.04454
internal_weight=0 586.062 338.2 279.914 429.022 157.041 140.457 288.565 76.5942 203.32 58.2857 36.9955
internal_count=3004 1456 1548 1058 1012 444 400 612 426 632 490 319
is_linear=0
shrinkage=0.0787454


Tree=18
num_leaves=10
num_cat=0
split_feature=60 143 74 34 116 120 64 54 8
split_gain=94.0549 41.2173 38.4086 23.5723 23.035 19.8558 18.3987 11.0362 9.44148
threshold=-0.17814001265334992 0.38408725902906898 0.22851973198154144 -0.40945446624841375 -0.26600955657960529 -0.72549680231046354 0.86776795933707151 1.0000000180025095e-35 0.28084701793342121
decision_type=2 2 2 2 2 2 2 2 2
left_child=2 5 3 4 -1 7 -7 -2 -5
right_child=1 -3 -4 8 -6 6 -8 -9 -10
leaf_value=0.0052443424289320313 0.08643994568661563 -0.016559208811325946 0.055403845075059112 -0.03509013362411674 -0.057947530559586499 0.0083353656154338783 0.050336637951941078 0.050132072753861903 -0.087481200679102547
leaf_weight=150.10953926295042 88.972137913107872 71.915126107633114 42.581407971680164 46.23919902741909 46.959900721907616 109.92797084897757 157.08615039288998 124.62765334546566 39.592697843909264
leaf_count=617 184 280 133 237 243 321 353 269 308
internal_value=0 0.0390409 -0.0143202 -0.0248148 -0.00981373 0.0473604 0.033045 0.0652557 -0.0592572
internal_weight=0 552.529 325.483 282.901 197.069 480.614 267.014 213.6 85.8319
internal_count=2945 1407 1538 1405 860 1127 674 453 545
is_linear=0
shrinkage=0.0787454


Tree=19
num_leaves=10
num_cat=0
split_feature=81 122 65 45 49 133 137 60 136
split_gain=90.0702 33.1464 39.7173 30.9616 24.3274 15.0522 12.9302 10.551 5.39399
threshold=-0.15697253787176166 -0.8299121355927187 0.61700964918580581 0.99623714404309038 0.8122453951094567 -0.45535643544107435 1.5530191098088546 0.30192852873827319 1.3498263623104585
decision_type=2 2 2 2 2 2 2 2 2
left_child=1 -1 6 4 5 -2 -3 -5 -6
right_child=3 2 -4 7 8 -7 -8 -9 -10
leaf_value=0.034269405152043297 0.070421984836729193 -0.039352880966972682 0.01888845510643258 -0.032682688913593168 -0.0074759660867812902 0.038241037417315639 -0.097984250794743405 0.022982807874325977 0.029241778345256767
leaf_weight=67.124094508588314 188.24044254422188 150.34422240406275 78.176777854561806 44.521413289010525 49.3186279758811 172.91716788709164 27.606224700808525 40.159584812819958 49.920639395713806
leaf_count=206 390 895 266 189 151 410 176 119 143
internal_value=0 -0.0149868 -0.0278956 0.0374768 0.0455256 0.0550142 -0.0484486 -0.00628358 0.0109943
internal_weight=0 323.251 256.127 545.078 460.397 361.158 177.95 84.681 99.2393
internal_count=2945 1543 1337 1402 1094 800 1071 308 294
is_linear=0
shrinkage=0.0787454


Tree=20
num_leaves=11
num_cat=0
split_feature=29 123 49 73 175 30 59 31 56 93
split_gain=58.6792 34.8805 32.1838 14.6141 13.6148 12.9556 12.8072 11.829 4.93618 0.029796
threshold=-0.51267204490866136 -0.77368402171979433 -0.29128316292849726 0.42587042076825227 1.0000000180025095e-35 1.2935386280695631 0.7137250993262666 -0.42563947236035676 -0.23646264526479813 0.058332154758500933
decision_type=2 2 2 2 2 2 2 2 2 2
left_child=1 3 7 6 8 -4 -1 -3 9 -2
right_child=4 2 5 -5 -6 -7 -8 -9 -10 -11
leaf_value=0.039176004589128538 -0.090870549081907892 -0.040485832385635745 0.013707510874489265 0.06698788162686127 0.0030674343035440059 0.054948838796376125 -0.0025850934480797969 0.002542930773053152 -0.043238294896512389 -0.085810263096580686
leaf_weight=255.86131371557713 13.77360709756613 84.073791071772575 157.51504081487656 95.287268176674843 26.327940784394741 67.461875766515732 55.395349487662315 74.920510359108448 31.641831904649734 15.227005884051321
leaf_count=620 131 405 432 202 135 157 155 294 252 203
internal_value=0 0.0239291 0.00690888 0.0400043 -0.0442178 0.0260742 0.0317436 -0.02021 -0.0647467 -0.0882138
internal_weight=0 790.515 383.971 406.544 86.9704 224.977 311.257 158.994 60.6424 29.0006
internal_count=2986 2265 1288 977 721 589 775 699 586 334
is_linear=0
shrinkage=0.0787454


Tree=21
num_leaves=10
num_cat=0
split_feature=69 8 45 48 8 109 14 74 106
split_gain=68.4871 44.0527 23.606 17.841 15.1955 12.7784 12.6424 15.3821 6.98756
threshold=-0.062113488467780427 -0.53395316577620566 0.78972599716741354 0.66159797750170102 -1.1043132943729443 0.035581027321673397 1.1852372198965211 0.56025554470931016 -0.33563644533426479
decision_type=2 2 2 2 2 2 2 2 2
left_child=1 3 5 4 -1 8 7 -3 -2
right_child=2 6 -4 -5 -6 -7 -8 -9 -10
leaf_value=0.027101691216632369 0.072173381889803864 -0.029045129715591311 -0.0012178778646627407 0.058375514781323176 -0.022691538621662802 0.02096690625955824 -0.075468531034349445 0.023449006532548791 0.045443407182655556
leaf_weight=101.17688605934381 119.63950230181217 191.6583789139986 67.95700066536665 60.953396737575531 60.865592986345291 72.594464480876923 28.097132388502359 42.242165014147758 122.97800961881876
leaf_count=260 248 1041 227 131 274 197 193 127 288
internal_value=0 -0.00366508 0.0408766 0.0220592 0.0083986 0.0499518 -0.02556 -0.0195647 0.0586245
internal_weight=0 484.994 383.169 222.996 162.042 315.212 261.998 233.901 242.618
internal_count=2986 2026 960 665 534 733 1361 1168 536
is_linear=0
shrinkage=0.0787454


Tree=22
num_leaves=10
num_cat=0
split_feature=69 60 157 54 146 94 94 84 122
split_gain=54.1305 36.6874 25.0639 25.1415 16.3597 15.8035 10.7741 7.32196 7.09542
threshold=-0.062113488467780427 0.31414401325205493 -0.29493326127463493 1.0052974240175734 0.26076367940858947 0.098834776626078522 -0.56075657108802057 -0.40871901181682574 -0.42057224280329947
decision_type=2 2 2 2 2 2 2 2 2
left_child=1 2 -1 -4 6 8 7 -2 -3
right_child=4 5 3 -5 -6 -7 -8 -9 -10
leaf_value=0.042351759449009901 0.065659934176459461 0.053808565504140614 -0.038966929054010856 0.02787756254965814 0.0038984062749036646 -0.0082378230530891251 0.023995025835985194 0.0345996306284563 0.018497569981915912
leaf_weight=36.785942271351814 159.79512187838554 87.001010239124298 201.3463918119669 42.2041956782341 64.487802572548389 60.937438882887363 87.627754174172878 66.708054907619953 59.363698437809944
leaf_count=92 364 199 1154 174 200 227 236 164 182
internal_value=0 0.000340715 -0.0182329 -0.0273836 0.0400251 0.025458 0.0474415 0.0565123 0.0394869
internal_weight=0 487.639 280.337 243.551 378.619 207.302 314.131 226.503 146.365
internal_count=2992 2028 1420 1328 964 608 764 528 381
is_linear=0
shrinkage=0.0787454


Tree=23
num_leaves=12
num_cat=0
split_feature=57 29 35 143 132 69 47 66 66 64 9
split_gain=49.9714 26.123 19.8778 19.6549 16.0098 15.2683 13.3785 10.8686 10.3073 7.19894 2.55829
threshold=0.34067727989050273 -0.39676779869949669 -0.46007332073729562 0.42576641708978319 -0.19187583867689098 0.60232101343359989 -0.23126015501498456 0.54660355439012509 1.4664516945582637 0.67903892011908462 0.26373047857718296
decision_type=2 2 2 2 2 2 2 2 2 2 2
left_child=1 2 6 4 9 -6 -1 -4 10 -2 -3
right_child=3 8 7 -5 5 -7 -8 -9 -10 -11 -12
leaf_value=0.022457507595100071 0.038650758999662194 -0.091865886898468654 -0.063412576319147693 -0.0082994364488248214 -0.010528262431025186 0.047589665254189804 -0.022687777379398005 -0.0034712500272467434 -0.0023345482501080528 0.064509745957445713 -0.052841153139250432
leaf_weight=236.0102289095521 128.64859952032566 21.106812715530396 34.404974013566971 56.231986343860626 59.893105566501617 52.687232777476311 49.18665749579668 41.242338880896568 18.773478366434574 138.76173543930054 20.566721685230732
leaf_count=692 319 224 191 249 193 119 185 147 97 318 258
internal_value=0 -0.00287262 0.00515289 0.0351517 0.0415817 0.0166707 0.0146715 -0.030733 -0.0507816 0.0520692 -0.0726065
internal_weight=0 421.291 360.844 436.223 379.991 112.58 285.197 75.6473 60.447 267.41 41.6735
internal_count=2992 1794 1215 1198 949 312 877 338 579 637 482
is_linear=0
shrinkage=0.0787454


Tree=24
num_leaves=9
num_cat=0
split_feature=155 57 147 117 45 12 89 69
split_gain=48.8372 23.472 21.0456 18.4901 14.0067 12.174 8.68135 11.3016
threshold=0.8103492184498865 1.2231451444127792 1.8312346805802797 0.53965964263137234 1.1959214761460175 -0.10329530448194647 1.8047160631406183 0.31098205703348286
decision_type=2 2 2 2 2 2 2 2
left_child=1 3 6 4 -1 -3 7 -2
right_child=2 5 -4 -5 -6 -7 -8 -9
leaf_value=0.025727310702574856 -0.08448501830272645 0.030120171163425281 0.036522234135624936 -0.032138002549462162 -0.014762370531187808 0.070256605230630889 -0.014736403827192107 -0.017391446646018598
leaf_weight=425.92769723385572 41.721814237535 101.99220439046621 26.641874797642231 44.87068459764123 60.503903239965439 86.6901960298419 45.217722803354263 24.834538742899895
leaf_count=1263 341 265 91 276 244 195 275 93
internal_value=0 0.0247024 -0.0263706 0.0162294 0.0206911 0.0485609 -0.0413614 -0.0594501
internal_weight=0 719.985 138.416 531.302 486.432 188.682 111.774 66.5564
internal_count=3043 2243 800 1783 1507 460 709 434
is_linear=0
shrinkage=0.0787454


Tree=25
num_leaves=10
num_cat=0
split_feature=8 77 123 136 45 14 45 2 12
split_gain=41.9275 23.1996 22.9362 17.837 16.8609 10.2119 7.18418 7.15708 6.81764
threshold=0.89194715571564132 0.99903957259198217 -1.0093418400865555 1.563030645870424 1.1959214761460175 0.33930201961906031 0.64465618324648355 -0.88809926078064605 -0.070594986738482926
decision_type=2 2 2 2 2 2 2 2 2
left_child=1 2 7 6 -4 -5 -2 -1 -3
right_child=3 8 4 5 -6 -7 -8 -9 -10
leaf_value=0.048304360151123847 -0.087958535483784878 0.030586049938474066 0.0098930712687726741 -0.034897256641350696 -0.037158303531876019 0.021538106027279263 -0.03061680903445654 0.014164413698231355 0.059311211963695147
leaf_weight=117.0037761554122 27.557235773652792 99.993024170398712 279.26332746446133 33.677165195345879 56.838671341538429 48.534382112324238 26.651359885931015 56.446207582950592 105.06961463391781
leaf_count=275 248 270 1036 155 254 197 200 156 252
internal_value=0 0.0229386 0.0139379 -0.0247015 0.00193614 -0.0015801 -0.0597668 0.0371941 0.0453042
internal_weight=0 714.615 509.552 136.42 336.102 82.2115 54.2086 173.45 205.063
internal_count=3043 2243 1721 800 1290 352 448 431 522
is_linear=0
shrinkage=0.0787454


Tree=26
num_leaves=9
num_cat=0
split_feature=146 40 45 132 59 25 158 12
split_gain=46.8831 37.5018 28.1557 15.8506 10.8898 10.1261 7.95712 10.4007
threshold=1.6480769262373864 -0.31847489010101365 1.2300555500097656 0.7117750987800826 0.61984079034663575 0.1425127957775075 -0.30598406586132354 1.019356560142868
decision_type=2 2 2 2 2 2 2 2
left_child=1 2 3 -1 -2 -4 7 -3
right_child=4 6 5 -5 -6 -7 -8 -9
leaf_value=0.036009217520869184 -0.01049339742227114 -0.090816458934841596 -0.036936739993132607 -1.1289144773265138e-05 -0.079089214168775082 0.021908907182872424 0.0032826120812059849 -0.01386205337468503
leaf_weight=562.98296550661325 23.898833476006985 23.974479041993618 55.458039321005344 87.530252989381552 35.920166991651058 26.941442750394344 20.7780726775527 19.955026000738144
leaf_count=1449 167 177 287 288 209 138 189 144
internal_value=0 0.0205959 0.0256694 0.0311625 -0.0516839 -0.0176965 -0.0368688 -0.0558599
internal_weight=0 797.62 732.913 650.513 59.819 82.3995 64.7076 43.9295
internal_count=3048 2672 2162 1737 376 425 510 321
is_linear=0
shrinkage=0.0787454


Tree=27
num_leaves=10
num_cat=0
split_feature=8 40 57 26 16 10 69 3 10
split_gain=37.9494 38.8308 21.1284 14.2561 21.628 13.6913 11.5593 10.0838 8.67367
threshold=0.68824710978823467 -0.31847489010101365 1.6059804679922962 2.1998255914469236 -0.42278693175594168 0.44662687221713299 -0.16138934666202956 -0.96004442365572917 0.068392696727706773
decision_type=2 2 2 2 2 2 2 2 2
left_child=1 5 3 4 -2 7 -7 -1 -3
right_child=2 8 -4 -5 -6 6 -8 -9 -10
leaf_value=0.061378622913230194 0.013585870864496178 -0.072470901702316251 0.042390099299389625 0.0033613191969231642 -0.072534593269819564 -0.0034737341770790524 0.030546607840252808 0.030780180608726764 -0.010281602984691685
leaf_weight=86.74453754350543 24.650848720222712 26.838792398571968 28.907947286963463 47.837340168654919 67.860128223896027 120.60827296599746 127.29286773502827 290.24531532824039 28.86107836663723
leaf_count=208 201 195 87 223 441 377 332 785 199
internal_value=0 0.0227533 -0.0189127 -0.0315394 -0.0495866 0.0283689 0.0139951 0.0378208 -0.0402473
internal_weight=0 680.591 169.256 140.348 92.511 624.891 247.901 376.99 55.6999
internal_count=3048 2096 952 865 642 1702 709 993 394
is_linear=0
shrinkage=0.0787454


Tree=28
num_leaves=9
num_cat=0
split_feature=109 103 92 5 84 104 132 12
split_gain=39.6662 33.7368 16.0799 13.9083 13.961 13.8883 11.6933 7.71734
threshold=1.0000000180025095e-35 -0.025461549009217124 -0.3266402973238608 -1.0144657300670139 0.27544805538209133 1.7434358626372084 -0.22521682729528761 -0.35849223915726336
decision_type=2 2 2 2 2 2 2 2
left_child=1 2 6 -2 5 -5 -1 -3
right_child=3 7 -4 4 -6 -7 -8 -9
leaf_value=0.041763170553141028 -0.065986977390548165 -0.059651760620947542 -0.010550711344045898 0.017993672057682684 -0.046231834288903852 -0.039715012032674891 0.013506231853893533 -0.0071536801970259302
leaf_weight=341.39128106087446 30.787497837096453 28.58647121861577 55.627208612859249 104.27180137485266 46.366880889981985 34.387261159718037 123.72033794224262 44.22553414478898
leaf_count=875 189 151 250 489 266 155 360 238
internal_value=0 0.0224413 0.0294614 -0.0169807 -0.00882626 0.00368199 0.0342468 -0.0277648
internal_weight=0 593.551 520.739 215.813 185.026 138.659 465.112 72.812
internal_count=2973 1874 1485 1099 910 644 1235 389
is_linear=0
shrinkage=0.0787454


Tree=29
num_leaves=12
num_cat=0
split_feature=109 41 102 9 114 9 132 122 73 121 83
split_gain=34.0334 29.6215 26.9308 13.667 15.8282 15.5818 12.0474 9.70864 7.23199 7.08332 4.67956
threshold=1.0000000180025095e-35 -0.29894684415307321 -0.3395625985962783 -0.64161674556190584 0.85429905085178248 0.91989960402520821 -0.15918173866829019 -0.44325394530488627 -0.90057709886405923 0.51457796362868646 0.20407929127720134
decision_type=2 2 2 2 2 2 2 2 2 2 2
left_child=1 2 6 4 10 9 -1 -4 -3 -5 -2
right_child=3 8 7 5 -6 -7 -8 -9 -10 -11 -12
leaf_value=0.041314249798903711 0.0047899666538770208 -0.0018602529847094886 0.011437822753405658 -0.02822065176017962 0.050670306521750204 -0.00046392973722411457 0.010393664918965047 -0.039098757137276854 -0.063864534120593869 -0.078198548714557725 -0.04088893421967138
leaf_weight=343.77066389471292 27.992515899240971 19.847376547753811 50.965044841170311 31.005797043442726 33.406312666833401 53.723479375243187 101.11848612874746 43.855902295559645 28.291684694588184 40.624101102352142 27.636496502906084
leaf_count=881 117 133 152 151 98 272 294 194 220 285 176
internal_value=0 0.0208864 0.0261656 -0.0157654 0.00782571 -0.0325215 0.0342863 -0.011936 -0.0383007 -0.0565651 -0.0179033
internal_weight=0 587.849 539.71 214.389 89.0353 125.353 444.889 94.8209 48.1391 71.6299 55.629
internal_count=2973 1874 1521 1099 391 708 1175 346 353 436 293
is_linear=0
shrinkage=0.0787454


Tree=30
num_leaves=9
num_cat=0
split_feature=193 45 25 123 3 3 81 88
split_gain=37.9846 22.0306 19.6068 15.1043 15.8802 11.6372 10.4913 5.24013
threshold=1.0000000180025095e-35 1.1925080687596428 2.8709163617829421 -0.22381577886401818 0.31247994534331586 -0.98705555412976576 0.9381672538455903 0.28241088824313898
decision_type=2 2 2 2 2 2 2 2
left_child=2 3 5 4 -2 -1 -7 -5
right_child=1 -3 -4 7 -6 6 -8 -9
leaf_value=0.0096092094931063982 0.02038341228072995 -0.028870051907849855 0.029574115696623861 -0.015512667125196033 0.051799717649526747 -0.032151292870990125 -0.091845833371428445 0.015905983778622474
leaf_weight=33.45783631876111 270.14017425477505 51.816011071205139 40.658298492431641 60.501440614461899 158.19352396577597 104.02337034791708 22.142166584730148 72.196155771613121
leaf_count=248 718 169 132 190 382 880 120 180
internal_value=0 0.0202573 -0.019244 0.0247946 0.0319862 -0.0316786 -0.0426278 0.00158113
internal_weight=0 612.847 200.282 561.031 428.334 159.623 126.166 132.698
internal_count=3019 1639 1380 1470 1100 1248 1000 370
is_linear=0
shrinkage=0.0787454


Tree=31
num_leaves=9
num_cat=0
split_feature=22 147 45 24 132 122 144 105
split_gain=33.6325 19.3526 19.0356 17.8622 11.6756 11.4436 13.1149 4.26633
threshold=-0.53729928193302035 1.8176520997980126 1.1925080687596428 0.23885521149611863 -0.25640734837301155 0.65554600366616722 0.57011681297440242 1.8116864286834597
decision_type=2 2 2 2 2 2 2 2
left_child=1 3 5 7 -5 6 -2 -1
right_child=2 -3 -4 4 -6 -7 -8 -9
leaf_value=-0.047686966526428544 0.01831812778014455 0.04251630786712457 -0.026657583430601386 0.012149218925079391 -0.044401370901468062 -0.0095486532540798273 0.045690567320983359 -0.093172318832184131
leaf_weight=53.895999662578106 334.36674267053604 27.99005900323391 51.702342182397842 67.209157377481461 34.138062283396721 58.771198302507401 160.70699582248926 16.764156114310026
leaf_count=643 911 94 169 276 205 160 392 169
internal_value=0 -0.0182067 0.0190379 -0.028088 -0.00689944 0.0233036 0.0272036 -0.0584785
internal_weight=0 199.997 605.547 172.007 101.347 553.845 495.074 70.6602
internal_count=3019 1387 1632 1293 481 1463 1303 812
is_linear=0
shrinkage=0.0787454


Tree=32
num_leaves=12
num_cat=0
split_feature=64 126 158 60 84 14 144 123 17 157 70
split_gain=24.4596 17.8307 18.3399 16.9454 16.3534 13.423 23.1092 13.0472 10.754 9.01345 8.56233
threshold=-0.49420657208954699 -0.28771161241918469 -0.36634475447391252 0.5389089283056393 -0.45763562605721514 0.46074817861475398 0.76034133649521918 -0.93078923396430191 -0.52409700672195514 0.24192989581133026 0.40362490207576102
decision_type=2 2 2 2 2 2 2 2 2 2 2
left_child=5 2 4 8 -2 6 7 -1 -3 -4 -7
right_child=1 3 9 -5 -6 10 -8 -9 -10 -11 -12
leaf_value=-0.0062898306862520471 0.075009207915143344 -0.0012885600890083762 0.0030031762083199197 0.019586824405796909 0.023301037073007149 -0.0056215421037118032 0.02775088557002113 -0.055914603772707218 -0.062059605422363447 0.042564757619064267 0.04407288129451982
leaf_weight=51.428168769925833 75.947090588510036 36.464123543351889 146.6929508112371 91.928205080330372 75.758630767464638 53.149697490036488 43.220125652849674 90.955152630805969 35.767496485263109 47.20059322565794 36.103482894599438
leaf_count=158 188 126 540 256 209 266 156 609 166 148 136
internal_value=0 0.0185293 0.0286795 -0.00283945 0.0491873 -0.0106143 -0.0226817 -0.0379904 -0.0313811 0.0126339 0.0144802
internal_weight=0 509.759 345.599 164.16 151.706 274.857 185.603 142.383 72.2316 193.894 89.2532
internal_count=2958 1633 1085 548 397 1325 923 767 292 688 402
is_linear=0
shrinkage=0.0787454


Tree=33
num_leaves=11
num_cat=0
split_feature=63 9 101 156 126 85 14 81 96 73
split_gain=18.4405 21.5234 13.9584 13.0794 10.7156 15.5793 14.0864 8.83473 8.5856 6.76793
threshold=-0.053603845644430222 -0.34931014100634311 1.236258001250784 -0.18080003418537027 -0.28771161241918469 -0.51567445126648259 -0.73428888714599438 0.35816725025952123 -0.3945532089029683 1.0674748992444494
decision_type=2 2 2 2 2 2 2 2 2 2
left_child=2 8 4 7 5 -1 -6 -3 -2 -4
right_child=1 3 9 -5 6 -7 -8 -9 -10 -11
leaf_value=0.039366607354835353 0.036902686825205519 -0.028967927548019756 -0.049170716751965604 -0.068195893484480088 0.034691547593825187 0.0022523237223991016 -0.015777813039268694 0.020815547051947339 -0.012035335996232771 0.0062707380240678246
leaf_weight=230.77108795195818 60.552147805690765 79.019913621246815 27.647410769015551 38.878416169434786 53.944824509322643 100.75029426068068 94.127858951687813 30.688497841358185 35.123717293143272 26.973937757313251
leaf_count=665 268 494 190 182 147 384 305 94 121 108
internal_value=0 -0.0101931 0.0159254 -0.0289501 0.0202211 0.0280875 0.00260884 -0.0150421 0.018937 -0.0217918
internal_weight=0 244.263 534.215 148.587 479.594 331.521 148.073 109.708 95.6759 54.6213
internal_count=2958 1159 1799 770 1501 1049 452 588 389 298
is_linear=0
shrinkage=0.0787454


Tree=34
num_leaves=10
num_cat=0
split_feature=60 70 102 83 111 169 2 57 158
split_gain=23.9932 22.5862 20.4585 12.7338 17.8252 10.9596 13.6415 10.1517 7.80104
threshold=-0.18424775491024079 0.4371644171418132 -0.25189692483137938 1.7424127019572986 1.0286421140489488 1.0000000180025095e-35 -0.49755548552002798 0.34067727989050273 -0.40144555181897384
decision_type=2 2 2 2 2 2 2 2 2
left_child=1 3 5 4 -1 6 -2 -7 -3
right_child=2 8 -4 -5 -6 7 -8 -9 -10
leaf_value=0.006120791911310975 0.061864027625839479 -0.012490546833399892 -0.017158913668278011 0.048431339928566276 -0.061144513928994323 -0.016868527021437239 0.024038607051214713 0.024814791375590971 -0.06883628114900732
leaf_weight=173.19860799983144 93.796760693192482 24.124914906919003 74.327174477279186 34.458582352846861 28.440177857875824 51.790515556931496 159.92425291985273 120.58031854778528 41.353774983435869
leaf_count=846 240 80 276 130 261 171 461 336 285
internal_value=0 -0.00715558 0.0209628 0.0041933 -0.00336667 0.0276127 0.0380221 0.0122906 -0.0480763
internal_weight=0 301.576 500.419 236.097 201.639 426.092 253.721 172.371 65.4787
internal_count=3086 1602 1484 1237 1107 1208 701 507 365
is_linear=0
shrinkage=0.0787454


Tree=35
num_leaves=10
num_cat=0
split_feature=52 9 123 184 9 50 63 110 15
split_gain=20.9976 23.973 12.1528 16.5589 16.0169 14.8152 13.7375 11.0563 6.73141
threshold=-0.32449855116704845 0.56187075183551249 0.99374961603091505 1.0000000180025095e-35 0.66711845011208082 2.1529318849653394 -0.07085579000580032 0.28777660797841903 0.72534170286229849
decision_type=2 2 2 2 2 2 2 2 2
left_child=2 -2 4 5 7 -4 -6 -1 -3
right_child=1 8 3 -5 6 -7 -8 -9 -10
leaf_value=0.030857482547639467 -0.083236795431948812 -0.021283035924979585 -0.076083824862199889 0.02400162252856845 0.011710475386416376 0.0072978506647526503 -0.033501996555421909 -0.0092684203009003891 0.052139054533362282
leaf_weight=372.72163239866495 31.054793879389763 15.815328709781172 31.771508101373911 42.953296281397343 159.31997612863779 22.62137458845973 56.431826293468475 48.072361435741186 15.169546123594044
leaf_count=1079 290 180 273 187 471 105 196 174 131
internal_value=0 -0.0343421 0.0133665 -0.0125456 0.0173292 -0.0414064 -0.000115259 0.0262734 0.0146629
internal_weight=0 62.0397 733.892 97.3462 636.546 54.3929 215.752 420.794 30.9849
internal_count=3086 601 2485 565 1920 378 667 1253 311
is_linear=0
shrinkage=0.0787454


Tree=36
num_leaves=12
num_cat=0
split_feature=121 84 36 17 60 30 88 73 144 11 89
split_gain=23.2751 18.4666 15.2488 13.8743 12.499 10.2239 10.4783 9.82491 8.36367 5.99338 9.2797
threshold=0.98885952049220471 -0.47358991104945108 0.33718181503059602 0.036725168644489249 1.5760035635257108 -0.69479365768013179 -0.10748336235477415 -0.90057709886405923 -0.34951593418197863 -0.70519091043241688 1.8820658330672679
decision_type=2 2 2 2 2 2 2 2 2 2 2
left_child=1 5 7 -4 9 8 -7 -3 -1 -2 -11
right_child=4 2 3 -5 -6 6 -8 -9 -10 10 -12
leaf_value=0.024362691253270941 -0.070434978619518557 0.012457603040107771 0.026821925080019592 -0.016719963471557703 0.021475271679910195 0.044582033477412936 0.013798021855125938 -0.03769708178123695 -0.026877224548478733 -0.051391400256510275 0.012829073251243637
leaf_weight=40.163920745253563 28.641233596950769 33.440289840102196 129.36650063097477 69.895086411386728 25.801874399185181 158.24081773683429 120.98349026218057 87.827518206089735 38.868648160248995 36.0046541467309 22.77896972745657
leaf_count=146 230 193 369 222 80 472 344 434 155 277 140
internal_value=0 0.0118812 -0.00185019 0.0115487 -0.026684 0.0241666 0.0312438 -0.0238666 -0.00083738 -0.0408973 -0.0265056
internal_weight=0 678.786 320.529 199.262 113.227 358.257 279.224 121.268 79.0326 87.4249 58.7836
internal_count=3062 2335 1218 591 727 1117 816 627 301 647 417
is_linear=0
shrinkage=0.0787454


Tree=37
num_leaves=11
num_cat=0
split_feature=143 24 85 69 50 14 9 9 123 13
split_gain=22.7141 21.4797 18.3606 12.926 12.2587 12.0472 9.88684 9.57385 5.96195 3.52631
threshold=1.5094245266683535 2.0600716908010202 -0.51567445126648259 0.49460995160193083 -0.17828567187658462 -0.73428888714599438 -1.0120911294865795 1.0498024758950859 -0.57730250641416003 0.58973296470699499
decision_type=2 2 2 2 2 2 2 2 2 2
left_child=2 9 3 7 -5 8 -7 -1 -4 -2
right_child=1 -3 5 4 -6 6 -8 -9 -10 -11
leaf_value=0.015641768638209968 -0.098368817257341534 0.016352183814266934 0.039402457750919169 0.0541138285929798 0.015001314022708882 0.017405258065489013 -0.026419470900550541 -0.022991689580323698 -0.0029470413477362895 -0.052197726595949512
leaf_weight=197.69073677808046 18.783943742513657 27.788500264286995 42.84067839384079 100.79684691131115 97.999740168452263 40.639230038970709 148.7843219731003 49.793193429708481 39.728712912648916 22.596690412610769
leaf_count=663 193 99 127 299 261 131 700 222 204 163
internal_value=0 -0.0371965 0.0100512 0.0198799 0.0348327 -0.0060756 -0.0170172 0.0078688 0.0190258 -0.0731563
internal_weight=0 69.1691 718.273 446.281 198.797 271.993 189.424 247.484 82.5694 41.3806
internal_count=3062 455 2607 1445 560 1162 831 885 331 356
is_linear=0
shrinkage=0.0787454


Tree=38
num_leaves=10
num_cat=0
split_feature=109 63 9 73 22 10 115 17 138
split_gain=22.1715 14.8106 15.846 11.185 11.1424 9.9175 7.91926 12.8554 6.40573
threshold=1.4558358623753864 -0.064582355692574839 -0.34931014100634311 1.2243890380022149 -0.51467652067202796 1.00836428434755 2.9229310216063493 0.15645002874349548 -0.52716432760432175
decision_type=2 2 2 2 2 2 2 2 2
left_child=1 3 8 5 -4 -1 7 -2 -3
right_child=6 2 4 -5 -6 -7 -8 -9 -10
leaf_value=0.021006302329315801 -0.0047907847322995944 0.041864161914196917 -0.050884774501050466 0.04735732732568422 -0.0049025203129890874 -0.0079990288862366275 0.0039390069378937229 -0.087947985238266704 -0.0021704859542976138
leaf_weight=290.0786027982831 19.571410289034247 44.710589842870831 51.621059328317642 72.689204879105091 89.046579234302044 97.721049133688211 21.358477286994457 28.047415429726243 37.805926442146301
leaf_count=948 161 176 426 188 285 338 91 253 128
internal_value=0 0.0109418 -0.00570634 0.0190106 -0.0217767 0.0136973 -0.0359009 -0.0537703 0.0216892
internal_weight=0 683.673 223.184 460.489 140.668 387.8 68.9773 47.6188 82.5165
internal_count=2994 2489 1015 1474 711 1286 505 414 304
is_linear=0
shrinkage=0.0787454


end of trees

feature_importances:
num__SeniorCitizen_No_tenure=15
num__MonthlyCharges_OnlineSecurity_No=13
num__COSINE_MonthlyCharges_=11
num__Contract_Month_to_month_MonthlyCharges=11
num__InternetService_DSL_MonthlyCharges=10
num__Contract_Month_to_month_TotalCharges=9
num__tenure_0=8
num__Contract_One_year_MonthlyCharges=8
num__MonthlyCharges_OnlineBackup_No=8
num__MonthlyCharges_PaperlessBilling_Yes=8
num__MonthlyCharges_SeniorCitizen_No=8
num__MonthlyCharges_PaymentMethod_Electronic_check=7
num__tenure=6
num__EXPONENTIAL_WEIGHTED_STD_MonthlyCharges_com_0_5_=6
num__Contract_One_year_TotalCharges=6
num__InternetService_DSL_TotalCharges=6
num__MonthlyCharges_TechSupport_No=6
num__MultipleLines_No_tenure=6
num__SeniorCitizen_No_TotalCharges=6
num__StreamingTV_No_TotalCharges=6
num__PERCENT_CHANGE_tenure_=6
num__EXPONENTIAL_WEIGHTED_STD_tenure_com_0_5_=5
num__InternetService_DSL_tenure=5
num__MonthlyCharges_MultipleLines_No=5
num__MultipleLines_No_TotalCharges=5
num__PaperlessBilling_No_tenure=5
num__gender_Female_MonthlyCharges=5
num__ABSOLUTE_DIFF_MonthlyCharges_=4
num__Dependents_No_MonthlyCharges=4
num__InternetService_Fiber_optic_MonthlyCharges=4
num__MonthlyCharges_PaperlessBilling_No=4
num__MonthlyCharges_StreamingTV_Yes=4
num__Partner_Yes_tenure=4
num__PhoneService_Yes_tenure=4
num__StreamingMovies_No_TotalCharges=4
num__TechSupport_No_TotalCharges=4
num__PERCENT_CHANGE_TotalCharges_=4
num__TotalCharges=3
num__ABSOLUTE_DIFF_tenure_=3
num__COSINE_TotalCharges_=3
num__EXPONENTIAL_WEIGHTED_VARIANCE_tenure_com_0_5_=3
num__Contract_Two_year_MonthlyCharges=3
num__Dependents_No_TotalCharges=3
num__DeviceProtection_No_internet_service_TotalCharges=3
num__MonthlyCharges_SeniorCitizen_Yes=3
num__OnlineSecurity_No_TotalCharges=3
num__PaperlessBilling_No_TotalCharges=3
num__PaymentMethod_Electronic_check_tenure=3
num__TechSupport_Yes_tenure=3
num__gender_Female_TotalCharges=3
num__ABSOLUTE_DIFF_TotalCharges_=2
num__COSINE_tenure_=2
num__EXPONENTIAL_WEIGHTED_VARIANCE_TotalCharges_com_0_5_=2
num__Contract_One_year_tenure=2
num__Contract_Two_year_tenure=2
num__Dependents_Yes_tenure=2
num__DeviceProtection_No_internet_service_tenure=2
num__InternetService_Fiber_optic_TotalCharges=2
num__InternetService_Fiber_optic_tenure=2
num__MonthlyCharges_OnlineBackup_Yes=2
num__MonthlyCharges_Partner_No=2
num__MonthlyCharges_Partner_Yes=2
num__MonthlyCharges_PaymentMethod_Mailed_check=2
num__MonthlyCharges_StreamingMovies_Yes=2
num__MonthlyCharges_StreamingTV_No=2
num__MonthlyCharges_TechSupport_Yes=2
num__MultipleLines_Yes_TotalCharges=2
num__MultipleLines_Yes_tenure=2
num__OnlineBackup_Yes_TotalCharges=2
num__OnlineSecurity_No_tenure=2
num__PaymentMethod_Electronic_check_TotalCharges=2
num__PhoneService_Yes_TotalCharges=2
num__StreamingMovies_No_tenure=2
num__StreamingTV_No_tenure=2
num__StreamingTV_Yes_TotalCharges=2
num__StreamingTV_Yes_tenure=2
num__TechSupport_No_tenure=2
num__gender_Female_tenure=2
num__gender_Male_MonthlyCharges=2
num__gender_Male_TotalCharges=2
num__tenure_1=2
num__PERCENT_CHANGE_MonthlyCharges_=2
remainder__OnlineSecurity_No=2
remainder__Contract_Month_to_month=2
num__EXPONENTIAL_WEIGHTED_STD_TotalCharges_com_0_5_=1
num__EXPONENTIAL_WEIGHTED_VARIANCE_MonthlyCharges_com_0_5_=1
num__Contract_Two_year_TotalCharges=1
num__Dependents_Yes_TotalCharges=1
num__DeviceProtection_No_MonthlyCharges=1
num__DeviceProtection_Yes_tenure=1
num__InternetService_No_TotalCharges=1
num__MonthlyCharges_MultipleLines_Yes=1
num__MonthlyCharges_PhoneService_Yes=1
num__MonthlyCharges_StreamingMovies_No=1
num__OnlineBackup_No_TotalCharges=1
num__OnlineBackup_No_tenure=1
num__OnlineBackup_No_internet_service_TotalCharges=1
num__OnlineBackup_No_internet_service_tenure=1
num__OnlineSecurity_No_internet_service_tenure=1
num__OnlineSecurity_Yes_tenure=1
num__PaperlessBilling_Yes_TotalCharges=1
num__PaperlessBilling_Yes_tenure=1
num__Partner_No_TotalCharges=1
num__Partner_No_tenure=1
num__Partner_Yes_TotalCharges=1
num__PaymentMethod_Bank_transfer_automatic_TotalCharges=1
num__PaymentMethod_Bank_transfer_automatic_tenure=1
num__PaymentMethod_Mailed_check_TotalCharges=1
num__PaymentMethod_Mailed_check_tenure=1
num__StreamingMovies_No_internet_service_TotalCharges=1
num__StreamingMovies_Yes_tenure=1
num__gender_Male_tenure=1
num__NATURAL_LOGARITHM_tenure_=1
remainder__MultipleLines_No=1
remainder__TechSupport_No=1

parameters:
[boosting: gbdt]
[objective: binary]
[metric: auc]
[tree_learner: serial]
[device_type: cpu]
[data_sample_strategy: bagging]
[data: ]
[valid: ]
[num_iterations: 3000]
[learning_rate: 0.0787454]
[num_leaves: 16]
[num_threads: 0]
[seed: 0]
[deterministic: 0]
[force_col_wise: 0]
[force_row_wise: 0]
[histogram_pool_size: -1]
[max_depth: 4]
[min_data_in_leaf: 146]
[min_sum_hessian_in_leaf: 0.001]
[bagging_fraction: 0.625796]
[pos_bagging_fraction: 1]
[neg_bagging_fraction: 1]
[bagging_freq: 2]
[bagging_seed: 3]
[feature_fraction: 0.506103]
[feature_fraction_bynode: 1]
[feature_fraction_seed: 2]
[extra_trees: 0]
[extra_seed: 6]
[early_stopping_round: 200]
[first_metric_only: 0]
[max_delta_step: 0]
[lambda_l1: 1.23347e-07]
[lambda_l2: 5.44726e-05]
[linear_lambda: 0]
[min_gain_to_split: 0]
[drop_rate: 0.1]
[max_drop: 50]
[skip_drop: 0.5]
[xgboost_dart_mode: 0]
[uniform_drop: 0]
[drop_seed: 4]
[top_rate: 0.2]
[other_rate: 0.1]
[min_data_per_group: 100]
[max_cat_threshold: 32]
[cat_l2: 10]
[cat_smooth: 10]
[max_cat_to_onehot: 4]
[top_k: 20]
[monotone_constraints: ]
[monotone_constraints_method: basic]
[monotone_penalty: 0]
[feature_contri: ]
[forcedsplits_filename: ]
[refit_decay_rate: 0.9]
[cegb_tradeoff: 1]
[cegb_penalty_split: 0]
[cegb_penalty_feature_lazy: ]
[cegb_penalty_feature_coupled: ]
[path_smooth: 0]
[interaction_constraints: ]
[verbosity: -1]
[saved_feature_importance_type: 0]
[use_quantized_grad: 0]
[num_grad_quant_bins: 4]
[quant_train_renew_leaf: 0]
[stochastic_rounding: 1]
[linear_tree: 0]
[max_bin: 255]
[max_bin_by_feature: ]
[min_data_in_bin: 3]
[bin_construct_sample_cnt: 200000]
[data_random_seed: 1]
[is_enable_sparse: 1]
[enable_bundle: 1]
[use_missing: 1]
[zero_as_missing: 0]
[feature_pre_filter: 1]
[pre_partition: 0]
[two_round: 0]
[header: 0]
[label_column: ]
[weight_column: ]
[group_column: ]
[ignore_column: ]
[categorical_feature: ]
[forcedbins_filename: ]
[precise_float_parser: 0]
[parser_config_file: ]
[objective_seed: 5]
[num_class: 1]
[is_unbalance: 0]
[scale_pos_weight: 3]
[sigmoid: 1]
[boost_from_average: 1]
[reg_sqrt: 0]
[alpha: 0.9]
[fair_c: 1]
[poisson_max_delta_step: 0.7]
[tweedie_variance_power: 1.5]
[lambdarank_truncation_level: 30]
[lambdarank_norm: 1]
[label_gain: ]
[lambdarank_position_bias_regularization: 0]
[eval_at: ]
[multi_error_top_k: 1]
[auc_mu_weights: ]
[num_machines: 1]
[local_listen_port: 12400]
[time_out: 120]
[machine_list_filename: ]
[machines: ]
[gpu_platform_id: -1]
[gpu_device_id: -1]
[gpu_use_dp: 0]
[num_gpu: 1]

end of parameters

pandas_categorical:[]
