tree
version=v4
num_class=1
num_tree_per_iteration=1
label_index=0
max_feature_idx=201
objective=binary sigmoid:1
feature_names=num__tenure num__MonthlyCharges num__TotalCharges num__ABSOLUTE_DIFF_MonthlyCharges_ num__ABSOLUTE_DIFF_TotalCharges_ num__ABSOLUTE_DIFF_tenure_ num__MonthlyCharges_0 num__TotalCharges_0 num__tenure_0 num__COSINE_MonthlyCharges_ num__COSINE_TotalCharges_ num__COSINE_tenure_ num__EXPONENTIAL_WEIGHTED_STD_MonthlyCharges_com_0_5_ num__EXPONENTIAL_WEIGHTED_STD_TotalCharges_com_0_5_ num__EXPONENTIAL_WEIGHTED_STD_tenure_com_0_5_ num__EXPONENTIAL_WEIGHTED_VARIANCE_MonthlyCharges_com_0_5_ num__EXPONENTIAL_WEIGHTED_VARIANCE_TotalCharges_com_0_5_ num__EXPONENTIAL_WEIGHTED_VARIANCE_tenure_com_0_5_ num__MonthlyCharges_tenure num__TotalCharges_MonthlyCharges num__tenure_MonthlyCharges num__Contract_Month_to_month_MonthlyCharges num__Contract_Month_to_month_TotalCharges num__Contract_Month_to_month_tenure num__Contract_One_year_MonthlyCharges num__Contract_One_year_TotalCharges num__Contract_One_year_tenure num__Contract_Two_year_MonthlyCharges num__Contract_Two_year_TotalCharges num__Contract_Two_year_tenure num__Dependents_No_MonthlyCharges num__Dependents_No_TotalCharges num__Dependents_No_tenure num__Dependents_Yes_MonthlyCharges num__Dependents_Yes_TotalCharges num__Dependents_Yes_tenure num__DeviceProtection_No_MonthlyCharges num__DeviceProtection_No_TotalCharges num__DeviceProtection_No_tenure num__DeviceProtection_No_internet_service_MonthlyCharges num__DeviceProtection_No_internet_service_TotalCharges num__DeviceProtection_No_internet_service_tenure num__DeviceProtection_Yes_MonthlyCharges num__DeviceProtection_Yes_TotalCharges num__DeviceProtection_Yes_tenure num__InternetService_DSL_MonthlyCharges num__InternetService_DSL_TotalCharges num__InternetService_DSL_tenure num__InternetService_Fiber_optic_MonthlyCharges num__InternetService_Fiber_optic_TotalCharges num__InternetService_Fiber_optic_tenure num__InternetService_No_MonthlyCharges num__InternetService_No_TotalCharges num__InternetService_No_tenure num__MonthlyCharges_MultipleLines_No num__MonthlyCharges_MultipleLines_No_phone_service num__MonthlyCharges_MultipleLines_Yes num__MonthlyCharges_OnlineBackup_No num__MonthlyCharges_OnlineBackup_No_internet_service num__MonthlyCharges_OnlineBackup_Yes num__MonthlyCharges_OnlineSecurity_No num__MonthlyCharges_OnlineSecurity_No_internet_service num__MonthlyCharges_OnlineSecurity_Yes num__MonthlyCharges_PaperlessBilling_No num__MonthlyCharges_PaperlessBilling_Yes num__MonthlyCharges_Partner_No num__MonthlyCharges_Partner_Yes num__MonthlyCharges_PaymentMethod_Bank_transfer_automatic_ num__MonthlyCharges_PaymentMethod_Credit_card_automatic_ num__MonthlyCharges_PaymentMethod_Electronic_check num__MonthlyCharges_PaymentMethod_Mailed_check num__MonthlyCharges_PhoneService_No num__MonthlyCharges_PhoneService_Yes num__MonthlyCharges_SeniorCitizen_No num__MonthlyCharges_SeniorCitizen_Yes num__MonthlyCharges_StreamingMovies_No num__MonthlyCharges_StreamingMovies_No_internet_service num__MonthlyCharges_StreamingMovies_Yes num__MonthlyCharges_StreamingTV_No num__MonthlyCharges_StreamingTV_No_internet_service num__MonthlyCharges_StreamingTV_Yes num__MonthlyCharges_TechSupport_No num__MonthlyCharges_TechSupport_No_internet_service num__MonthlyCharges_TechSupport_Yes num__MultipleLines_No_TotalCharges num__MultipleLines_No_tenure num__MultipleLines_No_phone_service_TotalCharges num__MultipleLines_No_phone_service_tenure num__MultipleLines_Yes_TotalCharges num__MultipleLines_Yes_tenure num__OnlineBackup_No_TotalCharges num__OnlineBackup_No_tenure num__OnlineBackup_No_internet_service_TotalCharges num__OnlineBackup_No_internet_service_tenure num__OnlineBackup_Yes_TotalCharges num__OnlineBackup_Yes_tenure num__OnlineSecurity_No_TotalCharges num__OnlineSecurity_No_tenure num__OnlineSecurity_No_internet_service_TotalCharges num__OnlineSecurity_No_internet_service_tenure num__OnlineSecurity_Yes_TotalCharges num__OnlineSecurity_Yes_tenure num__PaperlessBilling_No_TotalCharges num__PaperlessBilling_No_tenure num__PaperlessBilling_Yes_TotalCharges num__PaperlessBilling_Yes_tenure num__Partner_No_TotalCharges num__Partner_No_tenure num__Partner_Yes_TotalCharges num__Partner_Yes_tenure num__PaymentMethod_Bank_transfer_automatic_TotalCharges num__PaymentMethod_Bank_transfer_automatic_tenure num__PaymentMethod_Credit_card_automatic_TotalCharges num__PaymentMethod_Credit_card_automatic_tenure num__PaymentMethod_Electronic_check_TotalCharges num__PaymentMethod_Electronic_check_tenure num__PaymentMethod_Mailed_check_TotalCharges num__PaymentMethod_Mailed_check_tenure num__PhoneService_No_TotalCharges num__PhoneService_No_tenure num__PhoneService_Yes_TotalCharges num__PhoneService_Yes_tenure num__SeniorCitizen_No_TotalCharges num__SeniorCitizen_No_tenure num__SeniorCitizen_Yes_TotalCharges num__SeniorCitizen_Yes_tenure num__StreamingMovies_No_TotalCharges num__StreamingMovies_No_tenure num__StreamingMovies_No_internet_service_TotalCharges num__StreamingMovies_No_internet_service_tenure num__StreamingMovies_Yes_TotalCharges num__StreamingMovies_Yes_tenure num__StreamingTV_No_TotalCharges num__StreamingTV_No_tenure num__StreamingTV_No_internet_service_TotalCharges num__StreamingTV_No_internet_service_tenure num__StreamingTV_Yes_TotalCharges num__StreamingTV_Yes_tenure num__TechSupport_No_TotalCharges num__TechSupport_No_tenure num__TechSupport_No_internet_service_TotalCharges num__TechSupport_No_internet_service_tenure num__TechSupport_Yes_TotalCharges num__TechSupport_Yes_tenure num__gender_Female_MonthlyCharges num__gender_Female_TotalCharges num__gender_Female_tenure num__gender_Male_MonthlyCharges num__gender_Male_TotalCharges num__gender_Male_tenure num__MonthlyCharges_1 num__TotalCharges_1 num__tenure_1 num__NATURAL_LOGARITHM_MonthlyCharges_ num__NATURAL_LOGARITHM_TotalCharges_ num__NATURAL_LOGARITHM_tenure_ num__PERCENT_CHANGE_MonthlyCharges_ num__PERCENT_CHANGE_TotalCharges_ num__PERCENT_CHANGE_tenure_ remainder__gender_Female remainder__gender_Male remainder__SeniorCitizen_No remainder__SeniorCitizen_Yes remainder__Partner_No remainder__Partner_Yes remainder__Dependents_No remainder__Dependents_Yes remainder__PhoneService_No remainder__PhoneService_Yes remainder__MultipleLines_No remainder__MultipleLines_No_phone_service remainder__MultipleLines_Yes remainder__InternetService_DSL remainder__InternetService_Fiber_optic remainder__InternetService_No remainder__OnlineSecurity_No remainder__OnlineSecurity_No_internet_service remainder__OnlineSecurity_Yes remainder__OnlineBackup_No remainder__OnlineBackup_No_internet_service remainder__OnlineBackup_Yes remainder__DeviceProtection_No remainder__DeviceProtection_No_internet_service remainder__DeviceProtection_Yes remainder__TechSupport_No remainder__TechSupport_No_internet_service remainder__TechSupport_Yes remainder__StreamingTV_No remainder__StreamingTV_No_internet_service remainder__StreamingTV_Yes remainder__StreamingMovies_No remainder__StreamingMovies_No_internet_service remainder__StreamingMovies_Yes remainder__Contract_Month_to_month remainder__Contract_One_year remainder__Contract_Two_year remainder__PaperlessBilling_No remainder__PaperlessBilling_Yes remainder__PaymentMethod_Bank_transfer_automatic_ remainder__PaymentMethod_Credit_card_automatic_ remainder__PaymentMethod_Electronic_check remainder__PaymentMethod_Mailed_check
feature_infos=[-1.2876433357076105:1.6048973164615647] [-1.5590808125059858:1.7922019960146014] [-1.0075584110313642:2.8123085290869621] [-1.3732146786845074:2.5784136684430314] [-1.2060160305473682:2.9812805775614346] [-1.3806058593655879:2.085520697994244] [-1.5590808125059858:1.7922019960146014] [-1.0075584110313642:2.8123085290869621] [-1.2876433357076105:1.6048973164615647] [-1.6559001007418339:1.28083675737467] [-1.4494730056648946:1.3788448272519644] [-1.3817056216017931:1.468542093412087] [-2.1069659842313064:2.9120514491963907] [-1.7999143369867856:3.453290194399262] [-2.2206246960958627:2.5445546925480507] [-1.2271680645847816:4.0856026757025683] [-1.0062234280601949:5.244261772359744] [-1.2909408643849078:3.3694664154107454] [-2.2341056533153125:0.44760640505790078] [-3.2651149458719058:0.30626793132177549] [-0.44693294684006207:2.2374721019568433] [-0.94578599855614531:2.0421339744444649] [-0.55131773754116165:5.326954298091076] [-0.62565944941363161:3.9018159256242755] [-0.45220912380176848:3.4929283089938705] [-0.39603358032404679:4.7545425139783877] [-0.45876691721978413:3.2581002793627971] [-0.47447813133895117:3.324411347121635] [-0.4452253856704893:3.8163752346607369] [-0.53198941927685561:2.2497124897430973] [-1.1925123852191379:1.8230401606876878] [-0.72227767372610163:3.30795962274903] [-0.85309021038297506:2.0821984027466391] [-0.56000664080333362:3.0756557513555887] [-0.44472849595122205:4.6249667369757201] [-0.52785862556153662:2.7258360060020284] [-0.83236515237594266:2.1196961096541744] [-0.5194368877823935:4.605073361324] [-0.56149002555798422:3.2893793256907413] [-0.51378647107731878:2.5926444251643499] [-0.37891228946356265:4.9940595223046564] [-0.38826659388096679:3.8990813930579238] [-0.6941127114517337:2.1253460400249216] [-0.58503282081547725:3.1417451360629092] [-0.61694867536681908:2.232745741525108] [-0.69083945667266644:2.4904562274286692] [-0.49326158338330245:4.0456477840023153] [-0.53455640144671934:2.8250327897971115] [-0.87338041832362256:1.6952042412161779] [-0.6083220647327694:3.1012042274848013] [-0.63157797459584752:2.4767121011933835] [-0.51378647107731878:2.5926444251643499] [-0.37891228946356265:4.9940595223046564] [-0.38826659388096679:3.8990813930579238] [-0.77212164892543145:2.5502676885873572] [-0.31848462784650311:4.8400029898855816] [-0.79748739490364495:1.9211044460429221] [-0.82275277973335137:2.1088573760840346] [-0.51378647107731878:2.5926444251643499] [-0.69938517712198289:2.1740803828739428] [-0.92389534221972613:1.8355826094435725] [-0.51378647107731878:2.5926444251643499] [-0.60732995136117784:2.5588949716925633] [-0.66134279473815105:3.0588037530045731] [-1.0561863544743169:1.7951848622458408] [-0.85329483658360894:2.324438411931244] [-0.8257003353735729:2.126775697750682] [-0.47441685519710863:3.2826387125277332] [-0.46649816220304485:3.3326000799133659] [-0.66425725581590622:2.4139432100240814] [-0.44939676443749926:4.8543185513408833] [-0.31848462784650311:4.8400029898855816] [-1.7359836349186288:1.6466528147216684] [-1.4550070558081643:1.8534403853777899] [-0.41710791332726999:3.3706824178186463] [-0.76586616718195977:2.3458638724201935] [-0.51378647107731878:2.5926444251643499] [-0.7702854427792577:1.8918388429553319] [-0.76988805514082803:2.3613911675699044] [-0.51378647107731878:2.5926444251643499] [-0.76701356733785586:1.8921979101812898] [-0.9097252306979825:1.8717801628438113] [-0.51378647107731878:2.5926444251643499] [-0.6204416706814615:2.4330536013965216] [-0.48865681981963915:5.4516614546243956] [-0.59192594514286456:3.0681457609234637] [-0.24129326755631633:7.8467854132151649] [-0.25813255831089899:5.6875005505868863] [-0.63462047416298939:3.0501649434399831] [-0.68981401699383549:2.0947777003655546] [-0.52108360110011431:4.5819706249277239] [-0.5634469568684557:3.2696091656734354] [-0.37891228946356265:4.9940595223046564] [-0.38826659388096679:3.8990813930579238] [-0.5798617808862867:3.1869166039220462] [-0.61471973022058302:2.2403480307661368] [-0.58044780376417782:3.7600632029454921] [-0.63108139447280165:2.8373523478381442] [-0.37891228946356265:4.9940595223046564] [-0.38826659388096679:3.8990813930579238] [-0.50999022067282607:3.6040757305513487] [-0.54392075423984843:2.471911490356046] [-0.4762326631124893:4.9586629973026017] [-0.58602364982459332:2.6428140508719737] [-0.69435489121772742:3.1779412796940254] [-0.78729290287767617:2.1138933277021961] [-0.52293187950140729:4.9267435933213708] [-0.6168134979326112:3.0661572054435422] [-0.65576048851083912:3.1841018051580816] [-0.76798420830082204:1.9230249528535812] [-0.40538916607642006:4.5775389463569791] [-0.45768857285834197:2.9396387115011788] [-0.39549286558827301:4.6808720196461611] [-0.45059339100023316:2.9754052875082322] [-0.44084708492738045:5.0156875831152918] [-0.47799837662810996:3.6374119876219915] [-0.29520807663003279:9.7369819907579664] [-0.36876678910603733:4.8637694577014425] [-0.24129326755631633:7.8467854132151649] [-0.25813255831089899:5.6875005505868863] [-0.92767342987711732:2.8062526083924402] [-1.1651692169296075:1.6805201242515022] [-0.84141223651002284:3.1034750023868196] [-1.0682562946782461:1.7596375257228889] [-0.32179746997629316:5.6679928914231166] [-0.34310374184548087:4.2249599697365561] [-0.49426591042210105:4.8979402824613247] [-0.53135783534532288:3.2690612545296216] [-0.37891228946356265:4.9940595223046564] [-0.38826659388096679:3.8990813930579238] [-0.61419959941225544:3.0397486339948481] [-0.64115119405788601:2.2405634065705966] [-0.49757441549527859:4.9101695937348149] [-0.53373840188009425:3.2285959871928589] [-0.37891228946356265:4.9940595223046564] [-0.38826659388096679:3.8990813930579238] [-0.61090196312078071:3.0475067428180771] [-0.63811344996453523:2.2565937849654474] [-0.57305342292020733:3.9487189716425513] [-0.62086302024508577:2.8711376853576849] [-0.37891228946356265:4.9940595223046564] [-0.38826659388096679:3.8990813930579238] [-0.52104988730123203:3.4802121351092921] [-0.55369379733700141:2.4472055830344237] [-0.841143503416522:2.2075900762549461] [-0.58223095230995991:3.8037813026459566] [-0.68513171615649926:2.3417335496517846] [-0.8354786796715522:2.2264231023881544] [-0.5846248674561072:3.7849712108095845] [-0.68415522293669118:2.3361864384112332] [-1.5590808125059858:1.7922019960146014] [-1.0075584110313642:2.8123085290869621] [-1.2876433357076105:1.6048973164615647] [-1.8911839063049838:1.2667235859632604] [-2.6017817001912769:1.3677664440185366] [-2.2207859226309639:1.0214948884585298] [-0.99965520637874117:3.635086143257507] [-0.29579214220398092:12.840457105301496] [-0.41657322126113533:5.3859585618080521] [0:1] [0:1] [0:1] [0:1] [0:1] [0:1] [0:1] [0:1] [0:1] [0:1] [0:1] [0:1] [0:1] [0:1] [0:1] [0:1] [0:1] [0:1] [0:1] [0:1] [0:1] [0:1] [0:1] [0:1] [0:1] [0:1] [0:1] [0:1] [0:1] [0:1] [0:1] [0:1] [0:1] [0:1] [0:1] [0:1] [0:1] [0:1] [0:1] [0:1] [0:1] [0:1] [0:1]
tree_sizes=1916 1827 1932 1822 1945 1829 1944 1838 1835 1830 1843 1728 1948 1738 1738 1954 2064 1735 1519 1944 1623 1847 1632 1729 1835 1939 1742 1649 1625 1734 2052 1631 2057 1952 1842 1741 1200 1518 1943 1410 1826 1400 1314 1521 1738 1523 1736 1640 1636 1855 1518 2061 1952 1952 1844 1522 1854 1424 1531 1093 1416 1854 1407 1419 1313 1635 1742 1737 1411 1095 1741 1611 1858

Tree=0
num_leaves=17
num_cat=0
split_feature=21 123 48 152 25 48 22 114 27 49 146 60 145 29 97 109
split_gain=1432.12 125.275 79.4946 73.6998 86.7408 53.2631 31.4635 25.7518 24.6058 20.5884 20.0324 17.5741 11.757 13.9687 7.87332 1.88649
threshold=-0.37222937598274669 -0.65585511253641371 0.63994043399799272 -1.0228332760019816 1.0710303435707151 1.0000000180025095e-35 -0.39850016489740719 0.196519499162884 2.4747861918419809 -0.55697973245677379 1.0174799958606606 0.9872172099614297 -0.2520317793919889 1.2645263969651974 -0.22161352211664834 1.3063353534223638
decision_type=2 2 2 2 2 2 2 2 2 2 2 2 2 2 2 2
left_child=3 5 -3 -1 8 6 -2 -4 12 -7 -6 -11 15 -14 -13 -5
right_child=1 2 7 4 10 9 -8 -9 -10 11 -12 14 13 -15 -16 -17
leaf_value=-0.93815006952331881 -0.82570991957364892 -0.9684920060781137 -0.89593208861509122 -1.113484252194209 -0.95752980583732472 -0.75278589458460576 -0.91046434679334975 -0.82642929577008717 -1.0238698677191196 -0.84107840944179346 -1.0348057321525606 -0.76935879941164864 -1.0312788150077135 -1.0984493527461521 -0.80802089284603584 -1.0900622063584338
leaf_weight=33.569404467940331 65.577441781759262 50.939619466662407 53.281671196222305 73.969791531562805 47.426542297005653 54.257526502013206 37.667994618415833 64.211245074868202 35.911455735564232 51.525132775306702 29.861156105995178 56.209236025810242 31.227352797985077 36.887310326099396 58.94162929058075 25.177053093910217
leaf_count=118 164 193 167 377 175 100 123 161 154 136 131 112 136 183 138 123
internal_value=-1.01581 -0.839674 -0.89138 -1.04164 -1.05403 -0.812809 -0.856632 -0.857948 -1.07938 -0.792329 -0.987386 -0.805202 -1.0913 -1.06765 -0.789149 -1.10754
internal_weight=0 492.611 168.433 314.03 280.461 324.179 103.245 117.493 203.173 220.934 77.2877 166.676 167.262 68.1147 115.151 99.1468
internal_count=2691 1294 521 1397 1279 773 287 328 973 486 306 386 819 319 250 500
is_linear=0
shrinkage=1


Tree=1
num_leaves=16
num_cat=0
split_feature=21 46 41 21 123 114 114 26 127 126 64 66 57 157 144
split_gain=1097.68 141.241 64.8018 56.6817 52.7884 48.9143 28.7897 23.3513 20.8626 17.8001 15.4625 12.9104 7.90812 2.93503 2.76572
threshold=-0.37222937598274669 -0.35445768033638297 0.058332154758500933 -0.45555010155928771 -0.30236838498627189 1.4530102733127339 0.90706314067280192 1.3738551033174609 -0.45218243763959487 -0.1414001174305001 0.71870808122859775 1.4664516945582637 0.87015799860386867 -0.28936399420202619 -0.34308943000897801
decision_type=2 2 2 2 2 2 2 2 2 2 2 2 2 2 2
left_child=2 4 3 5 8 7 -6 11 12 -3 -10 -1 -2 -14 -4
right_child=1 9 14 -5 6 -7 -8 -9 10 -11 -12 -13 13 -15 -16
leaf_value=-0.069543641160790315 0.17670821930652181 0.092106552650838863 -0.093143562011978848 0.094429681991189965 0.074901513028237984 0.060602920408138305 0.15820291664390596 0.0030250674309749599 0.12972725944018762 0.024055841577179382 0.18013994765048383 -0.0077977853439074873 0.21810042579230746 0.19611684855220668 -0.066212138626954201
leaf_weight=81.553472399711609 83.735931470990181 52.27301512658596 42.747162118554115 28.100102663040161 44.55431193113327 35.724536180496216 46.12265732884407 57.442699775099754 60.184352427721024 35.089708834886551 74.213934391736984 23.922662138938904 58.390014037489891 76.815653532743454 40.622183874249458
leaf_count=406 180 166 227 89 144 131 108 238 157 135 157 103 97 150 203
internal_value=0 0.150675 -0.0243044 -0.00381844 0.167577 -0.0177166 0.117273 -0.0348904 0.180486 0.0647736 0.157565 -0.0555393 0.194557 0.205611 -0.0800211
internal_weight=0 531.38 310.113 226.743 444.017 198.643 90.677 162.919 353.34 87.3627 134.398 105.476 218.942 135.206 83.3693
internal_count=2691 1294 1397 967 993 878 252 747 741 301 314 509 427 247 430
is_linear=0
shrinkage=0.0739073


Tree=2
num_leaves=17
num_cat=0
split_feature=21 127 53 21 48 24 0 48 81 77 72 15 84 78 145 66
split_gain=869.41 67.1365 58.8311 51.5792 38.6969 37.9038 35.9713 27.8252 19.6532 15.5713 11.3406 11.1172 10.8689 10.6614 3.23082 0.958666
threshold=-0.37222937598274669 -0.24104804375765354 0.058332154758500933 -0.44909113058436206 0.63994043399799272 1.9502997386237377 -0.12655307392139226 1.0000000180025095e-35 0.20848982997924531 1.2717614113076254 -0.42613895574720667 -0.077880034810185059 -0.42935050897943899 1.4069644082222068 -0.2520317793919889 -0.33341354317262722
decision_type=2 2 2 2 2 2 2 2 2 2 2 2 2 2 2 2
left_child=2 6 3 5 -3 8 7 10 9 -1 -2 -7 -9 -6 15 -4
right_child=1 4 14 -5 13 11 -8 12 -10 -11 -12 -13 -14 -15 -16 -17
leaf_value=-0.075983287746682143 0.14942601888508567 0.043239910973916683 -0.096194575717060651 0.08954744495686455 0.13803501075578531 0.0012298759934293746 0.098618161588043665 0.18586548889607901 0.0032545589349104471 -0.0064722593418001578 0.10114193301810055 0.062950841516552988 0.15190017913363443 0.090991581741528313 -0.056469918443529651 -0.076010814756997447
leaf_weight=69.009080559015274 58.83371376991272 57.097145825624466 31.327027156949043 28.390520811080933 63.15944316983223 34.542952135205269 65.671112909913063 140.9061618745327 40.907146960496902 23.631220161914825 48.452959135174751 29.600018709897995 81.071653619408607 45.107576042413712 26.882742032408714 21.798215001821518
leaf_count=356 128 201 176 85 142 143 173 234 176 102 130 105 164 122 136 118
internal_value=0 0.132008 -0.0228812 -0.00360588 0.0924717 -0.0169837 0.148563 0.158524 -0.0394118 -0.058252 0.12762 0.0297122 0.173461 0.118435 -0.077348 -0.0879128
internal_weight=0 560.3 306.089 226.081 165.364 197.69 394.936 329.264 133.547 92.6403 107.287 64.143 221.978 108.267 80.008 53.1252
internal_count=2691 1294 1397 967 465 882 829 656 634 458 258 248 398 264 430 294
is_linear=0
shrinkage=0.0739073


Tree=3
num_leaves=16
num_cat=0
split_feature=21 47 8 25 21 175 80 27 121 145 139 80 106 32 30
split_gain=724.246 75.0083 49.4095 49.0218 34.6302 32.3795 20.6138 16.082 15.534 14.0955 14.0331 7.78931 11.2781 7.048 5.80791
threshold=-0.40775371634483781 -0.27792111600448216 -0.77839322088909368 2.9468000472225842 -0.44650754219439176 1.0000000180025095e-35 1.3322164038487381 2.436348861537152 0.55410142670064633 -0.12003558008351813 0.033887112055433759 1.1203315095607456 -0.42238212641831491 1.2056886085482128 0.20021013334786367
decision_type=2 2 2 2 2 2 2 2 2 2 2 2 2 2 2
left_child=3 2 11 4 5 7 9 13 -7 -4 -3 12 14 -1 -2
right_child=1 10 6 -5 -6 8 -8 -9 -10 -11 -12 -13 -14 -15 -16
leaf_value=-0.081872774646596383 0.1361450502488413 0.024324708668144575 0.050663589222403993 0.064533385201245602 0.028812382709100047 0.040600548152436661 0.12363633887380454 -0.0060174550154557457 -0.036725822499870123 0.10369421957928772 0.084975148486299085 0.16585093985242796 0.11423629598766344 -0.044755750756440539 0.16316732303889625
leaf_weight=103.71909807622433 90.879303976893425 45.590651571750641 54.974191308021545 30.41463565826416 39.899837896227837 28.579530254006386 98.77771982550621 23.625824928283691 28.185896828770638 54.539224863052368 38.380979731678963 76.935398682951927 71.70602747797966 38.249711066484451 83.240372613072395
leaf_count=565 182 160 159 104 150 116 213 103 132 129 117 122 158 195 136
internal_value=0 0.116954 0.127218 -0.0242873 -0.0345879 -0.0459644 0.099155 -0.0624769 0.00220547 0.0770736 0.0520463 0.145328 0.138905 -0.0718726 0.149063
internal_weight=0 615.024 531.052 292.675 262.26 222.36 208.291 165.595 56.7654 109.513 83.9716 322.761 245.826 141.969 174.12
internal_count=2741 1376 1099 1365 1261 1111 501 863 248 288 277 598 476 760 318
is_linear=0
shrinkage=0.0739073


Tree=4
num_leaves=17
num_cat=0
split_feature=60 123 27 24 104 40 56 101 126 123 6 91 81 54 54 31
split_gain=422.413 120.913 87.2825 79.5845 44.1356 29.3842 26.5723 22.7057 20.0925 19.0535 17.0202 13.4512 6.70907 3.23071 2.42615 0.786444
threshold=-0.63744223037154391 -0.45947359723077941 1.0000000180025095e-35 1.0000000180025095e-35 -0.31009446706222038 -0.31004176460856497 1.0540661966010683 1.57135047287255 -0.24544306477535946 -0.57730250641416003 0.86825800813654552 -0.53682851157302569 0.22719950751427978 -0.19840245628451988 0.84317548441969004 -0.55038859699905129
decision_type=2 2 2 2 2 2 2 2 2 2 2 2 2 2 2 2
left_child=2 8 3 5 -3 9 -6 15 11 -1 13 -2 -13 -4 -14 -5
right_child=1 4 10 7 6 -7 -8 -9 -10 -11 -12 12 14 -15 -16 -17
leaf_value=0.091178314339126279 0.10324255531304415 -0.017391510853137657 -0.063270210598444704 -0.065474188884788634 0.035375302448435626 -0.0085793156050412676 0.10117356343069911 0.010700535409206357 0.092529168202675816 0.032637022743843856 -0.0042547001123101388 0.12091111289555954 0.15528743492185096 -0.094073509374009059 0.13858625708928393 -0.085328655466014494
leaf_weight=77.420886978507042 66.631299838423729 39.5589369982481 43.015660226345062 22.374742165207863 61.30768358707428 34.610426619648933 73.981402605772018 27.403035208582878 84.787740230560303 49.969266071915627 23.211250111460686 70.280566111207008 103.39831092953682 32.764945149421692 87.903395995497704 21.244540393352509
leaf_count=189 146 159 243 124 208 144 187 109 204 156 101 144 162 195 150 120
internal_value=0 0.102793 -0.0014884 0.0232102 0.0512774 0.0518086 0.0713564 -0.0420221 0.124602 0.0682153 -0.0596279 0.132888 0.140439 -0.0765885 0.147613 -0.0751442
internal_weight=0 587.849 332.015 233.023 174.848 162.001 135.289 71.0223 413.001 127.39 98.9919 328.214 261.582 75.7806 191.302 43.6193
internal_count=2741 1360 1381 842 554 489 395 353 806 345 539 602 456 438 312 244
is_linear=0
shrinkage=0.0739073


Tree=5
num_leaves=16
num_cat=0
split_feature=21 123 77 64 21 200 9 81 5 0 96 96 85 156 81
split_gain=509.384 68.5106 41.9024 36.736 35.9862 16.3563 15.4668 15.2268 15.1644 12.522 11.1403 8.58032 4.60436 4.49162 1.07902
threshold=-0.40775371634483781 -0.77368402171979433 1.2543655738586852 0.71870808122859775 -0.44650754219439176 1.0000000180025095e-35 -0.03480990566421438 1.4258661815921563 0.2548200515013751 -0.45247314740524297 -0.3945532089029683 -0.55329887027440627 -0.51567445126648259 -0.87469430815879357 0.94814574853094213
decision_type=2 2 2 2 2 2 2 2 2 2 2 2 2 2 2
left_child=2 9 4 6 5 10 -3 -5 -4 11 13 -2 14 -1 -13
right_child=1 3 8 7 -6 -7 -8 -9 -10 -11 -12 12 -14 -15 -16
leaf_value=-0.050254016195068321 0.098569152427853038 0.05759631801732526 -0.0053961404591708574 0.071337667588036099 0.024276630234653148 0.0049237640715581168 -0.00022883941396157655 0.12097617762016848 0.063694711747761618 0.087362583343857991 -0.022732534286180963 0.12908843029038541 0.11488821059445889 -0.081310989255130195 0.14123883282782054
leaf_weight=36.456816717982292 69.45089952647686 56.842456981539726 36.335387900471687 90.961961686611176 40.690141096711159 23.218671351671219 45.483605965971947 53.673788636922836 33.214104816317558 71.238904729485512 31.77340404689312 75.654911935329437 93.897982746362686 84.149019286036491 84.53033621609211
leaf_count=213 144 165 149 221 150 101 158 102 115 156 146 128 176 491 126
internal_value=0 0.0963139 -0.0223029 0.0657825 -0.0383493 -0.0528612 0.0318932 0.0897583 0.0275989 0.115414 -0.0616661 0.12159 0.127883 -0.0719231 0.1355
internal_weight=0 641.735 285.838 246.962 216.288 175.598 102.326 144.636 69.5495 394.773 152.379 323.534 254.083 120.606 160.185
internal_count=2741 1376 1365 646 1101 951 323 323 264 730 850 574 430 704 254
is_linear=0
shrinkage=0.0739073


Tree=6
num_leaves=17
num_cat=0
split_feature=22 64 47 2 97 25 77 11 85 133 45 9 144 5 10 149
split_gain=330.041 68.5561 61.9222 34.1619 33.4235 23.3471 32.563 13.1585 10.0911 9.79572 9.21475 8.36709 4.91633 4.80755 2.37351 0.296075
threshold=-0.53729928193302035 1.2073600203503283 -0.41790399897297509 0.33381264432037488 -0.60699504904008672 -0.30741222091434461 0.13317579247215247 -0.96486875721082688 -0.51567445126648259 -0.14182856968499494 1.0474382548387129 -0.96801311671428725 1.0848797972317479 -0.52627889100224901 0.58380917896823148 1.0000000180025095e-35
decision_type=2 2 2 2 2 2 2 2 2 2 2 2 2 2 2 2
left_child=1 5 3 4 8 11 13 -4 -2 12 -9 -1 -6 -7 15 -13
right_child=2 -3 7 -5 9 6 -8 10 -10 -11 -12 14 -14 -15 -16 -17
leaf_value=-0.026577211437511714 0.086580739412548097 0.050052820918340131 0.067503955229634996 0.047408408974587556 0.10972700118476675 -0.07613722708308783 0.038377193420241582 0.038205765547775432 0.03944459658573831 0.086415330938441073 -0.012235064291867806 -0.093096010152456013 0.1303167962576432 -0.031678831062110079 -0.060754088802588806 -0.081099339099120732
leaf_weight=22.687785968184471 47.526033207774162 60.321054607629776 41.718234583735466 79.598263666033745 188.09123426675797 23.204552814364433 38.20906625688076 45.695833668112755 51.901304960250854 73.686703711748123 34.886371999979019 27.088717341423035 95.510860756039619 31.082137942314148 27.655535995960236 19.203426256775856
leaf_count=120 111 211 111 202 329 134 150 136 172 159 123 168 148 164 165 119
internal_value=0 -0.0185534 0.0812673 0.0920891 0.0998762 -0.0404345 -0.0138927 0.0338114 0.0619756 0.110423 0.0163685 -0.0658392 0.116661 -0.0506823 -0.0778851 -0.0881194
internal_weight=0 249.452 658.615 536.314 456.716 189.131 92.4958 122.3 99.4273 357.289 80.5822 96.6355 283.602 54.2867 73.9477 46.2921
internal_count=2722 1231 1491 1121 919 1020 448 370 283 636 259 572 477 298 452 287
is_linear=0
shrinkage=0.0739073


Tree=7
num_leaves=16
num_cat=0
split_feature=21 47 48 2 60 26 157 131 27 102 132 34 10 121 84
split_gain=284.161 54.4277 51.507 30.3226 25.367 19.858 17.7621 15.0114 44.6147 10.3266 9.61062 6.56009 4.9614 4.1465 3.63039
threshold=-0.44650754219439176 -0.41790399897297509 1.0644282866706749 0.33381264432037488 -0.63744223037154391 1.4254782588255523 -0.28292971335505129 -0.46104403151860579 1.1214718540261308 -0.46386794795329983 -0.20213863905392235 -0.0081520777687237606 0.34954141578340281 0.31696064826888715 -0.42628166621152336
decision_type=2 2 2 2 2 2 2 2 2 2 2 2 2 2 2
left_child=2 3 7 4 9 -4 -3 11 -9 -2 14 12 13 -1 -6
right_child=1 6 5 -5 10 -7 -8 8 -10 -11 -12 -13 -14 -15 -16
leaf_value=-0.082668396263890928 0.080922064092613988 0.058747984114699864 -0.0067050466862375521 0.043589400685223489 0.11419272816716483 0.063370018377705825 0.0026444673516283455 0.051799013081991092 -0.083561149383100899 0.032237557733058288 0.080055705711066197 -0.085272195156210928 -0.023662367832268504 -0.036937921927288828 0.095632477693192122
leaf_weight=23.889531478285789 53.39224311709404 62.402251794934273 44.311191231012344 80.151045620441437 192.27055563032627 44.046860098838806 60.911595463752747 29.178429007530212 24.442196398973465 42.936745449900627 83.92132306098938 32.86188805103302 32.080213412642479 19.812436476349831 82.165185809135437
leaf_count=153 128 164 187 202 309 138 206 113 152 134 177 210 184 115 150
internal_value=0 0.0752982 -0.0171768 0.0855035 0.0928921 0.0282277 0.0310353 -0.0419009 -0.00990299 0.0592219 0.101943 -0.0576933 -0.0457341 -0.0619363 0.108636
internal_weight=0 658.151 250.623 534.837 454.686 88.3581 123.314 162.265 53.6206 96.329 358.357 108.644 75.7822 43.702 274.436
internal_count=2722 1470 1252 1100 898 325 370 927 265 262 636 662 452 268 459
is_linear=0
shrinkage=0.0739073


Tree=8
num_leaves=16
num_cat=0
split_feature=23 64 46 81 25 130 138 123 114 127 9 145 64 9 13
split_gain=236.075 53.4051 45.7024 30.1777 19.4506 24.109 19.2544 13.0451 12.833 9.20017 8.456 5.01315 3.72389 2.58752 2.2657
threshold=-0.59421864819809056 1.2073600203503283 -0.42075782195558975 -0.61723060523360995 -0.30741222091434461 -0.47105666940259888 1.107530399625652 -0.81296032478092128 -0.36075930430975306 -0.24104804375765354 -0.98936207210408755 -0.38229534678465427 0.70308083594303217 0.47908884897231918 -0.19318953466540587
decision_type=2 2 2 2 2 2 2 2 2 2 2 2 2 2 2
left_child=1 4 3 7 10 11 9 -2 -4 12 -1 -6 -5 -12 -15
right_child=2 -3 8 6 5 -7 -8 -9 -10 -11 13 -13 -14 14 -16
leaf_value=-0.020706285084632972 0.06646126804530017 0.042746512512677741 0.0081260097341310181 0.090885054323125922 -0.026473877603644818 0.030516560285011825 0.050530798255541153 0.017040823030588646 0.056216988909580573 0.073317849416528427 -0.090647734099154886 -0.073304992978711167 0.10846011118878233 -0.043388350896727053 -0.079318529951056621
leaf_weight=21.323192179203033 68.589472010731697 62.19365082681179 71.500345975160599 114.25608932971954 29.653272151947021 39.746835485100746 64.945974588394165 50.770139500498772 52.611339285969734 86.52714940905571 29.240424975752831 21.566632553935051 155.4490242600441 19.060134902596474 19.28708815574646
leaf_count=118 164 211 228 205 169 150 156 165 142 184 198 129 251 124 128
internal_value=0 -0.0162902 0.0689571 0.0782437 -0.0367025 -0.0126754 0.08754 0.0454401 0.0285119 0.0942873 -0.0612851 -0.0461926 0.101015 -0.0740874 -0.0614598
internal_weight=0 242.071 664.65 540.538 179.878 90.9667 421.178 119.36 124.112 356.232 88.9108 51.2199 269.705 67.5876 38.3472
internal_count=2722 1227 1495 1125 1016 448 796 329 370 640 568 298 456 450 252
is_linear=0
shrinkage=0.0739073


Tree=9
num_leaves=16
num_cat=0
split_feature=22 96 48 127 28 123 30 86 45 68 84 35 7 72 3
split_gain=268.03 49.024 32.5154 32.2802 24.7672 20.7819 16.3312 15.8193 14.5489 12.919 7.02182 8.71481 6.68562 5.13906 0.464975
threshold=-0.54442700123442889 -0.57417237261252529 1.0644282866706749 0.39235513788817056 0.568846913357821 -1.0093418400865555 -0.42527547060920134 1.6393407964926132 0.6992707014284808 0.34586220658993239 -0.19870663926549362 -0.2341223046564925 -0.3389646879177301 0.43663298861720318 0.71264484125496586
decision_type=2 2 2 2 2 2 2 2 2 2 2 2 2 2 2
left_child=2 5 7 8 -4 -2 -7 9 12 10 11 -1 13 -3 -12
right_child=1 3 4 -5 -6 6 -8 -9 -10 -11 14 -13 -14 -15 -16
leaf_value=-0.075470545960410168 0.070925749025482918 0.087608780028647679 0.043031916368441295 0.032854483758788348 -0.039171614786618417 -0.016942104891975476 0.040996836497478581 0.016263036591806744 0.060201543586117873 -0.0084690835098901653 -0.091397668214713443 -0.013110421061659936 0.076829977468418992 0.10879471010437575 -0.076547965996956166
leaf_weight=26.861096985638142 51.584573775529861 108.03009727597237 53.423698529601097 69.899408370256424 32.019319415092468 50.100275352597237 56.588624343276024 19.781327694654465 88.774280309677124 26.054452620446682 33.003595307469368 22.490160316228867 93.957914412021637 148.52458521723747 17.692249916493893
leaf_count=173 117 199 170 190 146 189 147 98 203 144 223 135 191 233 126
internal_value=0 0.0683375 -0.0239796 0.0795047 0.0122266 0.0324111 0.0137892 -0.0451855 0.0869277 -0.0548248 -0.0668968 -0.047052 0.0936967 0.0998737 -0.0862153
internal_weight=0 667.46 231.326 509.186 85.443 158.273 106.689 145.883 439.287 126.102 100.047 49.3513 350.513 256.555 50.6958
internal_count=2684 1469 1215 1016 316 453 336 899 826 801 657 308 623 432 349
is_linear=0
shrinkage=0.0739073


Tree=10
num_leaves=16
num_cat=0
split_feature=22 25 60 127 75 9 123 46 83 69 158 9 73 1 11
split_gain=230.365 43.7124 42.9974 28.593 19.6878 17.8657 17.6135 15.8509 10.6336 9.86451 7.82896 5.68053 5.59784 12.5216 2.94623
threshold=-0.54442700123442889 0.25515288347625298 -0.63744223037154391 0.39235513788817056 0.25168268543055861 -0.52084526273000309 -1.0093418400865555 -0.45821363966732326 1.7501365517180354 -0.16138934666202956 -0.36244611564369217 -0.25737210185275111 0.37565789636576724 -0.57911488147152246 1.0000000180025095e-35
decision_type=2 2 2 2 2 2 2 2 2 2 2 2 2 2 2
left_child=1 8 6 7 5 -3 -2 10 12 -8 11 -4 13 14 -1
right_child=2 4 3 -5 -6 -7 9 -9 -10 -11 -12 -13 -14 -15 -16
leaf_value=-0.087399118289120489 0.065245073270690665 0.07019496858096104 0.11070583325017985 0.030268996708436011 -0.040493805850117609 -0.0016220970269591932 -0.0037198556317786782 0.051726296399789318 -0.0081864257202873252 0.043396934522611848 0.072477613389932027 0.08688325834873685 -0.092266170234540548 -0.0020472669757840962 -0.05273945358497862
leaf_weight=28.257757373154163 51.917290985584259 35.767907574772835 86.728748843073845 70.248438358306885 27.796067759394646 40.170540541410446 69.392313614487648 81.698420912027359 24.015149712562561 37.327921569347382 119.96230615675449 147.93322537839413 26.247075319290161 19.670821584761143 25.472728550434113
leaf_count=218 117 110 133 190 149 161 241 196 105 95 237 260 173 112 187
internal_value=0 -0.022655 0.0635144 0.0740295 0.0127248 0.0322046 0.029937 0.0810749 -0.0523332 0.0127604 0.0878363 0.0956878 -0.0629725 -0.0524976 -0.0709676
internal_weight=0 227.398 665.209 506.571 103.735 75.9384 158.638 436.323 123.664 106.72 354.624 234.662 99.6484 73.4013 53.7305
internal_count=2684 1215 1469 1016 420 271 453 826 795 336 630 393 690 517 405
is_linear=0
shrinkage=0.0739073


Tree=11
num_leaves=15
num_cat=0
split_feature=22 103 25 81 8 64 157 90 30 156 132 9 33 13
split_gain=198.601 39.6427 39.1118 29.1711 18.3374 17.2665 14.998 12.7097 11.7095 8.78525 7.81262 7.2908 3.73274 1.51594
threshold=-0.54442700123442889 -0.070306517074447211 0.25515288347625298 -0.61723060523360995 -0.085813064735910924 1.211567355619519 -0.27661587800755522 0.15440194919266653 0.95155564541824067 0.81138639766753051 -0.26684498350944719 1.0646269847191718 0.05134730311624703 -0.37509045470969576
decision_type=2 2 2 2 2 2 2 2 2 2 2 2 2 2
left_child=2 3 9 6 8 7 -2 -4 11 10 12 -5 13 -1
right_child=1 -3 5 4 -6 -7 -8 -9 -10 -11 -12 -13 -14 -15
leaf_value=-0.065346283972102001 0.054166498440710829 0.0060384281078440924 0.015544838779019861 0.079537808604612528 0.042735714918037425 0.053629996343000801 0.0025949660203140514 -0.049689305721343474 0.10184904358628494 -0.004666218734418066 -0.014139600093389305 0.050976104323312808 -0.049072062081968675 -0.091623861596787204
leaf_weight=19.86145743727684 80.655129000544548 68.73771645128727 41.789137475192547 209.22553206980228 83.70076222717762 35.41664069890976 49.834778115153313 26.761299982666969 105.68366284668446 19.343724220991135 17.453364960849285 63.675392240285873 32.559147134423256 30.26529199630022
leaf_count=151 200 213 183 402 200 101 146 136 170 99 109 138 225 211
internal_value=0 0.0591693 -0.0214206 0.0653303 0.074041 0.0117273 0.0344711 -0.00992182 0.0809622 -0.0502639 -0.059072 0.0728736 -0.0685563 -0.081212
internal_weight=0 661.513 223.45 592.775 462.285 103.967 130.49 68.5504 378.585 119.483 100.139 272.901 82.6859 50.1267
internal_count=2684 1469 1215 1256 910 420 346 319 710 795 696 540 587 362
is_linear=0
shrinkage=0.0739073


Tree=12
num_leaves=17
num_cat=0
split_feature=22 24 81 121 57 138 148 43 81 57 84 4 11 24 157 6
split_gain=159.365 47.1925 37.5078 31.3153 20.6203 16.6503 16.6497 16.5034 13.4538 11.8644 8.82048 7.36111 7.31432 11.2597 5.21163 0.848367
threshold=-0.53729928193302035 2.87338206375088 0.6911995103831351 -0.27589129781051069 0.34067727989050273 1.2478675965735055 -0.5683426005839044 1.4025699106472025 -0.18067146274947202 -0.17193272964817247 -0.34284981433439649 0.32358108197491797 -0.17633835658745253 0.20392777216698352 -0.27753756714292926 -1.0047144197791518
decision_type=2 2 2 2 2 2 2 2 2 2 2 2 2 2 2 2
left_child=1 4 3 6 7 10 9 12 -8 -2 14 -6 15 -14 -4 -1
right_child=2 -3 5 -5 11 -7 8 -9 -10 -11 -12 -13 13 -15 -16 -17
leaf_value=-0.076631770768184032 0.037169364722849457 0.055338295663785536 0.094005769675612652 -0.022923724702757699 -0.019120003621323267 0.035490037817106114 -0.0092445895352218262 -0.0087571092669196798 0.045967499024312589 0.079859714287134662 0.056465170723300408 0.036829379550354931 -0.079971769382285132 -0.012030308449501023 0.069999708813702488 -0.096641435084050931
leaf_weight=23.585877925157547 68.364396020770073 38.780270949006081 122.97956104576588 46.58417834341526 29.034393385052681 68.451157316565514 46.092881605029106 39.986350007355213 50.541765749454498 74.106704816222191 88.583942502737045 23.035817041993141 26.882511056959629 26.417304560542107 82.559757441282272 22.72575905919075
leaf_count=197 186 109 206 155 156 164 145 201 119 148 187 107 208 148 160 136
internal_value=0 -0.019016 0.0525398 0.0325125 -0.0340601 0.0683203 0.0433129 -0.0488653 0.0196324 0.0593749 0.0759609 0.00563196 -0.0649657 -0.0462975 0.0843632 -0.0864508
internal_weight=0 230.448 648.264 285.69 191.668 362.574 239.106 139.598 96.6346 142.471 294.123 52.0702 99.6115 53.2998 205.539 46.3116
internal_count=2732 1262 1470 753 1153 717 598 890 264 334 553 263 689 356 366 333
is_linear=0
shrinkage=0.0739073


Tree=13
num_leaves=15
num_cat=0
split_feature=21 30 142 40 156 57 132 36 156 158 33 21 156 9
split_gain=153.349 39.9591 35.3435 20.7404 25.0809 18.624 17.4564 17.3356 17.2825 12.8844 10.8202 8.58067 8.15204 4.51329
threshold=-0.40646192214985272 1.4270264094018634 -0.12103213785487242 0.25491071381809655 -0.83913558554722223 0.34067727989050273 -0.36795192487294365 0.65825993881095035 -0.23820856813535876 -0.36244611564369217 1.6744108710443377 0.99901016199397075 -0.35293571128538098 0.82681268721429524
decision_type=2 2 2 2 2 2 2 2 2 2 2 2 2 2
left_child=1 3 6 4 -1 10 9 12 -7 11 -6 -2 -8 -5
right_child=2 -3 -4 13 5 8 7 -9 -10 -11 -12 -13 -14 -15
leaf_value=0.042129343493039755 0.064442130615243065 0.050837738332391275 -0.0031647098923282594 -0.087660392207313809 -0.064997852784265231 0.047659161214957016 0.037090108076919766 0.060458803738860707 -0.035445682994072435 0.047673599797137284 -0.010990874188417874 0.093185373436646068 -0.0076811367395590675 -0.0418559913735592
leaf_weight=34.292308367788792 112.86555378139019 43.636046409606934 56.072999343276024 28.992128893733025 64.264164693653584 27.461126439273357 50.115620672702789 116.10518848896027 27.214859396219254 105.94021813571453 29.594746775925159 114.06666848063469 39.902295157313347 19.75847664475441
leaf_count=114 225 139 166 239 371 128 130 242 138 235 140 192 116 157
internal_value=0 -0.0140385 0.052679 -0.0262631 -0.0148417 -0.0279946 0.0584886 0.0415862 0.0062939 0.0689549 -0.0479689 0.0788898 0.0172443 -0.069096
internal_weight=0 275.214 595.069 231.578 182.827 148.535 538.996 206.123 54.676 332.872 93.8589 226.932 90.0179 48.7506
internal_count=2732 1426 1306 1287 891 777 1140 488 266 652 511 417 246 396
is_linear=0
shrinkage=0.0739073


Tree=14
num_leaves=15
num_cat=0
split_feature=21 47 40 95 47 68 43 31 85 158 37 101 31 54
split_gain=133.011 38.5618 30.0097 21.7121 21.1622 15.375 15.4277 16.8022 11.5664 13.2083 9.92682 9.0847 8.94363 3.34457
threshold=-0.40646192214985272 0.2353494548799919 0.25491071381809655 -0.23800940064594633 1.6351782845649214 1.8161940581664753 0.39987617700973449 -0.71274651703676228 -0.46484012201556146 -0.35901767048084282 -0.23742614121649083 2.1158757392579202 -0.68668531000059863 -0.18951906233395097
decision_type=2 2 2 2 2 2 2 2 2 2 2 2 2 2
left_child=2 3 4 8 5 6 7 -1 9 12 -10 -6 -2 -4
right_child=1 -3 13 -5 11 -7 -8 -9 10 -11 -12 -13 -14 -15
leaf_value=0.029173648149594188 0.060833462920180041 -0.010280727928686555 -0.047147228643420171 0.023272334339549804 -0.075168992967484013 -0.038792316595121376 0.047733121202150175 -0.035166490604533807 0.021311822943943962 0.045517675807275781 0.063032843930048807 -0.0081051749344726136 0.090912222832090939 -0.086822435935524772
leaf_weight=47.955463565886021 88.562464579939842 53.962275415658951 22.827101491391659 95.246530443429947 26.439870186150074 30.227988354861736 60.691539540886879 41.233108192682266 59.510834559798241 88.557751312851906 65.368588536977768 18.934933722019196 138.34824894368649 23.609430499374866
leaf_count=187 175 177 190 233 175 137 209 197 146 196 138 125 241 206
internal_value=0 0.0492684 -0.0132157 0.0552682 -0.00207348 0.00929106 0.0189886 -0.000571687 0.0621888 0.069725 0.0431508 -0.0471832 0.0791726 -0.067319
internal_weight=0 589.557 271.919 535.594 225.483 180.108 149.88 89.1886 440.348 315.468 124.879 45.3748 226.911 46.4365
internal_count=2732 1306 1426 1129 1030 730 593 384 896 612 284 300 416 396
is_linear=0
shrinkage=0.0739073


Tree=15
num_leaves=17
num_cat=0
split_feature=21 101 65 84 43 49 36 158 120 65 27 136 120 2 157 126
split_gain=99.49 38.4436 35.5605 25.1148 17.7562 16.2876 15.268 13.71 10.6629 10.3944 9.37373 8.50602 5.55057 9.42458 2.63817 2.21741
threshold=-0.44392395380442157 1.0000000180025095e-35 1.0189152033824567 -0.27862596026368097 -0.18353838007981602 -0.59366810739566223 1.0297552886394596 -0.37154735759603569 -0.91339681851523724 0.36782820558388207 1.2960413958272285 1.9761897656522065 -0.35179627157178101 -0.71107409051907078 -0.21606867261898335 -0.44467386597701314
decision_type=2 2 2 2 2 2 2 2 2 2 2 2 2 2 2 2
left_child=2 3 4 5 12 8 -5 15 -2 -10 -6 -12 13 -1 -14 -7
right_child=1 -3 -4 6 10 7 -8 -9 9 -11 11 -13 14 -15 -16 -17
leaf_value=-0.071148076791281628 0.059320441164078613 -0.014728586013428755 0.040676793205741711 -0.0022397315350321432 0.014206665465361852 0.091375325898792006 0.047530331278071283 0.047923613854621495 -0.00057720511952266771 0.047830533669097959 -0.067080779514185826 0.00038870971649705623 -0.055831667467403409 -0.0057836781547333776 -0.094969792435895747 0.073833707191920409
leaf_weight=23.672595463693142 78.103450641036034 58.751213252544403 49.142731413245201 74.606909573078156 49.229134283959866 72.641097709536552 61.357279539108276 110.11943359673023 50.52496038377285 46.555279135704041 20.623546302318573 20.207502089440823 18.484552584588528 24.539249695837498 19.15772221237421 85.920576363801956
leaf_count=190 173 178 186 225 199 125 131 237 151 102 153 96 130 193 128 161
internal_value=0 0.0422396 -0.0149067 0.048012 -0.0304343 0.0565251 0.0202203 0.067957 0.0389918 0.022637 -0.00750839 -0.0336898 -0.0544833 -0.0378784 -0.0757507 0.08187
internal_weight=0 638.58 225.057 579.829 175.914 443.865 135.964 268.681 175.184 97.0802 90.0602 40.831 85.8541 48.2118 37.6423 158.562
internal_count=2758 1483 1275 1305 1089 949 356 523 426 253 448 249 641 383 258 286
is_linear=0
shrinkage=0.0739073


Tree=16
num_leaves=18
num_cat=0
split_feature=21 123 64 65 42 143 148 124 48 13 11 8 149 66 105 123 132
split_gain=86.4094 36.2089 32.6173 31.3627 16.1574 17.2408 11.8429 10.6403 12.6704 9.86513 9.18944 8.89373 6.29681 5.81833 8.17811 5.31313 4.31594
threshold=-0.44392395380442157 -0.85223662784204801 0.71870808122859775 1.6860784233488972 0.59021493651223189 1.5094245266683535 -0.35217358208620647 0.89383087226645563 1.0000000180025095e-35 -0.41224175117160672 1.2393531066383867 -0.12655307392139226 1.6440248076856674 0.40470546510843658 -0.48508600385893941 -1.0093418400865555 -0.44832346377109222
decision_type=2 2 2 2 2 2 2 2 2 2 2 2 2 2 2 2 2
left_child=3 7 6 4 10 -6 9 8 15 -3 13 -4 -7 14 -1 -2 -10
right_child=1 2 11 -5 5 12 -8 -9 16 -11 -12 -13 -14 -15 -16 -17 -18
leaf_value=-0.068578665731105506 0.056733908470577687 0.031584006669993649 0.057801654527249335 0.052745071192130184 0.025568512718646002 -0.062753606199791867 -0.035862620034753913 0.026044378742624694 0.08764308983173244 -0.019317639825977628 -0.0028574526096645241 0.020222128945693935 -0.0079190964240387126 -0.094685499277953139 -0.0087642257966075686 0.02664183479586223 0.063589029239184025
leaf_weight=34.982661716639996 74.752110213041306 48.84657034277916 92.063287764787674 32.760078474879265 50.305843576788902 24.410982944071293 48.463756486773491 56.778593167662621 75.541795045137405 36.218477964401245 19.842269696295261 54.921257093548775 21.52608123421669 19.056144937872887 19.415359817445278 56.103268578648567 88.454263508319855
leaf_count=301 157 137 187 98 220 145 165 132 135 122 131 136 113 123 144 138 174
internal_value=0 0.0395432 0.0197392 -0.0140281 -0.0255692 -0.00432342 -0.00670209 0.0553419 0.0609836 0.00991141 -0.0474859 0.0437599 -0.0370582 -0.0595414 -0.0472301 0.0438322 0.0746691
internal_weight=0 632.143 280.513 222.299 189.539 96.2429 133.529 351.63 294.851 85.065 93.2964 146.985 45.9371 73.4542 54.398 130.855 163.996
internal_count=2758 1483 747 1275 1177 478 424 736 604 259 699 323 258 568 445 295 309
is_linear=0
shrinkage=0.0739073


Tree=17
num_leaves=15
num_cat=0
split_feature=60 123 121 45 85 114 80 54 121 126 138 68 101 21
split_gain=77.0019 35.1683 30.0258 20.2754 20.3793 19.7206 16.9852 11.0537 11.435 10.4635 9.13653 7.85032 8.96427 5.14419
threshold=-0.3137318907563274 -0.57730250641416003 0.98885952049220471 1.1421603098106143 0.094337499744571937 0.2647968059548747 1.5356931674110166 -0.15546605219010326 -1.1058840223216675 -0.29908415793268373 -0.17876875365153574 1.4273927274307321 0.73361929381813462 0.35440485869638993
decision_type=2 2 2 2 2 2 2 2 2 2 2 2 2 2
left_child=1 7 3 4 9 6 11 8 -1 13 -11 12 -3 -2
right_child=2 5 -4 -5 -6 -7 -8 -9 -10 10 -12 -13 -14 -15
leaf_value=0.039545330180657833 0.047570639854572876 -0.046991220677743105 -0.010154380451383253 0.0027132387911956522 0.0098142609657171226 0.019722357592859566 0.01711277461219288 0.053871612504786948 -0.014370620640621392 0.01687903396846948 0.059939386380978385 -0.014704551400405991 -0.097199965660018872 0.071137497105291922
leaf_weight=36.489779591560364 66.97463895380497 57.852544575929642 57.238661885261536 51.827694103121758 55.630839511752129 36.202011249959469 22.170378804206848 41.854623027145863 52.260920614004135 54.414144270122051 53.259686850011349 22.301446817815304 29.241158999502659 206.83859212696552
leaf_count=93 155 431 213 188 158 129 81 102 224 143 116 123 200 402
internal_value=0 -0.00619558 0.0404922 0.0464211 0.0516035 -0.0285833 -0.0418752 0.0225623 0.00779688 0.0576974 0.0381784 -0.0538299 -0.0638485 0.0653731
internal_weight=0 298.373 546.184 488.946 437.118 167.768 131.566 130.605 88.7507 381.487 107.674 109.395 87.0937 273.813
internal_count=2758 1383 1375 1162 974 964 835 419 317 816 259 754 631 557
is_linear=0
shrinkage=0.0739073


Tree=18
num_leaves=13
num_cat=0
split_feature=195 46 95 85 12 63 57 56 68 47 64 93
split_gain=75.0635 33.9137 21.0836 25.4766 18.4995 15.6694 16.9597 14.8016 8.48535 4.94967 2.85034 0.0107371
threshold=1.0000000180025095e-35 0.6134073378736874 1.3877930743603804 0.29767481674825685 -0.68317631586650773 -0.03321518412644732 -0.1628485016310314 1.31824639025123 0.14701578796000955 2.428414621386382 -0.46776046468320492 1.070622651674628
decision_type=2 2 2 2 2 2 2 2 2 2 2 2
left_child=1 2 3 5 -5 8 -7 9 -1 10 11 -2
right_child=7 -3 -4 4 -6 6 -8 -9 -10 -11 -12 -13
leaf_value=0.058541495270470589 -0.084982990825534621 -0.025397873017994031 -0.0078214999112577281 0.04737691123882054 -0.025954495134357134 -0.0056029882059132983 0.044919737897521024 0.0063180815653522673 0.025030783597898849 -0.024551122523262577 -0.043145031258889369 -0.082139960784125249
leaf_weight=363.52759168297052 12.060320265591146 49.275007128715515 50.796961054205894 30.609985552728176 48.668024696409702 55.376145198941231 105.31381172686815 29.456500329077244 46.560376487672329 18.021724611520767 14.203458420932291 18.230220519006252
leaf_count=811 113 224 157 84 226 189 250 132 127 145 104 204
internal_value=0 0.0338683 0.0380351 0.0416185 0.00235945 0.0470714 0.0275089 -0.0368753 0.0547368 -0.0572274 -0.0704626 -0.0832719
internal_weight=0 750.128 700.853 650.056 79.278 570.778 160.69 91.9722 410.088 62.5157 44.494 30.2905
internal_count=2766 2068 1844 1687 310 1377 439 698 938 566 421 317
is_linear=0
shrinkage=0.0739073


Tree=19
num_leaves=17
num_cat=0
split_feature=28 109 85 10 73 3 12 63 132 10 47 75 22 60 58 72
split_gain=65.2666 31.6918 18.1237 18.064 16.5088 11.3438 10.9932 10.965 9.72013 9.58904 8.71856 8.26798 8.17247 5.58991 2.76093 0.0887989
threshold=-0.44019950749804754 0.85783382656329665 -0.51567445126648259 0.41076359068521479 1.1602285901545952 -0.14170721151640608 -0.11208397238905911 -0.07085579000580032 -0.22009416884474214 -0.89086450492187697 2.428414621386382 -0.024040229470898001 0.083122198128716004 0.67450080640861687 1.8449068767195618 0.36532952214080566
decision_type=2 2 2 2 2 2 2 2 2 2 2 2 2 2 2 2
left_child=1 2 7 9 10 -5 -3 8 12 -4 14 -9 -1 -11 15 -2
right_child=4 6 3 5 -6 -7 -8 11 -10 13 -12 -13 -14 -15 -16 -17
leaf_value=0.073924230829382265 -0.082853801134448887 -0.04055682851413376 0.016722822531389819 -0.027647123093269471 0.012091843407988252 0.025094630428885333 0.012530967855850719 0.0043701771989595453 0.031900316462615923 0.035659573926614049 -0.014043697766665978 0.044357399952123323 0.043840248436004828 0.072779647602140549 -0.043816541163966646 -0.090869752486497549
leaf_weight=133.26127211749554 19.113552227616314 37.403698183596134 73.985833644866943 51.303065344691277 27.793996170163155 39.368882820010185 49.507418505847454 48.268331363797188 75.506332010030746 48.248195640742779 18.482293359935284 68.083476513624191 78.307757839560509 40.981858685612679 11.567688599228857 12.476803012192248
leaf_count=281 209 147 240 176 121 130 166 149 191 163 148 171 173 81 126 94
internal_value=0 0.0316265 0.0371722 0.0217024 -0.035196 -0.00474716 -0.0103163 0.0469078 0.0546649 0.036396 -0.0565184 0.0277688 0.0627893 0.0527082 -0.074708 -0.0860198
internal_weight=0 744.226 657.315 253.888 89.4343 90.6719 86.9111 403.427 287.075 163.216 61.6403 116.352 211.569 89.2301 43.158 31.5904
internal_count=2766 2068 1755 790 698 306 313 965 645 484 577 320 454 244 429 303
is_linear=0
shrinkage=0.0739073


Tree=20
num_leaves=14
num_cat=0
split_feature=29 109 11 80 73 84 73 14 81 59 102 116 9
split_gain=56.6848 27.4457 16.8465 15.7169 15.0536 14.5542 12.2313 16.5919 21.9045 11.187 8.34949 6.49747 2.4738
threshold=-0.51267204490866136 0.85783382656329665 0.06242410388285987 1.0127074362716064 1.1602285901545952 -0.19870663926549362 0.79409559971980881 -0.83686422169633479 -0.27546716226031337 0.3599932512997866 1.4918726828722446 -0.27001306499889072 0.47908884897231918
decision_type=2 2 2 2 2 2 2 2 2 2 2 2 2
left_child=1 2 6 5 10 11 7 -1 -9 -3 12 -4 -2
right_child=4 9 3 -5 -6 -7 -8 8 -10 -11 -12 -13 -14
leaf_value=0.043325022273384917 -0.085640415193067601 0.020399969794395317 0.053170658252843256 0.071875672567037488 0.011129936425834637 0.0012174161176880525 0.045151548620712849 -0.044741549830388139 0.017054755912511391 -0.033088892185952602 -0.003410811130795703 0.021435254617929344 -0.051150233207027121
leaf_weight=68.591182999312878 24.626121357083321 38.102544151246548 146.76519387215376 93.658840537071228 27.957808271050453 51.163356877863407 91.414619266986847 43.601541392505169 111.33665743470192 48.601014032959938 13.411255821585653 46.374461330473423 21.085088968276978
leaf_count=194 240 134 357 194 121 180 212 196 286 179 110 136 227
internal_value=0 0.029486 0.0346742 0.0461346 -0.0335561 0.0362662 0.0223762 0.013062 -0.000335496 -0.0095828 -0.0546872 0.0455507 -0.0697312
internal_weight=0 739.609 652.906 337.962 87.0803 244.303 314.944 223.529 154.938 86.7036 59.1225 193.14 45.7112
internal_count=2766 2068 1755 867 698 673 888 676 482 313 577 493 467
is_linear=0
shrinkage=0.0739073


Tree=21
num_leaves=16
num_cat=0
split_feature=81 65 102 8 83 105 133 121 37 96 84 148 84 7 109
split_gain=70.6707 26.8836 22.7921 17.7421 15.5078 16.8342 14.4776 10.657 9.64907 9.10304 7.74406 7.52464 6.64754 5.33842 2.06548
threshold=-0.16133812929660304 0.51921263099795401 -0.34326104318128298 -1.1043132943729443 1.4167237037128932 1.2072726306459864 0.58973645041252387 -0.63160246545814935 -0.45989495917372863 -0.55632285202339016 -0.42935050897943899 -0.40954918915968258 -0.24566363101552741 -0.49009342808429651 0.37195717246597387
decision_type=2 2 2 2 2 2 2 2 2 2 2 2 2 2 2
left_child=1 3 6 -1 11 -6 9 -4 -3 -2 13 12 -5 -11 -13
right_child=2 8 7 4 5 -7 -8 -9 -10 10 -12 14 -14 -15 -16
leaf_value=0.014203356700384903 0.026431298124193692 0.0033936768515587332 0.034647737080660677 -0.020917399842123797 0.024227538982439276 -0.048865504911549479 0.0090360711158921237 -0.016393258692258609 0.052697039495588634 0.073057087710608148 0.038338935349610331 -0.10067739473013491 -0.076701305712355436 0.048815593428051189 -0.06360778944955725
leaf_weight=56.83812814950943 72.546701028943062 44.256186582148075 37.754135005176067 38.314575579017401 39.091235272586346 30.750094287097454 53.928727276623249 54.745060704648495 42.508418776094913 127.03679379075766 97.32871637493372 16.828781373798847 16.778349574655294 81.427350796759129 16.03183214366436
leaf_count=156 196 166 101 245 141 156 167 201 116 263 229 134 156 188 138
internal_value=0 -0.00716785 0.0377363 -0.0212019 -0.033955 -0.00795424 0.0448614 0.00443945 0.0275488 0.0499679 0.0555518 -0.0546014 -0.0379062 0.0635882 -0.0825921
internal_weight=0 301.398 524.767 214.633 157.795 69.8413 432.268 92.4992 86.7646 378.34 305.793 87.9535 55.0929 208.464 32.8606
internal_count=2753 1408 1345 1126 970 297 1043 302 282 876 680 673 401 451 272
is_linear=0
shrinkage=0.0739073


Tree=22
num_leaves=14
num_cat=0
split_feature=81 65 122 102 132 48 22 114 94 84 42 16 4
split_gain=61.5276 23.2987 20.4216 20.0782 15.1418 14.3716 12.7175 10.2963 9.28344 5.98787 5.75296 5.60499 4.58716
threshold=-0.16133812929660304 0.51921263099795401 -0.83182313159084642 -0.34326104318128298 0.30327368343197697 0.85110148315914846 -0.51101239898511464 -0.27778274563477412 0.56118302602493531 -0.41060468628867747 0.73285197284325998 0.15409140095226226 -0.91097593008131561
decision_type=2 2 2 2 2 2 2 2 2 2 2 2 2
left_child=1 2 -1 4 8 6 11 -5 9 12 -3 -4 -2
right_child=3 10 5 7 -6 -7 -8 -9 -10 -11 -12 -13 -14
leaf_value=0.023294103263307761 0.041671802596030739 0.042447802286428866 -0.083420845525232351 -0.01647778267056469 0.0096494857438229262 0.0027723960974892141 -0.018958135156270626 0.033726472075913762 0.019505715690059291 0.037458397170049992 0.0041577647649993985 -0.038015743097874505 0.066312792100264403
leaf_weight=46.457623541355133 55.871480062603951 48.375520460307598 42.670518159866333 54.3749690502882 66.125922732055187 46.228728905320168 53.171984761953354 37.843503154814243 52.828824430704117 93.627732999622822 38.484894499182701 22.777697719633579 157.87112687528133
leaf_count=150 132 137 427 202 195 166 195 100 151 219 145 188 346
internal_value=0 -0.0067404 -0.0199862 0.0353937 0.0421576 -0.0321834 -0.0458064 0.00412443 0.0481255 0.0530444 0.0254828 -0.0676187 0.0598717
internal_weight=0 298.167 211.307 518.544 426.325 164.849 118.62 92.2185 360.199 307.37 86.8604 65.4482 213.743
internal_count=2753 1408 1126 1345 1043 976 810 302 848 697 282 615 478
is_linear=0
shrinkage=0.0739073


Tree=23
num_leaves=15
num_cat=0
split_feature=69 0 77 6 139 16 57 0 43 16 16 138 84 156
split_gain=55.0542 25.8493 26.2233 25.9969 19.5552 19.7469 15.1302 12.8411 10.6282 9.18837 5.90443 5.54064 4.59316 5.35665
threshold=0.10464399882582771 -0.65617319333264967 1.5568286830515488 0.5020250066066011 0.42188719045574169 0.47033586405088196 0.34716601418846066 -1.1043132943729443 0.12398173154516172 -0.43323807780923757 -0.63072301234363815 -0.54856533296527565 -0.40871901181682574 -0.30789126375146253
decision_type=2 2 2 2 2 2 2 2 2 2 2 2 2 2
left_child=1 3 4 7 5 10 9 11 -6 -2 -3 -1 13 -8
right_child=6 2 -4 -5 8 -7 12 -9 -10 -11 -12 -13 -14 -15
leaf_value=0.0071701120762703505 0.042166748858454922 -0.04523609782881826 0.03441148478239614 0.073411165736411627 0.017012681890807055 0.0083261758611153352 0.075606909068826444 -0.020367225571273698 -0.032508400148460757 0.0020325285891347332 -0.084842931532530405 0.042218517293890055 0.036553311312538535 0.047726187134033857
leaf_weight=51.212185636162758 57.075248099863529 42.190660022199154 50.556115791201591 42.320256769657135 63.461796753108501 26.977898176759481 64.6838269084692 55.64512026309967 37.757710054516792 68.621077090501785 40.100304890424013 47.479138776659966 69.883867725729942 90.032902881503105
leaf_count=146 141 301 160 85 203 176 139 230 156 206 322 106 164 218
internal_value=0 0.00185911 -0.0133855 0.022095 -0.0248657 -0.0465471 0.0407886 0.00802376 -0.00146007 0.0202564 -0.0645365 0.0240315 0.0522793 0.0593825
internal_weight=0 457.701 261.044 196.657 210.488 109.269 350.297 154.336 101.22 125.696 82.291 98.6913 224.601 154.717
internal_count=2753 1885 1318 567 1158 799 868 482 359 347 623 252 521 357
is_linear=0
shrinkage=0.0739073


Tree=24
num_leaves=16
num_cat=0
split_feature=69 62 123 64 21 158 45 142 70 84 158 109 8 66 64
split_gain=56.2699 26.2971 25.1534 20.7569 20.4371 16.7862 16.9224 10.4044 10.2683 7.77376 7.24694 13.3525 7.98756 5.19728 6.22771
threshold=-0.16528251757160797 1.0038140124355617 -0.57730250641416003 0.49030988090109767 1.1230224047125434 -0.40957371559960504 0.1718992602335703 0.18962743128338944 1.1046007669562516 -0.13028623514467672 -0.32346018677744176 -0.113919481631349 1.0956472016430481 0.13460120744066106 0.83050298980995318
decision_type=2 2 2 2 2 2 2 2 2 2 2 2 2 2 2
left_child=2 9 4 8 5 -1 -7 -5 10 13 11 -4 -12 14 -2
right_child=1 -3 3 7 -6 6 -8 -9 -10 -11 12 -13 -14 -15 -16
leaf_value=0.031681516716467337 0.029357414989488597 -0.014239870572980821 -0.096212757533636992 0.022067683938950963 0.057753808095395133 -0.044170180534059571 0.015211508058845817 -0.024596779641386131 -0.093241783611870369 0.019567529934980323 0.0097150187115992923 -0.0081215127398936698 -0.052558755895775328 0.063395781451401609 0.059279556987581888
leaf_weight=66.885839462280273 92.325981512665749 48.049009941518307 21.40588703751564 60.148881867527962 46.964386463165283 54.652400210499763 50.377177894115448 46.10286196693778 19.286287099123001 55.92595063149929 29.194896057248116 16.75574579462409 18.30459214001894 97.55153664201498 64.563521578907967
leaf_count=170 243 154 158 170 99 237 162 217 120 157 185 123 175 227 143
internal_value=0 0.0366396 -0.00301163 -0.0212073 0.0145455 0.00274176 -0.0156879 0.00181987 -0.0445207 0.0445165 -0.0335513 -0.0575343 -0.0142831 0.0500002 0.041671
internal_weight=0 358.416 430.079 211.199 218.88 171.915 105.03 106.252 104.947 310.367 85.6611 38.1616 47.4995 254.441 156.89
internal_count=2740 924 1816 1148 668 569 399 387 761 770 641 281 360 613 386
is_linear=0
shrinkage=0.0739073


Tree=25
num_leaves=17
num_cat=0
split_feature=69 123 64 22 45 131 144 30 104 30 139 22 120 3 4 14
split_gain=48.8751 21.9473 18.509 13.882 13.805 13.8444 11.701 10.7419 16.2993 9.76043 8.81185 8.05898 7.00369 5.30134 10.9123 4.65043
threshold=-0.16528251757160797 -0.69513141559754066 0.49030988090109767 -0.51152282389672454 0.99623714404309038 0.69964657151231091 0.54248284503050004 1.2706550084125972 0.83299975713163421 0.59813085293843582 0.95538729825616497 -0.16993918126298127 -0.91339681851523724 -0.55587787878496298 -0.26388038380463774 0.070776911037156789
decision_type=2 2 2 2 2 2 2 2 2 2 2 2 2 2 2 2
left_child=1 3 9 12 5 13 -5 8 -4 10 11 -3 -1 14 -2 -15
right_child=4 2 7 6 -6 -7 -8 -9 -10 -11 -12 -13 -14 15 -16 -17
leaf_value=0.014837329641257894 0.0084689472161752176 -0.02581896871723979 0.017833250539786193 0.011698686020406825 -0.0027320722362233849 0.0074314506358743506 0.05729811962649603 0.03735251958353622 -0.04883912237002306 -0.089644696996785719 0.017836467781182787 -0.078037690246497066 -0.033791594653357175 0.066409681323392922 0.057677634640452613 0.039601464934024985
leaf_weight=29.04381451010704 46.906200282275677 58.301965903490782 44.800657570362091 78.697092786431313 47.566568948328495 57.696018472313881 50.439091861248016 34.335771828889847 36.222327075898647 17.69801677018404 17.311861924827099 22.32551483809948 36.51836208999157 93.99594796821475 51.79743853956461 56.645810090005398
leaf_count=82 129 550 124 209 166 160 109 96 191 100 77 95 183 205 119 145
internal_value=0 -0.00283123 -0.0182379 0.0154477 0.0343171 0.0400567 0.0295093 0.00270809 -0.0119735 -0.0391334 -0.0300058 -0.0402782 -0.0122492 0.0476058 0.0342926 0.056329
internal_weight=0 425.694 230.996 194.698 354.608 307.041 129.136 115.359 81.023 115.637 97.9393 80.6275 65.5622 249.345 98.7036 150.642
internal_count=2740 1816 1233 583 924 758 318 411 315 822 722 645 265 598 248 350
is_linear=0
shrinkage=0.0739073


Tree=26
num_leaves=15
num_cat=0
split_feature=96 102 105 64 122 72 85 73 35 156 12 4 36 148
split_gain=36.8792 26.5203 16.5188 19.7549 16.1039 19.9997 13.3404 11.1098 8.82969 8.09082 6.4496 9.43472 6.41752 3.22496
threshold=-0.56163489075943718 -0.25409091738180589 1.4490381498609757 1.211567355619519 -0.8299121355927187 -1.1691210764312685 0.1960061582464144 -0.87547083666281678 -0.46007332073729562 -0.24300168617258741 -0.093361081135799981 -0.60913929838213521 0.37167781180038612 1.5174907782312441
decision_type=2 2 2 2 2 2 2 2 2 2 2 2 2 2
left_child=2 6 3 4 -1 -6 8 -7 10 -3 11 -2 -12 -4
right_child=1 9 13 -5 5 7 -8 -9 -10 -11 12 -13 -14 -15
leaf_value=0.027604684441050773 0.0089489746953935242 0.0066604070331743852 -0.075123322922440589 0.053159372539369198 0.023840097784488742 -0.084783553875248802 -0.0038331520590953938 -0.025497628505182304 0.0099237986003879366 -0.044725088633608717 0.067311763052927187 0.045233787140114112 0.036744324370952569 -0.032161158107428922
leaf_weight=49.520960960537195 62.200986243784428 35.177179589867592 18.855291042476892 31.86406122148037 41.259819950908422 20.890044197440147 49.521373674273491 99.505470130592585 56.005007922649384 31.929250545799732 79.325143985450268 105.59124873578548 71.181865036487579 19.326114486902952
leaf_count=149 167 122 149 75 243 184 157 500 165 124 173 259 177 96
internal_value=0 0.0253807 -0.00818495 -0.00108527 -0.00927016 -0.0205663 0.0322159 -0.0357844 0.0369853 -0.0177888 0.0417468 0.0317829 0.052855 -0.0533774
internal_weight=0 490.932 281.222 243.04 211.176 161.655 423.826 120.396 374.304 67.1064 318.299 167.792 150.507 38.1814
internal_count=2740 1344 1396 1151 1076 927 1098 684 941 246 776 426 350 245
is_linear=0
shrinkage=0.0739073


Tree=27
num_leaves=14
num_cat=0
split_feature=101 40 46 73 132 131 199 3 146 146 63 84 4
split_gain=45.2788 36.8007 30.3004 22.8587 14.7621 13.5536 9.81169 8.21914 7.37569 5.63755 5.01436 4.23919 3.29714
threshold=1.9064429444943161 -0.31004176460856497 -0.34163240703955278 -0.097176708424299679 0.59977595190569943 -0.10082970644004553 1.0000000180025095e-35 -0.30377399436062413 -0.033514888100549291 -0.58003222776037822 -0.039488618439672801 -0.31434285320110827 1.2019535727939485
decision_type=2 2 2 2 2 2 2 2 2 2 2 2 2
left_child=1 2 4 -4 6 7 8 -5 -1 10 -3 -11 -2
right_child=12 9 3 5 -6 -7 -8 -9 -10 11 -12 -13 -14
leaf_value=0.042642435264296966 -0.078707513010508226 -0.096722298277886407 0.029108576545283361 -0.027419688480844036 -0.0057546915287311658 0.0033006215746992202 0.0037915881341882064 -0.084326887302040077 0.014836332329053459 0.0093677296824428331 -0.034435480824094263 -0.049001749047174366 -0.03927522420139902
leaf_weight=315.17821690440178 24.539109580218792 14.122588425874712 53.780694536864758 29.095615513622761 58.223127029836178 36.781677130609751 51.963069677352905 26.480555780231953 62.427984222769737 14.255550917237999 14.116956010460852 12.989306796342133 21.937153048813343
leaf_count=759 189 130 180 133 175 179 148 132 169 104 123 159 106
internal_value=0 0.0152726 0.0203243 -0.0091963 0.0291684 -0.0315015 0.0339018 -0.0545344 0.0380454 -0.0424453 -0.0655851 -0.0184606 -0.0600952
internal_weight=0 689.415 633.931 146.139 487.792 92.3578 429.569 55.5762 377.606 55.4844 28.2395 27.2449 46.4763
internal_count=2686 2391 1875 624 1251 444 1076 265 928 516 253 263 295
is_linear=0
shrinkage=0.0739073


Tree=28
num_leaves=14
num_cat=0
split_feature=101 30 0 50 126 21 14 35 145 10 90 106 59
split_gain=39.895 35.3362 14.9938 20.954 14.9356 13.4567 10.0157 9.82827 7.57025 9.38574 7.0165 6.07063 4.2467
threshold=1.9064429444943161 -0.42527547060920134 -1.2672733311148696 -0.56682193135023839 0.32272649234951223 0.94475480580459537 -1.0276561646718252 0.85044257253136268 0.016121465212543616 0.068392696727706773 -0.48618527847231635 -0.37810070377011734 1.5417241340046879
decision_type=2 2 2 2 2 2 2 2 2 2 2 2 2
left_child=1 2 -1 6 8 -6 -4 -8 9 11 -11 -3 -2
right_child=12 4 3 -5 5 -7 7 -9 -10 10 -12 -13 -14
leaf_value=0.03194829949960909 -0.038264228354090969 0.064187745293980122 0.0032771458812305733 0.013171975321627883 -0.035610077100045837 0.023115754919006175 -0.065387464137750581 -0.010023617153253428 0.0099029495703385553 0.0011047364997383911 0.03505669862985928 0.034870245800582726 -0.084271546642346595
leaf_weight=38.19111356139183 26.164369381964207 80.05345081537962 24.386745236814022 68.645246677100658 36.841710355132818 50.567176669836044 64.018300119787455 24.110957153141499 67.661938451230526 48.787320949137211 104.38501267135143 74.465654954314232 18.857592321932316
leaf_count=93 199 190 144 196 183 121 438 206 209 143 270 198 96
internal_value=0 0.0142967 -0.0101363 -0.0190083 0.0258781 -0.00163642 -0.0386412 -0.0502407 0.0322854 0.0372073 0.0242426 0.0500591 -0.0575345
internal_weight=0 682.115 219.352 181.161 462.762 87.4089 112.516 88.1293 375.353 307.691 153.172 154.519 45.022
internal_count=2686 2391 1077 984 1314 304 788 644 1010 801 413 388 295
is_linear=0
shrinkage=0.0739073


Tree=29
num_leaves=15
num_cat=0
split_feature=121 50 122 97 9 97 10 104 5 42 132 97 73 30
split_gain=36.0084 30.5649 26.2688 21.5887 18.8301 14.8596 13.8277 12.5263 12.397 11.5521 11.5494 8.47158 8.17099 6.68128
threshold=0.98885952049220471 -0.60999262684731115 -0.83182313159084642 -0.60699504904008672 0.54336260461631858 2.524229857212851 -0.28190284767832119 -0.59128920320040634 -0.28218547146986644 1.4365280187429987 -0.18385092322023441 0.16376800480679007 0.63787885713429981 0.75195962952137252
decision_type=2 2 2 2 2 2 2 2 2 2 2 2 2 2
left_child=1 2 -1 7 -5 6 -2 8 -4 -8 11 13 -12 -3
right_child=5 10 3 4 -6 -7 9 -9 -10 -11 12 -13 -14 -15
leaf_value=0.043858782065345894 -0.084172385731583213 0.031660227104022547 0.006679195645720587 0.031854197947943849 -0.027061754787367411 0.020317447227195289 -0.062899215107628914 -0.077014905267968309 -0.05346883994576105 0.0085903866131833116 0.034089808751882514 0.021387691068659318 -0.0071474101061145797 0.064325975220264772
leaf_weight=55.888755485415459 31.309841684997082 55.780038937926292 40.770357776433229 74.262002974748611 49.30595313757658 24.227387368679047 21.411516163498163 30.58337776362896 34.604099683463573 29.163183704018593 47.7840725928545 77.475839048624039 58.231144860386848 88.412044934928417
leaf_count=147 239 149 250 225 166 91 187 207 227 107 111 197 167 216
internal_value=0 0.0161021 -0.0015796 -0.0126437 0.00834562 -0.0305284 -0.0455723 -0.0371214 -0.0209345 -0.0216758 0.0315029 0.0410985 0.0114394 0.0516894
internal_weight=0 613.098 285.415 229.526 123.568 106.112 81.8845 105.958 75.3745 50.5747 327.683 221.668 106.015 144.192
internal_count=2686 2062 1222 1075 391 624 533 684 477 294 840 562 278 365
is_linear=0
shrinkage=0.0739073


Tree=30
num_leaves=18
num_cat=0
split_feature=27 46 32 0 115 80 146 105 97 60 14 14 123 130 56 107 27
split_gain=31.3407 19.3963 18.0237 17.1051 19.4888 16.8918 18.0647 10.8311 10.0083 8.51408 9.49509 10.1213 5.56809 4.50212 13.8839 2.4221 0.04078
threshold=1.0000000180025095e-35 -0.25610271614869706 -0.30272359542117233 -0.53395316577620566 0.69375040763754392 1.5295272048788264 0.34484327012548621 0.079033540976035807 1.5607760399042545 1.0104266305376153 -0.70851979437418 0.77315528250982568 0.20822355480837743 1.7257332019998299 -0.23646264526479813 -0.48893257073205026 0.79075065786166576
decision_type=2 2 2 2 2 2 2 2 2 2 2 2 2 2 2 2 2
left_child=1 3 -3 9 5 6 -5 -4 13 10 -1 -12 -6 14 16 -11 -2
right_child=8 2 7 4 12 -7 -8 -9 -10 15 11 -13 -14 -15 -16 -17 -18
leaf_value=0.047102212988231001 -0.078520813723721314 -0.044841582426802133 0.042420311953823349 -0.068325230299827247 0.010573553384330418 0.026641975030032839 0.0029734091998241843 -0.015088904561603307 0.0057119091264382768 0.060715429223624988 -0.0025154705313866722 0.034739153001267405 0.044423038228835462 -0.090688166235629877 0.017373211610386529 0.037359262872717763 -0.085339914642417566
leaf_weight=63.200339391827583 10.198695350438358 53.59208969026804 33.585335843265057 43.344448179006577 56.58908324688673 32.972140625119209 35.153350505977869 38.274021364748478 19.122962057590485 48.185750223696232 93.518103241920471 69.390096418559551 49.99709564447403 15.258419275283812 12.903663095086811 48.82990650832653 9.0347483009099943
leaf_count=166 193 234 124 203 146 88 133 148 104 124 289 188 121 117 137 127 103
internal_value=0 0.0137811 -0.0124029 0.0198508 0.00385598 -0.0177496 -0.0363959 0.0117895 -0.0394204 0.0306447 0.0227863 0.013353 0.0264516 -0.0576302 -0.0419346 0.0489598 -0.081724
internal_weight=0 666.632 125.451 541.18 218.056 111.47 78.4978 71.8594 66.5185 323.124 226.109 162.908 106.586 47.3955 32.1371 97.0157 19.2334
internal_count=2745 2091 506 1585 691 424 336 272 654 894 643 477 267 550 433 251 296
is_linear=0
shrinkage=0.0739073


Tree=31
num_leaves=14
num_cat=0
split_feature=27 46 132 94 42 32 113 3 94 3 43 45 32
split_gain=27.5452 16.8158 15.7961 15.1285 22.8014 12.1323 11.3878 9.64906 7.93946 8.12239 6.83927 6.82572 4.07118
threshold=1.0000000180025095e-35 -0.25610271614869706 0.058679855025385953 0.52251642745652882 1.6683132027809193 -0.30272359542117233 -0.42680173351059097 -0.97805184397175338 1.7267094377600867 1.0017639785511327 -0.076786980950538722 0.78972599716741354 0.92031332671616695
decision_type=2 2 2 2 2 2 2 2 2 2 2 2 2
left_child=1 3 5 6 -5 -3 10 -2 9 12 11 -1 -9
right_child=7 2 -4 4 -6 -7 -8 8 -10 -11 -12 -13 -14
leaf_value=0.036186013415069114 0.015372854462233963 -0.063483492205038267 0.0187498939045064 -0.043302256928212851 0.031978488825766531 -0.0024839144017976809 -0.010257747501051892 -0.084106056846716237 -0.093155559151079315 0.024029941022826799 0.003300617066646402 0.006961503349176279 -0.020957046569369364
leaf_weight=296.70682858303189 14.515372179448603 37.247276656329632 53.686297498643398 48.683508351445198 40.06182137131691 34.128761120140553 47.185000874102116 12.536914084106686 17.534520551562309 9.9863426685333234 52.635244652628899 51.185311868786812 10.044216994196175
leaf_count=868 127 155 230 170 101 121 171 164 129 126 143 132 108
internal_value=0 0.0128688 -0.0115362 0.0185582 -0.00931868 -0.0343163 0.0240839 -0.0376873 -0.0530597 -0.0314718 0.0281296 0.0318862 -0.056017
internal_weight=0 661.52 125.062 536.458 88.7453 71.376 447.712 64.6174 50.102 32.5675 400.527 347.892 22.5811
internal_count=2745 2091 506 1585 271 276 1314 654 527 398 1143 1000 272
is_linear=0
shrinkage=0.0739073


Tree=32
num_leaves=18
num_cat=0
split_feature=28 46 31 8 114 1 146 123 97 31 84 90 81 88 131 65 1
split_gain=24.1324 14.5423 15.0834 13.5408 17.0487 14.787 18.726 12.9737 9.43132 8.88197 7.71558 11.274 5.61767 4.35121 6.71447 3.57317 0.0375718
threshold=-0.44019950749804754 -0.25610271614869706 -0.40466623826782561 -0.53395316577620566 0.39346713025525565 1.2411801969090461 0.34484327012548621 -0.26309208192514505 1.5607760399042545 -0.6976350029253745 -0.38390945160873696 -0.47662734040540028 1.2206833846246112 -0.32475356974731628 1.6201942911575207 -0.31675092173107994 -0.28060990077245823
decision_type=2 2 2 2 2 2 2 2 2 2 2 2 2 2 2 2 2
left_child=1 3 -3 9 5 6 -5 -4 13 15 11 -11 -6 16 -15 -1 -2
right_child=8 2 7 4 12 -7 -8 -9 -10 10 -12 -13 -14 14 -16 -17 -18
leaf_value=0.022557012592176295 -0.078745639461819714 -0.041512662791121584 0.046213502952996477 -0.069165863227207774 0.041145742560458692 0.023622197905122148 0.0044307534789491069 -0.016380353908051482 0.0079655860617294759 0.07360596032797212 0.016419488664496464 0.029993790819870463 0.0073857964399195843 0.0046801789202940442 -0.071240000849100787 -0.0052899693500259174 -0.085448539940878088
leaf_weight=51.573388904333115 10.832803482189776 51.221056118607521 31.883993051946163 41.204705882817507 52.913739159703255 33.293294876813889 34.861723911017179 41.799582690000534 18.797336548566818 50.777503617107868 74.947920322418213 89.345917150378227 54.812505811452866 12.281855143606665 13.204053141176699 49.161534287035465 7.8995237573981276
leaf_count=153 207 230 91 201 125 89 132 185 104 124 227 250 144 139 111 140 93
internal_value=0 0.0119895 -0.0107085 0.0173097 0.00310004 -0.0174565 -0.0354361 0.010705 -0.0358877 0.0270775 0.0355601 0.0457978 0.0239682 -0.0545299 -0.0346535 0.00896689 -0.0815723
internal_weight=0 657.797 124.905 532.892 217.086 109.36 76.0664 73.6836 63.0156 315.806 215.071 140.123 107.726 44.2182 25.4859 100.735 18.7323
internal_count=2745 2091 506 1585 691 422 333 276 654 894 601 374 269 550 250 293 300
is_linear=0
shrinkage=0.0739073


Tree=33
num_leaves=17
num_cat=0
split_feature=57 21 147 63 46 105 83 106 81 105 14 57 126 78 11 84
split_gain=29.1469 15.3566 19.3327 11.876 11.8933 10.6026 11.8178 10.0376 9.69855 6.33225 5.65301 5.60953 5.46551 7.04924 5.38719 3.70991
threshold=0.34067727989050273 -0.45296651316931741 1.4832618967298103 -0.037920259861366455 -0.43789720282814631 1.3281553902534811 0.79752841456048584 0.21934782116764129 0.20848982997924531 -0.16273197823895355 0.47719863347675168 1.3937988564490726 -0.40177155418692484 0.83153343166062621 0.06242410388285987 -0.45512139342807956
decision_type=2 2 2 2 2 2 2 2 2 2 2 2 2 2 2 2
left_child=1 2 5 4 9 6 10 8 14 -3 -1 -9 15 -14 -2 -10
right_child=7 3 -4 -5 -6 -7 -8 11 12 -11 -12 -13 13 -15 -16 -17
leaf_value=-0.065166179491792001 0.027179152215659079 0.043267512296831998 0.024630509464520726 -0.019327308500258513 -0.017676888331148912 -0.082547394679471364 0.026000768711971586 -0.019160695613542278 0.060652424830148162 0.010498164376387682 -0.0015960657720339635 0.02105923905440369 0.045635277699992947 0.0061033526191243814 -0.014568438779940768 0.035408033112594377
leaf_weight=29.229328760877252 34.345524422824383 67.30349013954401 29.243020012974739 71.918792515993118 42.039840281009674 27.728580947965384 16.440621070563793 37.680904243141413 67.010989136993885 61.774979926645756 10.345398336648939 38.087869942188263 48.378141604363918 50.211290270090103 33.209314256906509 60.514351069927216
leaf_count=349 119 179 111 236 129 229 121 139 175 162 122 106 127 139 136 170
internal_value=0 -0.00459242 -0.0271045 0.00587338 0.0164649 -0.0451702 -0.0266678 0.0250409 0.0312288 0.0275846 -0.048548 0.00105729 0.0385701 0.0255018 0.00665643 0.0486733
internal_weight=0 356.024 112.987 243.037 171.118 83.7439 56.0153 369.438 293.67 129.078 39.5747 75.7688 226.115 98.5894 67.5548 127.525
internal_count=2749 1638 932 706 470 821 592 1111 866 341 471 245 611 266 255 345
is_linear=0
shrinkage=0.0739073


Tree=34
num_leaves=16
num_cat=0
split_feature=57 29 46 133 35 4 32 158 9 63 137 3 133 38 9
split_gain=25.2868 14.1069 12.3468 15.7503 12.9345 11.3281 11.0719 10.6612 10.2516 13.3874 5.3989 4.78084 6.15217 6.0126 3.42802
threshold=0.34067727989050273 1.7281433818018563 -0.28347556150320946 0.2239539403637644 -0.46007332073729562 0.38981681108916461 0.064187481220029374 -0.31394539925138837 -0.40345084954481664 -0.03321518412644732 2.1560831170859349 -0.035663514099818765 -0.14182856968499494 -0.37429498765006003 -0.208669058396598
decision_type=2 2 2 2 2 2 2 2 2 2 2 2 2 2 2
left_child=1 2 4 -4 8 -6 11 -8 -1 -10 -3 12 14 -13 -2
right_child=6 10 3 -5 5 -7 7 -9 9 -11 -12 13 -14 -15 -16
leaf_value=0.036993463715150846 0.048892176100444038 -0.084285158686558559 -0.063413398259227413 0.0062353737512090644 -0.059389705162765219 0.013066080643172381 -0.026885431218836141 0.021999590816765151 0.016799802108634972 -0.037677340317009124 -0.018262007590296975 0.027507388959443886 0.0018466057326794528 0.06476017868090693 0.023149492213282764
leaf_weight=76.839906603097916 45.630398586392403 15.352100487798452 34.164174254983664 36.880226776003838 26.44559533521533 21.263161992654204 40.202118016779423 61.872965410351753 96.820933682844043 33.051460701972246 12.095491632819176 51.443023327738047 48.908994920551777 43.828299380838871 74.208437226712704
leaf_count=214 128 211 170 169 183 100 141 206 347 155 89 157 150 106 223
internal_value=0 -0.00430775 -1.66496e-05 -0.0272577 0.00759012 -0.0270971 0.0234172 0.0027463 0.0155959 0.00293582 -0.0551904 0.031409 0.0239361 0.044645 0.0329514
internal_weight=0 352.913 325.465 71.0444 254.421 47.7088 366.094 102.075 206.712 129.872 27.4476 264.019 168.748 95.2713 119.839
internal_count=2749 1638 1338 339 999 283 1111 347 716 502 300 764 501 263 351
is_linear=0
shrinkage=0.0739073


Tree=35
num_leaves=15
num_cat=0
split_feature=143 60 69 54 107 68 144 15 32 126 123 145 72 105
split_gain=26.5378 17.3337 15.5465 11.9117 16.7724 11.2108 10.8737 8.45158 17.3442 8.13267 10.6596 6.75475 3.98844 3.70292
threshold=1.6344620008504962 0.30192852873827319 -0.062113488467780427 1.0052974240175734 0.3806577342317638 1.475891853925835 -0.20684754154136611 0.092450182904616623 0.22725907083834126 0.061034713621705997 -0.77368402171979433 -0.54035690651994861 1.21098863455088 -0.12243772503645535
decision_type=2 2 2 2 2 2 2 2 2 2 2 2 2 2
left_child=1 2 3 4 6 12 -1 8 9 10 -3 -4 -2 -9
right_child=5 7 11 -5 -6 -7 -8 13 -10 -11 -12 -13 -14 -15
leaf_value=0.0026768621271874462 -0.087777585856679885 0.032425283212008896 0.040753912065825952 0.031362624931835649 -0.071597626402182438 0.0070153877493363366 -0.044071910241878814 0.057284971646936446 -0.017676034425550657 0.052479315905591871 -0.010457437904191114 0.0011149839716230805 -0.038925777166436602 0.028619125284263077
leaf_weight=110.42536708898842 18.676757199689746 99.062011383473873 57.482066102325916 30.376611948013306 27.641146773472428 18.264222495257854 36.050018846988678 48.414114698767662 59.674692839384079 53.222513668239117 46.537260755896568 39.700409665703773 17.857019945979118 50.071417957544327
leaf_count=579 171 283 154 115 230 118 166 136 200 135 148 117 73 124
internal_value=0 0.0132656 0.000223201 -0.0113429 -0.0187934 -0.0402637 -0.00882879 0.0242873 0.017268 0.0277562 0.0187189 0.0245609 -0.0638997 0.0427109
internal_weight=0 658.658 301.676 204.493 174.117 54.798 146.475 356.982 258.496 198.822 145.599 97.1825 36.5338 98.4855
internal_count=2749 2387 1361 1090 975 362 745 1026 766 566 431 271 244 260
is_linear=0
shrinkage=0.0739073


Tree=36
num_leaves=10
num_cat=0
split_feature=117 145 57 144 10 68 157 127 138
split_gain=16.3679 13.4691 17.6304 18.4474 13.8332 9.34929 11.5183 7.61789 6.3696
threshold=0.90303021532633621 1.188291220573884 1.6669745703931007 0.81432397154842395 0.36420087654428696 1.4912499106492845 -0.024851473766754287 -0.45218243763959487 0.062079467824566019
decision_type=2 2 2 2 2 2 2 2 2
left_child=1 2 3 5 -3 6 -1 -5 -2
right_child=8 4 -4 7 -6 -7 -8 -9 -10
leaf_value=0.0042776497032056444 -0.063280796475209247 -0.042789009790256322 0.062707541823234167 0.055139138672986157 0.019739257060519017 -0.030906594368904042 0.04345663079918758 0.01966356695808797 -0.0014768725282425126
leaf_weight=339.0614653415978 21.635837096720934 44.671149101108313 42.42034313082695 65.909139458090067 34.062436889857054 34.948851358145475 46.6243487726897 66.346691720187664 15.731664929538963
leaf_count=1312 235 220 107 184 142 174 165 182 64
internal_value=0 0.0129905 0.0167899 0.0132669 -0.0157375 0.00569704 0.00901387 0.0373427 -0.0372614
internal_weight=0 674.044 595.311 552.89 78.7336 420.635 385.686 132.256 37.3675
internal_count=2785 2486 2124 2017 362 1651 1477 366 299
is_linear=0
shrinkage=0.0739073


Tree=37
num_leaves=13
num_cat=0
split_feature=146 117 7 3 3 13 144 103 30 75 14 138
split_gain=16.7905 13.7217 13.5255 9.97052 14.2419 15.1216 13.8726 13.4617 14.5427 10.0629 7.78523 5.80804
threshold=1.6060371308789381 0.90303021532633621 1.6722916004884432 0.31247994534331586 0.040367816123394289 -0.8525003348126633 -0.3328070233321771 -0.11515148513967731 0.66551039970616843 1.2714198151454696 -0.37168894615432302 0.062079467824566019
decision_type=2 2 2 2 2 2 2 2 2 2 2 2
left_child=1 3 -2 4 5 6 -1 8 10 -7 -5 -3
right_child=2 11 -4 7 -6 9 -8 -9 -10 -11 -12 -13
leaf_value=-0.047482076766260616 -0.070425249655557909 -0.059298783904775318 0.0046753373797203185 0.027006831973834099 -0.035450592100756025 0.0301067514454515 0.013038819377507343 0.068810981107713401 0.043677169239209487 -0.00030908363376522767 -0.015055578646859847 0.0017735871687703652
leaf_weight=38.2870729919523 24.66042884811759 19.366203870624304 27.940506558865309 39.323716832324862 36.578906964510679 199.17982382513583 45.007420048117638 36.946572154760361 78.593511525541544 84.673586957156658 61.824530448764563 15.167423181235788
leaf_count=175 234 211 127 128 147 669 141 190 211 269 224 59
internal_value=0 0.0128673 -0.0305334 0.0153912 0.00852714 0.0129086 -0.0147802 0.02818 0.0198282 0.0210337 0.00129716 -0.0324754
internal_weight=0 654.949 52.6009 620.415 403.727 367.148 83.2945 216.688 179.742 283.853 101.148 34.5336
internal_count=2785 2424 361 2154 1401 1254 316 753 563 938 352 270
is_linear=0
shrinkage=0.0739073


Tree=38
num_leaves=17
num_cat=0
split_feature=0 148 148 22 11 16 9 63 54 16 115 11 89 104 89 10
split_gain=11.9704 12.9503 8.0246 15.5817 10.6847 17.1925 10.5979 15.261 9.8211 8.62318 10.0949 7.98488 7.7904 12.0575 9.25898 6.42804
threshold=0.89194715571564132 2.811149293234402 -0.39232633856496385 1.6174959413500936 0.82412988959266786 -0.52282222379206211 -0.27974577277300344 -0.034783542704753721 -0.15694661784853142 -0.71626228631818811 0.17932411210628121 0.34344466972574789 1.8047160631406183 1.8615615315156397 1.4566420984706945 0.82976474764430919
decision_type=2 2 2 2 2 2 2 2 2 2 2 2 2 2 2 2
left_child=2 12 4 9 6 -6 8 15 -1 -4 11 -11 13 14 -2 -8
right_child=1 -3 3 -5 5 -7 7 -9 -10 10 -12 -13 -14 -15 -16 -17
leaf_value=0.021379121337488937 -0.037720155356734189 0.037572975097126551 -0.037898314417492029 0.040440954904320134 0.027134983653719438 -0.044501035013204952 0.038246458081115625 -0.019390281860652954 0.063162548630627632 -0.040349958314086248 0.029596234179498453 0.011699536180288527 0.0021171361831664693 0.0066045405718937458 -0.11289227695191796 0.0061527862665694882
leaf_weight=62.082200635224581 23.920457132160664 22.347414463758469 43.892058791592717 42.304441884160042 39.274902921169996 34.266275929287076 94.955331932753325 53.303384102880955 60.839991334825754 36.038729621097445 41.340433653444052 29.098352696746588 35.344092216342688 18.679031003266573 14.300744105130432 53.180888317525387
leaf_count=195 243 81 198 97 148 146 294 216 166 174 117 122 240 64 105 179
internal_value=0 -0.0129056 0.0131963 0.000815855 0.0191913 -0.00624359 0.024958 0.0145222 0.0420597 -0.0103321 0.00103118 -0.0170982 -0.0251347 -0.0420624 -0.0658464 0.0267248
internal_weight=0 114.592 590.577 192.674 397.903 73.5412 324.362 201.44 122.922 150.37 106.478 65.1371 92.2443 56.9002 38.2212 148.136
internal_count=2785 733 2052 708 1344 294 1050 689 361 611 413 296 652 412 348 473
is_linear=0
shrinkage=0.0739073


Tree=39
num_leaves=12
num_cat=0
split_feature=121 145 42 156 40 44 14 31 4 3 73
split_gain=22.6952 13.2327 13.4442 12.8589 11.0514 11.3601 17.4722 10.4963 9.92263 7.16385 5.14822
threshold=1.5421880034996429 1.3349072921062306 1.7586499924572372 0.064189872658263786 -0.32376232592564419 -0.24094732869357868 -0.24041889699590671 -0.67179654124849419 -1.032619222958105 0.49955703418201219 1.1386093088146365
decision_type=2 2 2 2 2 2 2 2 2 2 2
left_child=1 2 4 -3 5 8 -7 9 -1 -6 -2
right_child=10 3 -4 -5 7 6 -8 -9 -10 -11 -12
leaf_value=-0.006363253422987606 -0.082086095089999006 -0.058523726464303205 0.059822043007294448 0.011991710161678076 -0.087238529646436913 0.016183284104951776 -0.044648914140088723 0.017201387290266497 0.024769620187950966 -0.014180266346339294 -0.024627225140481414
leaf_weight=66.283989161252975 15.686102014034985 28.45007286593318 32.901428386569023 28.055460276082158 14.55222609639168 68.329635661095381 41.425918508321047 21.88889167830348 357.61852959357202 14.774722941219805 18.638172797858715
leaf_count=202 179 151 78 96 124 247 212 216 1061 122 91
internal_value=0 0.010722 0.0138532 -0.0235122 0.0112673 0.0144146 -0.0067771 -0.0215266 0.0199015 -0.0504323 -0.0508858
internal_weight=0 674.281 617.775 56.5055 584.874 533.658 109.756 51.2158 423.903 29.3269 34.3243
internal_count=2779 2509 2262 247 2184 1722 459 462 1263 246 270
is_linear=0
shrinkage=0.0739073


Tree=40
num_leaves=16
num_cat=0
split_feature=0 147 40 45 142 1 9 5 5 4 9 5 138 105 10
split_gain=20.1949 12.7864 12.593 14.0253 11.1593 10.8146 12.2739 13.5525 8.94958 17.4683 7.82621 8.22491 10.427 7.42084 6.73653
threshold=0.89194715571564132 1.8383493657519436 -0.32376232592564419 1.2667496794132951 -0.31309742224336845 1.1910112925898757 1.0646269847191718 -0.28218547146986644 -0.81919099444110788 0.20152366353912096 1.221712285277275 -0.67273494272167844 -0.52562078530733281 1.5296266562659722 -1.0410840830121573
decision_type=2 2 2 2 2 2 2 2 2 2 2 2 2 2 2
left_child=2 5 3 10 -5 6 7 -2 -4 -10 11 12 -1 -9 -13
right_child=1 -3 8 4 -6 -7 -8 13 9 -11 -12 14 -14 -15 -16
leaf_value=-0.018573966913969796 0.009967676598443739 0.026551965648661299 0.020668887150475317 -0.054830079562508315 0.011515905720103152 -0.080316588910219228 0.036552754623433929 -0.034169289492448497 -0.10028330378796431 0.011551872929353965 -0.0076604878659648793 0.050361685913770833 0.022567894631516566 -0.10904987414902922 0.02385492167893432
leaf_weight=50.43382802978158 18.980599645525217 23.215510174632072 15.872482992708681 25.99762923642993 29.630949297919869 21.736335843801498 15.796739529818295 14.944797310978176 16.229519676417116 14.396261354908345 51.321265272796154 68.576788768172264 101.10075391083956 14.002557704225181 221.62722356617451
leaf_count=168 161 76 114 111 152 106 115 141 155 108 164 180 277 125 626
internal_value=0 -0.0220875 0.0125589 0.0156884 -0.0194904 -0.0353004 -0.0199455 -0.038567 -0.0243704 -0.0477129 0.0196574 0.0228312 0.00887504 -0.0703909 0.0301186
internal_weight=0 108.677 595.187 548.688 55.6286 85.461 63.7247 47.928 46.4983 30.6258 493.06 441.739 151.535 28.9474 290.204
internal_count=2779 724 2055 1678 263 648 542 427 377 263 1415 1251 445 266 806
is_linear=0
shrinkage=0.0739073


Tree=41
num_leaves=12
num_cat=0
split_feature=146 35 45 13 51 144 3 88 114 50 3
split_gain=24.1282 11.0848 9.49818 10.0138 14.345 9.88348 8.49133 7.90348 7.85187 7.34664 7.32673
threshold=1.6060371308789381 0.98601318217984446 1.2061616983051422 -1.228088678070886 1.7409742445032979 0.67615413182891182 0.28646922710905903 1.09257620605275 2.0211259845253808 2.1097611894682662 0.37150426749028437
decision_type=2 2 2 2 2 2 2 2 2 2 2
left_child=1 2 3 -1 6 -4 -5 -3 9 -2 -6
right_child=8 7 5 4 10 -7 -8 -9 -10 -11 -12
leaf_value=0.047584138254214363 -0.094960355637073307 -0.046452134087056327 -0.039410742940110072 0.0099639768400983705 -0.059323290704425928 0.020929100978528088 0.031605944889643807 0.01397069982979115 -0.0042787785358926215 -0.02301567237657447 -0.0013275265789898093
leaf_weight=51.100918555632234 18.503751711919907 30.431868020445108 35.638655079528689 285.64476181566715 19.796603268012404 25.39256290346384 151.57632772065699 19.339217435568571 18.502069894224405 13.343915138393639 29.823554951697588
leaf_count=173 220 230 203 881 131 96 437 88 68 77 175
internal_value=0 0.0105402 0.0133251 0.0164599 0.013193 -0.0143058 0.0174668 -0.022974 -0.0425704 -0.0648161 -0.0244657
internal_weight=0 648.744 598.973 537.942 486.841 61.0312 437.221 49.7711 50.3497 31.8477 49.6202
internal_count=2779 2414 2096 1797 1624 299 1318 318 365 297 306
is_linear=0
shrinkage=0.0739073


Tree=42
num_leaves=11
num_cat=0
split_feature=108 142 94 60 4 30 102 138 147 145
split_gain=21.4226 16.5066 20.0317 15.5184 12.3539 12.6466 12.1927 10.0966 8.52408 5.94374
threshold=1.7279161523433821 1.464236207208127 0.84369900786842489 -0.63744223037154391 -0.26388038380463774 -0.69479365768013179 -0.33472014360997987 -0.54489420534000477 -0.31740024126221006 2.3166645940050494
decision_type=2 2 2 2 2 2 2 2 2 2
left_child=1 2 3 4 5 -1 7 -5 -6 -2
right_child=9 -3 -4 6 8 -7 -8 -9 -10 -11
leaf_value=-0.062360647563795613 -0.064180881260613165 0.06022687396664677 -0.041156665267468896 0.002049007807203013 0.034802985206331356 -0.0045084999638281553 -0.0080607630791063225 0.034684343962056025 -0.015276115868387468 -0.013283675605360342
leaf_weight=31.912591598927975 25.262874977663159 35.516218038275838 41.485168809071183 67.050056491047144 47.460068695247173 58.430829277262092 65.240712877362967 227.38720586895943 30.494507182389498 24.871155651286244
leaf_count=263 147 170 192 203 244 286 226 636 163 142
internal_value=0 0.0113431 0.00829428 0.0121798 -0.00634357 -0.024944 0.0208472 0.0272525 0.0152129 -0.0389311
internal_weight=0 604.977 569.461 527.976 168.298 90.3434 359.678 294.437 77.9546 50.134
internal_count=2672 2383 2213 2021 956 549 1065 839 407 289
is_linear=0
shrinkage=0.0739073


Tree=43
num_leaves=13
num_cat=0
split_feature=50 92 4 122 3 10 46 46 100 90 30 103
split_gain=19.0516 13.8707 17.7265 14.5959 17.2357 15.6196 12.9762 12.3289 9.7826 9.5106 8.19631 2.41771
threshold=1.8939077119829031 -0.197800880078117 0.09497159323911579 -0.31971032902116814 -0.98705555412976576 -1.1350547362678542 0.51269466373182537 -0.079107256113563687 -0.48709501967784719 -0.19113725973227447 1.3494763650088129 -0.11515148513967731
decision_type=2 2 2 2 2 2 2 2 2 2 2 2
left_child=1 3 11 7 -5 -6 -7 8 9 -1 -2 -3
right_child=10 2 -4 4 5 6 -8 -9 -10 -11 -12 -13
leaf_value=0.029264769948904864 -0.062841362338782722 -0.096753444712491629 0.032524966374228921 0.035566352299385574 -0.060122459896900571 0.012071471216827046 -0.042464832254559277 0.05601318165774509 -0.017338396256075722 -0.0066324170788321446 -0.0062281808515734626 -0.049129464430210691
leaf_weight=209.35086322575808 27.679840046912432 11.335094075649977 14.172821270301936 50.844650007784367 31.886145565658808 91.609330113977194 32.21089194715023 52.454728052020073 39.025430150330067 49.929366059601307 28.199968732893467 11.973293399438262
leaf_count=596 162 131 145 188 170 267 270 162 122 155 109 195
internal_value=0 0.0108648 -0.0326558 0.0137917 -0.00179464 -0.0139946 -0.00211574 0.02297 0.0171596 0.0223521 -0.0342713 -0.0722895
internal_weight=0 594.793 37.4812 557.311 206.551 155.706 123.82 350.76 298.306 259.28 55.8798 23.3084
internal_count=2672 2401 471 1930 895 707 537 1035 873 751 271 326
is_linear=0
shrinkage=0.0739073


Tree=44
num_leaves=15
num_cat=0
split_feature=109 103 4 121 1 56 35 57 85 94 126 126 15 108
split_gain=17.9102 12.3884 15.3413 27.2182 10.4876 18.4756 10.4284 10.6565 8.53255 11.8848 11.7035 9.9351 6.95114 5.86455
threshold=1.4558358623753864 -0.025461549009217124 -0.25658446586800032 -0.39446168702639028 1.0037140497983057 0.69819656480768322 -0.32450271108881373 0.56518748659984663 -0.51567445126648259 -0.3165161772656167 -0.43066063652075126 0.17870359011122214 -0.62837997368485377 -0.36541577239776041
decision_type=2 2 2 2 2 2 2 2 2 2 2 2 2 2
left_child=1 6 3 -3 5 -2 8 -8 11 10 -10 12 -1 -4
right_child=4 2 13 -5 -6 -7 7 -9 9 -11 -12 -13 -14 -15
leaf_value=0.051019902678714521 -0.065855041004896808 0.010740669235931945 -0.010919102417003758 -0.10597098271934689 -0.064886035203656586 0.064326998658737505 -0.039837447952125404 0.021419957728554706 -0.030884888489233722 0.04339601415372546 0.015275406175081722 -0.0053621895892855273 0.023897392426755829 0.037115115962683028
leaf_weight=77.73227946460247 11.524535957723858 22.283156516030431 28.975281540304422 21.393090421333909 28.743740648031235 12.321512525901197 35.543660912662745 27.524410650134087 54.947890995070338 34.675291571766138 66.085434421896935 43.839375287294388 153.61464398726821 26.656477510929108
leaf_count=219 194 102 174 196 157 108 198 88 241 107 180 142 457 109
internal_value=0 0.0101772 -0.0136418 -0.0464259 -0.0348244 0.00141143 0.0149659 -0.0131033 0.0190743 0.00524821 -0.0056809 0.0268974 0.0330105 0.0120969
internal_weight=0 593.271 99.308 43.6762 52.5898 23.846 493.963 63.0681 430.895 155.709 121.033 275.186 231.347 55.6318
internal_count=2672 2213 581 298 459 302 1632 286 1346 528 421 818 676 283
is_linear=0
shrinkage=0.0739073


Tree=45
num_leaves=13
num_cat=0
split_feature=45 3 132 14 92 117 156 106 158 148 2 127
split_gain=14.273 17.2295 12.0771 16.2539 10.4244 9.64832 8.74762 8.56333 6.5529 5.4577 9.49812 5.31928
threshold=1.3102706235895745 -0.21673812949984023 0.16826628221999015 -0.18211982543834979 -0.31004176460856497 -0.18708150275855537 -0.40089899659577255 0.860966188494945 -0.35901767048084282 1.1884517130316261 0.15888479789428617 0.76184032718156802
decision_type=2 2 2 2 2 2 2 2 2 2 2 2
left_child=2 6 4 11 7 8 -2 9 -6 10 -1 -4
right_child=1 -3 3 -5 5 -7 -8 -9 -10 -11 -12 -13
leaf_value=0.023376764407706439 0.036375083600945539 -0.075130826599905595 -0.010912967971714677 -0.047332229838394475 -0.10080546535895844 0.014426587661483338 -0.030456025979016761 -0.0084447500345914608 -0.019542501739086414 0.046585003378480982 -0.012081869967022197 0.027692187185902415
leaf_weight=288.74311048537493 20.562768679112196 25.485655438154936 38.995169900357723 45.154968865215778 9.6083118319511431 21.740508226677775 22.300049338489771 60.781655330210924 12.435413049533961 41.928020566701889 48.143783528357744 38.98717025667429
leaf_count=846 122 183 126 203 85 227 154 193 201 128 181 130
internal_value=0 -0.027008 0.00861804 -0.0120451 0.0138818 -0.0205085 0.00160516 0.0173071 -0.054963 0.021439 0.0183094 0.00838763
internal_weight=0 68.3485 606.518 123.137 483.381 43.7842 42.8628 439.597 22.0437 378.815 336.887 77.9823
internal_count=2779 459 2320 459 1861 513 276 1348 286 1155 1027 256
is_linear=0
shrinkage=0.0739073


Tree=46
num_leaves=15
num_cat=0
split_feature=45 25 147 193 149 33 13 3 81 104 13 77 14 1
split_gain=12.3736 15.4261 11.6389 10.891 19.991 14.0273 12.6454 11.0586 11.0118 12.9076 9.57219 7.92429 6.68891 2.45449
threshold=1.3102706235895745 0.47993718835422805 0.64825657340089571 1.0000000180025095e-35 1.4762280487218937 0.97649353683525864 -0.077643179635569951 0.5285689891356069 1.5113070423354802 -0.27737251911792343 -0.24552736794244129 1.0000000180025095e-35 0.11403932481173983 -0.66858276084070989
decision_type=2 2 2 2 2 2 2 2 2 2 2 2 2 2
left_child=3 2 -2 4 5 6 13 -8 9 11 -11 12 -5 -1
right_child=1 -3 -4 8 -6 -7 7 -9 -10 10 -12 -13 -14 -15
leaf_value=-0.063669282722993395 -0.016797283488233124 0.029661367320492488 -0.090543982584979366 0.023347252336317188 0.032525411046040238 0.020327090049369306 0.01122309940029389 -0.065967527485057478 0.047399301713997394 0.0089910504903386191 -0.030620856617450495 0.0427199745394218 -0.0015743497772988772 -0.11009907611011401
leaf_weight=11.388376956805589 27.653926596045494 19.743811178952456 20.249102408066392 130.93668580800295 39.600922701880336 22.103545449674129 23.221897074952722 17.992848709225655 46.341746084392071 71.137421399354935 62.685325786471367 57.526023834943771 106.81840097159147 13.702296711504458
leaf_count=212 183 122 154 393 242 108 128 161 115 189 191 163 337 81
internal_value=0 -0.0253126 -0.0479708 0.00802106 -0.0111139 -0.0306612 -0.0476586 -0.0224755 0.013173 0.00947667 -0.00956398 0.018106 0.0121505 -0.0890251
internal_weight=0 67.6468 47.903 603.455 128.01 88.409 66.3054 41.2147 475.446 429.104 133.823 295.281 237.755 25.0907
internal_count=2779 459 337 2320 932 690 582 289 1388 1273 380 893 730 293
is_linear=0
shrinkage=0.0739073


Tree=47
num_leaves=14
num_cat=0
split_feature=45 26 145 22 32 33 145 81 122 148 142 144 109
split_gain=10.8268 13.4953 13.8301 9.68165 17.0536 21.3768 15.6683 9.80484 10.4878 8.79131 8.99187 5.14613 0.519062
threshold=1.3614717343851968 -0.22646271743337276 -0.40607160957088839 -0.53729928193302035 1.2872244033573688 0.97649353683525864 -0.061657266774339144 1.5113070423354802 0.46698302354139076 -0.02693498354918664 -0.42032723861308569 -0.35080123501657873 -0.71192151744343846
decision_type=2 2 2 2 2 2 2 2 2 2 2 2 2
left_child=3 2 -2 4 5 11 -6 8 9 10 -5 12 -1
right_child=1 -3 -4 7 6 -7 -8 -9 -10 -11 -12 -13 -14
leaf_value=-0.10156905617625837 -0.10123559648532347 0.021621017808531259 -0.011175035821040713 0.012542605655661922 0.058894992395431715 0.012242985710688754 -0.020869273001471449 0.044803789718928011 -0.026282282226902424 -0.013723814424856423 0.049107619402098762 -0.040215814106307361 -0.079335654300964314
leaf_weight=11.481406403705479 17.238896142691374 20.825809545814991 20.259946862235665 288.13243994861841 28.636615687981248 33.223251957446337 25.368287228047848 45.438180282711983 42.210360743105412 59.20061894506216 42.104214616119862 21.63139994814992 11.461348235607145
leaf_count=114 140 122 150 882 140 174 160 115 128 173 103 237 141
internal_value=0 -0.0260837 -0.0525775 0.00724935 -0.0104815 -0.0326312 0.0214265 0.0121478 0.00871017 0.0125029 0.0172045 -0.0660781 -0.0904621
internal_weight=0 58.3247 37.4988 608.888 131.802 77.7974 54.0049 477.086 431.648 389.437 330.237 44.5742 22.9428
internal_count=2779 412 290 2367 966 666 300 1401 1286 1158 985 492 255
is_linear=0
shrinkage=0.0739073


Tree=48
num_leaves=14
num_cat=0
split_feature=103 14 14 4 31 181 73 142 4 71 36 10 114
split_gain=11.9995 12.3132 12.8092 14.8451 10.5818 9.24893 8.465 12.428 13.4191 9.11982 7.94175 7.07232 6.26183
threshold=-0.51875619772674808 0.4826652599289844 -0.18211982543834979 -0.37524361868723338 -0.64198383342439869 1.0000000180025095e-35 1.4098964198225066 -0.10361046551591473 0.071987624714183143 1.6101909881582384 0.74582669984195615 -0.44381560957793009 -0.38950344398539022
decision_type=2 2 2 2 2 2 2 2 2 2 2 2 2
left_child=6 2 3 4 -2 -3 7 9 -9 10 11 -1 -12
right_child=1 5 -4 -5 -6 -7 -8 8 -10 -11 12 -13 -14
leaf_value=-0.027439526583782382 0.002721096422650397 0.04556811052509821 -0.063888781446011456 0.030044654307838349 -0.063578258677966099 -0.018449767173234825 0.038423390149309858 -0.062125861846480897 0.010728691765053585 0.045113158374867665 0.034550465439943542 0.0066391597599179796 0.0056338669767889036
