tree
version=v4
num_class=1
num_tree_per_iteration=1
label_index=0
max_feature_idx=201
objective=binary sigmoid:1
feature_names=num__tenure num__MonthlyCharges num__TotalCharges num__ABSOLUTE_DIFF_MonthlyCharges_ num__ABSOLUTE_DIFF_TotalCharges_ num__ABSOLUTE_DIFF_tenure_ num__MonthlyCharges_0 num__TotalCharges_0 num__tenure_0 num__COSINE_MonthlyCharges_ num__COSINE_TotalCharges_ num__COSINE_tenure_ num__EXPONENTIAL_WEIGHTED_STD_MonthlyCharges_com_0_5_ num__EXPONENTIAL_WEIGHTED_STD_TotalCharges_com_0_5_ num__EXPONENTIAL_WEIGHTED_STD_tenure_com_0_5_ num__EXPONENTIAL_WEIGHTED_VARIANCE_MonthlyCharges_com_0_5_ num__EXPONENTIAL_WEIGHTED_VARIANCE_TotalCharges_com_0_5_ num__EXPONENTIAL_WEIGHTED_VARIANCE_tenure_com_0_5_ num__MonthlyCharges_tenure num__TotalCharges_MonthlyCharges num__tenure_MonthlyCharges num__Contract_Month_to_month_MonthlyCharges num__Contract_Month_to_month_TotalCharges num__Contract_Month_to_month_tenure num__Contract_One_year_MonthlyCharges num__Contract_One_year_TotalCharges num__Contract_One_year_tenure num__Contract_Two_year_MonthlyCharges num__Contract_Two_year_TotalCharges num__Contract_Two_year_tenure num__Dependents_No_MonthlyCharges num__Dependents_No_TotalCharges num__Dependents_No_tenure num__Dependents_Yes_MonthlyCharges num__Dependents_Yes_TotalCharges num__Dependents_Yes_tenure num__DeviceProtection_No_MonthlyCharges num__DeviceProtection_No_TotalCharges num__DeviceProtection_No_tenure num__DeviceProtection_No_internet_service_MonthlyCharges num__DeviceProtection_No_internet_service_TotalCharges num__DeviceProtection_No_internet_service_tenure num__DeviceProtection_Yes_MonthlyCharges num__DeviceProtection_Yes_TotalCharges num__DeviceProtection_Yes_tenure num__InternetService_DSL_MonthlyCharges num__InternetService_DSL_TotalCharges num__InternetService_DSL_tenure num__InternetService_Fiber_optic_MonthlyCharges num__InternetService_Fiber_optic_TotalCharges num__InternetService_Fiber_optic_tenure num__InternetService_No_MonthlyCharges num__InternetService_No_TotalCharges num__InternetService_No_tenure num__MonthlyCharges_MultipleLines_No num__MonthlyCharges_MultipleLines_No_phone_service num__MonthlyCharges_MultipleLines_Yes num__MonthlyCharges_OnlineBackup_No num__MonthlyCharges_OnlineBackup_No_internet_service num__MonthlyCharges_OnlineBackup_Yes num__MonthlyCharges_OnlineSecurity_No num__MonthlyCharges_OnlineSecurity_No_internet_service num__MonthlyCharges_OnlineSecurity_Yes num__MonthlyCharges_PaperlessBilling_No num__MonthlyCharges_PaperlessBilling_Yes num__MonthlyCharges_Partner_No num__MonthlyCharges_Partner_Yes num__MonthlyCharges_PaymentMethod_Bank_transfer_automatic_ num__MonthlyCharges_PaymentMethod_Credit_card_automatic_ num__MonthlyCharges_PaymentMethod_Electronic_check num__MonthlyCharges_PaymentMethod_Mailed_check num__MonthlyCharges_PhoneService_No num__MonthlyCharges_PhoneService_Yes num__MonthlyCharges_SeniorCitizen_No num__MonthlyCharges_SeniorCitizen_Yes num__MonthlyCharges_StreamingMovies_No num__MonthlyCharges_StreamingMovies_No_internet_service num__MonthlyCharges_StreamingMovies_Yes num__MonthlyCharges_StreamingTV_No num__MonthlyCharges_StreamingTV_No_internet_service num__MonthlyCharges_StreamingTV_Yes num__MonthlyCharges_TechSupport_No num__MonthlyCharges_TechSupport_No_internet_service num__MonthlyCharges_TechSupport_Yes num__MultipleLines_No_TotalCharges num__MultipleLines_No_tenure num__MultipleLines_No_phone_service_TotalCharges num__MultipleLines_No_phone_service_tenure num__MultipleLines_Yes_TotalCharges num__MultipleLines_Yes_tenure num__OnlineBackup_No_TotalCharges num__OnlineBackup_No_tenure num__OnlineBackup_No_internet_service_TotalCharges num__OnlineBackup_No_internet_service_tenure num__OnlineBackup_Yes_TotalCharges num__OnlineBackup_Yes_tenure num__OnlineSecurity_No_TotalCharges num__OnlineSecurity_No_tenure num__OnlineSecurity_No_internet_service_TotalCharges num__OnlineSecurity_No_internet_service_tenure num__OnlineSecurity_Yes_TotalCharges num__OnlineSecurity_Yes_tenure num__PaperlessBilling_No_TotalCharges num__PaperlessBilling_No_tenure num__PaperlessBilling_Yes_TotalCharges num__PaperlessBilling_Yes_tenure num__Partner_No_TotalCharges num__Partner_No_tenure num__Partner_Yes_TotalCharges num__Partner_Yes_tenure num__PaymentMethod_Bank_transfer_automatic_TotalCharges num__PaymentMethod_Bank_transfer_automatic_tenure num__PaymentMethod_Credit_card_automatic_TotalCharges num__PaymentMethod_Credit_card_automatic_tenure num__PaymentMethod_Electronic_check_TotalCharges num__PaymentMethod_Electronic_check_tenure num__PaymentMethod_Mailed_check_TotalCharges num__PaymentMethod_Mailed_check_tenure num__PhoneService_No_TotalCharges num__PhoneService_No_tenure num__PhoneService_Yes_TotalCharges num__PhoneService_Yes_tenure num__SeniorCitizen_No_TotalCharges num__SeniorCitizen_No_tenure num__SeniorCitizen_Yes_TotalCharges num__SeniorCitizen_Yes_tenure num__StreamingMovies_No_TotalCharges num__StreamingMovies_No_tenure num__StreamingMovies_No_internet_service_TotalCharges num__StreamingMovies_No_internet_service_tenure num__StreamingMovies_Yes_TotalCharges num__StreamingMovies_Yes_tenure num__StreamingTV_No_TotalCharges num__StreamingTV_No_tenure num__StreamingTV_No_internet_service_TotalCharges num__StreamingTV_No_internet_service_tenure num__StreamingTV_Yes_TotalCharges num__StreamingTV_Yes_tenure num__TechSupport_No_TotalCharges num__TechSupport_No_tenure num__TechSupport_No_internet_service_TotalCharges num__TechSupport_No_internet_service_tenure num__TechSupport_Yes_TotalCharges num__TechSupport_Yes_tenure num__gender_Female_MonthlyCharges num__gender_Female_TotalCharges num__gender_Female_tenure num__gender_Male_MonthlyCharges num__gender_Male_TotalCharges num__gender_Male_tenure num__MonthlyCharges_1 num__TotalCharges_1 num__tenure_1 num__NATURAL_LOGARITHM_MonthlyCharges_ num__NATURAL_LOGARITHM_TotalCharges_ num__NATURAL_LOGARITHM_tenure_ num__PERCENT_CHANGE_MonthlyCharges_ num__PERCENT_CHANGE_TotalCharges_ num__PERCENT_CHANGE_tenure_ remainder__gender_Female remainder__gender_Male remainder__SeniorCitizen_No remainder__SeniorCitizen_Yes remainder__Partner_No remainder__Partner_Yes remainder__Dependents_No remainder__Dependents_Yes remainder__PhoneService_No remainder__PhoneService_Yes remainder__MultipleLines_No remainder__MultipleLines_No_phone_service remainder__MultipleLines_Yes remainder__InternetService_DSL remainder__InternetService_Fiber_optic remainder__InternetService_No remainder__OnlineSecurity_No remainder__OnlineSecurity_No_internet_service remainder__OnlineSecurity_Yes remainder__OnlineBackup_No remainder__OnlineBackup_No_internet_service remainder__OnlineBackup_Yes remainder__DeviceProtection_No remainder__DeviceProtection_No_internet_service remainder__DeviceProtection_Yes remainder__TechSupport_No remainder__TechSupport_No_internet_service remainder__TechSupport_Yes remainder__StreamingTV_No remainder__StreamingTV_No_internet_service remainder__StreamingTV_Yes remainder__StreamingMovies_No remainder__StreamingMovies_No_internet_service remainder__StreamingMovies_Yes remainder__Contract_Month_to_month remainder__Contract_One_year remainder__Contract_Two_year remainder__PaperlessBilling_No remainder__PaperlessBilling_Yes remainder__PaymentMethod_Bank_transfer_automatic_ remainder__PaymentMethod_Credit_card_automatic_ remainder__PaymentMethod_Electronic_check remainder__PaymentMethod_Mailed_check
feature_infos=[-1.2876433357076105:1.6048973164615647] [-1.5590808125059858:1.7922019960146014] [-1.0075584110313642:2.8123085290869621] [-1.3732146786845074:2.5784136684430314] [-1.2060160305473682:2.9812805775614346] [-1.3806058593655879:2.085520697994244] [-1.5590808125059858:1.7922019960146014] [-1.0075584110313642:2.8123085290869621] [-1.2876433357076105:1.6048973164615647] [-1.6559001007418339:1.28083675737467] [-1.4494730056648946:1.3788448272519644] [-1.3817056216017931:1.468542093412087] [-2.1069659842313064:2.9120514491963907] [-1.7999143369867856:3.453290194399262] [-2.2206246960958627:2.5445546925480507] [-1.2271680645847816:4.0856026757025683] [-1.0062234280601949:5.244261772359744] [-1.2909408643849078:3.3694664154107454] [-2.2341056533153125:0.44760640505790078] [-3.2651149458719058:0.30626793132177549] [-0.44693294684006207:2.2374721019568433] [-0.94578599855614531:2.0421339744444649] [-0.55131773754116165:5.326954298091076] [-0.62565944941363161:3.9018159256242755] [-0.45220912380176848:3.4929283089938705] [-0.39603358032404679:4.7545425139783877] [-0.45876691721978413:3.2581002793627971] [-0.47447813133895117:3.324411347121635] [-0.4452253856704893:3.8163752346607369] [-0.53198941927685561:2.2497124897430973] [-1.1925123852191379:1.8230401606876878] [-0.72227767372610163:3.30795962274903] [-0.85309021038297506:2.0821984027466391] [-0.56000664080333362:3.0756557513555887] [-0.44472849595122205:4.6249667369757201] [-0.52785862556153662:2.7258360060020284] [-0.83236515237594266:2.1196961096541744] [-0.5194368877823935:4.605073361324] [-0.56149002555798422:3.2893793256907413] [-0.51378647107731878:2.5926444251643499] [-0.37891228946356265:4.9940595223046564] [-0.38826659388096679:3.8990813930579238] [-0.6941127114517337:2.1253460400249216] [-0.58503282081547725:3.1417451360629092] [-0.61694867536681908:2.232745741525108] [-0.69083945667266644:2.4904562274286692] [-0.49326158338330245:4.0456477840023153] [-0.53455640144671934:2.8250327897971115] [-0.87338041832362256:1.6952042412161779] [-0.6083220647327694:3.1012042274848013] [-0.63157797459584752:2.4767121011933835] [-0.51378647107731878:2.5926444251643499] [-0.37891228946356265:4.9940595223046564] [-0.38826659388096679:3.8990813930579238] [-0.77212164892543145:2.5502676885873572] [-0.31848462784650311:4.8400029898855816] [-0.79748739490364495:1.9211044460429221] [-0.82275277973335137:2.1088573760840346] [-0.51378647107731878:2.5926444251643499] [-0.69938517712198289:2.1740803828739428] [-0.92389534221972613:1.8355826094435725] [-0.51378647107731878:2.5926444251643499] [-0.60732995136117784:2.5588949716925633] [-0.66134279473815105:3.0588037530045731] [-1.0561863544743169:1.7951848622458408] [-0.85329483658360894:2.324438411931244] [-0.8257003353735729:2.126775697750682] [-0.47441685519710863:3.2826387125277332] [-0.46649816220304485:3.3326000799133659] [-0.66425725581590622:2.4139432100240814] [-0.44939676443749926:4.8543185513408833] [-0.31848462784650311:4.8400029898855816] [-1.7359836349186288:1.6466528147216684] [-1.4550070558081643:1.8534403853777899] [-0.41710791332726999:3.3706824178186463] [-0.76586616718195977:2.3458638724201935] [-0.51378647107731878:2.5926444251643499] [-0.7702854427792577:1.8918388429553319] [-0.76988805514082803:2.3613911675699044] [-0.51378647107731878:2.5926444251643499] [-0.76701356733785586:1.8921979101812898] [-0.9097252306979825:1.8717801628438113] [-0.51378647107731878:2.5926444251643499] [-0.6204416706814615:2.4330536013965216] [-0.48865681981963915:5.4516614546243956] [-0.59192594514286456:3.0681457609234637] [-0.24129326755631633:7.8467854132151649] [-0.25813255831089899:5.6875005505868863] [-0.63462047416298939:3.0501649434399831] [-0.68981401699383549:2.0947777003655546] [-0.52108360110011431:4.5819706249277239] [-0.5634469568684557:3.2696091656734354] [-0.37891228946356265:4.9940595223046564] [-0.38826659388096679:3.8990813930579238] [-0.5798617808862867:3.1869166039220462] [-0.61471973022058302:2.2403480307661368] [-0.58044780376417782:3.7600632029454921] [-0.63108139447280165:2.8373523478381442] [-0.37891228946356265:4.9940595223046564] [-0.38826659388096679:3.8990813930579238] [-0.50999022067282607:3.6040757305513487] [-0.54392075423984843:2.471911490356046] [-0.4762326631124893:4.9586629973026017] [-0.58602364982459332:2.6428140508719737] [-0.69435489121772742:3.1779412796940254] [-0.78729290287767617:2.1138933277021961] [-0.52293187950140729:4.9267435933213708] [-0.6168134979326112:3.0661572054435422] [-0.65576048851083912:3.1841018051580816] [-0.76798420830082204:1.9230249528535812] [-0.40538916607642006:4.5775389463569791] [-0.45768857285834197:2.9396387115011788] [-0.39549286558827301:4.6808720196461611] [-0.45059339100023316:2.9754052875082322] [-0.44084708492738045:5.0156875831152918] [-0.47799837662810996:3.6374119876219915] [-0.29520807663003279:9.7369819907579664] [-0.36876678910603733:4.8637694577014425] [-0.24129326755631633:7.8467854132151649] [-0.25813255831089899:5.6875005505868863] [-0.92767342987711732:2.8062526083924402] [-1.1651692169296075:1.6805201242515022] [-0.84141223651002284:3.1034750023868196] [-1.0682562946782461:1.7596375257228889] [-0.32179746997629316:5.6679928914231166] [-0.34310374184548087:4.2249599697365561] [-0.49426591042210105:4.8979402824613247] [-0.53135783534532288:3.2690612545296216] [-0.37891228946356265:4.9940595223046564] [-0.38826659388096679:3.8990813930579238] [-0.61419959941225544:3.0397486339948481] [-0.64115119405788601:2.2405634065705966] [-0.49757441549527859:4.9101695937348149] [-0.53373840188009425:3.2285959871928589] [-0.37891228946356265:4.9940595223046564] [-0.38826659388096679:3.8990813930579238] [-0.61090196312078071:3.0475067428180771] [-0.63811344996453523:2.2565937849654474] [-0.57305342292020733:3.9487189716425513] [-0.62086302024508577:2.8711376853576849] [-0.37891228946356265:4.9940595223046564] [-0.38826659388096679:3.8990813930579238] [-0.52104988730123203:3.4802121351092921] [-0.55369379733700141:2.4472055830344237] [-0.841143503416522:2.2075900762549461] [-0.58223095230995991:3.8037813026459566] [-0.68513171615649926:2.3417335496517846] [-0.8354786796715522:2.2264231023881544] [-0.5846248674561072:3.7849712108095845] [-0.68415522293669118:2.3361864384112332] [-1.5590808125059858:1.7922019960146014] [-1.0075584110313642:2.8123085290869621] [-1.2876433357076105:1.6048973164615647] [-1.8911839063049838:1.2667235859632604] [-2.6017817001912769:1.3677664440185366] [-2.2207859226309639:1.0214948884585298] [-0.99965520637874117:3.635086143257507] [-0.29579214220398092:12.840457105301496] [-0.41657322126113533:5.3859585618080521] [0:1] [0:1] [0:1] [0:1] [0:1] [0:1] [0:1] [0:1] [0:1] [0:1] [0:1] [0:1] [0:1] [0:1] [0:1] [0:1] [0:1] [0:1] [0:1] [0:1] [0:1] [0:1] [0:1] [0:1] [0:1] [0:1] [0:1] [0:1] [0:1] [0:1] [0:1] [0:1] [0:1] [0:1] [0:1] [0:1] [0:1] [0:1] [0:1] [0:1] [0:1] [0:1] [0:1]
tree_sizes=1503 1510 1296 1511 1622 1609 1514 1502 1628 1409 1514 1414 1416 1620 1515 1518 1305 1315 1304 1405 1739 1299 1309 1615 1400 1622 1199 1301 1199 1518 1416 1097 1201 1413 1525 1423 1095 1409 1304 1511 1091 1736 1089 990 885 1100 1629 1093 1090

Tree=0
num_leaves=13
num_cat=0
split_feature=21 123 2 48 150 48 22 133 29 2 101 145
split_gain=1525.61 131.882 101.705 92.8423 75.0658 59.5026 36.0984 26.6599 22.032 20.8085 20.5914 20.5351
threshold=-0.37222937598274669 -0.65585511253641371 -0.98061331901861215 0.63994043399799272 0.85487963365143316 1.0000000180025095e-35 -0.40198199197303136 -0.24633785827035473 -0.51267204490866136 0.33381264432037488 1.9064429444943161 -0.37528893743168956
decision_type=2 2 2 2 2 2 2 2 2 2 2 2
left_child=2 5 -1 11 8 6 -2 -7 -4 -5 -6 -3
right_child=1 3 4 9 10 7 -8 -9 -10 -11 -12 -13
leaf_value=-0.92113073894071495 -0.84479096629508432 -1.0199265045288943 -1.0493525530188275 -0.85104523985379232 -0.97263363638525147 -0.8035190923130181 -0.92343670423039015 -0.8590746576875552 -1.0907916398537802 -0.90717016905014702 -1.0426788890138223 -0.93874709346601581
leaf_weight=30.251498267054558 70.45671571791172 25.372224166989326 118.46876950562 79.239408776164055 56.794748142361641 189.90134239196777 41.571413740515709 48.597568407654762 111.63778574764729 47.231371536850929 28.104617491364479 31.032182052731514
leaf_count=99 177 108 539 204 215 399 137 129 554 148 126 107
internal_value=-1.01581 -0.857778 -1.03835 -0.903854 -1.04961 -0.833739 -0.873975 -0.814839 -1.06946 -0.872005 -0.995821 -0.975264
internal_weight=0 533.402 345.257 182.875 315.006 350.527 112.028 238.499 230.107 126.471 84.8994 56.4044
internal_count=2942 1409 1533 567 1434 842 314 528 1093 352 341 215
is_linear=0
shrinkage=1


Tree=1
num_leaves=13
num_cat=0
split_feature=21 46 51 24 152 22 96 24 136 144 144 16
split_gain=1208.73 144.176 89.2421 75.8706 52.588 33.7871 26.8095 13.6822 10.5148 9.79769 6.93853 6.61032
threshold=-0.44392395380442157 -0.34163240703955278 1.7352002093801719 1.8721288029823404 -0.45247314740524297 0.35948082884317589 -0.10396997154596234 2.9806591988332234 1.9455029485290589 0.31626989814087997 0.083630447078259437 -0.11697868652695674
decision_type=2 2 2 2 2 2 2 2 2 2 2 2
left_child=3 2 4 6 -2 10 8 11 -1 -8 -3 -5
right_child=1 5 -4 7 -6 -7 9 -9 -10 -11 -12 -13
leaf_value=-0.069297553825371117 0.16836028879075862 0.061111445710409378 0.054085079508091369 -0.01782945210458051 0.11976139733348606 -0.0068911072757158586 0.019700898917576301 0.068533358993365087 -0.020892465958019545 -0.041581226202852803 0.1060217378053937 0.030315761327720687
leaf_weight=155.49204203486443 335.49130147695541 33.980166271328926 43.797438129782677 24.693552806973457 141.9454213231802 28.158380150794983 27.266705095767975 23.768926411867142 23.0886240452528 20.454400956630707 28.200703173875809 26.468995094299316
leaf_count=785 702 118 155 109 376 117 111 82 104 96 83 104
internal_value=0 0.131994 0.145523 -0.031802 0.153911 0.0539347 -0.0511306 0.0265725 -0.0630393 -0.00656608 0.0814795 0.00707852
internal_weight=0 611.573 521.234 301.233 477.437 90.3392 226.302 74.9315 178.581 47.7211 62.1809 51.1625
internal_count=2942 1551 1233 1391 1078 318 1096 295 889 207 201 213
is_linear=0
shrinkage=0.0669309


Tree=2
num_leaves=11
num_cat=0
split_feature=21 8 24 8 48 84 104 175 4 1
split_gain=1002.15 91.3469 66.1042 56.3895 53.8651 33.5412 22.9887 19.2102 16.652 15.1433
threshold=-0.40775371634483781 -0.9006132484455377 2.6812811474406368 -1.0228332760019816 0.65726646880095951 -0.34492035885250821 -0.23256428885203242 1.0000000180025095e-35 -0.59641102752439557 0.035454196438315495
decision_type=2 2 2 2 2 2 2 2 2 2
left_child=2 5 3 -1 8 9 -6 -5 -3 -2
right_child=1 4 -4 7 6 -7 -8 -9 -10 -11
leaf_value=0.042066572100425643 0.13862225429092601 0.079585631005611945 0.058994909572446866 -0.055216213394993725 0.070868662724715606 0.10737876401506824 0.12262719730736896 -0.011305771908840028 0.016201428328390877 0.17250918503445095
leaf_weight=38.554767325520515 97.502845764160156 35.894287616014481 39.597596347332001 190.43932999670506 48.270056620240211 72.470941200852394 188.80198718607426 58.294281139969826 38.465323001146317 149.89544489979744
leaf_count=139 208 114 136 960 137 177 439 257 148 254
internal_value=0 0.122302 -0.0220764 -0.0332507 0.0964994 0.147424 0.112089 -0.0449252 0.0467978 0.159154
internal_weight=0 631.301 326.886 287.288 311.432 319.869 237.072 248.734 74.3596 247.398
internal_count=2969 1477 1492 1356 838 639 576 1217 262 462
is_linear=0
shrinkage=0.0669309


Tree=3
num_leaves=13
num_cat=0
split_feature=21 47 8 41 47 64 73 27 85 80 73 52
split_gain=824.57 78.6369 54.841 52.3265 44.8578 28.1276 25.5502 22.3729 14.1191 12.5457 2.61708 1.46779
threshold=-0.40775371634483781 -0.27792111600448216 -0.7376532117036122 0.59425065312586234 0.56197618180647557 0.70308083594303217 0.064619203539263051 1.0000000180025095e-35 -0.26150280501187656 1.0037387634975115 -0.87547083666281678 2.335014739054706
decision_type=2 2 2 2 2 2 2 2 2 2 2 2
left_child=3 2 9 4 7 -4 -6 -1 -3 -2 11 -5
right_child=1 8 5 10 6 -7 -8 -9 -10 -11 -12 -13
leaf_value=0.030311269655967008 0.12735527205806274 0.072154596860017142 0.043841259730943723 -0.087728128641193559 0.010180309100489268 0.10445969151325625 -0.068474523269459991 -0.024688025408592731 0.017342749204602746 0.15544724377093921 -0.052130880425316335 -0.063564138480906932
leaf_weight=115.59994465112686 252.45572252571583 56.232765272259712 42.906912535429001 32.682770371437073 26.458660334348679 170.76043419539928 61.514820381999016 46.444992110133171 33.651528924703598 99.201313823461533 23.050732731819153 17.180771559476852
leaf_count=435 495 175 130 181 118 393 326 217 122 162 122 93
internal_value=0 0.109785 0.11903 -0.0208911 -0.00634151 0.0922868 -0.0448185 0.0145475 0.0516337 0.13528 -0.0707808 -0.0794023
internal_weight=0 655.209 565.324 322.933 250.018 213.667 87.9735 162.045 89.8843 351.657 72.9143 49.8635
internal_count=2969 1477 1180 1492 1096 523 444 652 297 657 396 274
is_linear=0
shrinkage=0.0669309


Tree=4
num_leaves=14
num_cat=0
split_feature=60 0 27 24 143 31 45 115 126 123 126 31 54
split_gain=414.038 134.878 123.58 71.059 58.5811 45.6662 36.781 35.1935 24.4907 22.0889 10.6841 8.23804 3.11303
threshold=-0.63744223037154391 -0.65617319333264967 1.0000000180025095e-35 1.0000000180025095e-35 1.5094245266683535 0.44863606282718654 0.32379588892725003 0.46511649851253828 -0.43652295487368492 -1.0093418400865555 -0.24544306477535946 1.3717983426574665 -0.19840245628451988
decision_type=2 2 2 2 2 2 2 2 2 2 2 2 2
left_child=2 6 3 9 7 -5 10 -3 -8 -1 -2 12 -4
right_child=1 4 11 5 -6 -7 8 -9 -10 -11 -12 -13 -14
leaf_value=0.0876303141842915 0.13884366620747679 0.040627023817120543 -0.05917667017940044 -0.059267673603200878 -0.025008335710421062 0.048456254690138069 0.11183511232028132 0.092944031054410459 0.043578610432758742 0.034913944796254183 0.10677155488656614 -0.025372094107507841 -0.085663390681080254
leaf_weight=50.429522842168808 198.76095031201839 112.07045958936214 44.358244180679321 56.077217191457748 35.354662001132965 25.711721807718277 55.605702131986618 118.51334726810455 40.847179964184761 121.14251564443111 60.752435237169266 22.682531282305717 36.020006850361824
leaf_count=128 322 368 243 295 154 95 116 295 121 391 122 113 211
internal_value=0 0.0912778 0.000799539 0.0259355 0.0552159 -0.0254029 0.118219 0.0675164 0.0829289 0.0504087 0.131336 -0.0609938 -0.0710462
internal_weight=0 621.905 356.422 253.361 265.938 81.7889 355.966 230.584 96.4529 171.572 259.513 103.061 80.3783
internal_count=2974 1498 1476 909 817 390 681 663 237 519 444 567 454
is_linear=0
shrinkage=0.0669309


Tree=5
num_leaves=14
num_cat=0
split_feature=193 81 192 27 123 147 2 157 127 59 59 2 57
split_gain=495.039 76.904 64.3382 55.2253 47.9676 33.8375 31.3556 23.7176 19.85 11.2676 9.48585 3.97399 3.64708
threshold=1.0000000180025095e-35 0.70367262873982495 1.0000000180025095e-35 1.1214718540261308 -1.0093418400865555 1.6294363375294501 0.33381264432037488 -0.28324431631875763 -0.24104804375765354 0.99174379494981824 0.62650354775809347 -0.99403619156572665 0.43087068663211775
decision_type=2 2 2 2 2 2 2 2 2 2 2 2 2
left_child=2 4 9 10 11 -5 8 -6 -3 12 -4 -2 -1
right_child=1 6 3 5 7 -7 -8 -9 -10 -11 -12 -13 -14
leaf_value=-0.067435583543593636 0.10736059334898 0.12115666332030645 0.071134159920771559 -0.068682006907509696 0.061053300815978116 0.038755214878025843 0.06124612969426748 0.015395839950824674 0.085100056438377869 -0.0071734844100679413 0.023997555252918461 0.08061153788513771 -0.03537053217420124
leaf_weight=99.3198032528162 57.257031723856926 241.17893160879612 39.179610833525658 43.974462643265724 107.49430325627327 18.723950862884521 68.474194556474686 96.925372749567032 95.474403530359268 19.31993792951107 37.365318447351456 44.00114694237709 18.916920006275177
leaf_count=568 120 409 133 242 299 75 174 322 210 86 140 102 94
internal_value=0 0.0834101 -0.0220965 0.00997593 0.0580653 -0.0365975 0.102533 0.0394049 0.110931 -0.0545621 0.0481245 0.0957369 -0.0623054
internal_weight=0 710.805 276.8 139.243 305.678 62.6984 405.128 204.42 336.653 137.557 76.5449 101.258 118.237
internal_count=2974 1636 1338 590 843 317 793 621 619 748 273 222 662
is_linear=0
shrinkage=0.0669309


Tree=6
num_leaves=13
num_cat=0
split_feature=22 123 25 64 1 48 57 97 85 83 69 2
split_gain=502.733 76.4999 73.7796 55.3114 22.959 20.6664 20.4104 18.8679 16.3183 15.8673 14.175 7.43984
threshold=-0.54442700123442889 -0.77368402171979433 1.4716317395244869 -0.32531211342631672 1.1525484659451783 1.0000000180025095e-35 -0.17193272964817247 -0.26978621298207811 -0.51567445126648259 1.7501365517180354 -0.018639746644154947 -0.3389646879177301
decision_type=2 2 2 2 2 2 2 2 2 2 2 2
left_child=2 5 9 6 -4 8 -3 -5 -2 10 -1 -7
right_child=1 3 4 7 -6 11 -8 -9 -10 -11 -12 -13
leaf_value=-0.062124891115898639 0.093835820479699905 -0.02683506486792827 -0.0055732400369203983 0.033898420909790415 0.06737734506237518 0.11613941019557535 0.040150417240790312 0.084204862191955471 0.048607938894234981 1.2102116006694831e-05 0.00077665927857372655 0.090993185445213051
leaf_weight=146.77818940579891 120.23027999699116 39.357003390789032 39.648219883441925 42.584014132618904 37.705568447709084 211.75178019702435 42.254478216171265 154.83941043913364 50.85155376791954 27.107107952237129 18.019448697566986 70.174427628517151
leaf_count=844 250 158 170 124 113 339 121 345 138 123 84 145
internal_value=0 0.0817629 -0.0251978 0.0541945 0.029986 0.098744 0.00784678 0.0733538 0.0803925 -0.0474415 -0.0552471 0.10988
internal_weight=0 732.043 269.259 279.035 77.3538 453.008 81.6115 197.423 171.082 191.905 164.798 281.926
internal_count=2954 1620 1334 748 283 872 279 469 388 1051 928 484
is_linear=0
shrinkage=0.0669309


Tree=7
num_leaves=13
num_cat=0
split_feature=21 46 48 96 84 27 2 87 8 31 33 4
split_gain=437.489 64.8702 55.4206 42.5236 26.0897 24.2827 18.3043 15.065 14.1741 12.5113 9.66433 9.62582
threshold=-0.44650754219439176 -0.34163240703955278 1.0644282866706749 -0.57417237261252529 -0.16428383665188623 2.6245316244878767 -0.3389646879177301 3.0037078278205249 -1.2265333219293881 1.7340878078120177 0.93166606686391129 -0.49245333204993924
decision_type=2 2 2 2 2 2 2 2 2 2 2 2
left_child=2 3 7 8 11 9 -5 10 -2 -4 -1 -3
right_child=1 4 5 6 -6 -7 -8 -9 -10 -11 -12 -13
leaf_value=-0.060734971080149677 0.083528232357577947 0.069776164962922022 0.011652039380606596 0.10175256808576168 -0.02660118432020462 -0.032633860336768801 0.073779007183459699 0.011894875771974837 0.037143746497327643 0.071052163143057318 -0.020263959483308867 0.020118276246518563
leaf_weight=125.2457453161478 42.504696533083916 40.190017461776733 31.609300643205643 343.48821930587292 29.604107409715652 28.745637014508247 150.78857630491257 18.327823713421822 96.549767792224884 31.931317508220673 33.50301730632782 30.956185728311539
leaf_count=739 93 105 117 585 111 141 333 88 276 93 174 99
internal_value=0 0.0760842 -0.0236435 0.0840199 0.0261993 0.0184103 0.0932187 -0.0455605 0.0513221 0.0415026 -0.0521938 0.0481697
internal_weight=0 734.082 269.363 633.331 100.75 92.2863 494.277 177.077 139.054 63.5406 158.749 71.1462
internal_count=2954 1602 1352 1287 315 351 918 1001 369 210 913 204
is_linear=0
shrinkage=0.0669309


Tree=8
num_leaves=14
num_cat=0
split_feature=193 80 138 40 143 46 107 114 25 48 32 146 44
split_gain=358.836 71.7895 66.1524 30.5136 39.1839 30.4657 26.8625 16.3613 15.4511 11.609 8.40988 7.79491 4.74952
threshold=1.0000000180025095e-35 1.257664311414074 -0.56653160907076772 -0.31004176460856497 0.25904978484692626 -0.34163240703955278 1.4548575227164755 -0.42814284551493892 0.035032860672472646 1.4206948773066761 -0.30272359542117233 0.21872388405014104 1.8963234839753669
decision_type=2 2 2 2 2 2 2 2 2 2 2 2 2
left_child=1 8 3 4 -2 7 9 -4 12 -3 -7 -10 -1
right_child=2 6 5 -5 -6 10 -8 -9 11 -11 -12 -13 -14
leaf_value=-0.071152792657385319 0.070081047250725628 -0.026121392336562469 0.068076995614108154 -0.024367313203278687 -0.0074558394928829867 0.01310829294044495 0.083419521665268309 0.09379014415987752 -0.0053342935280792413 0.03154651635785486 0.060103644549758667 -0.051257130060936976 -0.035538062623447837
leaf_weight=87.006730884313583 91.614154160022736 32.163437590003014 173.41050481796265 35.534503325819969 42.855320379137993 33.947237268090248 25.493289336562157 307.31143262982368 41.35942442715168 30.435939654707909 34.287189126014709 27.612327173352242 20.780617520213127
leaf_count=560 208 137 364 142 139 108 75 544 198 117 95 147 120
internal_value=0 -0.0238571 0.0672761 0.0307935 0.0453701 0.0785742 0.0255031 0.0845147 -0.0484571 0.00191686 0.036723 -0.0237192 -0.0642865
internal_weight=0 264.852 718.96 170.004 134.469 548.956 88.0927 480.722 176.759 62.5994 68.2344 68.9718 107.787
internal_count=2954 1354 1600 489 347 1111 329 908 1025 254 203 345 680
is_linear=0
shrinkage=0.0669309


Tree=9
num_leaves=12
num_cat=0
split_feature=22 30 139 132 53 8 90 36 45 16 103
split_gain=316.36 69.3565 55.0701 28.4498 27.3381 35.4674 22.4059 21.6 14.3805 12.4232 12.05
threshold=-0.53729928193302035 1.4270264094018634 -0.59661301534506639 -0.18150813744421704 -0.29894684415307321 -0.53395316577620566 -0.31431617395995209 0.66423039979033716 0.78972599716741354 0.29464075459647315 -0.025461549009217124
decision_type=2 2 2 2 2 2 2 2 2 2 2
left_child=1 6 4 8 5 -2 9 -5 -4 -1 -8
right_child=2 -3 3 7 -6 -7 10 -9 -10 -11 -12
leaf_value=-0.06627617963508925 0.066882628206322875 0.052249713086498437 0.089558849028095508 0.017963210076028791 -0.022955216945573093 -0.0069687421753655927 0.015663335295182955 0.068653843173076198 0.057979156981309045 -0.025234218669870256 -0.043986824641150911
leaf_weight=102.03942489624023 91.290789678692818 45.329946249723434 308.21520681679249 60.687682524323463 35.207350507378578 42.78449521958828 41.580435365438461 99.231885880231857 81.725019857287407 48.859388425946236 23.886254847049713
leaf_count=638 203 147 542 177 142 139 182 208 184 260 132
internal_value=0 -0.0230292 0.0629138 0.0731906 0.029533 0.0433161 -0.0388006 0.0494173 0.0829403 -0.0529872 -0.00610069
internal_weight=0 261.695 719.142 549.86 169.283 134.075 216.366 159.92 389.94 150.899 65.4667
internal_count=2954 1359 1595 1111 484 342 1212 385 726 898 314
is_linear=0
shrinkage=0.0669309


Tree=10
num_leaves=13
num_cat=0
split_feature=22 123 65 48 25 48 2 4 2 65 114 91
split_gain=236.854 56.6866 49.9448 36.0437 24.5325 20.9767 19.3017 15.7797 15.3959 13.4826 13.4739 8.1567
threshold=-0.53729928193302035 -0.69513141559754066 1.6860784233488972 0.62261439919502604 0.1425127957775075 1.0000000180025095e-35 0.33381264432037488 1.8614850660043607 -0.3389646879177301 -0.28191910703403689 0.2647968059548747 -0.53682851157302569
decision_type=2 2 2 2 2 2 2 2 2 2 2 2
left_child=2 5 4 9 7 11 -5 -1 -7 -3 -6 -2
right_child=1 3 -4 6 10 8 -8 -9 -10 -11 -12 -13
leaf_value=-0.05509702898796285 0.035280859894519359 -0.029163784688083689 0.056841441431447273 0.065972265721332038 -0.017512444230179156 0.089596178420882272 0.017971002161767811 0.016778463554553265 0.051666737923389869 0.023348517462660673 0.039264999474590292 0.064726434690636436
leaf_weight=117.54286523163319 71.221328929066658 43.602274402976036 35.819079130887985 113.40592163801193 69.507495194673538 237.42057524621487 56.086165904998779 15.486002087593077 60.070527970790863 44.012023895978928 25.627223521471024 103.22166138887405
leaf_count=761 197 177 110 233 336 392 150 75 131 137 97 213
internal_value=0 0.0573564 -0.0166352 0.0320707 -0.0281702 0.0711318 0.0500883 -0.0467299 0.0819373 -0.00278484 -0.00221784 0.0527044
internal_weight=0 729.04 263.983 257.106 228.164 471.934 169.492 133.029 297.491 87.6143 95.1347 174.443
internal_count=3009 1630 1379 697 1269 933 383 836 523 314 433 410
is_linear=0
shrinkage=0.0669309


Tree=11
num_leaves=12
num_cat=0
split_feature=22 47 48 97 109 40 133 25 146 71 137
split_gain=206.759 49.6323 40.5303 33.0797 28.8838 21.0491 18.6186 16.0666 15.5793 14.9257 5.96429
threshold=-0.53729928193302035 -0.09127727204649165 1.1781303900651434 -0.60699504904008672 0.96995920827806348 -0.31004176460856497 -0.2985925025630346 0.1425127957775075 0.21872388405014104 1.7733128064272963 1.9148575141751025
decision_type=2 2 2 2 2 2 2 2 2 2 2
left_child=2 3 7 5 -4 -2 -5 10 -9 -3 -1
right_child=1 9 4 6 -6 -7 -8 8 -10 -11 -12
leaf_value=-0.058001039610543322 0.047775957495778912 -0.017473261890826559 0.060070270331809235 0.075954488958824229 -0.016839069051165695 -0.0084413220213543361 0.04640579487543818 0.01731805757885237 -0.048503073364951632 0.042494675777851099 -0.015865111805935941
leaf_weight=87.729482769966125 108.95522755384445 51.445508152246475 43.463832154870033 366.41471807658672 44.040041238069534 41.088011041283607 129.2126687169075 40.396538585424423 26.793619349598885 29.115597441792488 18.164948865771294
leaf_count=612 249 184 128 669 189 163 285 190 150 80 110
internal_value=0 0.0537349 -0.0157616 0.0599155 0.0213624 0.0323814 0.068251 -0.0345298 -0.00892963 0.00419976 -0.0507731
internal_weight=0 726.232 260.588 645.671 87.5039 150.043 495.627 173.085 67.1902 80.5611 105.894
internal_count=3009 1630 1379 1366 317 412 954 1062 340 264 722
is_linear=0
shrinkage=0.0669309


Tree=12
num_leaves=12
num_cat=0
split_feature=22 24 85 103 138 4 59 3 138 12 36
split_gain=206.044 46.833 26.3151 21.415 21.3185 18.6426 13.9596 13.7179 11.3604 9.77042 6.51696
threshold=-0.53729928193302035 1.9502997386237377 0.29767481674825685 -0.51875619772674808 -0.56653160907076772 -0.15760845726513759 0.018375507657775139 -0.71894507386896034 -0.38926064328685633 -0.070594986738482926 0.62907101846728175
decision_type=2 2 2 2 2 2 2 2 2 2 2
left_child=1 5 3 4 -2 8 -5 -7 -1 -3 -4
right_child=2 9 10 6 -6 7 -8 -9 -10 -11 -12
leaf_value=-0.071946957625752567 0.036334683468426672 -0.0019834601418917894 -0.0046704405067950969 0.046155077934173429 0.07064787583233377 0.036056460461949477 -0.0035826195386357944 -0.028734762312870542 -0.008605027874375103 0.046322590643519818 0.03488509470350306
leaf_weight=65.858351983129978 100.90000303089619 32.139177531003952 36.284424319863319 106.93030633032322 413.60116317868233 18.330692008137703 33.104632079601288 72.686131447553635 15.709985367953776 45.047461330890656 38.411205485463142
leaf_count=471 250 130 128 268 788 95 99 436 84 144 95
internal_value=0 -0.0171284 0.0533075 0.0576026 0.0639186 -0.0365105 0.034397 -0.0156859 -0.0597474 0.0262088 0.0156705
internal_weight=0 249.772 729.232 654.536 514.501 172.585 140.035 91.0168 81.5683 77.1866 74.6956
internal_count=2988 1360 1628 1405 1038 1086 367 531 555 274 223
is_linear=0
shrinkage=0.0669309


Tree=13
num_leaves=14
num_cat=0
split_feature=21 24 138 132 149 3 4 108 3 138 57 9 158
split_gain=181.796 42.5629 23.1807 29.2523 18.9382 18.4522 15.8722 13.7684 13.5372 10.7956 9.38766 7.51149 6.71526
threshold=-0.45555010155928771 1.9502997386237377 -0.56653160907076772 -0.21575826681151591 -0.62123143832527605 0.12540285650461999 -0.15760845726513759 1.5018119900528288 -0.74195455538388011 -0.38926064328685633 0.34716601418846066 0.20587450589243125 -0.38920700819030035
decision_type=2 2 2 2 2 2 2 2 2 2 2 2 2
left_child=1 6 4 10 12 -5 9 -3 -8 -1 -4 -6 -2
right_child=2 7 3 5 11 -7 8 -9 -10 -11 -12 -13 -14
leaf_value=-0.070293008958705938 0.061310371688427436 0.045358383421866898 0.052580857678662399 0.01672622819274094 -0.02148928424337539 0.063371655682611772 0.034636469187781196 -0.013267122847593914 -0.029709638008561443 -0.008070307791917683 0.074589266423714953 0.024095408171482563 0.028747824778290514
leaf_weight=62.15901055932045 58.46467798948288 49.797158971428871 132.9473535567522 106.88766759634018 34.046194702386856 58.940658390522003 18.441854082047939 28.056882828474045 71.171605184674263 15.632509507238863 250.25259666144848 30.881978645920753 55.118900299072266
leaf_count=468 130 167 277 278 115 128 93 107 438 84 453 92 158
internal_value=0 -0.0166548 0.0499782 0.0567906 0.0290262 0.0333055 -0.0356693 0.024231 -0.0164676 -0.0577891 0.0669537 0.000192297 0.0455087
internal_weight=0 245.259 727.54 549.028 178.512 165.828 167.405 77.854 89.6135 77.7915 383.2 64.9282 113.584
internal_count=2988 1357 1631 1136 495 406 1083 274 531 552 730 207 288
is_linear=0
shrinkage=0.0669309


Tree=14
num_leaves=13
num_cat=0
split_feature=21 69 123 64 184 56 1 0 146 108 122 123
split_gain=176.825 41.2158 41.3666 32.1593 25.1326 23.0952 19.2924 14.8103 11.333 11.2993 10.6111 8.26037
threshold=-0.43488139443952561 0.50109856978456158 -0.42019729416965251 1.2073600203503283 1.0000000180025095e-35 1.1457556347442914 0.5020250066066011 1.0956472016430481 0.13464429333324426 0.1212490505452383 -0.83246013025688892 -1.0093418400865555
decision_type=2 2 2 2 2 2 2 2 2 2 2 2
left_child=3 2 6 4 10 -4 -2 -5 -6 11 -1 -3
right_child=1 9 5 7 8 -7 -8 -9 -10 -11 -12 -13
leaf_value=0.0045670417890332146 0.03509435597823532 0.081600867192014814 -0.027725619407140304 0.059667246140525758 0.033820186750763134 0.040832048502078819 0.076260765920603865 -0.0038591406495060289 -0.029517768107113259 0.038148527516700954 -0.051537354637044036 0.059485550959187485
leaf_weight=17.223908618092537 184.91110782325268 138.65728399157524 65.290891826152802 29.45829476416111 32.771369680762291 33.207814380526543 70.419430181384087 37.202239140868187 20.616612799465656 61.79352368414402 122.54736469686031 166.52757355570793
leaf_count=78 445 236 225 86 146 76 126 154 109 142 842 338
internal_value=0 0.0485333 0.0322339 -0.0158695 -0.0297026 -0.00461211 0.0464479 0.0242141 0.00936123 0.0642487 -0.0446237 0.0695334
internal_weight=0 720.808 353.829 259.82 193.159 98.4987 255.331 66.6605 53.388 366.978 139.771 305.185
internal_count=3003 1588 872 1415 1175 301 571 240 255 716 920 574
is_linear=0
shrinkage=0.0669309


Tree=15
num_leaves=13
num_cat=0
split_feature=21 24 46 97 64 108 126 80 115 97 34 106
split_gain=155.292 38.9911 36.5763 24.3818 24.2045 16.5843 13.27 12.3367 11.6071 7.00197 5.07658 4.77719
threshold=-0.43488139443952561 0.54654931987183253 -0.28347556150320946 -0.60699504904008672 1.4375613643646243 0.042714364529524339 0.74819348920747542 0.81483609319313688 -0.10646827429997584 -0.077095449520358947 2.3968409154663823 -0.20378045968059655
decision_type=2 2 2 2 2 2 2 2 2 2 2 2
left_child=1 4 3 7 10 -5 9 -2 11 -3 -1 -4
right_child=2 6 8 5 -6 -7 -8 -9 -10 -11 -12 -13
leaf_value=-0.054906333887480702 0.012820954788033022 0.0060649677582897956 -0.024794904197897663 0.064137024966652162 0.028817686336043279 0.029990505863388878 -0.027660257633346466 0.059648456439341191 0.037445029685406937 0.043847873642880487 -0.012625759810931822 0.011621613362405815
leaf_weight=106.84805470705032 91.25526288151741 40.82680207490921 35.446226537227631 407.92470389604568 20.465638875961304 75.511890769004822 26.420145407319069 34.819403767585754 40.438375428318977 47.579575404524803 14.440982222557066 29.623582914471626
leaf_count=774 253 168 123 771 88 174 136 70 107 160 89 90
internal_value=0 -0.0150288 0.045669 0.0519672 -0.0385115 0.0588034 0.013961 0.0257538 0.00928463 0.0263994 -0.0498723 -0.00821598
internal_weight=0 256.581 715.019 609.511 141.755 483.437 114.827 126.075 105.508 88.4064 121.289 65.0698
internal_count=3003 1415 1588 1268 951 945 464 323 320 328 863 213
is_linear=0
shrinkage=0.0669309


Tree=16
num_leaves=11
num_cat=0
split_feature=21 46 115 71 151 131 122 11 132 17
split_gain=142.797 40.5448 33.597 26.215 21.5735 26.5619 20.8797 12.8486 11.7847 8.47998
threshold=-0.40646192214985272 -0.34163240703955278 -0.33510218342498138 1.955625426845655 -1.0068850596947079 -0.18087733423528116 0.65554600366616722 1.0000000180025095e-35 -0.23574187981142539 0.20675633476261299
decision_type=2 2 2 2 2 2 2 2 2 2
left_child=2 6 4 7 -1 -6 8 -3 -2 -4
right_child=1 3 9 -5 5 -7 -8 -9 -10 -11
leaf_value=0.042864638743455634 0.061150630596492055 0.012198086676824571 0.010687204869904335 0.054517466613390485 -0.052447094398630753 -0.0045103757293905207 0.010917343619386451 -0.041995316597809092 0.03769665912754578 0.062694865978897285
leaf_weight=19.31551818549633 366.87533661723137 39.426271185278893 33.843289002776146 35.601128220558167 116.05297447741032 93.500249356031418 53.254957914352417 38.968974113464355 129.96990269422531 24.007767155766487
leaf_count=48 704 116 141 85 789 448 137 137 284 89
internal_value=0 0.0432178 -0.0133006 0.00688876 -0.0248195 -0.0310583 0.0507462 -0.0147406 0.0550153 0.03227
internal_weight=0 664.097 286.72 113.996 228.869 209.553 550.1 78.3952 496.845 57.8511
internal_count=2978 1463 1515 338 1285 1237 1125 253 988 230
is_linear=0
shrinkage=0.0669309


Tree=17
num_leaves=11
num_cat=0
split_feature=21 45 114 158 151 151 130 84 121 84
split_gain=125.807 37.6084 30.1663 27.0469 20.3585 19.2433 25.0107 16.446 8.07952 7.27887
threshold=-0.40775371634483781 0.97404999603165399 -0.40490494025801077 -0.35042060599719571 0.96329679717543448 -1.0068850596947079 -0.32308822327749831 -0.3999191976148509 0.55410142670064633 -0.39587054360175739
decision_type=2 2 2 2 2 2 2 2 2 2
left_child=2 4 5 9 7 -1 -7 -2 -4 -3
right_child=1 3 8 -5 -6 6 -8 -9 -10 -11
leaf_value=0.039841848265267522 0.059458974622831041 0.042574316553072679 0.058792922443804192 -0.050331228508915041 0.0029274436323169567 -0.051416808760313328 -0.0044334860699896004 0.033485627983370375 0.0085107536696603769 0.00096357720252083243
leaf_weight=19.387404754757881 352.00038108229637 44.822050184011459 25.10600108653307 29.400502070784569 42.009632751345634 110.97884485125542 93.534717634320259 158.33064244687557 33.308235570788383 32.478613287210464
leaf_count=48 697 102 97 109 109 785 449 356 132 94
internal_value=0 0.0406866 -0.0127124 0.00430924 0.047714 -0.0238875 -0.0299289 0.0514007 0.0301217 0.0250912
internal_weight=0 659.042 282.315 106.701 552.341 223.901 204.514 510.331 58.4142 77.3007
internal_count=2978 1467 1511 305 1162 1282 1234 1053 229 196
is_linear=0
shrinkage=0.0669309


Tree=18
num_leaves=11
num_cat=0
split_feature=60 143 74 23 120 64 77 64 148 54
split_gain=131.246 41.27 37.3282 25.2305 19.3346 19.2187 16.341 16.0341 15.4749 8.75286
threshold=-0.18669085181299719 0.25904978484692626 0.22851973198154144 -0.59421864819809056 -0.72549680231046354 0.86776795933707151 1.5568286830515488 0.76318562550290059 -0.57434199946265496 1.0000000180025095e-35
decision_type=2 2 2 2 2 2 2 2 2 2
left_child=2 4 3 6 9 -6 -1 -3 -5 -2
right_child=1 7 -4 8 5 -7 -8 -9 -10 -11
leaf_value=-0.055980580930083859 0.077269294170566258 -0.046208612453751352 0.044903395969886135 0.013102468122545294 0.013611471361941135 0.049917708289234509 0.0041737242562645419 0.018155833219523038 -0.029678675628041731 0.05051700981747597
leaf_weight=101.11547283828259 94.469208173453808 28.145456217229366 43.527514226734638 95.609689339995384 109.80333785712719 161.20708353817463 25.2897829413414 45.154274515807629 62.727202728390694 130.43062891066074
leaf_count=805 187 144 131 274 313 347 100 146 214 266
internal_value=0 0.0403181 -0.0128229 -0.0216473 0.0472469 0.0352078 -0.0439456 -0.00655867 -0.00384583 0.0617543
internal_weight=0 569.21 328.27 284.742 495.91 271.01 126.405 73.2997 158.337 224.9
internal_count=2927 1403 1524 1393 1113 660 905 290 488 453
is_linear=0
shrinkage=0.0669309


Tree=19
num_leaves=12
num_cat=0
split_feature=60 122 102 57 44 81 35 56 81 36 5
split_gain=115.563 52.3152 46.8582 27.0158 25.9274 19.3248 16.692 12.0635 9.86951 8.77327 4.44511
threshold=-0.17814001265334992 -0.83182313159084642 -0.34326104318128298 1.4956719849270115 0.39231809728240513 1.0342102651921008 1.2571544014768083 1.3944632357077842 -0.14761769910424441 0.53221687369056336 -0.086910735843960474
decision_type=2 2 2 2 2 2 2 2 2 2 2
left_child=1 10 4 6 8 9 -3 -6 -2 -4 -1
right_child=2 3 5 -5 7 -7 -8 -9 -10 -11 -12
leaf_value=0.022513015218959882 0.028147708292716834 -0.024922556972419303 -0.061904476655284035 0.040442992878091437 -0.015645430778897813 0.033752343946558093 -0.073165797499729027 0.035256144180620209 0.057503985371684836 -0.0056404265642295542 0.056489389638454755
leaf_weight=33.903072610497475 60.483615159988403 194.35679638385773 26.028807796537876 24.90680880844593 38.17970983684063 28.888775512576103 38.491085596382618 45.971745818853378 338.01309159398079 23.737333804368973 35.116976991295815
leaf_count=101 162 974 124 66 147 71 293 121 692 80 96
internal_value=0 -0.0119526 0.0381129 -0.0258106 0.0459196 -0.00979118 -0.0328974 0.012162 0.0530483 -0.0350678 0.0398
internal_weight=0 326.775 561.303 257.755 482.648 78.6549 232.848 84.1515 398.497 49.7661 69.02
internal_count=2927 1530 1397 1333 1122 275 1267 268 854 204 197
is_linear=0
shrinkage=0.0669309


Tree=20
num_leaves=15
num_cat=0
split_feature=23 123 49 175 9 31 68 110 109 83 0 133 29 151
split_gain=87.0931 35.4577 25.6449 25.3986 15.5285 15.4207 14.8275 16.31 14.4619 12.3094 11.8996 10.8072 9.12879 3.79352
threshold=-0.59421864819809056 -0.77368402171979433 -0.34809131432804136 1.0000000180025095e-35 -0.72959533131886978 -0.69635714796948522 0.47034329792736379 0.74681559692390731 0.035581027321673397 1.7926177254020885 -0.20803309229235492 0.2239539403637644 -0.51267204490866136 -0.99569197354111083
decision_type=2 2 2 2 2 2 2 2 2 2 2 2 2 2
left_child=3 5 11 4 12 13 7 -5 -4 -6 -7 -3 -1 -2
right_child=1 2 8 6 9 10 -8 -9 -10 -11 -12 -13 -14 -15
leaf_value=0.023231007249891487 0.03353974478762236 -0.032013968819772073 0.039366602761040967 0.051379275725978703 -0.061691937451986645 0.057862912055877312 -0.037744311172633112 -0.016379210244669963 -0.0035325295013966277 0.0074444020288056091 0.020862313968900655 0.01329530867215274 -0.038322583949384925 0.0079098314969860747
leaf_weight=25.391512952744961 57.098462045192719 60.948446288704872 131.55378141999245 42.338098041713238 77.029928915202618 243.00732456147671 21.617008902132511 25.498153157532215 48.065007001161575 13.568671487271784 46.366920173168182 38.466485872864723 18.773761831223965 47.301910266280174
leaf_count=113 133 229 285 145 663 495 106 117 128 58 109 123 135 121
internal_value=0 0.0310444 0.0127915 -0.0171216 -0.0354747 0.0439786 0.0105278 0.0259104 0.027887 -0.0513376 0.0519342 -0.0144825 -0.00293417 0.0219273
internal_weight=0 672.808 279.034 224.217 134.764 393.775 89.4533 67.8363 179.619 90.5986 289.374 99.4149 44.1653 104.4
internal_count=2960 1623 765 1337 969 858 368 262 413 721 604 352 248 254
is_linear=0
shrinkage=0.0669309


Tree=21
num_leaves=11
num_cat=0
split_feature=96 45 127 8 116 68 34 26 37 34
split_gain=69.657 46.1093 32.0686 31.0718 25.0801 22.1491 21.4414 10.581 9.96561 6.38331
threshold=-0.57417237261252529 1.1959214761460175 0.39235513788817056 1.0549071924575668 0.20399631153108971 0.3361623812909118 -0.39654648107328744 2.7676803020359286 0.37515618713303694 2.4863489485663801
decision_type=2 2 2 2 2 2 2 2 2 2
left_child=3 2 5 4 6 -2 -1 9 -4 -5
right_child=1 -3 8 7 -6 -7 -8 -9 -10 -11
leaf_value=0.021711673412766086 0.048724438312486754 -0.038607897210147138 -0.027870299617739906 -0.076708941952843057 -0.05953379804855663 0.0009244092756505761 -0.029916065638271257 0.0011360865495209263 0.018461426902582925 -0.022084802546179831
leaf_weight=169.05609600991011 408.1468575373292 39.152656495571136 35.955082766711712 38.326614581048489 25.472076289355755 48.596843026578426 45.798766799271107 14.847985059022902 49.33036657422781 12.779035024344919
leaf_count=585 899 176 129 306 185 140 250 69 138 83
internal_value=0 0.0315369 0.0366037 -0.00790591 0.0032619 0.0436386 0.0107066 -0.0486 -0.00107134 -0.0630501
internal_weight=0 581.182 542.029 306.281 240.327 456.744 214.855 65.9536 85.2854 51.1056
internal_count=2960 1482 1306 1478 1020 1039 835 458 267 389
is_linear=0
shrinkage=0.0669309


Tree=22
num_leaves=11
num_cat=0
split_feature=22 46 25 146 52 122 60 11 114 68
split_gain=80.8912 31.1286 24.5125 23.8596 21.3345 25.8285 12.9144 12.2463 9.12167 8.70311
threshold=-0.54442700123442889 -0.41992175459595282 1.45384238463686 1.4378779494451446 -0.32623871991945846 -0.31971032902116814 1.3610110360831515 -0.87849235482460786 -0.30644708481158928 0.97635085102627295
decision_type=2 2 2 2 2 2 2 2 2 2
left_child=2 4 6 -4 5 -2 9 -3 -9 -1
right_child=1 7 3 -5 -6 -7 -8 8 -10 -11
leaf_value=-0.052013744407381712 0.051850530663534913 0.027446339959790397 0.041061170645573027 -0.034985212043466794 -0.0046161322497039314 0.018246923116398722 0.019423777559265512 -0.031219333580845592 0.014706454075448855 -0.0089857478513130848
leaf_weight=89.898159921169281 347.62049449980259 51.425585821270943 50.031382329761982 29.310090534389019 48.413977161049843 145.29342468082905 17.681060865521431 52.058785572648048 30.857401072978973 27.500238537788391
leaf_count=784 715 135 167 124 175 349 69 178 86 184
internal_value=0 0.0306244 -0.0165594 0.0129683 0.0377811 0.0419454 -0.0339031 0.00178654 -0.014128 -0.0419346
internal_weight=0 675.67 214.421 79.3415 541.328 492.914 135.079 134.342 82.9162 117.398
internal_count=2966 1638 1328 291 1239 1064 1037 399 264 968
is_linear=0
shrinkage=0.0669309


Tree=23
num_leaves=14
num_cat=0
split_feature=22 57 8 25 31 145 158 4 143 54 77 156 107
split_gain=71.3469 27.8883 25.0233 21.9502 18.1971 14.2951 11.4468 11.2217 13.1488 11.0991 4.65911 3.13848 2.78759
threshold=-0.54442700123442889 1.1582578014332003 -1.2672733311148696 1.45384238463686 -0.69635714796948522 1.3349072921062306 -0.37708884897806144 0.63338354060324853 2.0095744233969248 0.69733976706451628 1.3346108885425061 -0.54456302010748303 -0.54008494161227449
decision_type=2 2 2 2 2 2 2 2 2 2 2 2 2
left_child=3 2 11 7 -4 -5 12 9 -9 -1 -8 -2 -3
right_child=1 6 4 5 -6 -7 10 8 -10 -11 -12 -13 -14
leaf_value=-0.060463028160423572 0.036652217993096002 0.077356483780143273 -0.018415049380185389 0.0363964103252334 0.019059530916420913 -0.020968363752272099 0.02114701935823185 0.02206954217906899 -0.0506743268252395 -0.0035706008358633236 0.049573420504669646 0.059964525182059566 0.054986033746007495
leaf_weight=64.794043302536011 49.600200608372688 47.85354095697403 72.720241084694862 45.828100398182869 287.68127745389938 33.822743378579617 57.14058955013752 28.667877182364464 18.196803361177444 20.135043025016785 47.136300280690193 54.074171721935272 52.144917920231819
leaf_count=593 111 89 239 157 749 134 135 191 120 133 98 110 107
internal_value=0 0.0289047 0.0198339 -0.0157024 0.0114981 0.0120372 0.049512 -0.0324671 -0.00617573 -0.0469749 0.0339966 0.0488114 0.0656913
internal_weight=0 668.351 464.076 211.445 360.402 79.6508 204.275 131.794 46.8647 84.9291 104.277 103.674 99.9985
internal_count=2966 1638 1209 1328 988 291 429 1037 311 726 233 221 196
is_linear=0
shrinkage=0.0669309


Tree=24
num_leaves=12
num_cat=0
split_feature=155 57 147 22 2 95 15 91 89 89 42
split_gain=62.2053 26.0944 22.9093 21.2332 15.3127 13.6347 12.2898 11.0457 8.99793 13.8633 12.416
threshold=0.8103492184498865 1.2231451444127792 1.8312346805802797 -0.5370440694772155 -0.98111005361122738 1.2688319176526004 -0.28633911419405694 0.048777284926429708 1.8047160631406183 2.0367653729205677 1.5767877711351763
decision_type=2 2 2 2 2 2 2 2 2 2 2
left_child=1 3 8 5 -5 -1 7 -3 10 -10 -2
right_child=2 6 -4 4 -6 -7 -8 -9 9 -11 -12
leaf_value=-0.024542813298420237 -0.06684994148405092 0.055000056863744103 0.034155028468405547 0.046210654214441829 0.017256796377235251 0.04147577771929762 0.064572029709147188 0.011898443921201268 0.016007118911349778 -0.059894425647491534 -0.0014474467156422146
leaf_weight=71.537062957882881 52.091679498553276 48.340238571166992 26.072775527834892 107.51673458516598 342.44534334540367 17.428289271891117 91.925136052072048 59.321292154490948 28.836034387350082 17.215948902070522 17.328597620129585
leaf_count=542 377 102 91 240 911 73 192 162 139 131 55
internal_value=0 0.0259242 -0.0225119 0.0182679 0.0241752 -0.0116098 0.046598 0.0312512 -0.0353069 -0.0123677 -0.0505243
internal_weight=0 738.514 141.545 538.927 449.962 88.9654 199.587 107.662 115.472 46.052 69.4203
internal_count=3015 2222 793 1766 1151 615 456 264 702 270 432
is_linear=0
shrinkage=0.0669309


Tree=25
num_leaves=14
num_cat=0
split_feature=8 77 8 136 145 64 17 17 49 45 64 94 4
split_gain=54.7628 23.8576 28.6901 20.1895 16.5391 13.2571 11.6213 9.68382 15.8703 7.28862 10.0696 7.17751 3.49304
threshold=0.89194715571564132 0.99903957259198217 -1.1043132943729443 1.563030645870424 -0.25783672865735136 -0.57354489430857325 -0.049635355131656664 0.30200008193614508 -0.069805177072921734 0.64465618324648355 0.13208533512428197 2.2317212824332979 0.59222676813597397
decision_type=2 2 2 2 2 2 2 2 2 2 2 2 2
left_child=1 2 5 9 -4 -1 -5 8 -3 12 -11 -8 -2
right_child=3 7 4 6 -6 -7 11 -9 -10 10 -12 -13 -14
leaf_value=0.015684372097349748 -0.055655328868049671 0.064844829584877542 -0.0083218700276736033 -0.03593021173824703 0.024186856641206653 0.049583147207899053 0.041883341501940889 0.069906169827073067 0.021177475897410224 0.012003167966606802 -0.068985611501070368 -0.0063393483966617268 -0.10244313515852567
leaf_weight=88.607455790042877 17.111867353320125 55.664139531552792 194.33834205567837 27.3225267380476 109.67153389006853 124.01363104581833 27.258375450968742 47.161106035113335 112.91636790335178 14.180748015642168 13.353160239756106 28.060733631253242 12.276217520236967
leaf_count=238 169 136 805 128 389 271 110 99 284 95 102 112 77
internal_value=0 0.0244025 0.0165962 -0.0213441 0.00340565 0.0354562 -0.000216829 0.0430963 0.0355961 -0.0520176 -0.0272741 0.0174223 -0.0751999
internal_weight=0 732.373 516.631 139.564 304.01 212.621 82.6416 215.742 168.581 56.922 27.5339 55.3191 29.3881
internal_count=3015 2222 1703 793 1194 509 350 519 420 443 197 222 246
is_linear=0
shrinkage=0.0669309


Tree=26
num_leaves=10
num_cat=0
split_feature=95 98 46 149 132 122 103 158 109
split_gain=54.5718 45.3328 23.1997 17.2958 13.9978 9.99 9.58227 7.34665 3.56093
threshold=1.5464079499707537 -0.31847489010101365 0.35645039556288 2.0215675153541581 1.2671551955037259 -0.79273871343866376 1.1405076206867657 -0.13663142265474279 1.3810856078988751
decision_type=2 2 2 2 2 2 2 2 2
left_child=1 2 4 8 -1 -3 -4 -7 -2
right_child=3 5 6 -5 -6 7 -8 -9 -10
leaf_value=0.034401254854875676 -0.078549504062353809 -0.075815488388250904 -0.020946114922214442 0.0046968283052165752 -0.0050702420311957031 -0.0292925112013851 0.033023915108051562 0.028346530368390573 -0.043110126267897793
leaf_weight=601.51217351853848 20.761684469878674 15.776400588452814 57.331285111606121 33.09045672416687 43.134173817932606 40.626210536807775 19.836186818778515 13.100688941776751 32.714781522750854
leaf_count=1463 113 86 286 163 135 345 112 129 187
internal_value=0 0.0226376 0.0276086 -0.0333353 0.0317602 -0.0289883 -0.00707292 -0.0152379 -0.0568691
internal_weight=0 791.317 721.814 86.5669 644.646 69.5033 77.1675 53.7269 53.4765
internal_count=3019 2556 1996 463 1598 560 398 474 300
is_linear=0
shrinkage=0.0669309


Tree=27
num_leaves=11
num_cat=0
split_feature=8 40 57 110 26 144 16 57 10 3
split_gain=48.4018 40.4709 21.5039 15.3768 14.4742 17.6278 17.0729 13.7633 9.30268 10.0585
threshold=0.68824710978823467 -0.31847489010101365 1.6059804679922962 0.40790417947322999 2.1482024359388325 -0.24990511950046987 -0.42278693175594168 1.0103146594397596 -0.090627726785821316 0.60460031935882019
decision_type=2 2 2 2 2 2 2 2 2 2
left_child=1 3 4 7 6 -6 -2 -1 -3 -10
right_child=2 8 -4 -5 5 -7 -8 -9 9 -11
leaf_value=0.023533006006675149 0.006110559949086527 -0.063008909488931661 0.037115165330855744 -0.0074994373764023401 0.038574458029342652 -0.0413881225652541 -0.058726259805448787 0.044440223662848367 -0.043124292892022603 0.032214728910934423
leaf_weight=363.80606760084629 24.681007537990808 23.435331895947456 28.853151962161064 48.65074498206377 27.683672957122326 22.297785982489586 69.21582618355751 230.37135250866413 16.764807917177681 15.079124480485914
leaf_count=996 192 173 85 160 118 115 432 534 111 103
internal_value=0 0.0239512 -0.01562 0.028677 -0.0261954 0.00290146 -0.0416837 0.031639 -0.0310032 -0.00744885
internal_weight=0 698.107 172.731 642.828 143.878 49.9815 93.8968 594.177 55.2793 31.8439
internal_count=3019 2077 942 1690 857 233 624 1530 387 214
is_linear=0
shrinkage=0.0669309


Tree=28
num_leaves=10
num_cat=0
split_feature=8 5 53 30 50 84 6 138 6
split_gain=45.9618 29.4245 24.6614 23.51 20.098 17.7708 11.2654 10.4121 9.7608
threshold=-0.49321315659072429 -1.2097404656929198 -0.29894684415307321 1.4041427897448977 1.6780542344975398 -0.34284981433439649 0.49700811617468399 -0.54204351911583604 -1.5047311661602176
decision_type=2 2 2 2 2 2 2 2 2
left_child=2 -2 5 4 -3 7 -7 -1 -4
right_child=1 3 8 -5 -6 6 -8 -9 -10
leaf_value=0.023867355043151829 -0.073019899691473419 0.0014799489837693579 0.0089513775109191108 0.040535796325480822 -0.048607390188495997 -0.0060122915102117768 0.037327207258857881 0.05115094833719435 -0.059182129841937041
leaf_weight=91.526977501809597 24.909773379564285 262.10816763341427 20.276643685996532 59.796639628708363 41.581305310130119 67.711463890969753 44.541902497410774 198.66751305758953 17.590854912996292
leaf_count=232 144 1222 116 166 201 200 103 445 111
internal_value=0 -0.00264745 0.0289395 0.00217519 -0.00537803 0.0337983 0.0111847 0.0425457 -0.0226992
internal_weight=0 388.396 440.315 363.486 303.689 402.448 112.253 290.194 37.8675
internal_count=2940 1733 1207 1589 1423 980 303 677 227
is_linear=0
shrinkage=0.0669309


Tree=29
num_leaves=13
num_cat=0
split_feature=152 5 106 85 85 73 102 57 104 126 5 10
split_gain=40.801 26.4214 22.7808 27.7987 22.5651 13.3672 12.6146 13.6063 10.0642 8.28207 7.86993 5.451
threshold=-0.49321315659072429 -1.1121030978799669 0.90634747369271984 0.551846463002863 -0.51567445126648259 0.72714556718316214 -0.46402466170690176 0.36403672336315129 1.3115399418013463 -0.28771161241918469 -1.0144657300670139 -0.34864300139630344
decision_type=2 2 2 2 2 2 2 2 2 2 2 2
left_child=4 11 3 -3 6 10 9 -8 -4 -1 -6 -2
right_child=1 2 8 -5 5 -7 7 -9 -10 -11 -12 -13
leaf_value=0.057960545780918436 -0.084735147966525662 0.006019694087390645 0.01423023644179176 -0.044209802257177404 0.023157087522010303 0.040696855999153923 -0.0065360310789679228 0.049041672991193941 0.057454349388378033 0.02423060413867436 -0.012579375648019062 -0.032734639783250051
leaf_weight=135.71759117394686 16.828628372400999 173.2809251062572 72.71075577288866 69.017565745860338 39.460352942347527 44.232288613915443 44.898481234908104 35.205818310379982 36.118218190968037 42.924892604351044 91.89167345315218 19.488345995545387
leaf_count=304 107 732 243 444 128 101 137 82 103 110 345 104
internal_value=0 -0.00248354 0.00313756 -0.00828794 0.0273925 0.00887301 0.0399597 0.0178904 0.0285755 0.0498558 -0.00184354 -0.0568307
internal_weight=0 387.444 351.127 242.298 434.331 175.584 258.747 80.1043 108.829 178.642 131.352 36.317
internal_count=2940 1733 1522 1176 1207 574 633 219 346 414 473 211
is_linear=0
shrinkage=0.0669309


Tree=30
num_leaves=12
num_cat=0
split_feature=193 45 123 136 3 46 3 59 72 14 52
split_gain=59.1588 33.8103 17.2022 15.6633 14.6727 13.1808 14.8747 9.47414 6.19116 7.47285 1.0836
threshold=1.0000000180025095e-35 1.3102706235895745 -0.22381577886401818 -0.46838601285136633 0.31247994534331586 1.6372387051378523 0.086386779153234075 1.5647409323351782 -1.1434518284997652 -0.37168894615432302 2.1662852996383317
decision_type=2 2 2 2 2 2 2 2 2 2 2
left_child=3 2 4 8 -2 6 -5 -4 10 -10 -1
right_child=1 -3 7 5 -6 -7 -8 -9 9 -11 -12
leaf_value=-0.075225942673233806 0.023327231778422573 -0.039430860456744807 -0.0047843346345523572 0.028584078823374024 0.048270588317265439 -0.051326519404893196 -0.023355533187537404 0.036208763330084513 0.0023274684396161673 -0.048994093449024452 -0.045509565329669814
leaf_weight=20.743933167308573 292.06369936466217 37.459646850824356 102.9629220366478 57.057940922677517 165.51812379062176 21.781297370791435 43.555486872792244 33.465244516730309 21.126662608236074 31.902243971824646 7.4789229445159426
leaf_count=239 740 130 299 218 384 188 192 75 149 276 109
internal_value=0 0.0222414 0.0261306 -0.019244 0.0323498 -0.00412004 0.00609945 0.0052711 -0.0420261 -0.0285476 -0.0673512
internal_weight=0 631.47 594.01 203.646 457.582 122.395 100.613 136.428 81.2518 53.0289 28.2229
internal_count=2999 1628 1498 1371 1124 598 410 374 773 425 348
is_linear=0
shrinkage=0.0669309


Tree=31
num_leaves=9
num_cat=0
split_feature=22 147 24 116 66 108 132 110
split_gain=52.9801 21.6743 19.7034 15.4981 10.9736 17.4222 9.79081 5.33142
threshold=-0.53729928193302035 1.8176520997980126 0.23885521149611863 0.13220407408751292 1.6232864248169718 0.042714364529524339 -0.25640734837301155 2.5201595585085488
decision_type=2 2 2 2 2 2 2 2
left_child=1 2 7 4 5 -2 -4 -1
right_child=3 -3 6 -5 -6 -7 -8 -9
leaf_value=-0.059517426177418044 0.02559312524641379 0.036675245597309072 0.0081461440040452669 -0.018410433963930752 0.055203994983976462 -0.011886705869410407 -0.036596874343642463 -0.0096662235793091543
leaf_weight=66.056138571351767 473.6633202880621 27.72725285589695 64.545150563120842 41.567247793078423 46.163699582219124 62.942902907729149 33.166952826082706 11.246754106134174
leaf_count=721 1210 94 273 135 94 182 204 86
internal_value=0 -0.0183056 -0.0270161 0.0210743 0.0238907 0.0211968 -0.00704122 -0.0522646
internal_weight=0 202.742 175.015 624.337 582.77 536.606 97.7121 77.3029
internal_count=2999 1378 1284 1621 1486 1392 477 807
is_linear=0
shrinkage=0.0669309


Tree=32
num_leaves=10
num_cat=0
split_feature=102 60 158 57 114 84 57 37 138
split_gain=32.6623 20.9851 14.4526 19.5984 14.2417 13.1639 9.63286 10.8012 8.2169
threshold=-0.38903713060839595 -0.31006724540219283 -0.40867342853867134 1.563154821625774 0.73411949962604839 0.67007165612863506 1.2322293724299205 0.20302144762257737 -0.54798128993398254
decision_type=2 2 2 2 2 2 2 2 2
left_child=1 2 -1 -4 6 8 7 -2 -3
right_child=4 5 3 -5 -6 -7 -8 -9 -10
leaf_value=0.033401339221317126 -0.021140261257852434 0.011680875321165534 -0.020761054584024982 0.045414403412217953 0.029550088975941937 -0.0082134341815465958 0.014908878958038958 -0.074394247862226773 0.035500532723045264
leaf_weight=43.758227869868279 113.96502004936337 83.365693219006062 126.78084809333086 23.814223736524582 28.483845010399818 44.672151923179626 26.704144194722176 20.065684571862221 292.52772555500269
leaf_count=111 699 254 624 62 90 150 86 113 735
internal_value=0 0.0177304 -0.00045799 -0.0102965 -0.0140694 0.0261357 -0.0217992 -0.0291129 0.0302178
internal_weight=0 614.919 194.353 150.595 189.219 420.566 160.735 134.031 375.893
internal_count=2924 1936 797 686 988 1139 898 812 989
is_linear=0
shrinkage=0.0669309


Tree=33
num_leaves=12
num_cat=0
split_feature=69 126 41 96 9 84 63 95 31 73 11
split_gain=27.9589 18.5356 18.6655 14.1987 12.6455 12.6405 9.29909 9.17315 9.04137 8.76454 7.21184
threshold=-0.16528251757160797 0.38884921827629598 0.058332154758500933 0.7486456967151135 1.2143838763095909 -0.3999191976148509 0.12205231512588392 0.6343724152111071 -0.39960171220411767 0.49421524564941233 0.2508697374008273
decision_type=2 2 2 2 2 2 2 2 2 2 2
left_child=1 2 4 10 -1 6 7 -2 -4 -7 -3
right_child=5 3 8 -5 -6 9 -8 -9 -10 -11 -12
leaf_value=0.014119950325329202 0.044657108357240641 -0.080057626104149113 -0.058514527009188112 0.0068494941817475591 -0.029226575093383826 -0.017675677811294806 0.005609627759122395 0.0086502936043016242 0.019903924212836679 0.021112385692919899 -0.028073122065279815
leaf_weight=291.63587338477373 166.09692266583443 23.835574600845575 28.583297032862902 26.831189375370741 33.625706866383553 46.773283753544092 50.046370461583138 39.170617029070854 8.5585909523069841 59.034338548779488 23.985035412013531
leaf_count=999 412 156 311 94 131 159 155 118 116 155 118
internal_value=0 -0.00174999 0.00450584 -0.0321194 0.00963876 0.0234176 0.0314788 0.037786 -0.0404446 0.00396575 -0.0539841
internal_weight=0 437.055 362.403 74.6518 325.262 361.122 255.314 205.268 37.1419 105.808 47.8206
internal_count=2924 1925 1557 368 1130 999 685 530 427 314 274
is_linear=0
shrinkage=0.0669309


Tree=34
num_leaves=13
num_cat=0
split_feature=60 103 70 109 13 88 0 169 63 94 109 0
split_gain=38.1699 25.5765 21.1195 13.0443 16.4866 11.2439 10.6151 12.3034 8.0234 7.52644 5.52611 4.60068
threshold=-0.18424775491024079 -0.2496863893353676 0.4371644171418132 1.7548368802814311 1.27611007471617 -0.2550537037149882 0.81046713734467868 1.0000000180025095e-35 -0.039488618439672801 2.198854673650152 1.5305861168518977 -1.0635732851874629
decision_type=2 2 2 2 2 2 2 2 2 2 2 2
left_child=2 6 3 4 -1 -3 7 -2 -4 -5 -8 -10
right_child=1 5 8 9 -6 -7 10 -9 11 -11 -12 -13
leaf_value=-0.00016366830495371753 0.043267972639932102 0.0067573018056467709 -0.015461595336493992 -0.077860697866011019 0.053281735249317001 -0.047934699374824377 -0.016395166123412529 0.019381050643629827 -0.090937149467629569 -0.0034921358865249454 0.024684669786523561 -0.042095032168879158
leaf_weight=185.1033647544682 213.93533628433943 42.483869165182114 30.387008182704449 13.447908475995066 30.054317217320204 27.89635892957449 32.613061107695103 176.11343672126532 14.722456540912388 11.151514217257498 26.662311770021915 20.909656297415495
leaf_count=899 515 150 134 159 101 112 118 473 62 68 103 168
internal_value=0 0.0225958 -0.00720723 0.00202307 0.00730186 -0.0149208 0.0284722 0.0324826 -0.0407282 -0.0441476 0.00208272 -0.0622756
internal_weight=0 519.704 305.776 239.757 215.158 70.3802 449.324 390.049 66.0191 24.5994 59.2754 35.6321
internal_count=3062 1471 1591 1227 1000 262 1209 988 364 227 221 230
is_linear=0
shrinkage=0.0669309


Tree=35
num_leaves=12
num_cat=0
split_feature=60 102 116 85 145 20 184 12 102 73 4
split_gain=33.6084 22.0426 19.3215 17.1459 13.722 13.6743 10.684 8.85205 8.51488 7.94678 4.17853
threshold=-0.18424775491024079 -0.25189692483137938 -0.27001306499889072 0.094337499744571937 -0.54434069523147188 1.0000000180025095e-35 1.0000000180025095e-35 1.0739780547311788 1.338669317351034 0.088330673395992002 -0.78677480286947821
decision_type=2 2 2 2 2 2 2 2 2 2 2
left_child=2 3 5 6 10 8 -2 -7 -1 -3 -4
right_child=1 9 4 -5 -6 7 -8 -9 -10 -11 -12
leaf_value=0.0025810740329300402 0.010230781003167088 0.012488589869687323 -0.045619900674599145 -0.0077405834598964695 -0.00606901673847683 -0.063131478727289692 0.037725345259680874 0.017766773159517458 0.041760002356107752 -0.031517124512160245 -0.092382106587980892
leaf_weight=182.08339851722121 79.916265994310379 32.608423687517643 17.630535710602999 55.632022932171822 29.52480136975646 21.547882571816448 304.73882278054953 8.4296458922326547 28.777391318231821 42.140790358185768 16.639162793755531
leaf_count=676 248 112 102 181 190 251 768 91 158 162 123
internal_value=0 0.0212848 -0.00676066 0.02699 -0.039512 0.0019147 0.0320131 -0.040383 0.00792805 -0.0123202 -0.0683246
internal_weight=0 515.036 304.633 440.287 63.7945 240.838 384.655 29.9775 210.861 74.7492 34.2697
internal_count=3062 1471 1591 1197 415 1176 1016 342 834 274 225
is_linear=0
shrinkage=0.0669309


Tree=36
num_leaves=9
num_cat=0
split_feature=28 97 84 115 11 61 158 17
split_gain=32.2761 16.9128 16.305 14.8912 11.6571 10.2246 3.05526 3.17882
threshold=-0.44019950749804754 1.5607760399042545 1.4507778614845115 -0.44941913798748417 0.6135640953412026 1.787166525488304 1.0000000180025095e-35 -0.75548317702621226
decision_type=2 2 2 2 2 2 2 2
left_child=2 6 3 5 -5 -1 7 -2
right_child=1 -3 -4 4 -6 -7 -8 -9
leaf_value=0.0093935533472560336 -0.030712706041195009 0.015365614181413129 -0.027660650667783622 0.014197868710373195 0.039025080869531145 -0.028472742428664086 -0.027261895032355963 -0.076727772234503291
leaf_weight=319.46511704474688 8.8383829556405527 21.216165076941252 42.114993721246719 191.98558465391397 151.63469150662422 35.493383046239614 12.337615445256231 28.131726257503033
leaf_count=1039 103 115 168 529 395 201 143 332
internal_value=0 -0.0346022 0.0127836 0.0152218 0.0251538 0.00560719 -0.0561024 -0.065727
internal_weight=0 70.5239 740.694 698.579 343.62 354.959 49.3077 36.9701
internal_count=3025 693 2332 2164 924 1240 578 435
is_linear=0
shrinkage=0.0669309


Tree=37
num_leaves=12
num_cat=0
split_feature=27 85 8 14 14 81 3 122 105 73 100
split_gain=31.5041 18.4465 16.1916 12.4215 14.2116 11.8054 10.8215 7.78237 7.71937 5.89918 5.55603
threshold=0.14612459754109827 -0.51567445126648259 0.89194715571564132 -0.73428888714599438 1.2779461502100931 -0.16133812929660304 -1.1401186268159711 -0.65225775762392113 1.7310979222784633 1.4301209088179521 -0.41309488299044911
decision_type=2 2 2 2 2 2 2 2 2 2 2
left_child=1 2 5 7 -5 -1 -2 -3 -4 10 -8
right_child=6 3 8 4 -6 -7 9 -9 -10 -11 -12
leaf_value=0.0079251310671912285 0.023483119183034955 0.04574180939266391 -0.033387204568269636 -0.018933818941207936 0.033282050688158052 0.032620724068140525 -0.015157172936360014 0.0030531575649384557 0.013202165462499698 -0.086701820143220143 -0.06406259349824095
leaf_weight=125.23442086949944 11.516135815531014 32.039380069822073 33.484008278697729 160.08362609520555 27.337771829217672 281.92547114193439 24.840318892151117 47.484924983233213 30.392284128814936 13.289235368371008 17.909288469702005
leaf_count=381 111 103 136 615 86 742 270 186 100 84 211
internal_value=0 0.0121437 0.0201097 -0.00191282 -0.0113175 0.0250248 -0.0356094 0.0202519 -0.01122 -0.047753 -0.0356453
internal_weight=0 737.982 471.036 266.946 187.421 407.16 67.555 79.5243 63.8763 56.0388 42.7496
internal_count=3025 2349 1359 990 701 1123 676 289 236 565 481
is_linear=0
shrinkage=0.0669309


Tree=38
num_leaves=11
num_cat=0
split_feature=109 104 22 94 73 111 11 101 139 131
split_gain=29.4778 19.4273 15.2338 13.4706 10.26 15.1953 9.71582 7.55845 13.9595 6.14119
threshold=1.4558358623753864 -0.68558022772423077 -0.51861408427587519 -0.5475708265200302 1.2243890380022149 0.2736804953023883 0.97507984178900187 2.2834219750688027 2.5073876118573968 1.9003609884408454
decision_type=2 2 2 2 2 2 2 2 2 2
left_child=1 2 6 -4 5 -3 -1 8 9 -2
right_child=7 4 3 -5 -6 -7 -8 -9 -10 -11
leaf_value=-0.039289216610461378 -0.068244024849179186 0.020619797790563107 0.019737116094271305 -0.027489871869816648 0.043243669984238862 -0.02269716952307832 0.020134371716068671 -0.07004038116004184 0.029979902003842849 -0.012691757032537465
leaf_weight=61.889684248715639 19.975370369851589 355.01774919033051 118.70051135122776 35.043175831437111 74.67661003023386 40.407283637672663 15.391019660979508 17.985322322696447 17.091617360711098 16.099461778998375
leaf_count=435 180 1085 340 115 186 174 137 175 62 82
internal_value=0 0.0126801 -0.0032128 0.00897255 0.0204904 0.0161934 -0.0274546 -0.0325336 -0.0198457 -0.0434522
internal_weight=0 701.126 231.024 153.744 470.102 395.425 77.2807 71.1518 53.1664 36.0748
internal_count=2971 2472 1027 455 1445 1259 572 499 324 262
is_linear=0
shrinkage=0.0669309


Tree=39
num_leaves=13
num_cat=0
split_feature=121 85 60 154 68 9 60 122 130 60 31 148
split_gain=22.14 15.1743 19.06 16.5956 14.2844 11.2215 10.2217 9.89733 12.2332 8.78295 7.85771 4.16567
threshold=1.1864768358520041 0.29767481674825685 0.94446301416319367 0.38915223485837297 1.3061449111929742 0.27361251298460548 1.5185907863109362 1.5238775602677874 1.975785546907763 0.99821114602383332 -0.17401928044979373 0.26031165895269354
decision_type=2 2 2 2 2 2 2 2 2 2 2 2
left_child=1 2 4 5 -1 -3 7 11 -9 -5 -4 -2
right_child=6 3 10 9 -6 -7 -8 8 -10 -11 -12 -13
leaf_value=0.011211108810203877 -0.048538909468055592 -0.0087995991454932945 0.044896030972110194 0.024723795113073734 -0.03829623050325099 -0.088811019465077509 0.01151838591511758 0.023167180250394367 -0.052988825411742088 -0.024195349928421841 0.018203755235775484 -0.10358176380422805
leaf_weight=345.71134337037802 16.632991667836908 14.570847854018213 111.43770276755095 44.080319177359343 28.240971609950066 17.029874417930841 27.118446961045265 18.598325241357088 19.207427423447371 26.221468970179558 88.755275972187519 9.7815653420984727
leaf_count=1203 184 107 293 169 120 167 86 122 121 85 231 83
internal_value=0 0.0121705 0.0163949 -0.0116313 0.0074723 -0.0519184 -0.0229375 -0.0374873 -0.0155243 0.00647772 0.033062 -0.0689218
internal_weight=0 676.048 574.145 101.903 373.952 31.6007 91.3388 64.2203 37.8058 70.3018 200.193 26.4146
internal_count=2971 2375 1847 528 1323 274 596 510 243 254 524 267
is_linear=0
shrinkage=0.0669309


Tree=40
num_leaves=9
num_cat=0
split_feature=22 143 144 45 115 0 10 33
split_gain=25.9863 16.1515 12.0574 20.618 11.3631 11.223 10.9309 9.16874
threshold=-0.51861408427587519 0.25904978484692626 0.57011681297440242 1.0474382548387129 2.3513462487938352 1.5437873026833429 -0.69716562342424204 1.8892735719414848
decision_type=2 2 2 2 2 2 2 2
left_child=4 2 3 -2 5 7 -4 -1
right_child=1 -3 6 -5 -6 -7 -8 -9
leaf_value=-0.020528431990214237 0.014723875291105011 -0.02597607899491387 0.0066157860837705645 -0.040269371497763218 0.024488417947598019 -0.070108519493613339 0.041132960263515046 0.025820884949407923
leaf_weight=152.16042122989893 268.80297636985779 43.138730779290199 60.576292939484119 34.455633103847504 29.819926511496305 18.080363407731056 127.82865167409182 21.86715367808938
leaf_count=1030 763 140 171 113 131 190 313 114
internal_value=0 0.0132918 0.0167371 0.00847565 -0.013952 -0.0199189 0.0300349 -0.0147045
internal_weight=0 534.802 491.664 303.259 221.928 192.108 188.405 174.028
internal_count=2965 1500 1360 876 1465 1334 484 1144
is_linear=0
shrinkage=0.0669309


Tree=41
num_leaves=15
num_cat=0
split_feature=21 13 7 122 13 32 85 144 45 100 62 31 101 144
split_gain=24.0012 12.8788 17.0619 16.4813 14.322 14.7196 11.9503 11.3882 11.1003 10.315 7.35912 9.06731 5.47912 4.6673
threshold=-0.44134036541445126 0.58973296470699499 1.61991369733379 1.2580671169091715 -0.38256812478303176 1.0833849163344789 -0.51567445126648259 1.5687955614586906 0.80337962671291274 -0.43844568326312783 0.66610115175571483 -0.17401928044979373 1.7807832676361537 0.32462435356578073
decision_type=2 2 2 2 2 2 2 2 2 2 2 2 2 2
left_child=1 4 3 -3 5 -1 8 -6 9 -2 11 -8 -4 -10
right_child=6 2 12 -5 7 -7 10 -9 13 -11 -12 -13 -14 -15
leaf_value=-0.023589387269071494 0.030232862564024042 -0.0027443405941329131 -0.0015186333962312224 0.087270421343746227 -0.070285232218093158 0.062535120276679221 0.00036982453873036358 0.0031582377440344308 -0.022227667541572564 -0.006698167680568569 0.022460593197854185 -0.039191561565958287 -0.049811814031244198 0.012776734143907216
leaf_weight=43.919896997511387 247.12526427209377 19.930410359054804 22.663544051349163 16.786913957446814 43.499992992728949 11.145874254405497 128.2281903102994 12.085776679217814 34.402941986918449 39.262458950281143 47.040311589837074 32.538809463381767 19.648397531360388 33.856252878904343
leaf_count=383 637 156 86 69 414 109 397 46 109 108 122 102 134 93
internal_value=0 -0.015611 0.00502555 0.0384098 -0.03035 -0.00615691 0.0119208 -0.0543167 0.0193888 0.0251698 -0.000824184 -0.00763729 -0.0239445 -0.00486564
internal_weight=0 189.681 79.0293 36.7173 110.652 55.0658 562.454 55.5858 354.647 286.388 207.807 160.767 42.3119 68.2592
internal_count=2965 1397 445 225 952 492 1568 460 947 745 621 499 220 202
is_linear=0
shrinkage=0.0669309


Tree=42
num_leaves=9
num_cat=0
split_feature=46 113 145 3 57 147 35 13
split_gain=17.5995 18.5445 14.5912 12.8639 16.1976 11.8288 10.74 9.20273
threshold=0.46873424196211672 1.3337809207229261 1.891689190597696 0.24045026407921918 0.36792996394192601 0.4846188144526265 0.30816013393743508 -0.33030991070791399
decision_type=2 2 2 2 2 2 2 2
left_child=2 5 3 4 -1 7 -5 -2
right_child=1 -3 -4 6 -6 -7 -8 -9
leaf_value=-0.010251969549972078 0.011522055637917942 0.031959659860903412 -0.027792036362291789 0.029667491527500083 0.017172754098991095 -0.086137118317413677 -0.01575072511808932 -0.058347334675888075
leaf_weight=180.63628068193793 17.962107747793198 18.656075146049261 44.684787698090076 201.93207376822829 207.07073906809092 20.093132566660643 26.369439532980323 15.938373271375893
leaf_count=731 95 146 192 680 587 158 186 119
internal_value=0 -0.0255682 0.00913842 0.0118173 0.00439532 -0.0454455 0.0244216 -0.0213272
internal_weight=0 72.6497 660.693 616.009 387.707 53.9936 228.302 33.9005
internal_count=2894 518 2376 2184 1318 372 866 214
is_linear=0
shrinkage=0.0669309


Tree=43
num_leaves=8
num_cat=0
split_feature=23 46 123 3 103 31 148
split_gain=16.394 14.5502 23.2861 11.6198 14.1474 11.4004 11.1167
threshold=2.612743075787094 0.46873424196211672 -0.18453947580289132 0.24045026407921918 -0.025461549009217124 -0.35114873483998604 0.13886196343052595
decision_type=2 2 2 2 2 2 2
left_child=1 3 -3 4 -1 -5 -4
right_child=-2 2 6 5 -6 -7 -8
leaf_value=0.0085761031925975072 -0.042621738201413371 0.061064950208398618 -0.013259412868114859 0.0099770445909491256 -0.02821560544086571 0.039896566999036549 -0.07459773006482541
leaf_weight=344.42199618369341 30.588515087962151 12.127933993935583 28.544253412634134 138.18035380356014 54.185773860663176 97.170589279383421 24.681139532476664
leaf_count=1104 102 56 218 598 287 311 218
internal_value=0 0.0074377 -0.0226315 0.0105375 0.00357473 0.0223301 -0.0417026
internal_weight=0 699.312 65.3533 633.959 398.608 235.351 53.2254
internal_count=2894 2792 492 2300 1391 909 436
is_linear=0
shrinkage=0.0669309


Tree=44
num_leaves=7
num_cat=0
split_feature=146 9 85 132 24 94
split_gain=22.3608 18.6344 15.4845 15.0838 9.60041 6.49376
threshold=2.0264350844634222 1.2677455268286277 -0.51567445126648259 -0.26322590398977858 1.7174501430961708 1.7267094377600867
decision_type=2 2 2 2 2 2
left_child=1 2 3 -1 -4 -2
right_child=5 -3 4 -5 -6 -7
leaf_value=0.028394968415457494 -0.015532903823735053 -0.040883533797755528 -0.003995102270762713 0.00057011629677461613 0.041661498577922992 -0.080666990034793482
leaf_weight=319.95164286717772 12.79697420820594 29.758846249431372 231.96056465059519 120.01457817852497 22.645957991480827 14.772464871406553
leaf_count=1026 123 130 1035 426 90 111
internal_value=0 0.0109805 0.0132026 0.0208049 6.58206e-05 -0.0504335
internal_weight=0 724.332 694.573 439.966 254.607 27.5694
internal_count=2941 2707 2577 1452 1125 234
is_linear=0
shrinkage=0.0669309


Tree=45
num_leaves=9
num_cat=0
split_feature=146 132 114 49 140 5 84 108
split_gain=19.8785 11.0254 12.3865 16.7119 11.1385 8.76604 8.3603 4.82339
threshold=2.0264350844634222 -0.26322590398977858 0.027773364354160619 0.21766909839575632 0.28101324510424724 -0.81919099444110788 -0.19585964055308999 2.1300894781785407
decision_type=2 2 2 2 2 2 2 2
left_child=1 4 3 -3 5 -1 -6 -2
right_child=7 2 -4 -5 6 -7 -8 -9
leaf_value=0.0034747184934826227 -0.074929576755918062 -0.0016591137551800743 0.020729066801746902 -0.056852473279162714 0.0083753913583822538 0.023830776258573754 -0.060348064542713506 -0.018076115526546772
leaf_weight=130.72082826122642 14.310647742822768 114.03122933581471 69.918461613357067 31.327261034399271 17.628707755357027 344.58777904883027 14.413323290646074 12.544821742922066
leaf_count=455 153 466 192 131 175 1067 221 81
internal_value=0 0.0102722 -0.00241957 -0.0135542 0.0156575 0.0182324 -0.0225382 -0.048372
internal_weight=0 722.628 215.277 145.358 507.351 475.309 32.042 26.8555
internal_count=2941 2707 789 597 1918 1522 396 234
is_linear=0
shrinkage=0.0669309


Tree=46
num_leaves=14
num_cat=0
split_feature=114 123 3 13 107 147 3 136 1 65 13 13 36
split_gain=27.9026 19.2105 14.7787 13.7327 16.4012 19.5713 11.8659 9.84512 7.07223 10.9611 5.69802 6.20574 5.0719
threshold=-0.43471840661786088 -0.85223662784204801 -1.0920988393065734 -0.26563775660269923 -0.48893257073205026 0.16251761304457116 -0.94203700333970497 0.12522298445140817 -0.14013696867878098 1.1716393139771839 0.85324551137583027 0.037136696949024918 -0.16964398366401293
decision_type=2 2 2 2 2 2 2 2 2 2 2 2 2
left_child=1 10 12 8 7 -6 -4 -5 -2 -10 11 -1 -3
right_child=3 2 6 4 5 -7 -8 -9 9 -11 -12 -13 -14
leaf_value=0.013739889711488719 0.060795603889356342 -0.031526892494807904 0.042325613723645211 0.043640731779675646 -0.0477133974510505 0.025855193004023964 -0.011026483199850397 0.0030619197959028538 0.0095453870970642965 0.051500305664452579 -0.0070180407027948854 0.04527940534689439 -0.084079849550234328
leaf_weight=92.569989569485188 48.534587875008583 19.656363176181912 20.644700277596712 69.091218817979097 35.594034530222416 29.728618897497654 195.69495509006083 43.740467149764299 56.687800504267216 54.923845231533051 35.238463178277016 40.033151239156723 14.148189023137091
leaf_count=284 131 186 84 194 126 81 1128 141 170 140 119 107 69
internal_value=0 -0.000612546 -0.0123661 0.0252433 0.012458 -0.014232 -0.00593524 0.0279099 0.0394664 0.0301913 0.0169045 0.0232617 -0.0535218
internal_weight=0 417.986 250.144 338.301 178.154 65.3227 216.34 112.832 160.146 111.612 167.842 132.603 33.8046
internal_count=2960 1977 1467 983 542 207 1212 335 441 310 510 391 255
is_linear=0
shrinkage=0.0669309


Tree=47
num_leaves=9
num_cat=0
split_feature=45 10 113 110 43 10 116 10
split_gain=18.4959 25.0744 15.8485 16.0123 26.0528 15.4059 12.5425 9.37452
threshold=1.3751253639306957 0.21971334233462567 1.9047807004743371 0.24847869677495377 1.529244512311781 0.34954141578340281 -0.022036355539693533 -1.0804070393814633
decision_type=2 2 2 2 2 2 2 2
left_child=2 7 3 6 -5 -4 -1 -2
right_child=1 -3 5 4 -6 -7 -8 -9
leaf_value=0.023338480972523171 -0.026358327034728513 -0.071724368896657356 -0.071423342137136081 -0.035013931640536095 0.047757362400198691 0.020686538962285977 -0.0079313898239515793 0.042738599147701659
leaf_weight=505.97245602309704 15.496076375246046 27.936143171042204 18.841306790709496 60.060952998697758 23.779943414032459 14.314503237605093 64.824773292988539 20.343461997807026
leaf_count=1554 104 188 143 301 92 83 374 121
internal_value=0 -0.0241895 0.0134889 0.0157754 -0.0115374 -0.0316563 0.0197872 0.0128629
internal_weight=0 63.7757 687.794 654.638 83.8409 33.1558 570.797 35.8395
internal_count=2960 413 2547 2321 393 226 1928 225
is_linear=0
shrinkage=0.0669309


Tree=48
num_leaves=9
num_cat=0
split_feature=31 43 14 57 78 21 14 136
split_gain=16.0171 30.7039 11.4564 11.5672 9.67595 9.9885 12.3017 9.92109
threshold=-0.69635714796948522 1.3608214522601239 0.77315528250982568 0.58335594263412882 1.731192014305128 1.245742853236131 1.7230920889423842 -0.11752883254339296
decision_type=2 2 2 2 2 2 2 2
left_child=1 2 3 -1 5 6 -2 -7
right_child=4 -3 -4 -5 -6 7 -8 -9
leaf_value=-0.044120267080393183 0.0055817293652523602 0.05788347179658105 0.0098732715565254571 -0.0017239610355126785 -0.023612730384995478 0.057219303263066498 0.054664058620023104 0.018014846337115396
leaf_weight=86.562238210812211 337.49191707372665 26.037271585315466 42.965360254049301 43.223890829831362 31.402676843106747 42.054492525756359 24.538669694215059 92.558017030358315
leaf_count=512 1391 141 179 146 114 117 90 236
internal_value=0 -0.00987143 -0.0200835 -0.0300006 0.0124183 0.0146965 0.00890856 0.0302628
internal_weight=0 198.789 172.751 129.786 528.046 496.643 362.031 134.613
internal_count=2926 978 837 658 1948 1834 1481 353
is_linear=0
shrinkage=0.0669309


end of trees

feature_importances:
num__Contract_Month_to_month_TotalCharges=13
num__MonthlyCharges_OnlineBackup_No=13
num__tenure_0=12
num__Contract_Month_to_month_MonthlyCharges=12
num__ABSOLUTE_DIFF_MonthlyCharges_=11
num__SeniorCitizen_No_tenure=11
num__Dependents_No_TotalCharges=10
num__InternetService_DSL_TotalCharges=10
num__MonthlyCharges_OnlineSecurity_No=10
num__MultipleLines_No_tenure=10
num__TotalCharges=9
num__Contract_One_year_MonthlyCharges=9
num__InternetService_DSL_MonthlyCharges=9
num__InternetService_Fiber_optic_MonthlyCharges=9
num__MultipleLines_No_TotalCharges=9
num__ABSOLUTE_DIFF_TotalCharges_=8
num__MonthlyCharges_PaperlessBilling_Yes=8
num__SeniorCitizen_No_TotalCharges=8
num__EXPONENTIAL_WEIGHTED_STD_TotalCharges_com_0_5_=7
num__MonthlyCharges_SeniorCitizen_No=7
num__PaymentMethod_Electronic_check_TotalCharges=7
num__StreamingTV_No_TotalCharges=7
num__TechSupport_No_TotalCharges=7
num__tenure=6
num__COSINE_TotalCharges_=6
num__Contract_One_year_TotalCharges=6
num__Partner_Yes_tenure=6
num__gender_Female_MonthlyCharges=6
num__gender_Female_tenure=6
num__PERCENT_CHANGE_tenure_=6
num__ABSOLUTE_DIFF_tenure_=5
num__COSINE_MonthlyCharges_=5
num__COSINE_tenure_=5
num__EXPONENTIAL_WEIGHTED_STD_tenure_com_0_5_=5
num__Contract_Two_year_MonthlyCharges=5
num__OnlineSecurity_No_tenure=5
num__PaperlessBilling_No_TotalCharges=5
num__PaperlessBilling_No_tenure=5
num__Partner_Yes_TotalCharges=5
num__PaymentMethod_Electronic_check_tenure=5
num__StreamingMovies_No_TotalCharges=5
num__StreamingTV_Yes_TotalCharges=5
num__TechSupport_Yes_tenure=5
num__gender_Female_TotalCharges=5
num__gender_Male_MonthlyCharges=5
num__MonthlyCharges=4
num__EXPONENTIAL_WEIGHTED_VARIANCE_tenure_com_0_5_=4
num__DeviceProtection_No_MonthlyCharges=4
num__MonthlyCharges_OnlineBackup_Yes=4
num__MonthlyCharges_PaymentMethod_Credit_card_automatic_=4
num__MonthlyCharges_TechSupport_No=4
num__OnlineBackup_Yes_TotalCharges=4
num__OnlineSecurity_No_TotalCharges=4
num__PaymentMethod_Bank_transfer_automatic_TotalCharges=4
num__PaymentMethod_Mailed_check_TotalCharges=4
num__TotalCharges_1=4
num__EXPONENTIAL_WEIGHTED_VARIANCE_TotalCharges_com_0_5_=3
num__Contract_Month_to_month_tenure=3
num__Dependents_Yes_TotalCharges=3
num__DeviceProtection_No_internet_service_TotalCharges=3
num__InternetService_DSL_tenure=3
num__InternetService_Fiber_optic_TotalCharges=3
num__InternetService_No_TotalCharges=3
num__MonthlyCharges_MultipleLines_No=3
num__MonthlyCharges_Partner_No=3
num__MonthlyCharges_PaymentMethod_Electronic_check=3
num__MonthlyCharges_StreamingMovies_Yes=3
num__MonthlyCharges_StreamingTV_Yes=3
num__OnlineBackup_Yes_tenure=3
num__OnlineSecurity_Yes_tenure=3
num__PaperlessBilling_Yes_TotalCharges=3
num__Partner_No_tenure=3
num__StreamingTV_No_tenure=3
num__gender_Male_TotalCharges=3
remainder__Contract_Month_to_month=3
num__MonthlyCharges_0=2
num__EXPONENTIAL_WEIGHTED_STD_MonthlyCharges_com_0_5_=2
num__Contract_One_year_tenure=2
num__Contract_Two_year_tenure=2
num__Dependents_No_MonthlyCharges=2
num__Dependents_No_tenure=2
num__Dependents_Yes_MonthlyCharges=2
num__Dependents_Yes_tenure=2
num__DeviceProtection_No_TotalCharges=2
num__DeviceProtection_No_internet_service_tenure=2
num__DeviceProtection_Yes_TotalCharges=2
num__DeviceProtection_Yes_tenure=2
num__InternetService_No_tenure=2
num__MonthlyCharges_MultipleLines_Yes=2
num__MonthlyCharges_PaperlessBilling_No=2
num__MonthlyCharges_PhoneService_No=2
num__MonthlyCharges_TechSupport_Yes=2
num__MultipleLines_Yes_tenure=2
num__OnlineBackup_No_tenure=2
num__OnlineSecurity_Yes_TotalCharges=2
num__Partner_No_TotalCharges=2
num__PaymentMethod_Credit_card_automatic_tenure=2
num__PhoneService_Yes_tenure=2
num__StreamingMovies_No_tenure=2
num__StreamingMovies_Yes_TotalCharges=2
num__StreamingMovies_Yes_tenure=2
num__TechSupport_No_tenure=2
num__gender_Male_tenure=2
num__tenure_1=2
remainder__OnlineSecurity_No=2
remainder__TechSupport_No=2
num__TotalCharges_0=1
num__EXPONENTIAL_WEIGHTED_VARIANCE_MonthlyCharges_com_0_5_=1
num__tenure_MonthlyCharges=1
num__Contract_Two_year_TotalCharges=1
num__DeviceProtection_Yes_MonthlyCharges=1
num__InternetService_Fiber_optic_tenure=1
num__InternetService_No_MonthlyCharges=1
num__MonthlyCharges_OnlineSecurity_No_internet_service=1
num__MonthlyCharges_OnlineSecurity_Yes=1
num__MonthlyCharges_Partner_Yes=1
num__MonthlyCharges_PaymentMethod_Mailed_check=1
num__MonthlyCharges_PhoneService_Yes=1
num__MonthlyCharges_SeniorCitizen_Yes=1
num__MonthlyCharges_StreamingTV_No=1
num__MultipleLines_No_phone_service_tenure=1
num__MultipleLines_Yes_TotalCharges=1
num__OnlineBackup_No_TotalCharges=1
num__OnlineSecurity_No_internet_service_TotalCharges=1
num__PaperlessBilling_Yes_tenure=1
num__PaymentMethod_Bank_transfer_automatic_tenure=1
num__PhoneService_Yes_TotalCharges=1
num__StreamingTV_Yes_tenure=1
num__TechSupport_No_internet_service_TotalCharges=1
num__MonthlyCharges_1=1
num__NATURAL_LOGARITHM_TotalCharges_=1
num__NATURAL_LOGARITHM_tenure_=1
num__PERCENT_CHANGE_MonthlyCharges_=1
num__PERCENT_CHANGE_TotalCharges_=1
remainder__MultipleLines_No=1
remainder__StreamingMovies_Yes=1

parameters:
[boosting: gbdt]
[objective: binary]
[metric: auc]
[tree_learner: serial]
[device_type: cpu]
[data_sample_strategy: bagging]
[data: ]
[valid: ]
[num_iterations: 3000]
[learning_rate: 0.0669309]
[num_leaves: 16]
[num_threads: 0]
[seed: 0]
[deterministic: 0]
[force_col_wise: 0]
[force_row_wise: 0]
[histogram_pool_size: -1]
[max_depth: 4]
[min_data_in_leaf: 97]
[min_sum_hessian_in_leaf: 0.001]
[bagging_fraction: 0.620497]
[pos_bagging_fraction: 1]
[neg_bagging_fraction: 1]
[bagging_freq: 2]
[bagging_seed: 3]
[feature_fraction: 0.40137]
[feature_fraction_bynode: 1]
[feature_fraction_seed: 2]
[extra_trees: 0]
[extra_seed: 6]
[early_stopping_round: 200]
[first_metric_only: 0]
[max_delta_step: 0]
[lambda_l1: 2.10503e-07]
[lambda_l2: 2.67891e-07]
[linear_lambda: 0]
[min_gain_to_split: 0]
[drop_rate: 0.1]
[max_drop: 50]
[skip_drop: 0.5]
[xgboost_dart_mode: 0]
[uniform_drop: 0]
[drop_seed: 4]
[top_rate: 0.2]
[other_rate: 0.1]
[min_data_per_group: 100]
[max_cat_threshold: 32]
[cat_l2: 10]
[cat_smooth: 10]
[max_cat_to_onehot: 4]
[top_k: 20]
[monotone_constraints: ]
[monotone_constraints_method: basic]
[monotone_penalty: 0]
[feature_contri: ]
[forcedsplits_filename: ]
[refit_decay_rate: 0.9]
[cegb_tradeoff: 1]
[cegb_penalty_split: 0]
[cegb_penalty_feature_lazy: ]
[cegb_penalty_feature_coupled: ]
[path_smooth: 0]
[interaction_constraints: ]
[verbosity: -1]
[saved_feature_importance_type: 0]
[use_quantized_grad: 0]
[num_grad_quant_bins: 4]
[quant_train_renew_leaf: 0]
[stochastic_rounding: 1]
[linear_tree: 0]
[max_bin: 255]
[max_bin_by_feature: ]
[min_data_in_bin: 3]
[bin_construct_sample_cnt: 200000]
[data_random_seed: 1]
[is_enable_sparse: 1]
[enable_bundle: 1]
[use_missing: 1]
[zero_as_missing: 0]
[feature_pre_filter: 1]
[pre_partition: 0]
[two_round: 0]
[header: 0]
[label_column: ]
[weight_column: ]
[group_column: ]
[ignore_column: ]
[categorical_feature: ]
[forcedbins_filename: ]
[precise_float_parser: 0]
[parser_config_file: ]
[objective_seed: 5]
[num_class: 1]
[is_unbalance: 0]
[scale_pos_weight: 3]
[sigmoid: 1]
[boost_from_average: 1]
[reg_sqrt: 0]
[alpha: 0.9]
[fair_c: 1]
[poisson_max_delta_step: 0.7]
[tweedie_variance_power: 1.5]
[lambdarank_truncation_level: 30]
[lambdarank_norm: 1]
[label_gain: ]
[lambdarank_position_bias_regularization: 0]
[eval_at: ]
[multi_error_top_k: 1]
[auc_mu_weights: ]
[num_machines: 1]
[local_listen_port: 12400]
[time_out: 120]
[machine_list_filename: ]
[machines: ]
[gpu_platform_id: -1]
[gpu_device_id: -1]
[gpu_use_dp: 0]
[num_gpu: 1]

end of parameters

pandas_categorical:[]
