tree
version=v4
num_class=1
num_tree_per_iteration=1
label_index=0
max_feature_idx=201
objective=binary sigmoid:1
feature_names=num__tenure num__MonthlyCharges num__TotalCharges num__ABSOLUTE_DIFF_MonthlyCharges_ num__ABSOLUTE_DIFF_TotalCharges_ num__ABSOLUTE_DIFF_tenure_ num__MonthlyCharges_0 num__TotalCharges_0 num__tenure_0 num__COSINE_MonthlyCharges_ num__COSINE_TotalCharges_ num__COSINE_tenure_ num__EXPONENTIAL_WEIGHTED_STD_MonthlyCharges_com_0_5_ num__EXPONENTIAL_WEIGHTED_STD_TotalCharges_com_0_5_ num__EXPONENTIAL_WEIGHTED_STD_tenure_com_0_5_ num__EXPONENTIAL_WEIGHTED_VARIANCE_MonthlyCharges_com_0_5_ num__EXPONENTIAL_WEIGHTED_VARIANCE_TotalCharges_com_0_5_ num__EXPONENTIAL_WEIGHTED_VARIANCE_tenure_com_0_5_ num__MonthlyCharges_tenure num__TotalCharges_MonthlyCharges num__tenure_MonthlyCharges num__Contract_Month_to_month_MonthlyCharges num__Contract_Month_to_month_TotalCharges num__Contract_Month_to_month_tenure num__Contract_One_year_MonthlyCharges num__Contract_One_year_TotalCharges num__Contract_One_year_tenure num__Contract_Two_year_MonthlyCharges num__Contract_Two_year_TotalCharges num__Contract_Two_year_tenure num__Dependents_No_MonthlyCharges num__Dependents_No_TotalCharges num__Dependents_No_tenure num__Dependents_Yes_MonthlyCharges num__Dependents_Yes_TotalCharges num__Dependents_Yes_tenure num__DeviceProtection_No_MonthlyCharges num__DeviceProtection_No_TotalCharges num__DeviceProtection_No_tenure num__DeviceProtection_No_internet_service_MonthlyCharges num__DeviceProtection_No_internet_service_TotalCharges num__DeviceProtection_No_internet_service_tenure num__DeviceProtection_Yes_MonthlyCharges num__DeviceProtection_Yes_TotalCharges num__DeviceProtection_Yes_tenure num__InternetService_DSL_MonthlyCharges num__InternetService_DSL_TotalCharges num__InternetService_DSL_tenure num__InternetService_Fiber_optic_MonthlyCharges num__InternetService_Fiber_optic_TotalCharges num__InternetService_Fiber_optic_tenure num__InternetService_No_MonthlyCharges num__InternetService_No_TotalCharges num__InternetService_No_tenure num__MonthlyCharges_MultipleLines_No num__MonthlyCharges_MultipleLines_No_phone_service num__MonthlyCharges_MultipleLines_Yes num__MonthlyCharges_OnlineBackup_No num__MonthlyCharges_OnlineBackup_No_internet_service num__MonthlyCharges_OnlineBackup_Yes num__MonthlyCharges_OnlineSecurity_No num__MonthlyCharges_OnlineSecurity_No_internet_service num__MonthlyCharges_OnlineSecurity_Yes num__MonthlyCharges_PaperlessBilling_No num__MonthlyCharges_PaperlessBilling_Yes num__MonthlyCharges_Partner_No num__MonthlyCharges_Partner_Yes num__MonthlyCharges_PaymentMethod_Bank_transfer_automatic_ num__MonthlyCharges_PaymentMethod_Credit_card_automatic_ num__MonthlyCharges_PaymentMethod_Electronic_check num__MonthlyCharges_PaymentMethod_Mailed_check num__MonthlyCharges_PhoneService_No num__MonthlyCharges_PhoneService_Yes num__MonthlyCharges_SeniorCitizen_No num__MonthlyCharges_SeniorCitizen_Yes num__MonthlyCharges_StreamingMovies_No num__MonthlyCharges_StreamingMovies_No_internet_service num__MonthlyCharges_StreamingMovies_Yes num__MonthlyCharges_StreamingTV_No num__MonthlyCharges_StreamingTV_No_internet_service num__MonthlyCharges_StreamingTV_Yes num__MonthlyCharges_TechSupport_No num__MonthlyCharges_TechSupport_No_internet_service num__MonthlyCharges_TechSupport_Yes num__MultipleLines_No_TotalCharges num__MultipleLines_No_tenure num__MultipleLines_No_phone_service_TotalCharges num__MultipleLines_No_phone_service_tenure num__MultipleLines_Yes_TotalCharges num__MultipleLines_Yes_tenure num__OnlineBackup_No_TotalCharges num__OnlineBackup_No_tenure num__OnlineBackup_No_internet_service_TotalCharges num__OnlineBackup_No_internet_service_tenure num__OnlineBackup_Yes_TotalCharges num__OnlineBackup_Yes_tenure num__OnlineSecurity_No_TotalCharges num__OnlineSecurity_No_tenure num__OnlineSecurity_No_internet_service_TotalCharges num__OnlineSecurity_No_internet_service_tenure num__OnlineSecurity_Yes_TotalCharges num__OnlineSecurity_Yes_tenure num__PaperlessBilling_No_TotalCharges num__PaperlessBilling_No_tenure num__PaperlessBilling_Yes_TotalCharges num__PaperlessBilling_Yes_tenure num__Partner_No_TotalCharges num__Partner_No_tenure num__Partner_Yes_TotalCharges num__Partner_Yes_tenure num__PaymentMethod_Bank_transfer_automatic_TotalCharges num__PaymentMethod_Bank_transfer_automatic_tenure num__PaymentMethod_Credit_card_automatic_TotalCharges num__PaymentMethod_Credit_card_automatic_tenure num__PaymentMethod_Electronic_check_TotalCharges num__PaymentMethod_Electronic_check_tenure num__PaymentMethod_Mailed_check_TotalCharges num__PaymentMethod_Mailed_check_tenure num__PhoneService_No_TotalCharges num__PhoneService_No_tenure num__PhoneService_Yes_TotalCharges num__PhoneService_Yes_tenure num__SeniorCitizen_No_TotalCharges num__SeniorCitizen_No_tenure num__SeniorCitizen_Yes_TotalCharges num__SeniorCitizen_Yes_tenure num__StreamingMovies_No_TotalCharges num__StreamingMovies_No_tenure num__StreamingMovies_No_internet_service_TotalCharges num__StreamingMovies_No_internet_service_tenure num__StreamingMovies_Yes_TotalCharges num__StreamingMovies_Yes_tenure num__StreamingTV_No_TotalCharges num__StreamingTV_No_tenure num__StreamingTV_No_internet_service_TotalCharges num__StreamingTV_No_internet_service_tenure num__StreamingTV_Yes_TotalCharges num__StreamingTV_Yes_tenure num__TechSupport_No_TotalCharges num__TechSupport_No_tenure num__TechSupport_No_internet_service_TotalCharges num__TechSupport_No_internet_service_tenure num__TechSupport_Yes_TotalCharges num__TechSupport_Yes_tenure num__gender_Female_MonthlyCharges num__gender_Female_TotalCharges num__gender_Female_tenure num__gender_Male_MonthlyCharges num__gender_Male_TotalCharges num__gender_Male_tenure num__MonthlyCharges_1 num__TotalCharges_1 num__tenure_1 num__NATURAL_LOGARITHM_MonthlyCharges_ num__NATURAL_LOGARITHM_TotalCharges_ num__NATURAL_LOGARITHM_tenure_ num__PERCENT_CHANGE_MonthlyCharges_ num__PERCENT_CHANGE_TotalCharges_ num__PERCENT_CHANGE_tenure_ remainder__gender_Female remainder__gender_Male remainder__SeniorCitizen_No remainder__SeniorCitizen_Yes remainder__Partner_No remainder__Partner_Yes remainder__Dependents_No remainder__Dependents_Yes remainder__PhoneService_No remainder__PhoneService_Yes remainder__MultipleLines_No remainder__MultipleLines_No_phone_service remainder__MultipleLines_Yes remainder__InternetService_DSL remainder__InternetService_Fiber_optic remainder__InternetService_No remainder__OnlineSecurity_No remainder__OnlineSecurity_No_internet_service remainder__OnlineSecurity_Yes remainder__OnlineBackup_No remainder__OnlineBackup_No_internet_service remainder__OnlineBackup_Yes remainder__DeviceProtection_No remainder__DeviceProtection_No_internet_service remainder__DeviceProtection_Yes remainder__TechSupport_No remainder__TechSupport_No_internet_service remainder__TechSupport_Yes remainder__StreamingTV_No remainder__StreamingTV_No_internet_service remainder__StreamingTV_Yes remainder__StreamingMovies_No remainder__StreamingMovies_No_internet_service remainder__StreamingMovies_Yes remainder__Contract_Month_to_month remainder__Contract_One_year remainder__Contract_Two_year remainder__PaperlessBilling_No remainder__PaperlessBilling_Yes remainder__PaymentMethod_Bank_transfer_automatic_ remainder__PaymentMethod_Credit_card_automatic_ remainder__PaymentMethod_Electronic_check remainder__PaymentMethod_Mailed_check
feature_infos=[-1.2876433357076105:1.6048973164615647] [-1.5590808125059858:1.7922019960146014] [-1.0075584110313642:2.8123085290869621] [-1.3732146786845074:2.5784136684430314] [-1.2060160305473682:2.9812805775614346] [-1.3806058593655879:2.085520697994244] [-1.5590808125059858:1.7922019960146014] [-1.0075584110313642:2.8123085290869621] [-1.2876433357076105:1.6048973164615647] [-1.6559001007418339:1.28083675737467] [-1.4494730056648946:1.3788448272519644] [-1.3817056216017931:1.468542093412087] [-2.1069659842313064:2.9120514491963907] [-1.7999143369867856:3.453290194399262] [-2.2206246960958627:2.5445546925480507] [-1.2271680645847816:4.0856026757025683] [-1.0062234280601949:5.244261772359744] [-1.2909408643849078:3.3694664154107454] [-2.2341056533153125:0.44760640505790078] [-3.2651149458719058:0.30626793132177549] [-0.44693294684006207:2.2374721019568433] [-0.94578599855614531:2.0421339744444649] [-0.55131773754116165:5.326954298091076] [-0.62565944941363161:3.9018159256242755] [-0.45220912380176848:3.4929283089938705] [-0.39603358032404679:4.7545425139783877] [-0.45876691721978413:3.2581002793627971] [-0.47447813133895117:3.324411347121635] [-0.4452253856704893:3.8163752346607369] [-0.53198941927685561:2.2497124897430973] [-1.1925123852191379:1.8230401606876878] [-0.72227767372610163:3.30795962274903] [-0.85309021038297506:2.0821984027466391] [-0.56000664080333362:3.0756557513555887] [-0.44472849595122205:4.6249667369757201] [-0.52785862556153662:2.7258360060020284] [-0.83236515237594266:2.1196961096541744] [-0.5194368877823935:4.605073361324] [-0.56149002555798422:3.2893793256907413] [-0.51378647107731878:2.5926444251643499] [-0.37891228946356265:4.9940595223046564] [-0.38826659388096679:3.8990813930579238] [-0.6941127114517337:2.1253460400249216] [-0.58503282081547725:3.1417451360629092] [-0.61694867536681908:2.232745741525108] [-0.69083945667266644:2.4904562274286692] [-0.49326158338330245:4.0456477840023153] [-0.53455640144671934:2.8250327897971115] [-0.87338041832362256:1.6952042412161779] [-0.6083220647327694:3.1012042274848013] [-0.63157797459584752:2.4767121011933835] [-0.51378647107731878:2.5926444251643499] [-0.37891228946356265:4.9940595223046564] [-0.38826659388096679:3.8990813930579238] [-0.77212164892543145:2.5502676885873572] [-0.31848462784650311:4.8400029898855816] [-0.79748739490364495:1.9211044460429221] [-0.82275277973335137:2.1088573760840346] [-0.51378647107731878:2.5926444251643499] [-0.69938517712198289:2.1740803828739428] [-0.92389534221972613:1.8355826094435725] [-0.51378647107731878:2.5926444251643499] [-0.60732995136117784:2.5588949716925633] [-0.66134279473815105:3.0588037530045731] [-1.0561863544743169:1.7951848622458408] [-0.85329483658360894:2.324438411931244] [-0.8257003353735729:2.126775697750682] [-0.47441685519710863:3.2826387125277332] [-0.46649816220304485:3.3326000799133659] [-0.66425725581590622:2.4139432100240814] [-0.44939676443749926:4.8543185513408833] [-0.31848462784650311:4.8400029898855816] [-1.7359836349186288:1.6466528147216684] [-1.4550070558081643:1.8534403853777899] [-0.41710791332726999:3.3706824178186463] [-0.76586616718195977:2.3458638724201935] [-0.51378647107731878:2.5926444251643499] [-0.7702854427792577:1.8918388429553319] [-0.76988805514082803:2.3613911675699044] [-0.51378647107731878:2.5926444251643499] [-0.76701356733785586:1.8921979101812898] [-0.9097252306979825:1.8717801628438113] [-0.51378647107731878:2.5926444251643499] [-0.6204416706814615:2.4330536013965216] [-0.48865681981963915:5.4516614546243956] [-0.59192594514286456:3.0681457609234637] [-0.24129326755631633:7.8467854132151649] [-0.25813255831089899:5.6875005505868863] [-0.63462047416298939:3.0501649434399831] [-0.68981401699383549:2.0947777003655546] [-0.52108360110011431:4.5819706249277239] [-0.5634469568684557:3.2696091656734354] [-0.37891228946356265:4.9940595223046564] [-0.38826659388096679:3.8990813930579238] [-0.5798617808862867:3.1869166039220462] [-0.61471973022058302:2.2403480307661368] [-0.58044780376417782:3.7600632029454921] [-0.63108139447280165:2.8373523478381442] [-0.37891228946356265:4.9940595223046564] [-0.38826659388096679:3.8990813930579238] [-0.50999022067282607:3.6040757305513487] [-0.54392075423984843:2.471911490356046] [-0.4762326631124893:4.9586629973026017] [-0.58602364982459332:2.6428140508719737] [-0.69435489121772742:3.1779412796940254] [-0.78729290287767617:2.1138933277021961] [-0.52293187950140729:4.9267435933213708] [-0.6168134979326112:3.0661572054435422] [-0.65576048851083912:3.1841018051580816] [-0.76798420830082204:1.9230249528535812] [-0.40538916607642006:4.5775389463569791] [-0.45768857285834197:2.9396387115011788] [-0.39549286558827301:4.6808720196461611] [-0.45059339100023316:2.9754052875082322] [-0.44084708492738045:5.0156875831152918] [-0.47799837662810996:3.6374119876219915] [-0.29520807663003279:9.7369819907579664] [-0.36876678910603733:4.8637694577014425] [-0.24129326755631633:7.8467854132151649] [-0.25813255831089899:5.6875005505868863] [-0.92767342987711732:2.8062526083924402] [-1.1651692169296075:1.6805201242515022] [-0.84141223651002284:3.1034750023868196] [-1.0682562946782461:1.7596375257228889] [-0.32179746997629316:5.6679928914231166] [-0.34310374184548087:4.2249599697365561] [-0.49426591042210105:4.8979402824613247] [-0.53135783534532288:3.2690612545296216] [-0.37891228946356265:4.9940595223046564] [-0.38826659388096679:3.8990813930579238] [-0.61419959941225544:3.0397486339948481] [-0.64115119405788601:2.2405634065705966] [-0.49757441549527859:4.9101695937348149] [-0.53373840188009425:3.2285959871928589] [-0.37891228946356265:4.9940595223046564] [-0.38826659388096679:3.8990813930579238] [-0.61090196312078071:3.0475067428180771] [-0.63811344996453523:2.2565937849654474] [-0.57305342292020733:3.9487189716425513] [-0.62086302024508577:2.8711376853576849] [-0.37891228946356265:4.9940595223046564] [-0.38826659388096679:3.8990813930579238] [-0.52104988730123203:3.4802121351092921] [-0.55369379733700141:2.4472055830344237] [-0.841143503416522:2.2075900762549461] [-0.58223095230995991:3.8037813026459566] [-0.68513171615649926:2.3417335496517846] [-0.8354786796715522:2.2264231023881544] [-0.5846248674561072:3.7849712108095845] [-0.68415522293669118:2.3361864384112332] [-1.5590808125059858:1.7922019960146014] [-1.0075584110313642:2.8123085290869621] [-1.2876433357076105:1.6048973164615647] [-1.8911839063049838:1.2667235859632604] [-2.6017817001912769:1.3677664440185366] [-2.2207859226309639:1.0214948884585298] [-0.99965520637874117:3.635086143257507] [-0.29579214220398092:12.840457105301496] [-0.41657322126113533:5.3859585618080521] [0:1] [0:1] [0:1] [0:1] [0:1] [0:1] [0:1] [0:1] [0:1] [0:1] [0:1] [0:1] [0:1] [0:1] [0:1] [0:1] [0:1] [0:1] [0:1] [0:1] [0:1] [0:1] [0:1] [0:1] [0:1] [0:1] [0:1] [0:1] [0:1] [0:1] [0:1] [0:1] [0:1] [0:1] [0:1] [0:1] [0:1] [0:1] [0:1] [0:1] [0:1] [0:1] [0:1]
tree_sizes=1494 1513 1403 1520 1627 1519 1621 1622 1517 1620 1730 1623 1410 1305 1619 1727 1526 1639 1524 1631 1519 1522 1200 1302 1512 1513 1202 1414 1212 1425 1416 1211 1430 1512 1736 1537 1517 1408 1308 1422 1212 1205 1414 1314 1193 1624 1524 1311 1324 1202 1413 1306 1634 1630 1202

Tree=0
num_leaves=13
num_cat=0
split_feature=21 123 2 49 48 60 22 22 101 27 2 2
split_gain=1886.13 170.046 134.054 125.53 88.431 75.9558 41.4412 36.8941 34.2186 32.2586 31.0465 24.4386
threshold=-0.40646192214985272 -0.73440771865866739 -1.0045117721966572 -0.26992261343783824 1.0698426725466021 0.74412906813717272 -0.46591271215216129 1.6860387151948408 1.9064429444943161 1.0000000180025095e-35 -0.3389646879177301 -0.51528339120314126
decision_type=2 2 2 2 2 2 2 2 2 2 2 2
left_child=2 5 -1 11 9 6 -2 -5 -6 -4 -7 -3
right_child=1 3 4 7 8 10 -8 -9 -10 -11 -12 -13
leaf_value=-0.91764151979767039 -0.88427167051074618 -0.96043652470980345 -1.0379752140436405 -0.89413651252667681 -0.9831115010953031 -0.85876681050940329 -0.93408077400091905 -0.94136462514415975 -1.0422181922157985 -1.0700026940369658 -0.90052540129257097 -1.0133402104478773
leaf_weight=22.054318159818649 74.750476852059364 50.158935770392418 153.01402851939201 114.17501021921635 72.018082708120346 201.80677093565464 80.41043421626091 57.770603179931641 33.17906229197979 139.352061226964 51.915474697947502 33.959746211767197
leaf_count=63 179 173 692 289 271 412 248 184 152 692 136 142
internal_value=-1.01581 -0.902814 -1.03321 -0.933588 -1.03962 -0.883542 -0.910084 -0.910004 -1.00175 -1.05324 -0.867311 -0.981794
internal_weight=0 664.947 419.618 256.064 397.563 408.883 155.161 171.946 105.197 292.366 253.722 84.1187
internal_count=3633 1763 1870 788 1807 975 427 473 423 1384 548 315
is_linear=0
shrinkage=1


Tree=1
num_leaves=13
num_cat=0
split_feature=21 46 40 24 22 96 40 122 32 5 13 77
split_gain=1594.94 202.759 137.418 96.4616 67.752 37.337 26.9155 26.5384 24.0868 17.6781 12.3263 10.8459
threshold=-0.44909113058436206 -0.34163240703955278 -0.32677415645866154 2.5307605160460311 1.6860387151948408 -0.3945532089029683 -0.1757141228359895 -0.31971032902116814 -0.50656308244406212 -0.57509757490872537 1.3051484003516403 1.5287708807145484
decision_type=2 2 2 2 2 2 2 2 2 2 2 2
left_child=3 2 4 5 -2 10 -4 8 -3 -7 -1 -5
right_child=1 7 6 11 -6 9 -8 -9 -10 -11 -12 -13
leaf_value=-0.050120766624958242 0.12286451604011842 0.021908996806460603 0.068988534082189454 0.0088451396569310132 0.07876519939699729 -0.040944782131971953 0.0028822131117872255 0.0027430025074687329 0.075919431603581791 0.0091314405812069604 -0.018853416585760702 0.050182202881631326
leaf_weight=194.89727661013603 483.37999030947685 32.511647835373878 29.775306671857834 27.021654933691025 97.00961722433567 23.772196769714355 27.452549323439598 33.803643107414246 46.589186280965805 52.35352911055088 34.400904208421707 32.333312258124352
leaf_count=977 1056 121 92 109 282 115 115 141 140 216 157 112
internal_value=0 0.0979407 0.108473 -0.0248115 0.115494 -0.0357283 0.0372771 0.0384579 0.0537205 -0.00650622 -0.0454299 0.0313634
internal_weight=0 750.522 637.617 364.779 580.39 305.424 57.2279 112.904 79.1008 76.1257 229.298 59.355
internal_count=3633 1947 1545 1686 1338 1465 207 402 261 331 1134 221
is_linear=0
shrinkage=0.0481568


Tree=2
num_leaves=12
num_cat=0
split_feature=21 0 24 2 48 48 53 133 2 81 84
split_gain=1323.57 112.748 96.1594 103.668 85.5837 48.8971 34.286 33.4819 32.6448 24.5588 18.112
threshold=-0.40775371634483781 -0.85987323926005621 2.87338206375088 -1.0045117721966572 0.65726646880095951 1.0000000180025095e-35 0.59425065312586234 0.95551896046128315 -0.92823541586395886 -0.18316608642080995 -0.41787007910669444
decision_type=2 2 2 2 2 2 2 2 2 2 2
left_child=2 5 3 -1 9 8 -5 -6 -2 -3 -7
right_child=1 4 -4 6 7 10 -8 -9 -10 -11 -12
leaf_value=0.070583566162289418 0.1022733364110686 -0.0019103026099895151 0.057934989056576812 -0.020196731083373547 0.094988614999321833 0.13336363930659773 -0.054639128636099696 0.050660828124291901 0.049973658558047473 0.051012055514870307 0.10616206318685459
leaf_weight=25.941027119755745 102.10237492620945 31.152118653059006 38.219636857509613 255.77559822797775 219.09914776682854 159.70081098377705 90.827999010682106 48.212776035070419 37.972204744815826 58.562202736735344 88.087346509099007
leaf_count=74 229 127 124 1183 524 279 473 148 122 192 188
internal_value=0 0.0928624 -0.0148097 -0.0222727 0.0733345 0.110838 -0.0292225 0.0869937 0.0880958 0.0326355 0.123694
internal_weight=0 744.889 410.764 372.545 357.026 387.863 346.604 267.312 140.075 89.7143 247.788
internal_count=3663 1809 1854 1730 991 818 1656 672 351 319 467
is_linear=0
shrinkage=0.0481568


Tree=3
num_leaves=13
num_cat=0
split_feature=21 47 27 41 8 126 64 80 64 86 65 16
split_gain=1142.31 138.003 79.1134 60.6893 58.3718 47.7808 36.5546 33.2454 20.1623 19.9188 11.1394 3.35538
threshold=-0.40775371634483781 -0.27792111600448216 1.0000000180025095e-35 0.59425065312586234 -0.77839322088909368 -0.23246850433658431 0.60450898106484774 1.3019471332361676 0.83050298980995318 0.4740603588783629 -0.066229792948500912 -0.346069437255274
decision_type=2 2 2 2 2 2 2 2 2 2 2 2
left_child=2 4 3 5 8 -1 -6 11 -2 10 -3 -4
right_child=1 9 7 -5 6 -7 -8 -9 -10 -11 -12 -13
leaf_value=0.027726425018398105 0.096893853395623633 -0.00054492715058989554 -0.042257811155889016 -0.055276836206057244 0.03836125629566025 -0.026766868710458077 0.084630773412806601 -0.00062344406441369152 0.11918565733734129 0.068729256231938096 0.036725150283476025 -0.057595560965547465
leaf_weight=150.15058849751949 251.36396788060665 30.277293562889099 61.610276624560356 34.157386064529419 48.756628021597862 49.65484157204628 210.80602645874023 40.417919173836708 150.40926806628704 29.560339227318764 48.210447266697884 71.439777120947838
leaf_count=560 526 121 320 181 149 236 502 175 261 87 163 382
internal_value=0 0.0854958 -0.0142293 0.00404297 0.0937396 0.0141839 0.0759395 -0.0388737 0.105239 0.0350373 0.0223479 -0.0504934
internal_weight=0 769.384 407.431 233.963 661.336 199.805 259.563 173.468 401.773 108.048 78.4877 133.05
internal_count=3663 1809 1854 977 1438 796 651 877 787 371 284 702
is_linear=0
shrinkage=0.0481568


Tree=4
num_leaves=14
num_cat=0
split_feature=60 123 27 24 143 83 104 126 6 123 81 73 101
split_gain=619.83 194.073 171.143 110.601 71.6603 61.7093 38.7965 37.7018 46.4883 29.3115 19.9621 15.6537 3.65276
threshold=-0.63744223037154391 -0.42019729416965251 1.0000000180025095e-35 1.0000000180025095e-35 1.5094245266683535 1.3999886958979633 -0.47906587536252992 -0.25377002147487188 0.36322437132356272 -0.14526317274176445 0.21347907732192115 1.1602285901545952 2.1158757392579202
decision_type=2 2 2 2 2 2 2 2 2 2 2 2 2
left_child=2 7 3 9 6 -5 -3 10 -9 -1 -2 12 -4
right_child=1 4 11 5 -6 -7 -8 8 -10 -11 -12 -13 -14
leaf_value=0.052353762854759227 0.079325222087839584 0.01083549374308488 -0.055234199722779896 -0.037311506215777099 -0.025106680774619902 0.054536564517069813 0.061672965484861286 0.035218330004783006 0.095496598370138741 0.0070532383501704324 0.10446624098832295 -0.0052214511533488139 -0.035962380369174415
leaf_weight=165.01403349637985 96.290295988321304 45.58001671731472 79.13169926404953 80.685400202870369 35.138750702142715 21.479729145765305 147.37397544085979 55.182191118597984 64.183147177100182 41.443819835782051 306.05503460764885 22.001951366662979 32.048307985067368
leaf_count=483 225 172 439 403 159 72 419 170 127 153 562 99 166
internal_value=0 0.0751985 0.0032914 0.0229807 0.0381453 -0.0180008 0.0496641 0.0913982 0.0676303 0.0432603 0.0984495 -0.0423346 -0.0496791
internal_weight=0 749.803 441.805 308.623 228.093 102.165 192.954 521.711 119.365 206.458 402.345 133.182 111.18
internal_count=3649 1834 1815 1111 750 475 591 1084 297 636 787 704 605
is_linear=0
shrinkage=0.0481568


Tree=5
num_leaves=13
num_cat=0
split_feature=21 46 64 96 123 95 40 27 130 55 11 102
split_gain=842.869 123.064 95.4042 65.1561 38.5089 34.581 33.5473 28.2449 35.6317 16.0338 24.0038 6.98949
threshold=-0.44004857121946611 -0.1444542809427844 1.2073600203503283 -0.57417237261252529 -0.4987499002919063 1.7050228255811271 -0.31004176460856497 1.0000000180025095e-35 -0.47105666940259888 1.7733128064272963 -0.25658182982393402 1.0211045670521577
decision_type=2 2 2 2 2 2 2 2 2 2 2 2
left_child=2 3 7 6 -5 -4 -2 8 -1 10 -3 -9
right_child=1 9 5 4 -6 -7 -8 11 -10 -11 -12 -13
leaf_value=-0.031314471558217656 0.062255587493125944 0.035901247163527467 0.05818439609622654 0.091797070813722251 0.061167230703619693 -0.0061568652049467489 0.0076429046464681792 -0.05153407999029011 0.018330649023152561 0.04693576771798625 -0.026085604465289521 -0.027696421550166845
leaf_weight=96.588978677988052 126.9178656488657 27.596290588378906 45.905512884259224 475.90866570174694 118.99217873811722 33.515055328607559 32.832744255661964 96.008802130818367 51.352141588926315 29.537990033626556 30.498426467180252 40.585409939289093
leaf_count=476 318 92 145 891 296 141 129 539 201 89 128 204
internal_value=0 0.0720652 -0.0156351 0.0783378 0.0856705 0.0310328 0.0510314 -0.0286612 -0.014082 0.0180477 0.00335955 -0.0444514
internal_weight=0 842.284 363.956 754.651 594.901 79.4206 159.751 284.535 147.941 87.6327 58.0947 136.594
internal_count=3649 1943 1706 1634 1187 286 447 1420 677 309 220 743
is_linear=0
shrinkage=0.0481568


Tree=6
num_leaves=14
num_cat=0
split_feature=22 46 48 40 133 27 107 121 57 25 130 66 57
split_gain=738.978 114.736 81.2551 79.2226 53.1456 28.5507 27.7825 26.317 24.7157 22.5812 22.613 11.8284 6.60791
threshold=-0.53729928193302035 -0.34163240703955278 1.0644282866706749 -0.3254355651106538 0.27620858465644432 2.6245316244878767 -0.54008494161227449 -0.47350861317031001 0.079181287682798765 0.1425127957775075 0.37209164312667836 1.4303548121971323 0.3997247620019197
decision_type=2 2 2 2 2 2 2 2 2 2 2 2 2
left_child=2 3 9 4 -2 11 -5 8 -3 12 -11 -4 -1
right_child=1 7 5 6 -6 -7 -8 -9 -10 10 -12 -13 -14
leaf_value=-0.048737610951563412 0.08231899579344823 0.0038530741835331858 0.054644821756043106 0.050994406240980138 0.043577345892519728 -0.017607225743183685 -0.015660695288445676 -0.014926461792480286 0.055974393187231554 -0.029848036205600063 0.026419218563692965 0.016193468615003623 -0.01902831763618433
leaf_weight=132.15265814960003 601.63094513118267 34.564457327127457 32.8163942694664 29.721333086490631 95.096593201160431 39.537328138947487 28.318991154432297 32.601753130555153 54.157670050859451 55.805723935365677 23.555126741528511 42.687484070658684 19.988441810011864
leaf_count=746 1156 122 102 90 251 180 122 134 149 280 91 156 102
internal_value=0 0.0655409 -0.0175337 0.0725281 0.0770312 0.0155455 0.0184722 0.0220731 0.035669 -0.0339718 -0.0131473 0.0329058 -0.0448344
internal_weight=0 876.092 346.543 754.768 696.728 115.041 58.0403 121.324 88.7221 231.502 79.3609 75.5039 152.141
internal_count=3681 2024 1657 1619 1407 438 212 405 271 1219 371 258 848
is_linear=0
shrinkage=0.0481568


Tree=7
num_leaves=14
num_cat=0
split_feature=21 46 48 85 96 36 100 84 30 46 27 114 3
split_gain=668.972 103.232 75.2694 60.1165 36.5174 34.2792 27.4922 26.2195 23.2563 18.8583 20.3209 16.4562 6.0529
threshold=-0.44650754219439176 -0.34163240703955278 1.0644282866706749 -0.21066847576095538 -0.56163489075943718 1.024448212213338 2.5031487210492682 -0.15398657507520555 1.4270264094018634 -0.27295783411897717 1.2960413958272285 -0.24651691019636604 1.4219371192583645
decision_type=2 2 2 2 2 2 2 2 2 2 2 2 2
left_child=2 3 9 4 -2 -5 8 11 -4 12 -11 -3 -1
right_child=1 7 6 5 -6 -7 -8 -9 -10 10 -12 -13 -14
leaf_value=-0.053161032688478001 0.052316048774301377 0.018029370775950505 0.0077375721192061925 0.011362892324653087 0.080734656410199473 0.060817063772755413 -0.025655839606986017 -0.013613984895178847 0.058612654330608464 -0.004320441783586597 -0.045281312935243713 0.060969240455937573 -0.025960054596685427
leaf_weight=86.607455253601074 132.92888551950455 51.476446062326431 51.416233822703362 58.230644285678864 496.63798166811466 73.572307482361794 29.248553335666656 36.068611636757851 35.036902502179146 75.040856897830963 44.890433892607689 34.616531059145927 24.294798612594604
leaf_count=504 337 171 196 192 910 163 137 142 105 344 256 92 132
internal_value=0 0.0619491 -0.0169989 0.0685427 0.0747343 0.0389683 0.0147021 0.0208544 0.0283559 -0.0328885 -0.0196522 0.0352949 -0.0472023
internal_weight=0 883.531 346.535 761.37 629.567 131.803 115.702 122.162 86.4531 230.834 119.931 86.093 110.902
internal_count=3681 2007 1674 1602 1247 355 438 405 301 1236 600 263 636
is_linear=0
shrinkage=0.0481568


Tree=8
num_leaves=13
num_cat=0
split_feature=23 64 138 46 40 95 23 138 25 111 123 57
split_gain=639.138 98.0545 92.6739 54.6562 44.9519 40.412 38.2474 28.1606 26.4271 18.785 9.7553 6.52822
threshold=-0.59421864819809056 1.1839191524219796 -0.56653160907076772 -0.34163240703955278 -0.31004176460856497 1.7050228255811271 0.60053179799246825 1.2478675965735055 0.1425127957775075 0.4624208999890283 -0.42019729416965251 0.3997247620019197
decision_type=2 2 2 2 2 2 2 2 2 2 2 2
left_child=1 8 4 7 6 -3 -2 -4 11 -10 -5 -1
right_child=2 5 3 10 -6 -7 -8 -9 9 -11 -12 -13
leaf_value=-0.051722740047558148 0.057364704228759805 0.050878337415316076 0.076353299243552233 0.04459202133684733 -0.013765876811386933 -0.016194794175262518 0.0068446658753756563 0.046670815622884297 -0.0019450866767826449 -0.051859737232280163 0.011568403500731031 -0.026031480154543193
leaf_weight=128.2175607085228 111.40096978843212 52.623958975076675 510.99961254000664 49.896581932902336 43.041252300143242 34.481784164905548 50.510082438588142 86.702266231179237 68.848816871643066 23.437204629182816 35.507240384817123 27.935774475336075
leaf_count=769 260 160 925 138 181 151 165 211 305 123 127 147
internal_value=0 -0.0196378 0.0583774 0.0668985 0.0299763 0.0243267 0.0416044 0.0720476 -0.0350523 -0.0146217 0.0308623 -0.0471266
internal_weight=0 335.545 888.058 683.106 204.952 87.1057 161.911 597.702 248.439 92.286 85.4038 156.153
internal_count=3662 1655 2007 1401 606 311 425 1136 1344 428 265 916
is_linear=0
shrinkage=0.0481568


Tree=9
num_leaves=14
num_cat=0
split_feature=22 80 139 123 64 92 8 107 45 66 28 56 127
split_gain=580.432 92.8052 79.1625 46.3423 42.6024 41.6068 36.0851 24.397 16.1716 15.3213 13.5435 13.8567 6.13293
threshold=-0.53729928193302035 1.257664311414074 -0.59661301534506639 -0.65585511253641371 0.32201647013346618 -0.31004176460856497 -0.53395316577620566 1.8129241188780458 0.85970084858809737 1.7272205516154016 -0.44019950749804754 0.85922614054671886 1.8702958950617601
decision_type=2 2 2 2 2 2 2 2 2 2 2 2 2
left_child=1 10 5 8 -5 6 -2 9 -4 -3 11 -1 -12
right_child=2 7 3 4 -6 -7 -8 -9 -10 -11 12 -13 -14
leaf_value=-0.033591975335907805 0.055554498067663521 -0.023898946838355476 0.0752290395603777 0.013253530347699133 0.059322626113840538 -0.013183260403075509 0.006502560729939333 0.054499616693626143 0.050114911354579426 0.020281541908504477 -0.05371724312326423 0.0078506644048107095 -0.024218157218694546
leaf_weight=89.396984919905663 111.22203563153744 29.48690864443779 405.22641037404537 68.558396130800247 145.02086062729359 42.785503923892975 50.604693919420242 30.103187546133995 69.689723744988441 47.568667829036713 92.707622557878494 23.662520304322243 19.843524649739265
leaf_count=473 253 128 710 219 314 181 165 90 158 178 582 99 112
internal_value=0 -0.0191639 0.0553493 0.0631653 0.0445346 0.0290496 0.0402156 0.0177371 0.0715438 0.00337493 -0.0366908 -0.0249183 -0.0485164
internal_weight=0 332.769 893.108 688.495 213.579 204.612 161.827 107.159 474.916 77.0556 225.611 113.06 112.551
internal_count=3662 1662 2000 1401 533 599 418 396 868 306 1266 572 694
is_linear=0
shrinkage=0.0481568


Tree=10
num_leaves=15
num_cat=0
split_feature=22 123 48 69 48 60 25 145 31 145 127 123 96 123
split_gain=503.123 74.8651 60.1917 59.4643 31.0004 30.9814 20.4714 19.3697 16.9678 14.8854 14.8281 12.6665 8.79464 7.08491
threshold=-0.53729928193302035 -0.69513141559754066 1.0644282866706749 0.6289243479823855 1.0000000180025095e-35 1.1741141230222907 0.1425127957775075 2.2721473360223139 1.8390243189144473 0.16675926630128518 -0.45218243763959487 -1.0093418400865555 0.15499526194888022 -0.57730250641416003
decision_type=2 2 2 2 2 2 2 2 2 2 2 2 2 2
left_child=2 4 6 5 11 -3 13 8 -4 -8 -6 -2 -5 -1
right_child=1 3 7 12 10 -7 9 -9 -10 -11 -12 -13 -14 -15
leaf_value=-0.022298680046015439 0.059118734940861055 0.0030867886411664923 0.0052304027856281219 0.043364160214777937 0.078171082474342887 0.050387995975501872 0.0033658168074733315 -0.018189118573196491 0.049490030676956551 -0.04139715805050357 0.058079876729111184 0.035939738970810993 0.067707420705916482 -0.048796978390833565
leaf_weight=29.810526341199875 114.51014782488346 132.29867139458656 48.841550752520561 62.51453597843647 235.90223456919193 42.405055284500122 50.048024132847786 37.715836316347122 34.120437890291214 26.271458312869072 133.35337781906128 104.63672944903374 76.583959668874741 108.82850868999958
leaf_count=166 241 450 187 152 385 93 235 161 109 137 258 279 157 695
internal_value=0 0.0522693 -0.0167929 0.0332736 0.0623999 0.0145681 -0.032073 0.010425 0.0234335 -0.012043 0.0709154 0.0480515 0.056767 -0.0430993
internal_weight=0 902.205 335.636 313.802 588.402 174.704 214.959 120.678 82.962 76.3195 369.256 219.147 139.098 138.639
internal_count=3705 2015 1690 852 1163 543 1233 457 296 372 643 520 309 861
is_linear=0
shrinkage=0.0481568


Tree=11
num_leaves=14
num_cat=0
split_feature=22 46 40 48 8 146 11 25 90 31 126 11 13
split_gain=452.652 67.0978 60.1864 55.8449 33.9738 22.2751 20.4384 19.6403 18.7693 15.5528 15.327 12.4002 5.47826
threshold=-0.53729928193302035 -0.25610271614869706 -0.32490012857145073 1.0644282866706749 -0.1672930831068736 1.7741963123127316 -0.96486875721082688 0.1425127957775075 -0.22101174053316436 1.8390243189144473 0.74819348920747542 0.2508697374008273 1.27611007471617
decision_type=2 2 2 2 2 2 2 2 2 2 2 2 2
left_child=3 2 4 7 -2 9 -3 12 -8 -5 -9 -4 -1
right_child=1 6 11 5 -6 -7 8 10 -10 -11 -12 -13 -14
leaf_value=-0.045801140944699628 0.063646493449531882 0.043510010859402627 -0.015890376189167991 0.003996232554674079 0.038195772965862906 -0.025132796405921566 -0.027592018039039854 0.0030716681093576979 0.020895494300058798 0.044275136108140399 -0.043611528782507021 0.028814985676955125 -0.016243518593713663
leaf_weight=118.38720592856407 578.57149134576321 39.216965481638908 27.886234536767006 49.585338056087494 154.01678159832954 31.269317895174026 31.701921090483665 52.098242849111557 44.505132764577866 40.299787238240242 23.742581441998482 29.727342844009399 16.578760355710983
leaf_count=764 1061 110 117 190 365 141 123 240 142 126 132 97 97
internal_value=0 0.049559 0.0545687 -0.016178 0.0582958 0.00987625 0.0152618 -0.0311518 0.000724783 0.0220553 -0.011543 0.00717662 -0.0421704
internal_weight=0 905.626 790.202 331.961 732.588 121.154 115.424 210.807 76.2071 89.8851 75.8408 57.6136 134.966
internal_count=3705 2015 1640 1690 1426 457 375 1233 265 316 372 214 861
is_linear=0
shrinkage=0.0481568


Tree=12
num_leaves=12
num_cat=0
split_feature=22 24 81 84 148 0 57 69 12 9 0
split_gain=422.896 72.8052 51.2762 34.0616 23.6291 18.0894 17.889 17.6805 16.5741 15.7176 14.2843
threshold=-0.53729928193302035 2.6812811474406368 -0.28419834510999614 -0.37993474561414753 -0.57434199946265496 -0.9006132484455377 1.1874571057740109 -0.018639746644154947 1.6204684990439919 0.36535784234382718 -1.0228332760019816
decision_type=2 2 2 2 2 2 2 2 2 2 2
left_child=1 7 4 5 10 -4 -5 8 -1 -6 -2
right_child=2 -3 3 6 9 -7 -8 -9 -10 -11 -12
leaf_value=-0.036612222338832837 0.058555273947796506 0.030933001611875104 0.069713939451130663 0.025946985461086831 -0.0086052201708910481 0.051300457857044846 0.058219919255183515 0.004158782604967071 0.0061945447886622212 0.030729295630434691 0.025932773189022307
leaf_weight=202.55327381193638 60.100918024778366 61.773703023791313 266.54240927100182 119.67446674406528 50.495481580495834 230.93189696967602 59.70283243060112 35.998778909444809 23.398956000804901 44.163275077939034 64.569558531045914
leaf_count=1200 130 194 443 308 170 502 112 165 121 122 191
internal_value=0 -0.0160952 0.0481221 0.0546793 0.0278864 0.0611663 0.0366886 -0.0271855 -0.0321793 0.00974642 0.0416595
internal_weight=0 323.725 896.181 676.852 219.329 497.474 179.377 261.951 225.952 94.6588 124.67
internal_count=3658 1680 1978 1365 613 945 420 1486 1321 292 321
is_linear=0
shrinkage=0.0481568


Tree=13
num_leaves=11
num_cat=0
split_feature=21 24 45 85 60 138 144 30 4 36
split_gain=385.544 67.8271 47.3327 39.0958 36.0351 19.5861 20.9587 17.7354 12.7526 10.2137
threshold=-0.45555010155928771 2.2688047210775175 1.2667496794132951 0.29767481674825685 0.17122284444080829 -0.38926064328685633 0.28413737727587712 1.4270264094018634 -0.15760845726513759 0.62907101846728175
decision_type=2 2 2 2 2 2 2 2 2 2
left_child=1 5 3 4 -2 8 -7 -3 -1 -5
right_child=2 7 -4 9 -6 6 -8 -9 -10 -11
leaf_value=-0.049470177080075756 0.036463644452459414 0.00448875407867613 -0.00051649210556846479 -0.0024480901784477795 0.058812591746634273 0.020984344468079313 -0.041004882031041398 0.050935553051315197 -0.024179538030927601 0.032450061588075597
leaf_weight=87.335258439183235 245.21559600532055 49.310181111097336 48.430812835693359 36.906940430402756 526.6620737016201 32.729905799031258 20.615480735898018 31.08347550034523 98.260345786809921 41.11513939499855
leaf_count=573 613 190 161 130 976 149 116 83 567 100
internal_value=0 -0.0158151 0.0457901 0.0484289 0.0517126 -0.0286888 -0.00297164 0.0224471 -0.0360806 0.0159422
internal_weight=0 319.335 898.331 849.9 771.878 238.941 53.3454 80.3937 185.596 78.0221
internal_count=3658 1678 1980 1819 1589 1405 265 273 1140 230
is_linear=0
shrinkage=0.0481568


Tree=14
num_leaves=14
num_cat=0
split_feature=21 69 123 77 115 48 100 57 57 27 64 121 64
split_gain=369.835 62.4715 65.4816 48.1566 39.237 28.9238 23.7507 23.7444 13.3671 11.5078 9.13855 8.96955 8.26153
threshold=-0.44004857121946611 0.10464399882582771 -0.57730250641416003 1.2543655738586852 1.7226029987000693 0.96263783220324595 2.5031487210492682 1.2568865627621604 0.34716601418846066 0.14612459754109827 1.3858712453431374 -1.1058840223216675 0.70308083594303217
decision_type=2 2 2 2 2 2 2 2 2 2 2 2 2
left_child=3 2 7 4 9 -4 10 -2 12 -1 -5 -10 -3
right_child=1 8 5 6 -6 -7 -8 -9 11 -11 -12 -13 -14
leaf_value=-0.02378431237444989 0.037831641761251519 0.030709514989391194 -0.014850589188678877 0.0073423746005131345 0.032489799756429801 0.030523335650367665 -0.025489179557491651 0.074496171046090298 0.075281741182361903 -0.046901645298224021 0.040260455076821057 0.057236852521587743 0.053595326392793088
leaf_weight=110.73401664197445 235.78090593218803 59.059762969613075 80.482008427381516 35.676773726940155 22.761374652385712 54.74012878537178 29.127116739749908 49.575534150004387 87.138049766421318 90.959141343832016 43.289327189326286 239.4083464294672 96.112151801586151
leaf_count=594 542 144 293 133 103 129 140 78 133 638 128 451 184
internal_value=0 0.0446822 0.031121 -0.0147286 -0.0274459 0.00351753 0.0116786 0.0442015 0.0565222 -0.0342098 0.0253882 0.0620521 0.0448849
internal_weight=0 902.297 420.579 332.548 224.455 135.222 108.093 285.356 481.718 201.693 78.9661 326.546 155.172
internal_count=3690 1954 1042 1736 1335 422 401 620 912 1232 261 584 328
is_linear=0
shrinkage=0.0481568


Tree=15
num_leaves=15
num_cat=0
split_feature=21 123 24 49 75 60 67 115 123 49 17 2 30 149
split_gain=335.178 53.8089 53.2102 37.9758 29.141 27.1321 25.2025 16.7644 16.5442 14.5394 11.0271 10.5689 9.08341 4.32022
threshold=-0.44004857121946611 -0.77368402171979433 0.54654931987183253 -0.34809131432804136 0.25168268543055861 0.57066918804147182 2.5017044753834066 0.23648258938753261 -1.0093418400865555 0.8527737486498207 1.9524444945809221 -0.32954880775104528 1.4435534680430055 0.25970154623453529
decision_type=2 2 2 2 2 2 2 2 2 2 2 2 2 2
left_child=2 5 6 7 12 8 10 -3 -2 -5 -1 -7 -4 -6
right_child=1 3 4 9 13 11 -8 -9 -10 -11 -12 -13 -14 -15
leaf_value=-0.041419995111169561 0.049239992545099961 -0.0053394430278459575 0.012397788025712444 0.04620476745491725 -0.040606447374715783 0.065508712092318913 0.019597305762126566 0.036751239305293483 0.022113638300712803 0.019529319602253039 -0.0022242736555964592 0.043848798737122364 0.043568995373389791 -0.0099780243684692883
leaf_weight=149.30063331127167 141.57156349718571 86.260868385434151 65.356500968337059 174.59783162176609 20.863543406128883 255.58296665549278 20.42785818874836 29.432039707899094 82.541848421096802 65.035570740699768 18.734466910362244 65.670118987560272 32.441323295235634 21.881206750869751
leaf_count=979 285 309 259 353 120 415 84 83 212 165 99 132 86 109
internal_value=0 0.0426086 -0.0141857 0.0280262 0.00824081 0.0521095 -0.0309099 0.0053684 0.0392493 0.0389652 -0.03705 0.0610811 0.022738 -0.0249278
internal_weight=0 900.693 329.006 355.326 140.543 545.366 188.463 115.693 224.113 239.633 168.035 321.253 97.7978 42.7448
internal_count=3690 1954 1736 910 574 1044 1162 392 497 518 1078 547 345 229
is_linear=0
shrinkage=0.0481568


Tree=16
num_leaves=13
num_cat=0
split_feature=21 46 40 27 122 75 122 103 97 15 9 108
split_gain=311.882 64.1894 45.5779 30.0752 25.4757 22.9919 17.1625 17.1316 15.632 13.7331 3.16029 5.39528
threshold=-0.40646192214985272 -0.34163240703955278 0.014767425985510145 0.13411293182083925 0.54456036108443084 0.69079695731065616 -0.31971032902116814 -0.473911229661518 2.5724025480782808 -0.32702270465772415 0.41018730367585404 -0.31976534092408376
decision_type=2 2 2 2 2 2 2 2 2 2 2 2
left_child=2 4 3 5 7 -1 9 -2 -5 -3 -4 -12
right_child=1 6 10 8 -6 -7 -8 -9 -10 -11 11 -13
leaf_value=0.017498104170164418 0.054041867390644836 0.0063275268836310997 -0.054955425783403795 -0.032937268677111477 0.021501183773039105 -0.025495977389529842 -0.015393195994455681 0.030723833339680425 0.017186761135601861 0.042715056351312709 -0.024928145300156086 -0.05693601425014308
leaf_weight=151.80726216733456 547.09332296252251 54.279300466179848 29.286667682230473 78.825278341770172 76.49544732272625 35.611567616462708 38.868923932313919 84.333319634199142 17.661934167146683 43.195508509874344 37.327666029334068 18.152245946228504
leaf_count=534 995 161 199 485 191 193 150 188 78 107 238 141
internal_value=0 0.0419204 -0.0111695 -0.00191738 0.0477478 0.00932874 0.0116635 0.0509275 -0.0237621 0.0224526 -0.0421571 -0.0354009
internal_weight=0 844.266 368.673 283.906 707.922 187.419 136.344 631.427 96.4872 97.4748 84.7666 55.4799
internal_count=3660 1792 1868 1290 1374 727 418 1183 563 268 578 379
is_linear=0
shrinkage=0.0481568


Tree=17
num_leaves=14
num_cat=0
split_feature=21 46 128 101 147 114 0 84 96 157 84 17 123
split_gain=283.549 59.0612 42.8094 31.1231 29.8818 24.3759 23.4311 16.5708 13.3966 9.26203 2.87144 5.5774 1.96556
threshold=-0.40646192214985272 -0.34163240703955278 0.014767425985510145 2.4090816519269653 0.43028849132355701 1.4530102733127339 -0.45247314740524297 -0.41060468628867747 0.61272708341343896 -0.27753756714292926 -0.20904087485142628 -0.48838153166768128 0.99374961603091505
decision_type=2 2 2 2 2 2 2 2 2 2 2 2 2
left_child=2 6 3 5 9 -1 7 -2 -8 -3 11 -4 -12
right_child=1 4 10 -5 -6 -7 8 -9 -10 -11 12 -13 -14
leaf_value=-0.0040840093892876243 0.057335224211713789 0.037012188307977256 -0.012163499818708642 -0.054137719655812572 -0.028665623699864213 0.033706326129545584 0.014527698259657581 0.038286064723539286 0.040580656855634549 0.0080574684387351072 -0.05828858649409744 -0.047524226188895478 -0.035928369474565749
leaf_weight=209.98313497006893 340.70184116065502 56.369766846299171 17.973539561033249 24.136492244899273 33.196239545941353 48.778488203883171 67.440978229045868 153.67372645437717 142.45697370171547 46.967122122645378 26.148413002490997 24.371201939880848 14.000814132392405
leaf_count=961 592 146 110 157 124 172 170 312 300 148 191 169 108
internal_value=0 0.0400708 -0.0107397 -0.00183858 0.0110831 0.00303977 0.0456904 0.0514139 0.0322098 0.0238522 -0.0412643 -0.0325153 -0.0504915
internal_weight=0 840.807 365.392 282.898 136.533 258.762 704.274 494.376 209.898 103.337 82.494 42.3447 40.1492
internal_count=3660 1792 1868 1290 418 1133 1374 904 470 294 578 279 299
is_linear=0
shrinkage=0.0481568


Tree=18
num_leaves=13
num_cat=0
split_feature=23 60 24 85 46 74 1 158 126 106 143 144
split_gain=253.843 59.9978 42.497 31.2263 22.6306 19.0738 18.918 16.3312 14.877 10.5149 9.83807 5.67328
threshold=-0.59421864819809056 -0.17081072194508087 0.90413977014631086 0.29767481674825685 -0.35016029410784916 0.22851973198154144 0.89919549913336727 -0.40867342853867134 0.36071713200606159 0.03125538515297914 2.0095744233969248 -0.30710100664017487
decision_type=2 2 2 2 2 2 2 2 2 2 2 2
left_child=2 5 6 4 -3 7 11 -2 9 -4 -8 -1
right_child=1 3 8 -5 -6 -7 10 -9 -10 -11 -12 -13
leaf_value=-0.049521069217757681 0.032392946016302396 0.050907507887244768 0.00052013500865421094 0.0099447095814027137 0.021747749257119128 0.047746206039402529 0.016912607357874671 0.0021925907312112572 -0.023054830219608725 0.031475308693537596 -0.027286587747793176 -0.026830692589439438
leaf_weight=77.799647994339466 57.115874603390694 511.61169332265854 59.623277902603149 56.679567202925682 70.191407263278961 37.466547712683678 22.751938283443451 152.12158389389515 33.770402833819389 44.397675231099129 23.995612859725952 38.055960677564144
leaf_count=599 137 936 233 155 192 76 93 484 185 145 124 275
internal_value=0 0.0362722 -0.01496 0.0440655 0.0473896 0.0161027 -0.0316339 0.0104365 0.00471636 0.0137323 -0.00577493 -0.0420679
internal_weight=0 885.187 300.395 638.483 581.803 246.704 162.603 209.237 137.791 104.021 46.7476 115.856
internal_count=3634 1980 1654 1283 1128 697 1091 621 563 378 217 874
is_linear=0
shrinkage=0.0481568


Tree=19
num_leaves=14
num_cat=0
split_feature=21 60 102 25 122 105 60 144 143 57 131 109 56
split_gain=234.317 52.9751 39.4809 37.2221 30.6446 21.3936 20.0941 13.9565 13.7524 13.5383 12.4529 18.3061 8.1082
threshold=-0.44909113058436206 -0.17081072194508087 -0.34326104318128298 1.0710303435707151 -0.8299121355927187 0.28050480698852698 -0.08285923344585229 0.5938948784145045 0.38408725902906898 1.0816907367172968 0.53955131592183958 1.0820845899928304 1.31824639025123
decision_type=2 2 2 2 2 2 2 2 2 2 2 2 2
left_child=3 4 5 6 -2 -3 12 -6 -8 -4 -5 -12 -1
right_child=1 2 9 10 7 -7 8 -9 -10 -11 11 -13 -14
leaf_value=-0.041557574465323058 0.042419880681944494 0.051731371705290498 -0.0074740081263666089 -0.02022283065691749 -0.0039320768472883025 0.028768636167468414 0.024920197301860798 0.026550907310538642 -0.025175417894288461 0.032635405874398268 0.036279762618890932 -0.0095176514154557829 -0.0097306001745988673
leaf_weight=118.18875174224377 70.69549061357975 435.15852102637291 43.834622323513031 27.390326857566833 122.54430317878723 120.05171476304531 24.333906173706055 48.663897603750229 26.600591838359833 35.176772236824036 48.604853585362434 34.684593424201012 22.022192507982254
leaf_count=887 148 798 134 146 404 276 106 123 143 75 150 131 113
internal_value=0 0.0349204 0.0422336 -0.0142793 0.0157465 0.0467662 -0.027148 0.00473237 -0.00124226 0.0103832 0.00794494 0.0172082 -0.0365587
internal_weight=0 876.125 634.222 301.825 241.904 555.21 191.145 171.208 50.9345 79.0114 110.68 83.2894 140.211
internal_count=3634 1958 1283 1676 675 1074 1249 527 249 209 427 281 1000
is_linear=0
shrinkage=0.0481568


Tree=20
num_leaves=13
num_cat=0
split_feature=23 81 30 123 175 0 30 31 102 42 133 72
split_gain=200.696 54.7082 44.8996 33.0856 24.7356 24.6523 20.4414 16.9462 16.7654 15.5553 12.9734 7.67744
threshold=-0.59421864819809056 0.76790918827677657 1.4270264094018634 -0.77368402171979433 1.0000000180025095e-35 -0.69691320251813094 0.19385357233203984 -0.41913296318128762 1.2556893848188315 1.6397857955147137 -0.45535643544107435 -1.1691210764312685
decision_type=2 2 2 2 2 2 2 2 2 2 2 2
left_child=2 3 4 11 8 10 -6 -5 -1 -7 -3 -2
right_child=1 5 -4 7 6 9 -8 -9 -10 -11 -12 -13
leaf_value=-0.042962747656567234 0.042476587463961324 0.060544117968443098 0.025552416333023707 -0.014389203688192478 0.020513155159868023 0.023050145882523559 -0.027911150433736431 0.016750112055935087 -0.0046943039829822194 0.055486969143604688 0.039472237189186452 0.023933069613435241
leaf_weight=121.72147787362337 77.644677951931953 165.2554981559515 53.284089878201485 77.978826060891151 43.778480932116508 161.62054382264614 37.560950472950935 84.391212329268456 33.95513691008091 43.518091320991516 114.85399191081524 155.43308162689209
leaf_count=894 170 275 171 285 189 372 184 240 204 79 225 364
internal_value=0 0.03178 -0.0143909 0.0184844 -0.0233707 0.0426151 -0.00184824 0.00179533 -0.0346159 0.0299314 0.051904 0.0301105
internal_weight=0 880.696 290.3 395.448 237.016 485.248 81.3394 162.37 155.677 205.139 280.109 233.078
internal_count=3652 2010 1642 1059 1471 951 373 525 1098 451 500 534
is_linear=0
shrinkage=0.0481568


Tree=21
num_leaves=13
num_cat=0
split_feature=69 123 45 57 96 30 105 64 34 120 57 147
split_gain=150.438 116.473 48.0562 30.9764 29.7367 24.5742 18.8316 16.3998 16.22 11.0132 8.72608 7.01423
threshold=-0.062113488467780427 -0.57730250641416003 0.99623714404309038 0.47304745956884425 -0.13465134389295383 1.4041427897448977 -0.52538025706143754 -0.074074093066066798 -0.3923364021033709 0.44492692915805182 0.57427171461698767 0.57128861563471378
decision_type=2 2 2 2 2 2 2 2 2 2 2 2
left_child=1 3 8 6 5 -3 -1 -6 9 -2 -4 -5
right_child=2 4 10 11 7 -7 -8 -9 -10 -11 -12 -13
leaf_value=0.020532188595499018 0.051028503455959114 -0.035348969897565433 -0.020724909814780208 0.052349417739189677 -0.026134494630049673 0.022592673137295311 -0.015329671902791712 0.010628563474020625 0.01955815168102162 0.031192631768357161 0.016570337687801646 0.029483601718596847
leaf_weight=145.05668986588717 328.45418907701969 164.13648237287998 29.976525969803333 74.562532514333725 39.265595443546772 18.933044970035553 44.336410447955132 99.317690119147301 56.385506629943848 80.903131306171417 28.268259212374687 53.390961885452271
leaf_count=437 610 1054 120 145 172 62 170 320 147 203 91 121
internal_value=0 0.00380479 0.0386156 0.0245037 -0.016617 -0.0293566 0.012137 0.000212236 0.0437729 0.0471083 -0.00262419 0.0428083
internal_weight=0 638.999 523.988 317.347 321.653 183.07 189.393 138.583 465.743 409.357 58.2448 127.953
internal_count=3652 2481 1171 873 1608 1116 607 492 960 813 211 266
is_linear=0
shrinkage=0.0481568


Tree=22
num_leaves=10
num_cat=0
split_feature=22 25 143 69 8 73 146 54 84
split_gain=195.919 42.9338 41.8319 34.6166 21.1959 15.5527 15.358 13.4118 10.1567
threshold=-0.54442700123442889 1.45384238463686 0.42576641708978319 0.10464399882582771 -0.94135325763101896 1.1386093088146365 0.97544020050221203 -0.15694661784853142 -0.40871901181682574
decision_type=2 2 2 2 2 2 2 2 2
left_child=1 5 3 4 -2 7 -3 -1 -5
right_child=2 6 -4 8 -6 -7 -8 -9 -10
leaf_value=-0.043088937515775701 0.034764790220475295 0.028852471636635995 -0.012799521504206794 0.048631067729574547 0.012473873520162493 -0.0014106083904721633 -0.0093978468256948611 -0.0086282071872799456 0.03256135385656795
leaf_weight=111.60663245618343 206.44927704334259 54.187124773859978 46.030907139182091 302.20759660005569 189.94451887905598 40.937866076827049 44.199509590864182 34.222457975149155 130.64750389754772
leaf_count=875 456 184 147 568 533 186 180 217 283
internal_value=0 -0.0140766 0.0318848 0.0343652 0.0240834 -0.027639 0.0116688 -0.0350019 0.0437808
internal_weight=0 285.154 875.28 829.249 396.394 186.767 98.3866 145.829 432.855
internal_count=3629 1642 1987 1840 989 1278 364 1092 851
is_linear=0
shrinkage=0.0481568


Tree=23
num_leaves=11
num_cat=0
split_feature=22 25 143 64 57 132 73 54 69 130
split_gain=178.474 39.7274 38.1843 33.1964 20.7543 16.8055 14.7487 12.9307 12.1582 12.6288
threshold=-0.54442700123442889 1.45384238463686 0.42576641708978319 0.57686077786730838 -0.51843114115912503 -0.16425194669101437 1.1386093088146365 -0.15694661784853142 0.50888491160371829 1.3441381306698037
decision_type=2 2 2 2 2 2 2 2 2 2
left_child=1 6 3 4 -2 -5 7 -1 9 -3
right_child=2 8 -4 5 -6 -7 -8 -9 -10 -11
leaf_value=-0.042286127373399353 0.0089590488683299382 -0.026963635107281024 -0.012202993387901749 0.048186042205474108 0.03164942220061804 0.027288900009639693 -0.0013436309902624571 -0.0082587697201780674 0.033203495966161678 0.01683468717824127
leaf_weight=108.32945264130831 153.76702454686165 26.606799691915512 45.957853317260742 306.50262738764286 238.45922857522964 125.9115593880415 40.909569337964058 34.036252342164516 36.342803448438644 35.822535052895546
leaf_count=875 460 137 147 571 535 274 186 217 113 114
internal_value=0 -0.01356 0.0305181 0.032899 0.022754 0.0421012 -0.026828 -0.034151 0.0110594 -0.00183177
internal_weight=0 282.047 870.598 824.64 392.226 432.414 183.275 142.366 98.7721 62.4293
internal_count=3629 1642 1987 1840 995 845 1278 1092 364 251
is_linear=0
shrinkage=0.0481568


Tree=24
num_leaves=13
num_cat=0
split_feature=21 57 8 69 60 60 21 24 95 63 45 60
split_gain=137.668 41.2803 34.5065 24.7006 18.8096 18.3742 16.8645 13.1388 13.0881 12.153 11.1866 2.53753
threshold=-0.45555010155928771 1.2439090941662447 -1.1043132943729443 0.10464399882582771 0.74412906813717272 0.17122284444080829 1.3465028004449715 1.5170331698028006 0.55506497740592031 -0.036351901283060116 1.1652008096686444 0.92736133584389913
decision_type=2 2 2 2 2 2 2 2 2 2 2 2
left_child=1 5 4 6 9 7 -4 -1 -5 -2 -7 -6
right_child=2 -3 3 8 11 10 -8 -9 -10 -11 -12 -13
leaf_value=-0.036720175148445215 0.039381214501858657 0.028604390536837911 0.0012895409630641029 0.035227891282573268 0.044759891867301366 0.012282828391277324 0.028170936886455215 -0.0050987933846812876 0.0078073804701765835 0.013212743673479285 -0.028457331198275905 0.056996601971328428
leaf_weight=116.66035187989473 104.91289469599724 51.27900292724371 175.45834448933601 228.15332147479057 66.86669696867466 53.596615806221962 78.265774756669998 41.246583089232445 49.04666668176651 67.726004987955093 22.064914353191853 95.363892048597336
leaf_count=960 219 195 546 483 127 201 172 186 126 164 131 165
internal_value=0 -0.010521 0.0280739 0.0204387 0.0401794 -0.0191109 0.00958162 -0.0284604 0.0303762 0.0291154 0.000401838 0.0519531
internal_weight=0 284.847 865.794 530.924 334.869 233.568 253.724 157.907 277.2 172.639 75.6615 162.231
internal_count=3675 1673 2002 1327 675 1478 718 1146 609 383 332 292
is_linear=0
shrinkage=0.0481568


Tree=25
num_leaves=13
num_cat=0
split_feature=22 64 123 69 95 33 24 73 4 123 14 84
split_gain=123.295 35.8291 33.6493 27.1954 21.8466 19.41 15.7533 15.1776 14.316 9.38654 5.27886 2.85122
threshold=-0.53729928193302035 1.211567355619519 -0.85223662784204801 0.51342694433155966 1.7050228255811271 1.8892735719414848 0.20392777216698352 0.42587042076825227 -0.25658446586800032 -1.0093418400865555 -0.081322599600590337 -0.43465627930710027
decision_type=2 2 2 2 2 2 2 2 2 2 2 2
left_child=1 5 7 8 -3 6 -1 9 -4 -2 -5 -9
right_child=2 4 3 10 -6 -7 -8 11 -10 -11 -12 -13
leaf_value=-0.041995466967099854 0.03407211881461699 0.036244800824543948 0.015276464800122838 0.036378433089287607 -0.013782290012588841 0.018517282446191524 -0.012918329607781947 0.057683536183345624 -0.010106588030681698 0.013551975250228721 0.018899035455001038 0.043033270820754636
leaf_weight=82.363820642232895 283.83167484402657 51.095676138997078 124.00397752225399 115.31562745571136 33.526237763464451 25.168005272746086 90.897406935691833 58.662825465202332 88.164400488138199 63.210033670067787 61.406788125634193 64.895876690745354
leaf_count=727 590 148 352 247 143 135 521 102 280 160 145 125
internal_value=0 -0.00981174 0.0268331 0.0163512 0.0164246 -0.0210005 -0.0267409 0.035495 0.00472879 0.0303346 0.0303048 0.049989
internal_weight=0 283.051 859.491 388.891 84.6219 198.429 173.261 470.6 212.168 347.042 176.722 123.559
internal_count=3675 1674 2001 1024 291 1383 1248 977 632 750 392 227
is_linear=0
shrinkage=0.0481568


Tree=26
num_leaves=10
num_cat=0
split_feature=21 8 45 57 146 40 148 132 3
split_gain=126.141 39.3637 37.0986 28.804 32.2194 25.7321 18.2615 17.3736 5.91814
threshold=-0.27857429684632468 0.7697271281591973 0.6992707014284808 1.6059804679922962 1.6060371308789381 -0.32289224154943913 -0.51833913620041849 -0.24957130928030413 -0.81698547336731442
decision_type=2 2 2 2 2 2 2 2 2
left_child=3 2 7 4 5 -1 -4 -2 -6
right_child=1 -3 6 -5 8 -7 -8 -9 -10
leaf_value=0.0063543387711107943 0.043345083120578887 -0.014469175298044253 0.021647619816653349 0.032442618683969561 -0.019955015829881947 -0.02516535564714692 -0.012520355333951818 0.02535542852684641 -0.053741884913369273
leaf_weight=185.8557722941041 357.2813004553318 47.202958732843399 123.25340591371059 40.285593122243881 17.198670476675034 88.747036412358284 51.404521137475967 191.08300620317459 39.953976169228554
leaf_count=824 694 137 304 124 113 613 164 429 286
internal_value=0 0.0281384 0.0309201 -0.00600957 -0.0106789 -0.00383231 0.0115914 0.0370764 -0.0435747
internal_weight=0 770.225 723.022 372.041 331.755 274.603 174.658 548.364 57.1526
internal_count=3688 1728 1591 1960 1836 1437 468 1123 399
is_linear=0
shrinkage=0.0481568


Tree=27
num_leaves=12
num_cat=0
split_feature=21 8 46 27 84 77 10 90 7 144 10
split_gain=115.33 36.0556 28.9894 28.1903 23.5609 22.0165 25.2394 21.1831 18.4958 14.9803 8.86531
threshold=-0.27857429684632468 0.7697271281591973 -0.46443398082302184 0.14612459754109827 -0.12631152915008725 0.13317579247215247 -0.24895247227151768 2.6265744788840739 -0.50512792842078502 0.4113821599012884 -1.3396737615497663
decision_type=2 2 2 2 2 2 2 2 2 2 2
left_child=3 2 8 5 -4 6 -1 10 -2 -7 -5
right_child=1 -3 4 7 -6 9 -8 -9 -10 -11 -12
leaf_value=-0.036456888334281491 0.044472909695953237 -0.013764804440758073 0.021997685789026188 -0.00011279934125873823 -0.020779237943061669 0.038192969249413705 0.0049416880068403422 0.024967932297872305 0.02594779989911019 0.0014415699695889258 -0.040966661751787953
leaf_weight=50.495080426335335 272.75775930285454 47.228312984108925 177.90928375720978 14.545162945985792 35.882066145539284 52.640558004379272 105.52389723807573 16.13543351739645 230.7097589969635 50.296920478343964 80.452028445899487
leaf_count=299 526 137 431 103 129 163 455 74 505 188 678
internal_value=0 0.0269915 0.0296751 -0.00575819 0.0148181 0.00294868 -0.00845687 -0.0260465 0.035984 0.0202357 -0.0347115
internal_weight=0 764.487 717.259 370.089 213.791 258.956 156.019 111.133 503.468 102.937 94.9972
internal_count=3688 1728 1591 1960 560 1105 754 855 1031 351 781
is_linear=0
shrinkage=0.0481568


Tree=28
num_leaves=10
num_cat=0
split_feature=21 0 103 30 138 138 65 54 157
split_gain=95.0526 41.9537 33.0091 26.7557 22.5215 15.2098 15.7925 14.9694 9.91953
threshold=-0.44650754219439176 0.44380705467534654 -0.38422129353105783 1.4270264094018634 -0.56653160907076772 2.0732038345093944 0.29816457618979592 -0.17619397140809751 -0.12557755192145995
decision_type=2 2 2 2 2 2 2 2 2
left_child=3 2 4 5 -2 6 -1 -4 -3
right_child=1 8 7 -5 -6 -7 -8 -9 -10
leaf_value=-0.027929583178479597 0.015214174700456646 -0.024747568860195589 0.019322474937367589 0.022202976163648108 0.037036189071818729 0.016310272283847571 0.0040469664904695685 -0.015208370694014317 0.0095897722192754727
leaf_weight=148.41459423303604 140.66915655136108 42.725814625620842 68.326635554432869 54.893307819962502 497.86222472786903 30.575804613530636 47.211956314742565 50.730280160903931 35.907712161540985
leaf_count=1129 365 135 186 174 1029 126 252 166 92
internal_value=0 0.0244131 0.0278882 -0.00795668 0.0322288 -0.0152757 -0.0202125 0.00460883 -0.00906756
internal_weight=0 836.222 757.588 281.096 638.531 226.202 195.627 119.057 78.6335
internal_count=3654 1973 1746 1681 1394 1507 1381 352 227
is_linear=0
shrinkage=0.0481568


Tree=29
num_leaves=12
num_cat=0
split_feature=97 103 84 109 117 0 35 121 102 144 4
split_gain=106.358 44.237 32.4207 30.1147 29.212 22.2866 18.7209 16.7307 14.1314 8.79084 2.86912
threshold=-0.60699504904008672 -0.38422129353105783 0.67007165612863506 1.4184607351371308 0.53965964263137234 0.72898711897371593 0.80525236931520205 -0.39446168702639028 1.4918726828722446 -0.22355645239116753 1.2250228024633829
decision_type=2 2 2 2 2 2 2 2 2 2 2
left_child=3 2 5 4 6 -2 -1 -3 10 -6 -5
right_child=1 7 -4 8 9 -7 -8 -9 -10 -11 -12
leaf_value=0.010696843772637172 0.03791859377351154 0.016705543499365018 -0.0058330669955500604 -0.060701832078501848 -0.052643451911647363 0.0090697796606660861 -0.031917084277532461 -0.022413608993790916 -0.0026594522673664286 -0.0066042107006392143 -0.033977418235580828
leaf_weight=250.25860426574945 506.17048326134682 49.984126791357994 50.572088569402695 27.762229397892952 27.284987688064575 70.786720983684063 26.432680852711201 51.45340708643198 20.180432766675949 14.854481652379034 14.024171166121958
leaf_count=928 1074 143 166 240 215 239 157 200 135 72 85
internal_value=0 0.0263689 0.0311385 -0.00503312 0.000937233 0.0343791 0.00662585 -0.00313734 -0.0357516 -0.0364144 -0.051733
internal_weight=0 728.967 627.529 380.798 318.831 576.957 276.691 101.438 61.9668 42.1395 41.7864
internal_count=3654 1822 1479 1832 1372 1313 1085 343 460 287 325
is_linear=0
shrinkage=0.0481568


Tree=30
num_leaves=12
num_cat=0
split_feature=193 45 123 25 4 67 130 9 60 156 65
split_gain=107.248 44.6265 26.0593 22.1479 18.1276 17.329 14.5694 14.4273 12.1722 11.5807 10.0768
threshold=1.0000000180025095e-35 1.3239242531350734 -0.26309208192514505 0.1425127957775075 -0.041458418126951814 2.5017044753834066 -0.60681382037966525 -0.68708537789484991 1.4135376194924134 -0.39239677610213392 1.0189152033824567
decision_type=2 2 2 2 2 2 2 2 2 2 2
left_child=3 2 6 5 9 10 -2 -6 -4 -5 -1
right_child=1 -3 8 4 7 -7 -8 -9 -10 -11 -12
leaf_value=-0.040576985447928308 0.024178672453167786 -0.02359465320262449 0.0010119008242703007 0.0068160991461690213 0.037339305176296925 0.016331536487011536 0.040220482984459772 -0.0042511852409297841 0.031851353962919923 -0.03878932078094554 0.00071332190804169755
leaf_weight=96.095726422965527 415.47523248195648 47.306499153375626 132.14649008214474 21.167954459786415 36.452670872211456 17.90557423979044 191.95842477679253 41.2077297270298 38.277613580226898 33.109905235469341 15.987325996160505
leaf_count=904 983 164 379 120 125 81 384 173 81 165 91
internal_value=0 0.0218175 0.0245793 -0.0135516 0.000347943 -0.0276597 0.0292482 0.0152708 0.00793855 -0.0210036 -0.0346874
internal_weight=0 825.164 777.858 261.927 131.938 129.989 607.434 77.6604 170.424 54.2779 112.083
internal_count=3650 1991 1827 1659 583 1076 1367 298 460 285 995
is_linear=0
shrinkage=0.0481568


Tree=31
num_leaves=10
num_cat=0
split_feature=22 45 132 40 147 24 156 69 11
split_gain=97.9966 40.7925 22.7808 23.4396 22.6738 20.0111 13.6736 12.598 6.68999
threshold=-0.53729928193302035 1.3239242531350734 -0.15918173866829019 -0.32289224154943913 1.8176520997980126 0.23885521149611863 -0.39239677610213392 0.75091036981584203 -0.25658182982393402
decision_type=2 2 2 2 2 2 2 2 2
left_child=4 2 3 -2 5 8 -7 -4 -1
right_child=1 -3 7 -5 -6 6 -8 -9 -10
leaf_value=-0.045423885476275544 0.031395146943804408 -0.022543450302653922 -0.00092022723740143827 -0.0043982762908979867 0.023165322232210336 0.017391200487264523 -0.016879991703634929 0.023500914079259822 -0.021419935674846138
leaf_weight=54.354842126369476 524.9842526614666 47.132402375340462 113.63003112375736 46.159168273210526 34.954094648361206 41.588558904826641 76.957749709486961 86.110561177134514 53.361393563449383
leaf_count=512 1129 164 319 177 117 218 346 194 474
internal_value=0 0.0209476 0.0236067 0.0285024 -0.012932 -0.0185085 -0.00485691 0.00960803 -0.0335327
internal_weight=0 818.016 770.884 571.143 261.217 226.263 118.546 199.741 107.716
internal_count=3650 1983 1819 1306 1667 1550 564 513 986
is_linear=0
shrinkage=0.0481568


Tree=32
num_leaves=12
num_cat=0
split_feature=60 102 18 8 158 57 114 138 85 51 28
split_gain=64.3693 43.6908 30.9898 24.3003 21.2444 24.9246 18.3808 15.8724 14.8815 8.4776 2.23277
threshold=-0.31006724540219283 -0.25409091738180589 1.0000000180025095e-35 -0.65617319333264967 -0.40867342853867134 1.5514750998894498 0.47435291586110162 -0.20477257433053753 -0.51567445126648259 1.8853251225814422 0.093969011220878348
decision_type=2 2 2 2 2 2 2 2 2 2 2
left_child=2 3 9 8 -4 -6 -5 -3 -2 10 -1
right_child=1 7 4 6 5 -7 -8 -9 -10 -11 -12
leaf_value=-0.053979121445404961 0.042922185288573569 -0.02921470205163795 0.029332619046638427 0.0035661056513952164 -0.0082866443030281452 0.033224023301954855 0.028904345518857521 0.0098909474645266331 0.021587890332475216 -0.0032892029104680314 -0.029263334581972552
leaf_weight=28.533510088920593 229.9304835498333 42.882517889142036 61.001886792480946 130.20874366164207 227.54412517696619 39.344702124595642 135.47009779512882 54.866728506982327 113.13245628774166 14.096926189959047 12.060645431280134
leaf_count=253 469 180 149 425 1032 105 323 161 262 150 139
internal_value=0 0.0226207 -0.00190435 0.0274196 0.00369322 -0.00216712 0.0164861 -0.00726469 0.0358868 -0.0354634 -0.0466363
internal_weight=0 706.491 382.582 608.742 327.891 266.889 265.679 97.7492 343.063 54.6911 40.5942
internal_count=3648 1820 1828 1479 1286 1137 748 341 731 542 392
is_linear=0
shrinkage=0.0481568


Tree=33
num_leaves=13
num_cat=0
split_feature=69 0 48 6 110 94 95 6 85 157 73 63
split_gain=60.4644 44.752 26.0325 20.2265 18.7919 18.694 17.7959 18.8828 17.5339 15.4836 11.1266 9.37501
threshold=-0.16528251757160797 -1.0228332760019816 0.86734464078692963 0.035454196438315495 1.2911960108351856 0.24707121967709328 0.6343724152111071 1.1441869818919832 -0.51567445126648259 -0.29310777134301841 0.72714556718316214 0.12205231512588392
decision_type=2 2 2 2 2 2 2 2 2 2 2 2
left_child=1 3 4 9 -3 -4 8 -8 11 -1 -10 -2
right_child=6 2 5 -5 -6 -7 7 -9 10 -11 -12 -13
leaf_value=0.0247088461697706 0.04062102981965586 -0.012472942606254936 0.023251264946698106 0.047742787363969988 -0.062469879716164634 -0.0078699955303676555 -0.021117559582725685 0.027190473960622779 0.0041839098861062929 -0.011445742096142743 0.032322992175541715 0.018590106259768046
leaf_weight=80.309449456632137 231.09250705689192 209.37843812257051 90.67625167965889 53.983410388231277 19.017386347055435 88.398086227476597 35.844997905194759 39.379497028887272 82.049861751496792 41.750881917774677 54.05870309472084 55.565847471356392
leaf_count=200 501 1233 242 108 153 333 142 101 236 131 121 147
internal_value=0 0.00290801 -0.00585798 0.0231977 -0.016636 0.0078886 0.0257527 0.00417135 0.0295928 0.0123421 0.0153601 0.0363506
internal_weight=0 583.514 407.47 176.044 228.396 179.074 497.991 75.2245 422.767 122.06 136.109 286.658
internal_count=3648 2400 1961 439 1386 575 1248 243 1005 331 357 648
is_linear=0
shrinkage=0.0481568


Tree=34
num_leaves=15
num_cat=0
split_feature=60 117 2 114 0 92 56 56 57 9 145 103 102 3
split_gain=70.8029 32.9729 27.0108 22.2686 20.8791 21.863 14.8549 13.693 10.0959 6.22799 4.22411 8.52711 4.55617 2.93604
threshold=-0.30640260004805836 1.0000000180025095e-35 -0.48051196972007343 0.42541924998353192 1.5437873026833429 -0.32289224154943913 1.4517691345472987 0.88902520794326634 0.34067727989050273 -0.64161674556190584 -0.5088912991730602 -0.2496863893353676 -0.17761460562408213 0.019359159088032891
decision_type=2 2 2 2 2 2 2 2 2 2 2 2 2 2
left_child=1 4 7 6 5 -1 -4 8 -2 -5 12 -12 -3 -6
right_child=2 10 3 9 13 -7 -8 -9 -10 -11 11 -13 -14 -15
leaf_value=0.011796434962725824 0.012150735738501233 -0.066714523939136308 -0.0084044860547866449 0.036451513732366159 -0.024603316344473759 -0.02138268832828185 0.023648857436038319 0.047003395675534139 0.032103448503834273 0.017252700426018834 0.0012180851954107872 -0.050169159742049912 -0.027898281309312174 -0.058482116161047114
leaf_weight=252.44524142146111 86.74350006878376 16.307419121265415 125.83980136364698 65.701122805476189 12.17116464674473 56.334759272634983 45.709480613470078 94.266352519392967 182.6369342058897 97.091772437095642 15.169848769903185 14.789412669837473 12.30503525584936 11.574341081082819
leaf_count=871 225 117 474 151 103 405 124 194 412 249 86 124 100 103
internal_value=0 -0.0034717 0.0221229 0.0122431 0.00239679 0.00574312 0.000136179 0.0312065 0.0256785 0.0250012 -0.0367883 -0.0241495 -0.0500217 -0.0411175
internal_weight=0 391.097 697.989 334.342 332.526 308.78 171.549 363.647 269.38 162.793 58.5717 29.9593 28.6125 23.7455
internal_count=3738 1909 1829 998 1482 1276 598 831 637 400 427 210 217 206
is_linear=0
shrinkage=0.0481568


Tree=35
num_leaves=13
num_cat=0
split_feature=60 117 102 85 0 52 184 89 10 17 73 12
split_gain=64.7265 30.5574 24.7941 23.1608 19.3835 19.9108 15.3153 12.1447 8.74281 6.63234 5.84144 3.07764
threshold=-0.30640260004805836 1.0000000180025095e-35 -0.25409091738180589 -0.058165488008191733 1.5437873026833429 -0.32289224154943913 1.0000000180025095e-35 -0.051678415098975271 -0.16743674186840354 -0.35007066384347318 -0.76528224144625245 0.1984891987328761
decision_type=2 2 2 2 2 2 2 2 2 2 2 2
left_child=1 4 3 6 5 -1 -2 -4 -3 -5 -10 -6
right_child=2 8 7 9 11 -7 -8 -9 10 -11 -12 -13
leaf_value=0.011214121803657674 0.012090008688971582 -0.057909127013180656 0.011008205028568361 0.012391796568284517 -0.023003642185515445 -0.02059562262151509 0.032931526719225994 -0.025066416135183275 -0.0019331951798459972 -0.014947962173340646 -0.042559026520220214 -0.058165786907597085
leaf_weight=252.7577365860343 102.2221215441823 24.050377324223518 61.834936045110226 53.477536968886852 11.761107422411444 55.687229365110397 408.65482150018215 33.295020647346973 18.655152924358845 33.447474174201488 14.656213924288748 11.338793009519575
leaf_count=871 301 195 204 154 104 405 930 129 145 111 87 102
internal_value=0 -0.00333023 0.0212175 0.0248514 0.00228456 0.00547111 0.0287613 -0.00161776 -0.035783 0.00187183 -0.0198078 -0.0402638
internal_weight=0 388.907 692.932 597.802 331.545 308.445 510.877 95.13 57.3617 86.925 33.3114 23.0999
internal_count=3738 1909 1829 1496 1482 1276 1231 333 427 265 232 206
is_linear=0
shrinkage=0.0481568


Tree=36
num_leaves=13
num_cat=0
split_feature=22 81 95 60 147 157 8 51 154 84 144 115
split_gain=80.0253 28.3742 27.1985 22.6356 20.5621 18.5957 19.8961 17.7522 16.8132 16.1881 12.6742 12.1309
threshold=-0.54442700123442889 0.70367262873982495 0.55506497740592031 -0.08285923344585229 0.59586661895500714 -0.1421737549864163 1.0549071924575668 1.7987145957345556 0.58982653484976122 -0.3999191976148509 1.6144237410869946 1.8369199532625722
decision_type=2 2 2 2 2 2 2 2 2 2 2 2
left_child=3 4 9 5 7 10 -7 -2 -5 -3 -1 -10
right_child=1 2 -4 8 -6 6 -8 -9 11 -11 -12 -13
leaf_value=-0.044939089984313875 0.015959527108560707 0.037917527015755945 -0.0046449416640303234 0.039224734801699669 -0.021170203956827404 0.028717101403850667 -0.030563985230311192 -0.01956181293458574 -0.021012794386092666 0.01670742262311942 0.0050892097608329183 0.018864647865625334
leaf_weight=84.358058542013168 300.05664427578449 243.67979326844215 58.630658075213432 23.839007914066315 49.41100038588047 24.937775019556284 27.72785546630621 36.608423411846161 50.383833929896355 126.91332437098026 13.642905049026011 27.263742193579674
leaf_count=809 788 524 155 104 152 135 201 131 243 301 59 92
internal_value=0 0.0173119 0.0258322 -0.0137305 0.00783934 -0.0255722 -0.00249369 0.012097 0.00384981 0.0306539 -0.0379745 -0.00701093
internal_weight=0 815.3 429.224 252.153 386.076 150.667 52.6656 336.665 101.487 370.593 98.001 77.6476
internal_count=3694 2051 980 1643 1071 1204 336 919 439 825 868 335
is_linear=0
shrinkage=0.0481568


Tree=37
num_leaves=12
num_cat=0
split_feature=21 143 103 9 57 13 9 131 95 158 9
split_gain=76.506 31.8426 18.148 19.6244 17.1175 18.2635 16.8599 21.9895 14.9835 12.7531 6.39491
threshold=-0.37222937598274669 0.25904978484692626 -0.025461549009217124 -1.0318706240286046 1.3671950458274449 0.098149070976823238 0.062675215421394689 0.57957512981945747 1.3481393554577872 -0.37708884897806144 1.0758529526843426
decision_type=2 2 2 2 2 2 2 2 2 2 2
left_child=2 4 6 -4 5 -2 7 -1 -8 -6 -5
right_child=1 -3 3 10 9 -7 8 -9 -10 -11 -12
leaf_value=-0.04287493429709921 0.023299373577440153 -0.016062350450143856 0.0097798209611850793 -0.0493200734840595 0.048360931946201384 0.0043578591652227152 0.017243890973304095 0.0016253021946569209 -0.026825416081228206 0.020273924791633216 -0.01494811967071954
leaf_weight=43.993873313069344 352.07920953631401 58.291745230555534 23.649446897208691 52.298637170344591 80.869654938578606 177.6004988104105 100.58248430863023 62.103988811373711 21.76290574669838 69.892450600862503 16.517862170934677
leaf_count=265 836 185 140 488 163 462 453 278 126 161 137
internal_value=0 0.018097 -0.0100642 -0.0280644 0.0210233 0.0169483 -0.00277826 -0.0168269 0.00940475 0.03534 -0.04107
internal_weight=0 738.734 320.909 92.4659 680.442 529.68 228.443 106.098 122.345 150.762 68.8165
internal_count=3694 1807 1887 765 1622 1298 1122 543 579 324 625
is_linear=0
shrinkage=0.0481568


Tree=38
num_leaves=11
num_cat=0
split_feature=109 48 123 103 17 113 131 81 133 5
split_gain=50.271 36.3401 25.964 23.846 18.0875 15.1025 17.5741 15.503 15.0559 5.08731
threshold=1.2315850989458528 0.62261439919502604 -1.0093418400865555 -0.025461549009217124 -0.93847077453785699 2.7612803701014537 1.9403848023384633 1.3267048906564733 -0.14182856968499494 -0.52627889100224901
decision_type=2 2 2 2 2 2 2 2 2 2
left_child=1 2 9 8 -4 6 7 -2 -3 -1
right_child=5 3 4 -5 -6 -7 -8 -9 -10 -11
leaf_value=0.011084274410681478 -0.043349882171492528 0.032089010942167935 0.020539586694687851 -0.0047079819608900862 -0.010051917367720428 -0.060203417164416816 0.013489115410255445 0.0069196112959039047 0.012197646480298609 0.031627773117861177
leaf_weight=48.028540730476379 43.657014451920986 336.42265454679728 55.710083931684494 63.129045613110065 229.33776774629951 17.104192301630974 40.454069651663303 21.105023920536041 119.62469774484634 66.886269174516201
leaf_count=133 341 782 246 192 1111 149 188 65 306 164
internal_value=0 0.014627 0.00371739 0.0230315 -0.00407306 -0.0182353 -0.0114127 -0.0269678 0.0268714 0.0230417
internal_weight=0 919.139 399.963 519.176 285.048 122.32 105.216 64.762 456.047 114.915
internal_count=3677 2934 1654 1280 1357 743 594 406 1088 297
is_linear=0
shrinkage=0.0481568


Tree=39
num_leaves=12
num_cat=0
split_feature=21 101 132 63 53 0 115 138 60 149 156
split_gain=46.6866 21.831 21.0337 19.5077 17.4512 14.3068 11.5168 9.78771 9.57779 12.0464 7.57316
threshold=-0.40775371634483781 2.4090816519269653 -0.44091046997235067 -0.03321518412644732 0.59425065312586234 0.44380705467534654 0.86522583948129816 -0.54262756214712915 0.78566171548403074 -0.32758711013867231 -0.34027517251886696
decision_type=2 2 2 2 2 2 2 2 2 2 2
left_child=1 3 5 4 -1 7 -5 -2 10 -10 -4
right_child=2 -3 8 6 -6 -7 -8 -9 9 -11 -12
leaf_value=0.011259940832635075 0.016630097067344685 -0.056473216118953826 0.0089169177478657189 -0.026978255376882285 -0.0341106451682259 0.000257312658237141 0.018909370063397934 0.033780537491479863 0.026378580703443694 -0.0033441671693545312 -0.011557456680002465
leaf_weight=185.28395418077707 116.01440720260143 17.986995883285999 98.798247039318085 81.092057105153799 21.993866849690676 49.078898444771767 15.035534888505934 230.48266611993313 100.2449726164341 46.194294989109039 72.742492914199829
leaf_count=790 286 170 263 614 267 130 70 517 232 121 217
internal_value=0 -0.00492593 0.0171786 -0.00186996 0.00644571 0.0245915 -0.0198008 0.0280382 0.00795679 0.0170025 0.000234672
internal_weight=0 321.392 713.556 303.405 207.278 395.576 96.1276 346.497 317.98 146.439 171.541
internal_count=3677 1911 1766 1741 1057 933 684 803 833 353 480
is_linear=0
shrinkage=0.0481568


Tree=40
num_leaves=10
num_cat=0
split_feature=22 45 144 40 133 101 33 34 1
split_gain=42.112 20.3579 25.0471 18.3334 17.0588 14.171 14.8798 18.0066 14.0514
threshold=-0.53729928193302035 0.99623714404309038 0.57011681297440242 -0.31004176460856497 1.0000000180025095e-35 2.4090816519269653 1.8892735719414848 0.23490689109517707 -0.35251866362993584
decision_type=2 2 2 2 2 2 2 2 2
left_child=5 3 8 4 -2 6 7 -1 -3
right_child=1 2 -4 -5 -6 -7 -8 -9 -10
leaf_value=-0.0038204608188381374 0.025247996195777122 -0.0014411241488354709 0.025791568336543884 -0.01133471177847642 0.0064810009146975623 -0.048562163943517887 0.023819127161667734 -0.046200093876252922 -0.043868902555098316
leaf_weight=163.98621662333608 459.23726080358028 40.17492002248764 42.900150433182716 44.585864320397377 148.69325995445251 18.254728704690933 36.26149732619524 27.091441445052624 32.948256775736809
leaf_count=1054 1063 113 115 188 381 175 161 259 122
internal_value=0 0.0151668 -0.00342038 0.0184718 0.0206578 -0.0077401 -0.00446214 -0.00982921 -0.0205586
internal_weight=0 768.54 116.023 652.516 607.931 245.594 227.339 191.078 73.1232
internal_count=3631 1982 350 1632 1444 1649 1474 1313 235
is_linear=0
shrinkage=0.0481568


Tree=41
num_leaves=10
num_cat=0
split_feature=47 96 45 85 35 114 12 109 73
split_gain=43.8381 30.0573 19.3789 17.918 16.5572 14.3062 10.7348 8.09927 8.4419
threshold=1.7751611675334142 -0.57417237261252529 1.1959214761460175 0.29767481674825685 0.98601318217984446 0.23527062139078334 -0.29787447278744356 1.3437104806606197 0.37565789636576724
decision_type=2 2 2 2 2 2 2 2 2
left_child=1 4 3 -3 5 -1 -6 -2 -9
right_child=7 2 -4 -5 6 -7 -8 8 -10
leaf_value=-0.0013861302252609201 -0.056078034835325537 0.02283936999602515 -0.01442842774608259 -0.0033617699519182063 0.0032090267714504641 0.027314100433002909 -0.050629457715654601 0.0089542478701971837 -0.044225097176465819
leaf_weight=237.74131111800671 22.531318828463554 524.91206762194633 40.964180372655392 68.418513707816601 13.598798934370278 48.493621543049812 23.311284478753805 14.077548798173668 13.619943603873251
leaf_count=1084 166 1315 152 213 82 140 227 108 144
internal_value=0 0.0115161 0.0176063 0.019818 -0.000438145 0.00347625 -0.0307938 -0.0346378 -0.0171963
internal_weight=0 957.44 634.295 593.331 323.145 286.235 36.9101 50.2288 27.6975
internal_count=3631 3213 1680 1528 1533 1224 309 418 252
is_linear=0
shrinkage=0.0481568


Tree=42
num_leaves=12
num_cat=0
split_feature=8 147 98 122 47 127 15 15 3 147 66
split_gain=45.6423 20.1724 19.4507 18.8001 16.6679 14.4033 11.0472 10.7651 9.26746 10.2222 2.14791
threshold=0.89194715571564132 1.901087953174798 0.014767425985510145 -0.31204359507629875 0.51531522081697789 -0.45218243763959487 -0.76459550238057361 1.4539103940097997 0.37150426749028437 -0.33292319072765858 0.77376496924896843
decision_type=2 2 2 2 2 2 2 2 2 2 2
left_child=2 6 3 5 -5 -1 10 -8 -4 -10 -2
right_child=1 -3 8 4 -6 -7 7 -9 9 -11 -12
leaf_value=0.026883773495432434 -0.033542137349242621 0.030377875467657398 -0.04326184496612686 0.010900164061556616 -0.017784510999997599 0.011000938820975274 -0.0072319049875110165 -0.047613906496661161 0.026200321841188867 -0.034048684612554794 -0.058752959203156263
leaf_weight=299.9698061645031 14.648555513471367 19.462525479495525 19.009620845317841 197.64641868323088 61.625795193016529 237.0469206944108 85.283210009336472 18.658784069120884 15.437666848301889 11.318583529442547 16.85907393693924
leaf_count=766 99 71 178 530 330 638 531 117 133 101 118
internal_value=0 -0.0154658 0.0129768 0.0147314 0.00408216 0.0198729 -0.0220531 -0.0144811 -0.0175526 0.000713309 -0.0470324
internal_weight=0 154.912 842.055 796.289 259.272 537.017 135.45 103.942 45.7659 26.7563 31.5076
internal_count=3612 936 2676 2264 860 1404 865 648 412 234 217
is_linear=0
shrinkage=0.0481568


Tree=43
num_leaves=11
num_cat=0
split_feature=152 123 49 17 147 103 69 126 17 139
split_gain=41.6127 19.0378 18.5426 21.3846 18.4364 12.7765 10.7483 8.46516 7.33203 6.9852
threshold=0.89194715571564132 -1.0093418400865555 -0.50493144311198346 -0.7069295682692941 1.8312346805802797 -0.025461549009217124 -0.018639746644154947 -0.28771161241918469 0.61936647484769558 -0.59661301534506639
decision_type=2 2 2 2 2 2 2 2 2 2
left_child=1 7 3 -3 6 -4 8 9 -2 -1
right_child=4 2 5 -5 -6 -7 -8 -9 -10 -11
leaf_value=0.012253146340184937 -0.021618611449642815 0.016366796309109956 0.020561641440627602 -0.010835261431981956 0.017762446981775752 -0.0086344710723888721 -0.0038115176435164358 0.0057900794987402714 -0.051362498568553121 0.032325207319272034
leaf_weight=53.65500020980835 46.911244511604309 104.64318911358714 238.7854068428278 186.4159068800509 31.915738455951214 40.681695356965065 42.539061516523361 52.949035063385963 32.559972621500492 160.43939970433712
leaf_count=146 369 441 584 853 113 126 162 144 292 382
internal_value=0 0.0124188 0.00745166 -0.00105542 -0.0148238 0.0163116 -0.0233478 0.023031 -0.0338051 0.0272949
internal_weight=0 837.57 570.526 291.059 153.926 279.467 122.01 267.043 79.4712 214.094
internal_count=3612 2676 2004 1294 936 710 823 672 661 528
is_linear=0
shrinkage=0.0481568


Tree=44
num_leaves=10
num_cat=0
split_feature=69 123 121 45 57 21 9 4 104
split_gain=33.0174 33.819 20.9455 18.5813 14.8655 14.4356 12.5095 9.662 7.49784
threshold=0.50888491160371829 -0.57730250641416003 -1.1058840223216675 1.0115974772817771 1.563154821625774 1.1230224047125434 0.47589158996620945 1.1559247349265822 1.4892296935470555
decision_type=2 2 2 2 2 2 2 2 2
left_child=1 5 -2 8 6 7 -3 -1 -4
right_child=2 4 3 -5 -6 -7 -8 -9 -10
leaf_value=0.012219675384494739 0.044105295861286198 -0.0057150754048951816 0.022570611845664564 -0.014622504649777593 0.019451831056954534 0.035387362146215399 -0.027997369955272303 -0.01458339386765887 0.00098758323957641447
leaf_weight=215.54181735962629 69.167780317366123 161.0395968966186 249.00933109968901 42.833368353545666 35.566981315612793 55.920936867594719 91.702098097652197 36.466504089534283 43.909638077020645
leaf_count=670 172 884 609 165 103 121 651 133 132
internal_value=0 0.00215521 0.0199743 0.0150031 -0.00969769 0.0132529 -0.0137998 0.00834116 0.0193352
internal_weight=0 596.238 404.92 335.752 288.309 307.929 252.742 252.008 292.919
internal_count=3640 2562 1078 906 1638 924 1535 803 741
is_linear=0
shrinkage=0.0481568


Tree=45
num_leaves=14
num_cat=0
split_feature=114 123 64 84 10 11 3 11 148 25 156 60 81
split_gain=28.9544 31.3069 17.4253 15.9269 15.1528 13.4701 10.5443 9.45135 9.57904 9.44226 8.95092 10.1016 8.96513
threshold=-0.43471840661786088 -0.57730250641416003 0.71870808122859775 -0.34869170779621167 1.1335245445038988 0.2508697374008273 0.2514547987167895 -0.36077552101838434 -0.4210141421017019 2.1565219026981217 -0.38249574884977083 0.69587790430773477 0.20848982997924531
decision_type=2 2 2 2 2 2 2 2 2 2 2 2 2
left_child=1 4 6 10 5 -1 -3 -5 -9 -4 12 -12 -2
right_child=3 2 9 7 -6 -7 -8 8 -10 -11 11 -13 -14
leaf_value=0.0060331672223200173 0.016759826408464473 -0.030470351121671197 -0.0033725007972295207 -0.015361572580838858 -0.01186321255030183 0.029636611537313794 -0.0046276748131331806 -0.0042013020431285759 0.030123771870183027 0.029275749221213988 0.0001428897258320629 0.02380220520091627 0.04501379746876899
leaf_weight=108.03152514249086 41.431337609887123 95.958103742450476 91.989819530397654 42.492142703384161 46.704861432313919 116.57611666992307 59.206836242228746 37.54452096670866 37.874384507536888 26.44999622553587 56.130151465535164 164.50836087763309 70.130054533481598
leaf_count=352 123 674 361 142 164 311 459 115 99 83 178 419 160
internal_value=0 0.00150273 -0.00999164 0.0180074 0.0130942 0.0182839 -0.0206095 0.00280243 0.0130363 0.00391855 0.0234043 0.0177833 0.034521
internal_weight=0 544.917 273.605 450.111 271.313 224.608 155.165 117.911 75.4189 118.44 332.2 220.639 111.561
internal_count=3640 2404 1577 1236 827 663 1133 356 214 444 880 597 283
is_linear=0
shrinkage=0.0481568


Tree=46
num_leaves=13
num_cat=0
split_feature=81 121 60 109 77 149 94 2 89 10 17 1
split_gain=30.2311 24.4358 23.5438 22.9312 16.867 22.4015 14.0716 9.30623 9.05802 7.55527 7.45856 7.25014
threshold=-0.16133812929660304 -1.1058840223216675 0.92736133584389913 0.85783382656329665 1.3823091525154065 -0.53733305884338922 -0.51647462660392118 -0.32954880775104528 1.8047160631406183 0.20690282022143316 0.70392132800280727 -0.4528564722682768
decision_type=2 2 2 2 2 2 2 2 2 2 2 2
left_child=3 11 6 4 5 -1 -3 -4 9 -5 -10 -2
right_child=1 2 7 8 -6 -7 -8 -9 10 -11 -12 -13
leaf_value=0.011254778120899272 0.025181872154401024 0.0088087095910952262 0.034051238054639998 -0.054342715084275725 0.030699214313349602 -0.018522348353898429 -0.017487704763859635 0.015064076195318002 0.020260999357249499 -0.015036088626612801 -0.029029357659288411 0.04804236893227639
leaf_weight=167.45497551560402 68.02383965998888 168.32443831115961 100.28626948595047 25.757493145763874 52.862986519932747 90.12340135127306 65.576429314911366 148.52607536315918 15.389964401721956 20.261662114411592 13.247538372874258 61.047784455120564
leaf_count=674 182 481 241 223 133 503 268 389 116 160 109 156
internal_value=0 0.0173821 0.0124054 0.000158573 0.00592134 0.000836127 0.00143623 0.0227171 -0.0238044 -0.0370367 -0.00254045 0.0359944
internal_weight=0 611.785 482.713 385.098 310.441 257.578 233.901 248.812 74.6567 46.0192 28.6375 129.072
internal_count=3635 1717 1379 1918 1310 1177 749 630 608 383 225 338
is_linear=0
shrinkage=0.0481568


Tree=47
num_leaves=11
num_cat=0
split_feature=114 155 127 112 52 19 90 60 66 89
split_gain=28.4076 23.0098 21.1568 23.7973 18.7613 12.732 12.5147 15.353 9.83143 3.76086
threshold=-0.43471840661786088 1.0055145413855062 1.0000000180025095e-35 1.0070782792173334 -0.31004176460856497 1.0000000180025095e-35 -0.43269242178706352 0.8748347524346376 1.3718529683704714 2.0754402578838924
decision_type=2 2 2 2 2 2 2 2 2 2
left_child=1 2 4 -4 -1 -2 7 -7 -8 -3
right_child=5 9 3 -5 -6 6 8 -9 -10 -11
leaf_value=0.015515847219919885 0.039625813886489017 -0.021149911964105473 -0.021994541763641434 0.026954456457466653 -0.012772492635313458 -0.010920917707654177 0.028531910646391427 0.01945893587698257 0.0030627360553604245 -0.058648794730105355
leaf_weight=327.14316276088357 62.135055616497993 11.151512686163187 105.38402474299073 29.475360468029976 65.207854513078928 70.789724424481392 176.8250682502985 84.778251081705093 43.868137329816818 13.977336045354605
leaf_count=1021 155 113 460 120 584 271 437 215 122 137
internal_value=0 0.00301268 0.00515858 -0.011296 0.0108144 0.0194306 0.0160955 0.00563487 0.0234693 -0.0420083
internal_weight=0 552.339 527.21 134.859 392.351 438.396 376.261 155.568 220.693 25.1288
internal_count=3635 2435 2185 580 1605 1200 1045 486 559 250
is_linear=0
shrinkage=0.0481568


Tree=48
num_leaves=11
num_cat=0
split_feature=60 85 103 57 116 105 2 83 4 80
split_gain=23.5445 23.5064 17.5105 16.8722 15.1365 13.5155 11.6941 11.6607 10.3994 9.37854
threshold=-0.30640260004805836 -0.51567445126648259 -0.025461549009217124 1.8493080041657179 0.13220407408751292 0.40138756659602165 0.10642962491411496 0.14679407221840282 -0.71675104290666036 0.79297495330628054
decision_type=2 2 2 2 2 2 2 2 2 2
left_child=3 2 7 4 5 -1 9 -2 -6 -3
right_child=1 6 -4 -5 8 -7 -8 -9 -10 -11
leaf_value=0.0041581041994339218 0.027130305329975662 -0.0030344403463208676 -0.0079428059604108904 0.040147713957824883 -0.0045969346655726894 -0.019371946137839713 -0.024941641009215473 0.0062002739555905313 -0.057389155570782925 0.021536122805840118
leaf_weight=220.92374260351062 295.12595704942942 113.24830009043217 48.726929910480976 19.973016142845154 14.953970298171042 76.115332070738077 37.655341282486916 78.057744212448597 20.537820428609848 52.833418808877468
leaf_count=1016 756 335 188 51 125 441 150 249 183 136
internal_value=0 0.0127209 0.0192074 -0.00284084 -0.00542293 -0.00187141 -0.00071173 0.0227524 -0.0351461 0.00478189
internal_weight=0 625.648 421.911 352.504 332.531 297.039 203.737 373.184 35.4918 166.082
internal_count=3630 1814 1193 1816 1765 1457 621 1005 308 471
is_linear=0
shrinkage=0.0481568


Tree=49
num_leaves=10
num_cat=0
split_feature=39 132 45 112 69 85 24 116 148
split_gain=22.2701 19.396 20.7327 18.5617 17.4873 15.564 11.3624 10.7465 7.24278
threshold=1.7813924903651783 0.7117750987800826 1.3751253639306957 1.038622224292016 1.0987003044048458 0.29767481674825685 1.7174501430961708 -0.26983245559651692 -0.57434199946265496
decision_type=2 2 2 2 2 2 2 2 2
left_child=1 2 5 4 -3 -1 -4 8 -2
right_child=7 3 6 -5 -6 -7 -8 -9 -10
leaf_value=0.016602862058923713 0.0090974173600901626 -0.034389356377175703 -0.026782792032636473 0.025478844867534007 0.0058324310559403226 -0.0060708208928854238 0.018609828139032343 -0.04649615664270694 -0.031730389667954967
leaf_weight=630.20435949414968 27.413729708641768 60.845090605318546 46.987636182457209 29.510699447244406 42.631625562906265 79.011366344988346 17.570202402770519 23.240898095071316 15.932571638375519
leaf_count=1806 164 321 293 133 119 376 85 196 137
internal_value=0 0.00877868 0.0116986 -0.00821037 -0.0178183 0.0140769 -0.0144286 -0.0200756 -0.00590953
internal_weight=0 906.761 773.774 132.987 103.477 709.216 64.5578 66.5872 43.3463
internal_count=3630 3133 2560 573 440 2182 378 497 301
is_linear=0
shrinkage=0.0481568


Tree=50
num_leaves=12
num_cat=0
split_feature=21 4 9 9 142 73 158 26 143 70 10
split_gain=27.7587 21.8316 20.7257 18.9179 14.6937 13.6501 11.9504 11.7891 9.4375 7.07141 2.12708
threshold=-0.44650754219439176 0.86986141496019864 1.2143838763095909 -0.4942031382555982 -0.0087142701596715604 1.3073791825007663 -0.12689013881871056 1.4771014143336438 1.2176704202433537 1.978864126344678 0.47658628001112896
decision_type=2 2 2 2 2 2 2 2 2 2 2
left_child=1 7 4 -3 5 -2 -5 9 -9 -1 -4
right_child=2 3 10 6 -6 -7 -8 8 -10 -11 -12
leaf_value=-0.035275376672917379 0.012037790285481031 0.032229038966306953 -0.0081586247936694684 0.0076891859628782089 -0.010696272748477864 0.042023763204713113 -0.043977914490440244 0.009672473190961612 -0.031311835648308008 0.006663810004636242 -0.025279515364052992
leaf_weight=87.099927045404911 559.49160449951887 43.134337674826384 34.827962458133698 26.16605481505394 62.055275574326515 37.569807425141335 17.209585640579462 40.262701611965895 19.26364254206419 10.441090404987333 32.563363298773766
leaf_count=836 1518 192 101 163 191 78 108 206 107 73 105
internal_value=0 -0.00977974 0.00900578 0.00964661 0.0116066 0.0139247 -0.0128102 -0.0204794 -0.00359075 -0.0307861 -0.0164315
internal_weight=0 243.577 726.508 86.51 659.117 597.061 43.3756 157.067 59.5263 97.541 67.3913
internal_count=3678 1685 1993 463 1787 1596 271 1222 313 909 206
is_linear=0
shrinkage=0.0481568


Tree=51
num_leaves=11
num_cat=0
split_feature=92 158 36 142 30 85 36 23 30 73
split_gain=26.2301 23.2726 17.004 15.0742 23.9423 12.9928 10.5467 8.84284 7.63764 0.7371
threshold=0.014767425985510145 -0.36244611564369217 1.4277860205985766 -0.084642763976016375 1.4435534680430055 -0.51567445126648259 1.572403853210389 0.28612378583705794 -0.66936741361683649 -0.90894585293113994
decision_type=2 2 2 2 2 2 2 2 2 2
left_child=1 2 5 6 -5 -1 -3 8 9 -2
right_child=7 3 -4 4 -6 -7 -8 -9 -10 -11
leaf_value=0.017035748030311118 -0.03774730687691024 0.0079776560776889955 0.036254626342853591 -0.026438888911397 0.014732318449507998 -0.0015661977011117093 -0.017581758571676608 0.0056180788435969435 0.0029075554464438216 -0.054758872749878812
leaf_weight=229.17119482904673 7.8225716464221469 279.4078044295311 67.486865520477295 106.4454152174294 47.316642165184021 140.43831527978182 43.232117682695389 12.923656329512594 7.6701678484678295 24.164221342653036
leaf_count=634 95 883 164 669 149 438 140 69 100 337
internal_value=0 0.00600173 0.0140264 -0.00136082 -0.0137694 0.00996768 0.00455281 -0.0289763 -0.0402502 -0.050599
internal_weight=0 913.498 437.096 476.402 153.762 369.61 322.64 52.5806 39.657 31.9868
internal_count=3678 3077 1236 1841 818 1072 1023 601 532 432
is_linear=0
shrinkage=0.0481568


Tree=52
num_leaves=14
num_cat=0
split_feature=57 27 9 63 154 4 114 30 14 14 34 97 13
split_gain=27.5445 21.1704 17.4161 19.7671 15.1479 12.2547 13.379 9.99894 11.5851 9.47733 8.3813 6.77631 5.69697
threshold=0.34067727989050273 0.14612459754109827 -1.0728274294854032 0.44827089941361026 0.072255636438515652 -0.26388038380463774 0.34866713021665857 0.95155564541824067 -0.84955614135082069 -0.7576380466295195 2.4863489485663801 0.83818567692280743 -0.037279804428278655
decision_type=2 2 2 2 2 2 2 2 2 2 2 2 2
left_child=1 2 11 -4 7 9 -7 8 -2 -6 12 -1 -3
right_child=4 10 3 -5 5 6 -8 -9 -10 -11 -12 -13 -14
leaf_value=0.0085100227015773595 0.036825288118578547 -0.019579022014660601 -0.00051171500790192948 -0.033683775829919702 -0.027196079026997701 -0.0014838083752814755 0.030396023800977025 0.040006117399035618 0.0095175435232118747 0.0037549560550844234 0.0075071791860064361 0.034496835082900128 -0.052551975373924205
leaf_weight=71.169187299907207 46.921592056751251 20.944211654365063 278.75041078031063 48.979330189526081 41.230988539755344 66.280073098838329 56.597300752997398 49.502746410667896 155.18525996059179 51.725523963570595 11.128738466650246 34.575612187385559 28.94883431494236
leaf_count=229 115 299 1055 201 153 257 143 128 436 179 94 86 314
internal_value=0 -0.00372481 1.3732e-05 -0.00546932 0.0125795 0.00321957 0.0132001 0.0206086 0.0158574 -0.00997345 -0.0302818 0.0170071 -0.0387107
internal_weight=0 494.496 433.475 327.73 467.443 215.834 122.877 251.61 202.107 92.9565 61.0218 105.745 49.893
internal_count=3689 2278 1571 1256 1411 732 400 679 551 332 707 315 613
is_linear=0
shrinkage=0.0481568


Tree=53
num_leaves=14
num_cat=0
split_feature=57 27 45 9 132 7 5 126 100 96 105 96 9
split_gain=25.1229 19.6889 15.8025 15.7934 12.1737 11.9098 17.7965 11.5832 11.4734 7.0897 6.59855 5.72488 4.50165
threshold=0.34067727989050273 0.14612459754109827 1.3392845863737601 -1.0728274294854032 -0.27822672634666595 -0.49009342808429651 -0.67273494272167844 -0.41305607690233165 1.6025606516524744 -0.55086362833495917 1.7713921754809616 0.522007630943922 0.7049710490831852
decision_type=2 2 2 2 2 2 2 2 2 2 2 2 2
left_child=1 3 5 11 -5 7 -7 -2 12 -4 -10 -1 -3
right_child=2 8 9 4 -6 6 -8 -9 10 -11 -12 -13 -14
leaf_value=0.0078474940419707515 0.031991278512980552 -0.056790186936162432 -0.036366299255629737 0.00037648267465964708 -0.020638879302515886 -0.017557070666650985 0.015060687658590635 0.010193484148726525 0.026691016593570125 0.0033273573193921169 -0.027518483381140164 0.03124290674446745 -0.02227585058457178
leaf_weight=67.905019648373127 126.88003099709749 25.524868495762348 20.559319995343685 240.55405992642045 87.058779202401638 53.56609945744276 140.64603554084897 101.97273316979408 10.325500305742027 21.190578706562519 10.504708748310803 37.735526643693447 13.346835784614084
leaf_count=222 337 310 131 926 330 181 408 279 97 75 110 93 190
internal_value=0 -0.00355964 0.0120459 1.29877e-05 -0.00520808 0.0148353 0.00606429 0.0222786 -0.0294859 -0.0162195 -0.000646875 0.0162046 -0.0449398
internal_weight=0 492.955 464.815 433.253 327.613 423.065 194.212 228.853 59.7019 41.7499 20.8302 105.641 38.8717
internal_count=3689 2278 1411 1571 1256 1205 589 616 707 206 207 315 500
is_linear=0
shrinkage=0.0481568


Tree=54
num_leaves=10
num_cat=0
split_feature=35 95 64 158 56 88 149 151 127
split_gain=29.0198 18.0174 15.7176 15.7164 14.6723 13.5384 10.7513 7.22596 9.66053
threshold=0.98601318217984446 1.7446765444837204 0.62374251372400569 -0.35901767048084282 1.0254132471813111 -0.06348532192186708 2.0215675153541581 0.48809840878667388 1.3424599103569068
decision_type=2 2 2 2 2 2 2 2 2
left_child=1 2 5 -4 7 -1 -3 8 -2
right_child=4 6 3 -5 -6 -7 -8 -9 -10
leaf_value=0.0078459056193430771 -0.044782347201007523 -0.039159306240235031 0.028500160518088 0.0085157498582124694 -3.7061630850211916e-05 -0.018434333957031764 0.005523536364677852 -0.061367212844661866 0.015166006046978776
leaf_weight=388.6251303628087 16.793592199683193 27.400475900620222 178.54957450181246 186.67774923145771 45.388808403164148 51.481308586895466 22.945430982857943 19.023319970816374 9.9138460308313352
leaf_count=1470 218 173 467 533 201 246 122 156 53
internal_value=0 0.00915324 0.0109004 0.0182856 -0.019434 0.00477177 -0.0187949 -0.0386857 -0.0225295
internal_weight=0 855.68 805.334 365.227 91.1196 440.106 50.3459 45.7308 26.7074
internal_count=3639 3011 2716 1000 628 1716 295 427 271
is_linear=0
shrinkage=0.0481568


end of trees

feature_importances:
num__SeniorCitizen_No_tenure=22
num__Contract_Month_to_month_MonthlyCharges=21
num__MonthlyCharges_OnlineSecurity_No=21
num__MonthlyCharges_OnlineBackup_No=19
num__Contract_Month_to_month_TotalCharges=14
num__COSINE_MonthlyCharges_=13
num__MonthlyCharges_PaymentMethod_Electronic_check=13
num__InternetService_DSL_MonthlyCharges=12
num__MonthlyCharges_PaperlessBilling_Yes=12
num__tenure=11
num__Contract_One_year_MonthlyCharges=11
num__Contract_Two_year_MonthlyCharges=11
num__InternetService_DSL_TotalCharges=11
num__InternetService_Fiber_optic_MonthlyCharges=11
num__MultipleLines_No_TotalCharges=11
num__tenure_0=10
num__Dependents_No_MonthlyCharges=10
num__DeviceProtection_No_internet_service_TotalCharges=10
num__MultipleLines_No_tenure=10
num__TotalCharges=9
num__Contract_One_year_TotalCharges=9
num__MonthlyCharges_SeniorCitizen_No=9
num__OnlineSecurity_No_TotalCharges=9
num__ABSOLUTE_DIFF_TotalCharges_=8
num__MonthlyCharges_TechSupport_No=8
num__OnlineBackup_Yes_tenure=8
num__PaperlessBilling_No_tenure=8
num__PaymentMethod_Electronic_check_TotalCharges=8
num__EXPONENTIAL_WEIGHTED_VARIANCE_tenure_com_0_5_=7
num__PaperlessBilling_No_TotalCharges=7
num__TechSupport_No_TotalCharges=7
num__TechSupport_Yes_tenure=7
num__gender_Female_MonthlyCharges=7
num__gender_Male_MonthlyCharges=7
num__COSINE_TotalCharges_=6
num__COSINE_tenure_=6
num__StreamingMovies_No_TotalCharges=6
num__StreamingTV_No_TotalCharges=6
num__PERCENT_CHANGE_tenure_=6
num__ABSOLUTE_DIFF_MonthlyCharges_=5
num__Contract_Month_to_month_tenure=5
num__MonthlyCharges_MultipleLines_Yes=5
num__OnlineSecurity_Yes_tenure=5
num__Partner_Yes_tenure=5
num__PhoneService_Yes_tenure=5
num__SeniorCitizen_No_TotalCharges=5
num__StreamingMovies_No_tenure=5
num__StreamingTV_No_tenure=5
num__EXPONENTIAL_WEIGHTED_STD_TotalCharges_com_0_5_=4
num__DeviceProtection_No_MonthlyCharges=4
num__InternetService_Fiber_optic_TotalCharges=4
num__MonthlyCharges_PaperlessBilling_No=4
num__MonthlyCharges_Partner_Yes=4
num__MonthlyCharges_StreamingMovies_Yes=4
num__PaperlessBilling_Yes_tenure=4
num__PaymentMethod_Electronic_check_tenure=4
num__StreamingMovies_Yes_TotalCharges=4
num__gender_Male_TotalCharges=4
num__gender_Male_tenure=4
num__PERCENT_CHANGE_MonthlyCharges_=4
num__PERCENT_CHANGE_TotalCharges_=4
num__MonthlyCharges=3
num__ABSOLUTE_DIFF_tenure_=3
num__MonthlyCharges_0=3
num__EXPONENTIAL_WEIGHTED_STD_MonthlyCharges_com_0_5_=3
num__EXPONENTIAL_WEIGHTED_STD_tenure_com_0_5_=3
num__EXPONENTIAL_WEIGHTED_VARIANCE_MonthlyCharges_com_0_5_=3
num__Dependents_No_TotalCharges=3
num__Dependents_Yes_TotalCharges=3
num__Dependents_Yes_tenure=3
num__InternetService_DSL_tenure=3
num__MonthlyCharges_MultipleLines_No=3
num__MonthlyCharges_Partner_No=3
num__MonthlyCharges_StreamingTV_Yes=3
num__MultipleLines_Yes_tenure=3
num__OnlineBackup_No_TotalCharges=3
num__OnlineBackup_No_internet_service_TotalCharges=3
num__OnlineSecurity_No_tenure=3
num__OnlineSecurity_Yes_TotalCharges=3
num__PaymentMethod_Mailed_check_tenure=3
num__StreamingMovies_Yes_tenure=3
num__gender_Female_TotalCharges=3
num__gender_Female_tenure=3
num__TotalCharges_0=2
num__Contract_Two_year_TotalCharges=2
num__Dependents_Yes_MonthlyCharges=2
num__InternetService_No_MonthlyCharges=2
num__InternetService_No_TotalCharges=2
num__InternetService_No_tenure=2
num__MonthlyCharges_PaymentMethod_Bank_transfer_automatic_=2
num__MonthlyCharges_StreamingMovies_No=2
num__MonthlyCharges_TechSupport_Yes=2
num__OnlineBackup_Yes_TotalCharges=2
num__PaperlessBilling_Yes_TotalCharges=2
num__Partner_No_tenure=2
num__PaymentMethod_Credit_card_automatic_TotalCharges=2
num__PaymentMethod_Mailed_check_TotalCharges=2
num__TechSupport_No_tenure=2
num__TechSupport_Yes_TotalCharges=2
num__NATURAL_LOGARITHM_TotalCharges_=2
num__EXPONENTIAL_WEIGHTED_VARIANCE_TotalCharges_com_0_5_=1
num__MonthlyCharges_tenure=1
num__TotalCharges_MonthlyCharges=1
num__Contract_One_year_tenure=1
num__Dependents_No_tenure=1
num__DeviceProtection_No_internet_service_MonthlyCharges=1
num__DeviceProtection_No_internet_service_tenure=1
num__DeviceProtection_Yes_MonthlyCharges=1
num__MonthlyCharges_MultipleLines_No_phone_service=1
num__MonthlyCharges_PaymentMethod_Mailed_check=1
num__MonthlyCharges_PhoneService_Yes=1
num__MonthlyCharges_SeniorCitizen_Yes=1
num__MultipleLines_No_phone_service_TotalCharges=1
num__MultipleLines_Yes_TotalCharges=1
num__OnlineSecurity_No_internet_service_TotalCharges=1
num__Partner_No_TotalCharges=1
num__Partner_Yes_TotalCharges=1
num__PaymentMethod_Bank_transfer_automatic_TotalCharges=1
num__PaymentMethod_Bank_transfer_automatic_tenure=1
num__PaymentMethod_Credit_card_automatic_tenure=1
num__PhoneService_Yes_TotalCharges=1
num__StreamingMovies_No_internet_service_TotalCharges=1
num__TotalCharges_1=1
num__tenure_1=1
num__NATURAL_LOGARITHM_tenure_=1
remainder__OnlineSecurity_No=1
remainder__TechSupport_No=1
remainder__Contract_Month_to_month=1

parameters:
[boosting: gbdt]
[objective: binary]
[metric: auc]
[tree_learner: serial]
[device_type: cpu]
[data_sample_strategy: bagging]
[data: ]
[valid: ]
[num_iterations: 3000]
[learning_rate: 0.0481568]
[num_leaves: 16]
[num_threads: 0]
[seed: 0]
[deterministic: 0]
[force_col_wise: 0]
[force_row_wise: 0]
[histogram_pool_size: -1]
[max_depth: 4]
[min_data_in_leaf: 103]
[min_sum_hessian_in_leaf: 0.001]
[bagging_fraction: 0.764994]
[pos_bagging_fraction: 1]
