tree
version=v4
num_class=1
num_tree_per_iteration=1
label_index=0
max_feature_idx=201
objective=binary sigmoid:1
feature_names=num__tenure num__MonthlyCharges num__TotalCharges num__ABSOLUTE_DIFF_MonthlyCharges_ num__ABSOLUTE_DIFF_TotalCharges_ num__ABSOLUTE_DIFF_tenure_ num__MonthlyCharges_0 num__TotalCharges_0 num__tenure_0 num__COSINE_MonthlyCharges_ num__COSINE_TotalCharges_ num__COSINE_tenure_ num__EXPONENTIAL_WEIGHTED_STD_MonthlyCharges_com_0_5_ num__EXPONENTIAL_WEIGHTED_STD_TotalCharges_com_0_5_ num__EXPONENTIAL_WEIGHTED_STD_tenure_com_0_5_ num__EXPONENTIAL_WEIGHTED_VARIANCE_MonthlyCharges_com_0_5_ num__EXPONENTIAL_WEIGHTED_VARIANCE_TotalCharges_com_0_5_ num__EXPONENTIAL_WEIGHTED_VARIANCE_tenure_com_0_5_ num__MonthlyCharges_tenure num__TotalCharges_MonthlyCharges num__tenure_MonthlyCharges num__Contract_Month_to_month_MonthlyCharges num__Contract_Month_to_month_TotalCharges num__Contract_Month_to_month_tenure num__Contract_One_year_MonthlyCharges num__Contract_One_year_TotalCharges num__Contract_One_year_tenure num__Contract_Two_year_MonthlyCharges num__Contract_Two_year_TotalCharges num__Contract_Two_year_tenure num__Dependents_No_MonthlyCharges num__Dependents_No_TotalCharges num__Dependents_No_tenure num__Dependents_Yes_MonthlyCharges num__Dependents_Yes_TotalCharges num__Dependents_Yes_tenure num__DeviceProtection_No_MonthlyCharges num__DeviceProtection_No_TotalCharges num__DeviceProtection_No_tenure num__DeviceProtection_No_internet_service_MonthlyCharges num__DeviceProtection_No_internet_service_TotalCharges num__DeviceProtection_No_internet_service_tenure num__DeviceProtection_Yes_MonthlyCharges num__DeviceProtection_Yes_TotalCharges num__DeviceProtection_Yes_tenure num__InternetService_DSL_MonthlyCharges num__InternetService_DSL_TotalCharges num__InternetService_DSL_tenure num__InternetService_Fiber_optic_MonthlyCharges num__InternetService_Fiber_optic_TotalCharges num__InternetService_Fiber_optic_tenure num__InternetService_No_MonthlyCharges num__InternetService_No_TotalCharges num__InternetService_No_tenure num__MonthlyCharges_MultipleLines_No num__MonthlyCharges_MultipleLines_No_phone_service num__MonthlyCharges_MultipleLines_Yes num__MonthlyCharges_OnlineBackup_No num__MonthlyCharges_OnlineBackup_No_internet_service num__MonthlyCharges_OnlineBackup_Yes num__MonthlyCharges_OnlineSecurity_No num__MonthlyCharges_OnlineSecurity_No_internet_service num__MonthlyCharges_OnlineSecurity_Yes num__MonthlyCharges_PaperlessBilling_No num__MonthlyCharges_PaperlessBilling_Yes num__MonthlyCharges_Partner_No num__MonthlyCharges_Partner_Yes num__MonthlyCharges_PaymentMethod_Bank_transfer_automatic_ num__MonthlyCharges_PaymentMethod_Credit_card_automatic_ num__MonthlyCharges_PaymentMethod_Electronic_check num__MonthlyCharges_PaymentMethod_Mailed_check num__MonthlyCharges_PhoneService_No num__MonthlyCharges_PhoneService_Yes num__MonthlyCharges_SeniorCitizen_No num__MonthlyCharges_SeniorCitizen_Yes num__MonthlyCharges_StreamingMovies_No num__MonthlyCharges_StreamingMovies_No_internet_service num__MonthlyCharges_StreamingMovies_Yes num__MonthlyCharges_StreamingTV_No num__MonthlyCharges_StreamingTV_No_internet_service num__MonthlyCharges_StreamingTV_Yes num__MonthlyCharges_TechSupport_No num__MonthlyCharges_TechSupport_No_internet_service num__MonthlyCharges_TechSupport_Yes num__MultipleLines_No_TotalCharges num__MultipleLines_No_tenure num__MultipleLines_No_phone_service_TotalCharges num__MultipleLines_No_phone_service_tenure num__MultipleLines_Yes_TotalCharges num__MultipleLines_Yes_tenure num__OnlineBackup_No_TotalCharges num__OnlineBackup_No_tenure num__OnlineBackup_No_internet_service_TotalCharges num__OnlineBackup_No_internet_service_tenure num__OnlineBackup_Yes_TotalCharges num__OnlineBackup_Yes_tenure num__OnlineSecurity_No_TotalCharges num__OnlineSecurity_No_tenure num__OnlineSecurity_No_internet_service_TotalCharges num__OnlineSecurity_No_internet_service_tenure num__OnlineSecurity_Yes_TotalCharges num__OnlineSecurity_Yes_tenure num__PaperlessBilling_No_TotalCharges num__PaperlessBilling_No_tenure num__PaperlessBilling_Yes_TotalCharges num__PaperlessBilling_Yes_tenure num__Partner_No_TotalCharges num__Partner_No_tenure num__Partner_Yes_TotalCharges num__Partner_Yes_tenure num__PaymentMethod_Bank_transfer_automatic_TotalCharges num__PaymentMethod_Bank_transfer_automatic_tenure num__PaymentMethod_Credit_card_automatic_TotalCharges num__PaymentMethod_Credit_card_automatic_tenure num__PaymentMethod_Electronic_check_TotalCharges num__PaymentMethod_Electronic_check_tenure num__PaymentMethod_Mailed_check_TotalCharges num__PaymentMethod_Mailed_check_tenure num__PhoneService_No_TotalCharges num__PhoneService_No_tenure num__PhoneService_Yes_TotalCharges num__PhoneService_Yes_tenure num__SeniorCitizen_No_TotalCharges num__SeniorCitizen_No_tenure num__SeniorCitizen_Yes_TotalCharges num__SeniorCitizen_Yes_tenure num__StreamingMovies_No_TotalCharges num__StreamingMovies_No_tenure num__StreamingMovies_No_internet_service_TotalCharges num__StreamingMovies_No_internet_service_tenure num__StreamingMovies_Yes_TotalCharges num__StreamingMovies_Yes_tenure num__StreamingTV_No_TotalCharges num__StreamingTV_No_tenure num__StreamingTV_No_internet_service_TotalCharges num__StreamingTV_No_internet_service_tenure num__StreamingTV_Yes_TotalCharges num__StreamingTV_Yes_tenure num__TechSupport_No_TotalCharges num__TechSupport_No_tenure num__TechSupport_No_internet_service_TotalCharges num__TechSupport_No_internet_service_tenure num__TechSupport_Yes_TotalCharges num__TechSupport_Yes_tenure num__gender_Female_MonthlyCharges num__gender_Female_TotalCharges num__gender_Female_tenure num__gender_Male_MonthlyCharges num__gender_Male_TotalCharges num__gender_Male_tenure num__MonthlyCharges_1 num__TotalCharges_1 num__tenure_1 num__NATURAL_LOGARITHM_MonthlyCharges_ num__NATURAL_LOGARITHM_TotalCharges_ num__NATURAL_LOGARITHM_tenure_ num__PERCENT_CHANGE_MonthlyCharges_ num__PERCENT_CHANGE_TotalCharges_ num__PERCENT_CHANGE_tenure_ remainder__gender_Female remainder__gender_Male remainder__SeniorCitizen_No remainder__SeniorCitizen_Yes remainder__Partner_No remainder__Partner_Yes remainder__Dependents_No remainder__Dependents_Yes remainder__PhoneService_No remainder__PhoneService_Yes remainder__MultipleLines_No remainder__MultipleLines_No_phone_service remainder__MultipleLines_Yes remainder__InternetService_DSL remainder__InternetService_Fiber_optic remainder__InternetService_No remainder__OnlineSecurity_No remainder__OnlineSecurity_No_internet_service remainder__OnlineSecurity_Yes remainder__OnlineBackup_No remainder__OnlineBackup_No_internet_service remainder__OnlineBackup_Yes remainder__DeviceProtection_No remainder__DeviceProtection_No_internet_service remainder__DeviceProtection_Yes remainder__TechSupport_No remainder__TechSupport_No_internet_service remainder__TechSupport_Yes remainder__StreamingTV_No remainder__StreamingTV_No_internet_service remainder__StreamingTV_Yes remainder__StreamingMovies_No remainder__StreamingMovies_No_internet_service remainder__StreamingMovies_Yes remainder__Contract_Month_to_month remainder__Contract_One_year remainder__Contract_Two_year remainder__PaperlessBilling_No remainder__PaperlessBilling_Yes remainder__PaymentMethod_Bank_transfer_automatic_ remainder__PaymentMethod_Credit_card_automatic_ remainder__PaymentMethod_Electronic_check remainder__PaymentMethod_Mailed_check
feature_infos=[-1.2876433357076105:1.6048973164615647] [-1.5590808125059858:1.7922019960146014] [-1.0075584110313642:2.8123085290869621] [-1.3732146786845074:2.5784136684430314] [-1.2060160305473682:2.9812805775614346] [-1.3806058593655879:2.085520697994244] [-1.5590808125059858:1.7922019960146014] [-1.0075584110313642:2.8123085290869621] [-1.2876433357076105:1.6048973164615647] [-1.6559001007418339:1.28083675737467] [-1.4494730056648946:1.3788448272519644] [-1.3817056216017931:1.468542093412087] [-2.1069659842313064:2.9120514491963907] [-1.7999143369867856:3.453290194399262] [-2.2206246960958627:2.5445546925480507] [-1.2271680645847816:4.0856026757025683] [-1.0062234280601949:5.244261772359744] [-1.2909408643849078:3.3694664154107454] [-2.2341056533153125:0.44760640505790078] [-3.2651149458719058:0.30626793132177549] [-0.44693294684006207:2.2374721019568433] [-0.94578599855614531:2.0421339744444649] [-0.55131773754116165:5.326954298091076] [-0.62565944941363161:3.9018159256242755] [-0.45220912380176848:3.4929283089938705] [-0.39603358032404679:4.7545425139783877] [-0.45876691721978413:3.2581002793627971] [-0.47447813133895117:3.324411347121635] [-0.4452253856704893:3.8163752346607369] [-0.53198941927685561:2.2497124897430973] [-1.1925123852191379:1.8230401606876878] [-0.72227767372610163:3.30795962274903] [-0.85309021038297506:2.0821984027466391] [-0.56000664080333362:3.0756557513555887] [-0.44472849595122205:4.6249667369757201] [-0.52785862556153662:2.7258360060020284] [-0.83236515237594266:2.1196961096541744] [-0.5194368877823935:4.605073361324] [-0.56149002555798422:3.2893793256907413] [-0.51378647107731878:2.5926444251643499] [-0.37891228946356265:4.9940595223046564] [-0.38826659388096679:3.8990813930579238] [-0.6941127114517337:2.1253460400249216] [-0.58503282081547725:3.1417451360629092] [-0.61694867536681908:2.232745741525108] [-0.69083945667266644:2.4904562274286692] [-0.49326158338330245:4.0456477840023153] [-0.53455640144671934:2.8250327897971115] [-0.87338041832362256:1.6952042412161779] [-0.6083220647327694:3.1012042274848013] [-0.63157797459584752:2.4767121011933835] [-0.51378647107731878:2.5926444251643499] [-0.37891228946356265:4.9940595223046564] [-0.38826659388096679:3.8990813930579238] [-0.77212164892543145:2.5502676885873572] [-0.31848462784650311:4.8400029898855816] [-0.79748739490364495:1.9211044460429221] [-0.82275277973335137:2.1088573760840346] [-0.51378647107731878:2.5926444251643499] [-0.69938517712198289:2.1740803828739428] [-0.92389534221972613:1.8355826094435725] [-0.51378647107731878:2.5926444251643499] [-0.60732995136117784:2.5588949716925633] [-0.66134279473815105:3.0588037530045731] [-1.0561863544743169:1.7951848622458408] [-0.85329483658360894:2.324438411931244] [-0.8257003353735729:2.126775697750682] [-0.47441685519710863:3.2826387125277332] [-0.46649816220304485:3.3326000799133659] [-0.66425725581590622:2.4139432100240814] [-0.44939676443749926:4.8543185513408833] [-0.31848462784650311:4.8400029898855816] [-1.7359836349186288:1.6466528147216684] [-1.4550070558081643:1.8534403853777899] [-0.41710791332726999:3.3706824178186463] [-0.76586616718195977:2.3458638724201935] [-0.51378647107731878:2.5926444251643499] [-0.7702854427792577:1.8918388429553319] [-0.76988805514082803:2.3613911675699044] [-0.51378647107731878:2.5926444251643499] [-0.76701356733785586:1.8921979101812898] [-0.9097252306979825:1.8717801628438113] [-0.51378647107731878:2.5926444251643499] [-0.6204416706814615:2.4330536013965216] [-0.48865681981963915:5.4516614546243956] [-0.59192594514286456:3.0681457609234637] [-0.24129326755631633:7.8467854132151649] [-0.25813255831089899:5.6875005505868863] [-0.63462047416298939:3.0501649434399831] [-0.68981401699383549:2.0947777003655546] [-0.52108360110011431:4.5819706249277239] [-0.5634469568684557:3.2696091656734354] [-0.37891228946356265:4.9940595223046564] [-0.38826659388096679:3.8990813930579238] [-0.5798617808862867:3.1869166039220462] [-0.61471973022058302:2.2403480307661368] [-0.58044780376417782:3.7600632029454921] [-0.63108139447280165:2.8373523478381442] [-0.37891228946356265:4.9940595223046564] [-0.38826659388096679:3.8990813930579238] [-0.50999022067282607:3.6040757305513487] [-0.54392075423984843:2.471911490356046] [-0.4762326631124893:4.9586629973026017] [-0.58602364982459332:2.6428140508719737] [-0.69435489121772742:3.1779412796940254] [-0.78729290287767617:2.1138933277021961] [-0.52293187950140729:4.9267435933213708] [-0.6168134979326112:3.0661572054435422] [-0.65576048851083912:3.1841018051580816] [-0.76798420830082204:1.9230249528535812] [-0.40538916607642006:4.5775389463569791] [-0.45768857285834197:2.9396387115011788] [-0.39549286558827301:4.6808720196461611] [-0.45059339100023316:2.9754052875082322] [-0.44084708492738045:5.0156875831152918] [-0.47799837662810996:3.6374119876219915] [-0.29520807663003279:9.7369819907579664] [-0.36876678910603733:4.8637694577014425] [-0.24129326755631633:7.8467854132151649] [-0.25813255831089899:5.6875005505868863] [-0.92767342987711732:2.8062526083924402] [-1.1651692169296075:1.6805201242515022] [-0.84141223651002284:3.1034750023868196] [-1.0682562946782461:1.7596375257228889] [-0.32179746997629316:5.6679928914231166] [-0.34310374184548087:4.2249599697365561] [-0.49426591042210105:4.8979402824613247] [-0.53135783534532288:3.2690612545296216] [-0.37891228946356265:4.9940595223046564] [-0.38826659388096679:3.8990813930579238] [-0.61419959941225544:3.0397486339948481] [-0.64115119405788601:2.2405634065705966] [-0.49757441549527859:4.9101695937348149] [-0.53373840188009425:3.2285959871928589] [-0.37891228946356265:4.9940595223046564] [-0.38826659388096679:3.8990813930579238] [-0.61090196312078071:3.0475067428180771] [-0.63811344996453523:2.2565937849654474] [-0.57305342292020733:3.9487189716425513] [-0.62086302024508577:2.8711376853576849] [-0.37891228946356265:4.9940595223046564] [-0.38826659388096679:3.8990813930579238] [-0.52104988730123203:3.4802121351092921] [-0.55369379733700141:2.4472055830344237] [-0.841143503416522:2.2075900762549461] [-0.58223095230995991:3.8037813026459566] [-0.68513171615649926:2.3417335496517846] [-0.8354786796715522:2.2264231023881544] [-0.5846248674561072:3.7849712108095845] [-0.68415522293669118:2.3361864384112332] [-1.5590808125059858:1.7922019960146014] [-1.0075584110313642:2.8123085290869621] [-1.2876433357076105:1.6048973164615647] [-1.8911839063049838:1.2667235859632604] [-2.6017817001912769:1.3677664440185366] [-2.2207859226309639:1.0214948884585298] [-0.99965520637874117:3.635086143257507] [-0.29579214220398092:12.840457105301496] [-0.41657322126113533:5.3859585618080521] [0:1] [0:1] [0:1] [0:1] [0:1] [0:1] [0:1] [0:1] [0:1] [0:1] [0:1] [0:1] [0:1] [0:1] [0:1] [0:1] [0:1] [0:1] [0:1] [0:1] [0:1] [0:1] [0:1] [0:1] [0:1] [0:1] [0:1] [0:1] [0:1] [0:1] [0:1] [0:1] [0:1] [0:1] [0:1] [0:1] [0:1] [0:1] [0:1] [0:1] [0:1] [0:1] [0:1]
tree_sizes=974 989 981 985 984 984 993 995 993 994 993 991 986 984 990 993 996 996 993 995 995 988 999 994 992 982 990 991 996 997 993 995 993 991 993 993 996 997 993 1001 996 1002 991 992 993 989 997 994 995 995 994 996 995 992 997 995 990 987 993 997 994 997 998 1000 994 996 998 998 1001 1001 1000 991 995 1002 991 996 999 1003 1002 997 999 992 1001 1000 1005 1004 1001 999 989 997 999 996 1002 1004 999 1005 996 994 992 990 1007 1003 1005 1005 1006 1006 997 1004 1005 1002 1006 1001 1002 999 1007 1003 1004 1003 1001 1006 993 993 1005 1003 997 995 1001 1001 1001 1006 995 1002 1005 1004 1007 988 999 1000 1004 996 994 998 993 1003 998 996 1005 996 997 999 997 996 999 997 1007 1001 996 1002 1010 1005 997 997 1002 1003 891 1000 999 1001 1007 1006 1007 1007 1004 995 994 997 1008 1001 1005 999 996 1004 1008 999 1002 1000 999 1002 1001 1001 996 1006 1001 1004 1000 1000 992 999 1003 1007 1002 1004 1000 1004 891 889 1001 994 1002 1004 1005 992 997 1005 997 1003 1004 991 1003 1004 996 895 995 996 992 1002 1003 897 1002 895 994 993 993 996 998 1001 1003 1000 1001 1000 887 892 1001 1002 993 991 992 1002 997 1001 1003 1004 893 993 993 998 1009 890 894 993 997 1004 995 988 888 893 889 996 886 1003 889 888 993 895 1002 1004 1008 891 896 998 989 999 999 994 1002 992 1010 993 992 997 993 889 993 1001 994 991 886 878 896 893 890 997 996 997 998 998 887 884 1007 1003 1003 1008 890 890 1000 887 994 996 1002 896 999 999 891 998 890 889 892 898 984 996 1008 1005 870 1003 1007 1005 883 779 884 991 894 897 995 892 674 1005 882 886 988 998 993

Tree=0
num_leaves=8
num_cat=0
split_feature=21 123 48 2 24 60 103
split_gain=2175.26 228.587 145.202 139.875 132.083 84.4811 9.83136
threshold=-0.40775371634483781 -0.65585511253641371 0.63994043399799272 -1.0045117721966572 2.2688047210775175 0.74412906813717272 -0.56360116579197816
decision_type=2 2 2 2 2 2 2
left_child=3 5 -3 6 -5 -2 -1
right_child=1 2 -4 4 -6 -7 -8
leaf_value=-0.98436818997547726 -0.98852676910696036 -1.0095455925916901 -0.9901555193307503 -1.0249299194235173 -1.0077952483572954 -0.97823712574861976 -0.99941157926524271
leaf_weight=11.515086501836777 201.61159892380238 86.655904322862625 184.04621264338493 384.68195126950741 83.533169090747833 307.19908811151981 15.613676518201828
leaf_count=29 553 336 521 1811 316 672 52
internal_value=-1.01581 -0.987193 -0.996363 -1.02029 -1.02187 -0.982314 -0.993026
internal_weight=0 779.513 270.702 495.344 468.215 508.811 27.1288
internal_count=4290 2082 857 2208 2127 1225 81
is_linear=0
shrinkage=1


Tree=1
num_leaves=8
num_cat=0
split_feature=21 46 2 24 0 122 64
split_gain=2082.75 335.239 135.661 129.278 109.629 43.9031 17.592
threshold=-0.40775371634483781 -0.34235142496884052 -1.0045117721966572 2.2688047210775175 -0.53395316577620566 -0.31971032902116814 -0.58917213959413905
decision_type=2 2 2 2 2 2 2
left_child=2 4 6 -4 -2 -3 -1
right_child=1 5 3 -5 -6 -7 -8
leaf_value=0.014827548159228704 0.034934659376493635 0.014792000461245014 -0.0090441806251081464 0.0078880219827849804 0.024029547240094033 -0.00054868469002872212 0.035425205226645315
leaf_weight=17.515481352806095 451.15261547267437 93.510237962007523 383.03663329780102 83.846317887306213 204.32415826618671 40.910297781229019 9.9013904333114606
leaf_count=59 1013 315 1811 316 581 173 22
internal_value=0 0.0278915 -0.00443537 -0.00600337 0.0315353 0.0101231 0.0222662
internal_weight=0 789.897 494.3 466.883 655.477 134.421 27.4169
internal_count=4290 2082 2208 2127 1594 488 81
is_linear=0
shrinkage=0.0123512


Tree=2
num_leaves=8
num_cat=0
split_feature=21 47 2 24 123 147 64
split_gain=1964.58 286.883 130.601 137.106 115.882 77.0956 14.943
threshold=-0.40775371634483781 -0.37124303798347752 -1.0045117721966572 2.87338206375088 -0.4987499002919063 0.69547221135830151 -0.58917213959413905
decision_type=2 2 2 2 2 2 2
left_child=2 4 6 -4 -2 -3 -1
right_child=1 5 3 -5 -6 -7 -8
leaf_value=0.014859084989600084 0.03397851331376122 0.014905039811908971 -0.0078729972164596276 0.014648207214870042 0.022156429877403912 -0.014474881488346844 0.033421136155740196
leaf_weight=18.624968767166141 485.71635329723358 133.73271079361439 412.93343505263329 45.812544465065002 171.02505634725094 15.171083480119703 10.261304885149
leaf_count=62 1074 446 1933 155 494 75 23
internal_value=0 0.0273904 -0.00401995 -0.00562392 0.0308999 0.0119117 0.0214529
internal_weight=0 805.645 487.632 458.746 656.741 148.904 28.8863
internal_count=4262 2089 2173 2088 1568 521 85
is_linear=0
shrinkage=0.0123512


Tree=3
num_leaves=8
num_cat=0
split_feature=21 47 7 30 0 147 64
split_gain=1883.56 272.566 126.73 122.445 97.5041 60.3816 14.1427
threshold=-0.40775371634483781 -0.27792111600448216 -1.0045117721966572 1.4270264094018634 -0.49321315659072429 0.72263737292283625 -0.58917213959413905
decision_type=2 2 2 2 2 2 2
left_child=2 4 6 -4 -2 -3 -1
right_child=1 5 3 -5 -6 -7 -8
leaf_value=0.014576595379180855 0.032872714766442108 0.012801500323686099 -0.0079120866269449478 0.011860247574591165 0.022770354580133101 -0.016838089862556492 0.032528896824190676
leaf_weight=18.750622361898426 478.66136512160301 115.62726546823978 403.31041289865971 54.201047405600548 209.55204722285271 11.530927434563635 10.411592349410055
leaf_count=62 1050 396 1895 193 584 59 23
internal_value=0 0.0267271 -0.00397842 -0.00556967 0.0297967 0.0101137 0.020986
internal_weight=0 815.372 486.674 457.511 688.213 127.158 29.1622
internal_count=4262 2089 2173 2088 1634 455 85
is_linear=0
shrinkage=0.0123512


Tree=4
num_leaves=8
num_cat=0
split_feature=60 0 27 24 45 45 73
split_gain=1145 364.41 271.968 222.055 124.848 84.7686 20.8791
threshold=-0.63744223037154391 -0.65617319333264967 1.0000000180025095e-35 1.0000000180025095e-35 0.80337962671291274 0.32379588892725003 1.4426740399185731
decision_type=2 2 2 2 2 2 2
left_child=2 5 3 -1 -3 -2 -4
right_child=1 4 6 -5 -6 -7 -8
leaf_value=0.01423904262736835 0.035196149295971119 0.018817451790832881 -0.013854014057044277 -0.0064136910185809016 0.00076076878911863067 0.02343806220231498 -0.00057827470991319706
leaf_weight=227.8491617590189 321.51486967504025 280.10170494019985 144.44325193762779 121.9132924079895 73.807969361543655 131.9135295599699 20.656838238239288
leaf_count=747 638 846 730 562 309 357 89
internal_value=0 0.0244443 0.000872807 0.00704032 0.0150517 0.0317754 -0.012193
internal_weight=0 807.338 514.863 349.762 353.91 453.428 165.1
internal_count=4278 2150 2128 1309 1155 995 819
is_linear=0
shrinkage=0.0123512


Tree=5
num_leaves=8
num_cat=0
split_feature=21 46 2 24 123 147 64
split_gain=1737.42 257.205 135.558 128.222 95.9927 52.9321 11.6816
threshold=-0.40775371634483781 -0.28347556150320946 -1.0045117721966572 2.2688047210775175 -0.4987499002919063 0.72263737292283625 -0.58917213959413905
decision_type=2 2 2 2 2 2 2
left_child=2 4 6 -4 -2 -3 -1
right_child=1 5 3 -5 -6 -7 -8
leaf_value=0.016178583884661077 0.031154518132285675 0.012027858425242165 -0.0083359170704555303 0.0085215796600960018 0.020503257983708514 -0.016840731337873661 0.03231387366967902
leaf_weight=19.996510490775112 544.2279464751482 118.20106481015682 373.58679516613483 84.379671543836594 169.212796702981 10.554366439580916 10.407497420907019
leaf_count=63 1170 402 1779 311 477 54 22
internal_value=0 0.0257286 -0.00355328 -0.00522995 0.0286283 0.00966144 0.0217018
internal_weight=0 842.196 488.37 457.966 713.441 128.755 30.404
internal_count=4278 2103 2175 2090 1647 456 85
is_linear=0
shrinkage=0.0123512


Tree=6
num_leaves=8
num_cat=0
split_feature=22 46 40 48 28 121 25
split_gain=1622.54 224.024 236.79 138.752 46.784 36.8692 33.1186
threshold=-0.53729928193302035 -0.25610271614869706 -0.31004176460856497 1.0644282866706749 3.3518931587680139 -0.27589129781051069 0.1425127957775075
decision_type=2 2 2 2 2 2 2
left_child=3 2 -2 6 -5 -3 -1
right_child=1 5 -4 4 -6 -7 -8
leaf_value=-0.013046568441702926 0.027842030693100293 0.011718138669128263 -0.00052809650947571339 0.0076017010315362343 -0.016694233723430003 -0.0046809207405396364 -0.0041700002826360327
leaf_weight=197.63731354475021 750.43938112258911 92.316158086061478 47.73564849793911 117.95055261254311 13.471587240695952 27.040480718016624 94.915358185768127
leaf_count=999 1721 313 203 444 70 118 431
internal_value=0 0.0237853 0.0261453 -0.00543089 0.00511122 0.0080029 -0.0101667
internal_weight=0 917.532 798.175 423.975 131.422 119.357 292.553
internal_count=4299 2355 1924 1944 514 431 1430
is_linear=0
shrinkage=0.0123512


Tree=7
num_leaves=8
num_cat=0
split_feature=21 46 40 24 147 60 30
split_gain=1580.99 217.506 207.512 157.516 54.6763 45.3601 33.9631
threshold=-0.44650754219439176 -0.25610271614869706 -0.31004176460856497 2.2688047210775175 0.69547221135830151 -0.10606865402203754 1.4270264094018634
decision_type=2 2 2 2 2 2 2
left_child=3 2 -2 5 -3 -1 -5
right_child=1 4 -4 6 -6 -7 -8
leaf_value=-0.011692745075974198 0.027222771819285656 0.010696770109372512 -0.0005787721724820231 0.0033272237987030592 -0.016815472117107461 -0.0010912946043478253 0.019073244737685135
leaf_weight=258.25383783876896 758.24415327608585 107.49333606660366 43.295276910066605 54.79773060977459 12.278335005044935 80.842430502176285 33.778537839651108
leaf_count=1293 1719 368 184 217 63 353 102
internal_value=0 0.0234012 0.0257211 -0.00533429 0.00787637 -0.0091653 0.00933196
internal_weight=0 921.311 801.539 427.673 119.772 339.096 88.5763
internal_count=4299 2334 1903 1965 431 1646 319
is_linear=0
shrinkage=0.0123512


Tree=8
num_leaves=8
num_cat=0
split_feature=22 60 80 40 0 28 114
split_gain=1540.54 218.612 144.044 120.134 83.3526 46.4826 26.7547
threshold=-0.53729928193302035 0.74412906813717272 1.2694356944300735 -0.31004176460856497 -0.9006132484455377 3.3518931587680139 0.2647968059548747
decision_type=2 2 2 2 2 2 2
left_child=2 3 6 -2 -3 -4 -1
right_child=1 4 5 -5 -6 -7 -8
leaf_value=-0.011816673432144601 0.018382938159367583 0.032930939720903177 0.0084257561059363686 -0.0023118651151148744 0.022968305395118873 -0.016582421313410388 -0.00012811316677438988
leaf_weight=265.98666836321354 363.64315962791443 260.42191654443741 103.61060477793217 48.499277710914612 252.16064338386059 12.731487140059469 33.654216527938843
leaf_count=1337 1022 480 382 211 625 67 146
internal_value=0 0.0226449 -0.00597503 0.0159477 0.0280299 0.00568907 -0.0105039
internal_weight=0 924.725 415.983 412.142 512.583 116.342 299.641
internal_count=4270 2338 1932 1233 1105 449 1483
is_linear=0
shrinkage=0.0123512


Tree=9
num_leaves=8
num_cat=0
split_feature=22 48 80 123 8 28 69
split_gain=1485.37 205.721 141.261 130.193 100.674 45.4084 30.2512
threshold=-0.53729928193302035 1.0000000180025095e-35 1.2694356944300735 -0.69513141559754066 -0.77839322088909368 3.3518931587680139 -0.018639746644154947
decision_type=2 2 2 2 2 2 2
left_child=2 3 6 -2 -3 -4 -1
right_child=1 4 5 -5 -6 -7 -8
leaf_value=-0.011858976596338583 0.019936438919732943 0.031269032984491942 0.0082896712874758229 0.0036996290545315957 0.021082918282906784 -0.016512844542855693 0.00039444177204766846
leaf_weight=263.29034289717674 223.81145097315311 319.07981067895889 104.00827315449715 113.56269805133343 276.10084447264671 12.62786130607128 34.79830627143383
leaf_count=1333 601 599 382 435 703 67 150
internal_value=0 0.0221761 -0.00591948 0.014471 0.0265438 0.00560437 -0.0104285
internal_weight=0 932.555 414.725 337.374 595.181 116.636 298.089
internal_count=4270 2338 1932 1036 1302 449 1483
is_linear=0
shrinkage=0.0123512


Tree=10
num_leaves=8
num_cat=0
split_feature=22 46 40 48 29 25 142
split_gain=1395.49 195.214 220.749 119.435 36.2548 33.8586 24.9894
threshold=-0.53729928193302035 -0.25610271614869706 -0.31004176460856497 1.0644282866706749 2.2303951153749035 0.1425127957775075 -0.017863532520461901
decision_type=2 2 2 2 2 2 2
left_child=3 2 -2 5 -5 -1 -3
right_child=1 6 -4 4 -6 -7 -8
leaf_value=-0.012916682115537042 0.02548726368206752 0.0094910484011280598 -0.0013042838250048492 0.0066627709806947669 -0.012345279373722011 -0.0038362699816717294 -0.0057748034929552368
leaf_weight=190.42270922660828 773.02940793335438 100.661366507411 49.947587758302689 117.37890447676182 17.603435590863228 93.3551235049963 19.532245248556137
leaf_count=986 1705 344 213 441 89 430 85
internal_value=0 0.0217138 0.0238612 -0.00538021 0.00418388 -0.00992948 0.00701025
internal_weight=0 943.171 822.977 418.76 134.982 283.778 120.194
internal_count=4293 2347 1918 1946 530 1416 429
is_linear=0
shrinkage=0.0123512


Tree=11
num_leaves=8
num_cat=0
split_feature=21 46 27 8 2 27 72
split_gain=1378.38 221.222 114.11 84.8378 70.3685 34.7935 28.5807
threshold=-0.40646192214985272 -0.34235142496884052 1.0000000180025095e-35 -0.45247314740524297 -1.0045117721966572 2.4747861918419809 -0.43612144105390233
decision_type=2 2 2 2 2 2 2
left_child=2 3 4 -2 -1 -4 -3
right_child=1 6 5 -5 -6 -7 -8
leaf_value=0.01919577643305246 0.027702066355453112 0.015223782345184839 -0.01362043121173964 0.018420615909676977 -0.00055489999440595642 -0.002232389992917578 0.0037011403263378607
leaf_weight=30.89627180993557 531.25236569344997 53.132163569331169 149.00534448027611 209.4771930873394 251.7619661539793 56.427113369107246 85.979308813810349
leaf_count=82 1064 161 784 547 1085 250 320
internal_value=0 0.0223933 -0.00348728 0.0250773 0.00160397 -0.0104924 0.00810209
internal_weight=0 879.841 488.091 740.73 282.658 205.432 139.111
internal_count=4293 2092 2201 1611 1167 1034 481
is_linear=0
shrinkage=0.0123512


Tree=12
num_leaves=8
num_cat=0
split_feature=22 46 40 24 72 57 106
split_gain=1369.09 150.747 179.29 148.71 40.7766 32.3008 20.537
threshold=-0.53729928193302035 -0.34235142496884052 -0.31004176460856497 2.6812811474406368 -0.43612144105390233 1.9232795751624383 2.885940662562287
decision_type=2 2 2 2 2 2 2
left_child=3 2 -2 5 -3 -1 -5
right_child=1 4 -4 6 -6 -7 -8
leaf_value=-0.0093257385374557727 0.024716165315423907 0.01718400547534199 0.00010530051619255505 0.0072421759207380665 0.0038240699849939035 0.019128952337401153 0.022834669294504412
leaf_weight=343.55136020481586 768.37346756458282 60.640654638409615 47.97613462805748 48.526218935847282 81.950062081217766 6.1956694871187201 17.545515671372414
leaf_count=1708 1653 175 201 176 304 20 48
internal_value=0 0.0212231 0.0232698 -0.00561127 0.00950575 -0.00882167 0.0113828
internal_weight=0 958.94 816.35 415.819 142.591 349.747 66.0717
internal_count=4285 2333 1854 1952 479 1728 224
is_linear=0
shrinkage=0.0123512


Tree=13
num_leaves=8
num_cat=0
split_feature=21 24 60 121 0 57 30
split_gain=1333.89 144.92 139.944 93.7184 72.4783 31.4016 20.7318
threshold=-0.44909113058436206 2.6812811474406368 0.76245229490784527 -1.0268370961777478 -0.69691320251813094 1.9232795751624383 1.4270264094018634
decision_type=2 2 2 2 2 2 2
left_child=1 5 3 -2 -4 -1 -3
right_child=2 6 4 -5 -6 -7 -8
leaf_value=-0.0092088264922753852 0.02130512951680065 0.0039483379293313772 0.028795514456566917 0.0097257874882160783 0.019525402501298698 0.018722250316415143 0.017767487868579644
leaf_weight=344.82186898589134 216.76103672385216 31.617278322577477 321.745321854949 209.86801388859749 214.40302515029907 6.2517168819904319 34.778449535369873
leaf_count=1721 525 121 585 683 527 20 103
internal_value=0 -0.00554675 0.0208879 0.015609 0.0250884 -0.00871145 0.0111869
internal_weight=0 417.469 962.777 426.629 536.148 351.074 66.3957
internal_count=4285 1965 2320 1208 1112 1741 224
is_linear=0
shrinkage=0.0123512


Tree=14
num_leaves=8
num_cat=0
split_feature=21 47 7 24 123 147 64
split_gain=1316.75 172.068 104.656 118.277 81.1814 53.6672 14.2747
threshold=-0.40646192214985272 -0.27792111600448216 -1.0045117721966572 2.5249392761578417 -0.4987499002919063 0.72263737292283625 -0.58917213959413905
decision_type=2 2 2 2 2 2 2
left_child=2 4 6 -4 -2 -3 -1
right_child=1 5 3 -5 -6 -7 -8
leaf_value=0.010888939059831373 0.025924102242632637 0.010992280046445115 -0.0082373600336982846 0.0086856993660152301 0.016530081699052842 -0.016937482780468541 0.027511473961324587
leaf_weight=20.475564405322075 581.34193322062492 126.62462009489536 376.41989326477051 75.668118938803673 184.9958968013525 11.443814486265181 12.813046157360075
leaf_count=63 1146 406 1860 266 483 58 25
internal_value=0 0.0213696 -0.00384858 -0.00540487 0.0236564 0.00867732 0.0172871
internal_weight=0 904.406 485.377 452.088 766.338 138.068 33.2886
internal_count=4307 2093 2214 2126 1629 464 88
is_linear=0
shrinkage=0.0123512


Tree=15
num_leaves=8
num_cat=0
split_feature=21 46 2 24 123 142 64
split_gain=1272.14 183.192 101.855 115.681 82.3246 33.5979 13.6969
threshold=-0.40646192214985272 -0.34235142496884052 -1.0045117721966572 2.5249392761578417 -0.4987499002919063 -0.017863532520461901 -0.58917213959413905
decision_type=2 2 2 2 2 2 2
left_child=2 4 6 -4 -2 -3 -1
right_child=1 5 3 -5 -6 -7 -8
leaf_value=0.010711417387774431 0.025681974889506323 0.010532320981674307 -0.0081699036327096269 0.0085463110169816808 0.016236503661832137 -0.0072764599827965654 0.026938867841220779
leaf_weight=20.557305604219437 578.77018639445305 127.02831621468067 374.85000441968441 75.950635492801666 186.00824348628521 18.516562208533287 12.923079445958136
leaf_count=63 1122 407 1860 266 483 81 25
internal_value=0 0.0209676 -0.00380989 -0.00535357 0.0233847 0.00826665 0.016975
internal_weight=0 910.323 484.281 450.801 764.778 145.545 33.4804
internal_count=4307 2093 2214 2126 1605 488 88
is_linear=0
shrinkage=0.0123512


Tree=16
num_leaves=8
num_cat=0
split_feature=21 46 27 40 8 147 60
split_gain=1255.35 184.992 96.5218 72.7991 71.9927 65.5598 37.0255
threshold=-0.40646192214985272 -0.34163240703955278 1.0000000180025095e-35 0.014767425985510145 -0.45247314740524297 0.59586661895500714 1.3610110360831515
decision_type=2 2 2 2 2 2 2
left_child=2 4 3 -1 -2 -3 -4
right_child=1 5 6 -5 -6 -7 -8
leaf_value=0.0040372603617157971 0.025480980197033497 0.011205837274626202 -0.012443437278456988 -0.011402487819492983 0.01705029144557493 -0.013319634188636928 0.0041939908157015539
leaf_weight=217.90849760174751 556.69096383452415 127.64981842041016 176.83314928412437 59.255455732345581 213.88718183338642 19.117545485496521 23.067430049180984
leaf_count=858 1062 401 939 303 535 91 94
internal_value=0 0.0207203 -0.0039818 0.000736365 0.0231409 0.00801121 -0.0105236
internal_weight=0 917.346 477.065 277.164 770.578 146.767 199.901
internal_count=4283 2089 2194 1161 1597 492 1033
is_linear=0
shrinkage=0.0123512


Tree=17
num_leaves=8
num_cat=0
split_feature=21 46 27 40 0 147 60
split_gain=1214.02 178.538 94.8388 71.2604 64.2382 50.8994 36.4745
threshold=-0.40646192214985272 -0.25610271614869706 1.0000000180025095e-35 0.014767425985510145 -0.45247314740524297 0.64825657340089571 1.3610110360831515
decision_type=2 2 2 2 2 2 2
left_child=2 4 3 -1 -2 -3 -4
right_child=1 5 6 -5 -6 -7 -8
leaf_value=0.0039800941947635117 0.024653669912788619 0.009634284330877211 -0.012370920973211963 -0.011327503954966903 0.016750503339306642 -0.014482838553100025 0.004133816109040598
leaf_weight=218.30574785172939 580.41490791738033 112.15670745074749 175.67996622622013 58.913108587265015 215.01898322999477 15.153774723410605 23.113870188593864
leaf_count=858 1116 363 939 303 535 75 94
internal_value=0 0.0203438 -0.00394157 0.000727003 0.0225173 0.00676362 -0.0104519
internal_weight=0 922.744 476.013 277.219 795.434 127.31 198.794
internal_count=4283 2089 2194 1161 1651 438 1033
is_linear=0
shrinkage=0.0123512


Tree=18
num_leaves=8
num_cat=0
split_feature=23 60 24 46 40 57 77
split_gain=1081.67 157.264 111.227 106.647 48.691 33.0006 20.6986
threshold=-0.59421864819809056 -0.63744223037154391 1.9502997386237377 -0.34235142496884052 -0.31004176460856497 1.9232795751624383 0.84303819159826043
decision_type=2 2 2 2 2 2 2
left_child=2 4 5 -3 -2 -1 -4
right_child=1 3 6 -5 -6 -7 -8
leaf_value=-0.0097508937469970788 0.012753526406327011 0.023283058454921842 -0.0058134010482411708 0.0092217693059942363 -0.0012309115372816128 0.019022982505984085 0.0080443867885078811
leaf_weight=292.33769439160824 193.13410677015781 647.96146582067013 20.215193718671799 94.254338666796684 47.280276522040367 6.2097355127334586 88.110588118433952
leaf_count=1511 539 1283 92 304 202 20 318
internal_value=0 0.0186852 -0.00526245 0.0214974 0.0100033 -0.0091524 0.00545832
internal_weight=0 982.63 406.873 742.216 240.414 298.547 108.326
internal_count=4269 2328 1941 1587 741 1531 410
is_linear=0
shrinkage=0.0123512


Tree=19
num_leaves=8
num_cat=0
split_feature=21 46 27 133 40 57 72
split_gain=1069.7 165.214 90.0858 65.9269 54.4315 34.5601 28.8972
threshold=-0.40646192214985272 -0.34163240703955278 1.0000000180025095e-35 0.27620858465644432 0.25491071381809655 1.9232795751624383 -0.43612144105390233
decision_type=2 2 2 2 2 2 2
left_child=2 3 4 -2 -1 -4 -3
right_child=1 6 5 -5 -6 -7 -8
leaf_value=0.0034653429907478789 0.023017866011470326 0.013980263856734808 -0.010863225685696549 0.012493863098455439 -0.010916293242327778 0.018620210460893582 0.0027087947293358162
leaf_weight=232.82431769371033 666.00515568256378 57.700407460331917 189.77696573734283 105.14323373138905 48.51222725212574 6.265349715948104 87.04304350912571
leaf_count=923 1307 166 1005 278 252 20 318
internal_value=0 0.0193103 -0.00349342 0.021583 0.000985448 -0.00992096 0.00720204
internal_weight=0 915.892 477.379 771.148 281.337 196.042 144.743
internal_count=4269 2069 2200 1585 1175 1025 484
is_linear=0
shrinkage=0.0123512


Tree=20
num_leaves=8
num_cat=0
split_feature=23 48 121 30 0 96 145
split_gain=1040.29 148.737 121.49 115.584 76.153 48.7897 33.8022
threshold=-0.59421864819809056 1.0000000180025095e-35 -0.94779017003382826 1.4270264094018634 -0.45247314740524297 -0.3945532089029683 2.9865228571623228
decision_type=2 2 2 2 2 2 2
left_child=3 2 -2 5 -3 -1 -5
right_child=1 4 -4 6 -6 -7 -8
leaf_value=-0.011044245686064375 0.016658928759808588 0.024773556873760073 0.0013288588322856261 0.015510078592187797 0.015898050021286726 -0.00083554041983461961 -0.0077006100604520566
leaf_weight=245.88510185480118 245.46258126199245 416.35460248589516 116.19435422122478 46.28762523829937 228.36406427621841 100.65259662270546 12.067024812102316
leaf_count=1300 610 745 447 146 557 442 56
internal_value=0 0.0180734 0.0117336 -0.00537109 0.0216298 -0.00807911 0.0107104
internal_weight=0 1006.38 361.657 404.892 644.719 346.538 58.3547
internal_count=4303 2359 1057 1944 1302 1742 202
is_linear=0
shrinkage=0.0123512


Tree=21
num_leaves=8
num_cat=0
split_feature=21 46 30 2 0 147 145
split_gain=1040.36 161.138 89.0553 90.2653 59.9487 50.675 32.7116
threshold=-0.40646192214985272 -0.28347556150320946 1.4270264094018634 -1.0045117721966572 -0.12655307392139226 0.64825657340089571 2.9865228571623228
decision_type=2 2 2 2 2 2 2
left_child=2 4 3 -1 -2 -3 -4
right_child=1 5 6 -5 -6 -7 -8
leaf_value=0.014447122880945761 0.022511876950052145 0.0089061062577671622 0.015217166943627016 -0.007370708770472985 0.014229061631697864 -0.014645521609463577 -0.0076329181354703951
leaf_weight=31.27911788225174 638.59268181025982 116.94868038594723 46.593960210680962 384.8502980619669 168.47213998436928 15.822731494903563 12.023944109678267
leaf_count=84 1227 373 146 1917 422 78 56
internal_value=0 0.0187085 -0.00372298 -0.00573073 0.0207829 0.00609939 0.0105301
internal_weight=0 939.836 474.747 416.129 807.065 132.771 58.6179
internal_count=4303 2100 2203 2001 1649 451 202
is_linear=0
shrinkage=0.0123512


Tree=22
num_leaves=8
num_cat=0
split_feature=21 46 40 25 147 60 30
split_gain=1032.29 150.509 126.567 99.7075 39.2771 37.8091 33.8761
threshold=-0.44909113058436206 -0.25610271614869706 -0.31004176460856497 1.45384238463686 0.72263737292283625 -0.10606865402203754 1.4270264094018634
decision_type=2 2 2 2 2 2 2
left_child=3 2 -2 5 -3 -1 -5
right_child=1 4 -4 6 -6 -7 -8
leaf_value=-0.011612989025270755 0.020750709852130591 0.0074274004471868715 -0.00051409384949260188 4.4390549784182122e-05 -0.016766866444989977 -0.0012638715131775649 0.014920250815118158
leaf_weight=225.20314817130566 847.78197671473026 115.08707614243031 44.963668376207352 74.703039467334747 11.235399380326269 70.778335064649582 33.974220961332321
leaf_count=1218 1715 377 189 317 58 322 100
internal_value=0 0.0178942 0.0196797 -0.00542313 0.00527551 -0.00913819 0.00469482
internal_weight=0 1019.07 892.746 404.659 126.322 295.981 108.677
internal_count=4296 2339 1904 1957 435 1540 417
is_linear=0
shrinkage=0.0123512


Tree=23
num_leaves=8
num_cat=0
split_feature=21 96 24 47 52 64 30
split_gain=1001.02 132.754 105.442 92.4732 37.0376 31.7288 28.6582
threshold=-0.44909113058436206 -0.57417237261252529 1.8721288029823404 -0.23126015501498456 -0.31004176460856497 1.4904535791773086 1.4270264094018634
decision_type=2 2 2 2 2 2 2
left_child=2 4 5 -3 -2 -1 -4
right_child=1 3 6 -5 -6 -7 -8
leaf_value=-0.010513343056842711 0.011916041375275688 0.021619602444624329 0.00059350656306148702 0.0083687357363957295 -0.00050786412831930442 0.0046752672749124395 0.014056613158023149
leaf_weight=267.26785436272621 197.12707191705704 690.23142482340336 78.556267812848091 90.926711991429329 44.953122794628143 22.769029632210732 34.807300269603729
leaf_count=1429 532 1327 329 291 189 96 103
internal_value=0 0.0176006 -0.00537315 0.0200772 0.00960898 -0.00932098 0.00472724
internal_weight=0 1023.24 403.4 781.158 242.08 290.037 113.364
internal_count=4296 2339 1957 1618 721 1525 432
is_linear=0
shrinkage=0.0123512


Tree=24
num_leaves=8
num_cat=0
split_feature=21 123 24 69 60 67 130
split_gain=920.457 124.513 116.779 92.7065 50.2031 40.0124 28.1194
threshold=-0.44909113058436206 -0.69513141559754066 1.9502997386237377 0.51342694433155966 0.74412906813717272 2.4929745194803705 -0.24693357156913701
decision_type=2 2 2 2 2 2 2
left_child=2 4 5 -3 -2 -1 -4
right_child=1 3 6 -5 -6 -7 -8
leaf_value=-0.010134315130285102 0.016340708282789301 0.0053766179792915708 -0.0065274493483478196 0.018019379505710396 0.023259601025567216 0.0071896699209902139 0.0091466057612586051
leaf_weight=276.30458569526672 277.94000564515591 190.59124012291431 21.779818251729012 165.1492513269186 376.97193887829781 21.954563304781914 88.050357684493065
leaf_count=1478 666 607 101 377 664 90 306
internal_value=0 0.0171281 -0.00484971 0.0112459 0.0203233 -0.00885911 0.00603837
internal_weight=0 1010.65 408.089 355.74 654.912 298.259 109.83
internal_count=4289 2314 1975 984 1330 1568 407
is_linear=0
shrinkage=0.0123512


Tree=25
num_leaves=8
num_cat=0
split_feature=21 123 24 69 60 67 30
split_gain=892.867 120.743 114.4 88.9205 44.5086 39.2814 26.8205
threshold=-0.44909113058436206 -0.77368402171979433 1.9502997386237377 0.51342694433155966 0.74412906813717272 2.4929745194803705 1.4270264094018634
decision_type=2 2 2 2 2 2 2
left_child=2 4 5 -3 -2 -1 -4
right_child=1 3 6 -5 -6 -7 -8
leaf_value=-0.01006469610521102 0.016362335138577946 0.0061294211392245767 0.0017956195947632203 0.017811803398618816 0.023100175461117971 0.007075123846926698 0.014896409814973068
leaf_weight=274.78894364833832 256.7780995965004 213.5962571054697 75.198464781045914 185.8990031927824 358.19732195138931 22.033952295780182 34.904659301042557
leaf_count=1478 603 667 307 420 624 90 100
internal_value=0 0.0168525 -0.0048038 0.0115656 0.0202868 -0.00879236 0.0059488
internal_weight=0 1014.47 406.926 399.495 614.975 296.823 110.103
internal_count=4289 2314 1975 1087 1227 1568 407
is_linear=0
shrinkage=0.0123512


Tree=26
num_leaves=8
num_cat=0
split_feature=21 46 30 2 8 145 110
split_gain=875.817 118.633 86.352 85.5636 58.9526 33.1807 27.8061
threshold=-0.40775371634483781 -0.28347556150320946 1.4270264094018634 -1.0045117721966572 -0.45247314740524297 2.9865228571623228 0.50531126827523731
decision_type=2 2 2 2 2 2 2
left_child=2 4 3 -1 -2 -4 -3
right_child=1 6 5 -5 -6 -7 -8
leaf_value=0.014159581822381077 0.021271670769001872 0.0082976808297767803 0.015483012623175047 -0.0068228539102631507 0.013945072091505856 -0.0075708251718813128 -0.013818210300540985
leaf_weight=32.167124301195145 588.18538548052311 128.62201353907585 46.975961148738861 378.60346440970898 234.26975394785404 11.945931896567343 9.2996969819068891
leaf_count=83 1085 408 142 1912 561 56 42
internal_value=0 0.0174071 -0.00317398 -0.00517974 0.0191847 0.010809 0.00680646
internal_weight=0 960.377 469.692 410.771 822.455 58.9219 137.922
internal_count=4289 2096 2193 1995 1646 198 450
is_linear=0
shrinkage=0.0123512


Tree=27
num_leaves=8
num_cat=0
split_feature=21 46 24 7 0 110 109
split_gain=849.805 115.071 84.4494 85.4338 57.9878 27.1164 13.9854
threshold=-0.40775371634483781 -0.28347556150320946 2.6812811474406368 -1.0045117721966572 0.85120714653015994 0.50531126827523731 1.0073343355163191
decision_type=2 2 2 2 2 2 2
left_child=2 4 3 -1 -2 -3 -4
right_child=1 5 6 -5 -6 -7 -8
leaf_value=0.013928438470324772 0.019626141745895158 0.0081708577082905548 0.014482343813085264 -0.0070257431199247915 0.00448337044007032 -0.013722079963231156 0.0033627066801296969
leaf_weight=32.296229332685471 784.74210660159588 129.00272236764431 37.873343646526337 366.84976728260517 40.573175087571144 9.2494906932115537 31.695286884903908
leaf_count=83 1529 408 113 1882 117 42 115
internal_value=0 0.0171348 -0.00314153 -0.00533027 0.0188817 0.00670615 0.00941627
internal_weight=0 963.567 468.715 399.146 825.315 138.252 69.5686
internal_count=4289 2096 2193 1965 1646 450 228
is_linear=0
shrinkage=0.0123512


Tree=28
num_leaves=8
num_cat=0
split_feature=21 46 27 0 41 147 80
split_gain=818.179 120.933 90.5406 64.9726 62.9407 49.034 44.217
threshold=-0.40646192214985272 -0.28347556150320946 1.0000000180025095e-35 0.7697271281591973 0.058332154758500933 0.64825657340089571 1.3019471332361676
decision_type=2 2 2 2 2 2 2
left_child=2 3 4 -2 -1 -3 -4
right_child=1 5 6 -5 -6 -7 -8
leaf_value=0.0044572542642798913 0.019375379534625346 0.0087228356872906671 -0.013120370076937338 0.003171027397056693 -0.0098409272018965682 -0.014681460696579407 0.00030031883366294688
leaf_weight=223.19527606666088 787.92716881632805 123.02524581551552 140.67048478126526 39.646736055612564 59.483777523040771 15.361205145716665 51.038699686527252
leaf_count=862 1526 379 811 117 316 75 230
internal_value=0 0.016812 -0.00299514 0.0185991 0.00144851 0.00612491 -0.00954738
internal_weight=0 965.96 474.388 827.574 282.679 138.386 191.709
internal_count=4316 2097 2219 1643 1178 454 1041
is_linear=0
shrinkage=0.0123512


Tree=29
num_leaves=8
num_cat=0
split_feature=21 47 27 41 0 80 147
split_gain=794.359 113.066 88.8786 61.5407 61.3811 43.6883 31.9239
threshold=-0.40646192214985272 -0.09127727204649165 1.0000000180025095e-35 0.058332154758500933 0.7697271281591973 1.3019471332361676 0.72263737292283625
decision_type=2 2 2 2 2 2 2
left_child=2 4 3 -1 -2 -4 -3
right_child=1 6 5 -5 -6 -7 -8
leaf_value=0.0043936321554361932 0.018863826049735476 0.0071149366448832393 -0.013056240405823287 -0.0097714501018005204 0.0031296358516342219 0.0002965642212271904 -0.016746345853158505
leaf_weight=223.62788426876068 810.7753187417984 109.03032577037811 139.62195113301277 59.168758109211922 39.674754738807678 51.046475782990456 9.2817649543285352
leaf_count=862 1586 346 811 316 117 230 48
internal_value=0 0.016556 -0.00296416 0.00142991 0.0181298 -0.00948138 0.00524298
internal_weight=0 968.762 473.465 282.797 850.45 190.668 118.312
internal_count=4316 2097 2219 1178 1703 1041 394
is_linear=0
shrinkage=0.0123512


Tree=30
num_leaves=8
num_cat=0
split_feature=22 123 25 50 69 130 67
split_gain=818.083 105.215 84.2193 72.1381 60.1131 41.9623 31.6877
threshold=-0.53729928193302035 -0.38092099110852568 0.1425127957775075 -0.60999262684731115 0.75091036981584203 -0.23788309483733258 2.5017044753834066
decision_type=2 2 2 2 2 2 2
left_child=2 3 6 -2 -3 -4 -1
right_child=1 4 5 -5 -6 -7 -8
leaf_value=-0.011818511702212098 0.012992326692737361 0.0031348158015273944 -0.0064913973817241673 0.020667534836025056 0.015454630092754048 0.006277408111317587 0.0037910043707448859
leaf_weight=204.71437466144562 302.73741909861565 139.28233300149441 64.396801710128784 487.85576188564301 106.71063874661922 100.59543260931969 21.968596637248993
leaf_count=1161 777 451 320 867 245 372 94
internal_value=0 0.0155335 -0.0054195 0.0177285 0.0084791 0.00129372 -0.0103057
internal_weight=0 1036.59 391.675 790.593 245.993 164.992 226.683
internal_count=4287 2340 1947 1644 696 692 1255
is_linear=0
shrinkage=0.0123512


Tree=31
num_leaves=8
num_cat=0
split_feature=21 46 40 24 147 96 30
split_gain=801.915 99.8281 99.124 92.1628 51.8286 29.2728 18.3024
threshold=-0.44909113058436206 -0.34235142496884052 -0.31004176460856497 2.5249392761578417 0.59586661895500714 -0.10396997154596234 1.4270264094018634
decision_type=2 2 2 2 2 2 2
left_child=3 2 -2 5 -3 -1 -5
right_child=1 4 -4 6 -6 -7 -8
leaf_value=-0.010429252933875102 0.017937008264318374 0.0089873229851806583 -0.00055022863021889968 0.0016429663284800256 -0.012119582939779531 -0.0016331761044095418 0.013830586929906297
leaf_weight=240.07523068785667 835.46126125752926 133.71508929133415 46.71814276278019 45.019052132964134 20.463728651404381 75.985297039151192 32.27164426445961
leaf_count=1337 1641 398 193 175 94 358 91
internal_value=0 0.0153554 0.016958 -0.00535807 0.00618586 -0.00831456 0.00673174
internal_weight=0 1036.36 882.179 393.351 154.179 316.061 77.2907
internal_count=4287 2326 1834 1961 492 1695 266
is_linear=0
shrinkage=0.0123512


Tree=32
num_leaves=8
num_cat=0
split_feature=21 123 48 69 60 101 24
split_gain=747.526 112.984 104.152 76.0886 44.8221 36.4093 26.1789
threshold=-0.44909113058436206 -0.77368402171979433 1.0644282866706749 0.10464399882582771 0.69587790430773477 2.4090816519269653 0.37357533462278258
decision_type=2 2 2 2 2 2 2
left_child=2 4 6 -3 -2 -4 -1
right_child=1 3 5 -5 -6 -7 -8
leaf_value=-0.012067194577779121 0.014578645440622573 0.0047355628085448678 0.0063659714450274288 0.015444769277663148 0.02124285063564129 -0.013768760788020288 -0.0037643803498191787
leaf_weight=175.77108554542065 267.4562426507473 203.82919774949551 118.82887946069241 201.03165937960148 362.82515050470829 15.486136853694914 86.413122981786728
leaf_count=1025 617 630 437 454 615 85 420
internal_value=0 0.0151445 -0.00479981 0.0100532 0.0184149 0.00404449 -0.00933068
internal_weight=0 1035.14 396.499 404.861 630.281 134.315 262.184
internal_count=4283 2316 1967 1084 1232 522 1445
is_linear=0
shrinkage=0.0123512


Tree=33
num_leaves=8
num_cat=0
split_feature=21 123 77 48 60 115 28
split_gain=726.563 109.85 104.798 75.1321 43.7794 39.8683 37.1233
threshold=-0.44909113058436206 -0.77368402171979433 1.2543655738586852 0.62261439919502604 0.69587790430773477 1.7226029987000693 3.3518931587680139
decision_type=2 2 2 2 2 2 2
left_child=2 4 5 -3 -2 -1 -4
right_child=1 3 6 -5 -6 -7 -8
leaf_value=-0.010559918149753968 0.014357743085333276 0.0024395279751487707 0.0070907178461769209 0.013690255477568728 0.020935666318939856 0.0049852059541996025 -0.015942332890247667
leaf_weight=246.51607774198055 268.21221716701984 136.41405780613422 108.93015034496784 269.31640097498894 363.59679156541824 28.030482068657875 11.834681823849676
leaf_count=1380 617 483 394 601 615 125 68
internal_value=0 0.0149227 -0.00475506 0.00990755 0.0181432 -0.0089728 0.00483353
internal_weight=0 1037.54 395.311 405.73 631.809 274.547 120.765
internal_count=4283 2316 1967 1084 1232 1505 462
is_linear=0
shrinkage=0.0123512


Tree=34
num_leaves=8
num_cat=0
split_feature=21 46 92 29 122 147 23
split_gain=659.236 114.168 75.3663 58.7781 58.552 58.4788 11.3137
threshold=-0.37222937598274669 -0.34235142496884052 0.014767425985510145 -0.51267204490866136 0.56673018965794764 0.59586661895500714 0.097478978543811837
decision_type=2 2 2 2 2 2 2
left_child=2 4 3 -1 -2 -3 -4
right_child=1 5 6 -5 -6 -7 -8
leaf_value=0.0041569390777078394 0.018206289528670167 0.00851748228149324 -0.012428162401224331 -0.006401139020792067 0.0073515733016650152 -0.013942684606440103 -0.001687062315750518
leaf_weight=225.86525821685791 739.37873075902462 137.89714893698692 104.17149530351162 124.93157361447811 84.470592498779297 20.28603932261467 17.468377575278282
leaf_count=865 1383 408 615 665 223 95 79
internal_value=0 0.015248 -0.00250812 0.000396822 0.0170933 0.0056371 -0.0108857
internal_weight=0 982.033 472.437 350.797 823.849 158.183 121.64
internal_count=4333 2109 2224 1530 1606 503 694
is_linear=0
shrinkage=0.0123512


Tree=35
num_leaves=8
num_cat=0
split_feature=21 46 40 46 122 72 22
split_gain=640.992 111.094 74.0738 57.7425 56.937 28.1682 10.6539
threshold=-0.37222937598274669 -0.34235142496884052 0.014767425985510145 0.35645039556288 0.56673018965794764 -0.43612144105390233 -0.34277270222629214
decision_type=2 2 2 2 2 2 2
left_child=2 4 3 -1 -2 -3 -4
right_child=1 5 6 -5 -6 -7 -8
leaf_value=0.0040593753612030593 0.017946739452895908 0.011722097146214616 -0.012151117152359744 -0.00645594311620878 0.0072505437014893535 0.0011579531585006117 -0.00071869971197909303
leaf_weight=228.41557511687279 740.79846830666065 65.996773391962051 106.79832045733929 122.33192075788975 84.589013814926147 92.431650042533875 14.073966577649115
leaf_count=876 1383 179 631 654 223 324 63
internal_value=0 0.0150322 -0.00248161 0.000391896 0.0168506 0.00555867 -0.01082
internal_weight=0 983.816 471.62 350.747 825.387 158.428 120.872
internal_count=4333 2109 2224 1530 1606 503 694
is_linear=0
shrinkage=0.0123512


Tree=36
num_leaves=8
num_cat=0
split_feature=21 81 64 133 24 143 100
split_gain=687.141 104.518 83.0982 69.2829 46.717 42.6563 39.8397
threshold=-0.44909113058436206 -0.61723060523360995 1.1839191524219796 1.0000000180025095e-35 0.54654931987183253 1.4260662105469251 2.5031487210492682
decision_type=2 2 2 2 2 2 2
left_child=2 5 4 -3 -1 -2 -4
right_child=1 3 6 -5 -6 -7 -8
leaf_value=-0.011702866012467094 0.0083472829919785801 0.018371567388097306 0.010040659955390271 0.0097324460970162931 -0.0014856488793296917 -0.01653272461085098 -0.0079805523911410572
leaf_weight=191.16551817953587 234.41868726909161 629.77252361178398 69.683968037366867 182.69657552242279 106.19467510282993 11.005966782569883 25.585062623023987
leaf_count=1129 660 1178 233 465 486 46 125
internal_value=0 0.0142952 -0.0048378 0.0164289 -0.00805405 0.00723155 0.00520096
internal_weight=0 1057.89 392.629 812.469 297.36 245.425 95.269
internal_count=4322 2349 1973 1643 1615 706 358
is_linear=0
shrinkage=0.0123512


Tree=37
num_leaves=8
num_cat=0
split_feature=21 123 24 115 40 75 60
split_gain=668.33 102.126 79.8676 66.4104 61.0181 41.5129 33.7623
threshold=-0.44909113058436206 -0.61657880947528687 0.54654931987183253 0.23648258938753261 -0.32289224154943913 0.25168268543055861 1.3610110360831515
decision_type=2 2 2 2 2 2 2
left_child=2 4 6 -3 -2 -4 -1
right_child=1 3 5 -5 -6 -7 -8
leaf_value=-0.011075735230716782 0.017478168436330752 0.0031339004060966721 0.0061181798425250407 0.014093541138358564 -0.00015063998364556029 -0.0071914834879306701 0.00491161461612086
leaf_weight=205.88713662326336 690.94201712310314 172.76352295279503 110.30751171708107 164.80707930028439 31.309788107872009 52.890616863965988 22.337377369403839
leaf_count=1211 1314 535 407 379 121 264 91
internal_value=0 0.0140928 -0.00479308 0.00848456 0.016714 0.00180467 -0.00951098
internal_weight=0 1059.82 391.423 337.571 722.252 163.198 228.225
internal_count=4322 2349 1973 914 1435 671 1302
is_linear=0
shrinkage=0.0123512


Tree=38
num_leaves=8
num_cat=0
split_feature=21 46 80 40 28 24 142
split_gain=628.736 96.7626 94.9636 73.3035 37.8823 30.2389 23.316
threshold=-0.44650754219439176 -0.25610271614869706 1.3019471332361676 -0.31004176460856497 3.3518931587680139 0.54654931987183253 -0.012325517472316406
decision_type=2 2 2 2 2 2 2
left_child=2 3 5 -2 -4 -1 -3
right_child=1 6 4 -5 -6 -7 -8
leaf_value=-0.010909322735551799 0.016332684004243522 0.0063302165139880228 0.007667413573442616 8.0438690415818949e-05 -0.015833813875853822 -0.002445793151493173 -0.0083696063796451937
leaf_weight=184.89719121158123 865.594577267766 110.51880012452602 104.23915095627308 44.514008015394211 11.63095587491989 98.817632511258125 19.341526180505753
leaf_count=1101 1682 343 366 179 68 466 81
internal_value=0 0.0141146 -0.00411354 0.0155378 0.00530838 -0.00796148 0.00414081
internal_weight=0 1039.97 399.585 910.109 115.87 283.715 129.86
internal_count=4286 2285 2001 1861 434 1567 424
is_linear=0
shrinkage=0.0123512


Tree=39
num_leaves=8
num_cat=0
split_feature=21 77 46 40 28 24 121
split_gain=611.796 95.7334 94.2316 71.3022 37.7552 28.4251 23.7504
threshold=-0.44650754219439176 1.2975745894576656 -0.25610271614869706 -0.31004176460856497 3.3518931587680139 0.54654931987183253 -0.27589129781051069
decision_type=2 2 2 2 2 2 2
left_child=1 5 3 -2 -3 -1 -4
right_child=2 4 6 -5 -6 -7 -8
leaf_value=-0.010847971515987653 0.016107466638743812 0.0076196771931955603 0.0069670688656416025 7.9442177567912186e-05 -0.015774372412109987 -0.0025938465487300023 -0.0055830959434971161
leaf_weight=183.65178509056568 866.84884567558765 105.74531699717045 100.15631507337093 44.515532404184341 11.687271550297735 97.404013082385063 29.861982449889183
leaf_count=1100 1682 370 304 179 69 462 120
internal_value=0 -0.00407418 0.0139213 0.0153246 0.00529143 -0.00798738 0.00408461
internal_weight=0 398.488 1041.38 911.364 117.433 281.056 130.018
internal_count=4286 2001 2285 1861 439 1562 424
is_linear=0
shrinkage=0.0123512


Tree=40
num_leaves=8
num_cat=0
split_feature=22 60 25 46 96 122 77
split_gain=604.586 104.301 73.7359 64.6176 42.9624 37.6665 32.9098
threshold=-0.53729928193302035 -0.63744223037154391 1.0710303435707151 -0.25610271614869706 -0.3945532089029683 -0.8299121355927187 0.24091775344623365
decision_type=2 2 2 2 2 2 2
left_child=2 5 4 -3 -1 -2 -4
right_child=1 3 6 -5 -6 -7 -8
leaf_value=-0.011047880699416533 0.014330847962310154 0.016964709678069789 -0.0073258058176268528 0.0055684510078425316 0.00081087220892543199 0.0036454054277749565 0.0071239492635163659
leaf_weight=199.01242457330227 69.766375124454498 715.89437410235405 32.66276441514492 84.902297914028168 60.856118857860565 180.60406404733658 91.133865088224411
leaf_count=1187 155 1329 161 266 283 572 319
internal_value=0 0.013581 -0.00453355 0.0157565 -0.00827079 0.00662293 0.0033115
internal_weight=0 1051.17 383.665 800.797 259.869 250.37 123.797
internal_count=4272 2322 1950 1595 1470 727 480
is_linear=0
shrinkage=0.0123512


Tree=41
num_leaves=8
num_cat=0
split_feature=21 46 27 100 147 40 67
split_gain=600.304 95.1502 72.1972 50.4392 44.3717 38.4371 29.2335
threshold=-0.40646192214985272 -0.34163240703955278 1.0000000180025095e-35 1.0671806951217013 0.72263737292283625 -0.31004176460856497 2.4929745194803705
decision_type=2 2 2 2 2 2 2
left_child=2 3 5 -2 -3 -1 -4
right_child=1 4 6 -5 -6 -7 -8
leaf_value=0.0038099637204550185 0.016288130775345196 0.0070936723370535288 -0.011018247158134971 -0.00085991232330807487 -0.017164757678144908 -0.0063633211311691761 0.0043651853331116213
leaf_weight=196.67245802283287 800.37112791836262 139.2872496843338 158.00678363442421 27.051767691969872 12.538159027695654 79.581880047917366 21.396818354725838
leaf_count=750 1510 412 952 81 63 412 92
internal_value=0 0.0140783 -0.00308268 0.0157275 0.00509034 0.000879298 -0.00918352
internal_weight=0 979.248 455.658 827.423 151.825 276.254 179.404
internal_count=4272 2066 2206 1591 475 1162 1044
is_linear=0
shrinkage=0.0123512


Tree=42
num_leaves=8
num_cat=0
split_feature=23 60 77 122 8 24 28
split_gain=556.82 86.9627 78.1232 51.4401 41.7191 40.2724 29.7873
threshold=-0.59421864819809056 0.76245229490784527 1.2543655738586852 -0.77597199855032928 -0.69691320251813094 0.54654931987183253 3.3518931587680139
decision_type=2 2 2 2 2 2 2
left_child=2 3 5 -2 -3 -1 -4
right_child=1 4 6 -5 -6 -7 -8
leaf_value=-0.011934656414641649 0.013402323096677033 0.019006127978547647 0.0058507446191769074 0.0052479242623632242 0.012236650654117671 -0.0018302149188980121 -0.015665809231760738
leaf_weight=164.06453874707222 225.49701705574989 344.5915215164423 107.4775430560112 247.59587751328945 232.64473713934422 95.024913728237152 10.801835283637045
leaf_count=1022 508 573 389 746 507 449 65
internal_value=0 0.0130604 -0.00443165 0.00913467 0.0162778 -0.0082287 0.00388575
internal_weight=0 1050.33 377.369 473.093 577.236 259.089 118.279
internal_count=4259 2334 1925 1254 1080 1471 454
is_linear=0
shrinkage=0.0123512


Tree=43
num_leaves=8
num_cat=0
split_feature=21 123 77 49 60 27 101
split_gain=549.803 87.6106 72.2714 71.1248 32.7216 32.3236 23.6299
threshold=-0.44392395380442157 -0.77368402171979433 1.2543655738586852 -0.34809131432804136 0.69587790430773477 0.14612459754109827 2.4090816519269653
decision_type=2 2 2 2 2 2 2
left_child=2 4 5 -3 -2 -1 -4
right_child=1 3 6 -5 -6 -7 -8
leaf_value=-0.0038985045560766055 0.012642329908304514 0.0014676414478136974 0.0059085226458835804 0.012264774756193234 0.018376186299065869 -0.012498689960400072 -0.010827931302712443
leaf_weight=149.18364292383194 262.9534697830677 140.15241524577141 103.7466958463192 277.07367789745331 359.2859964966774 120.53551769256592 14.691720113158224
leaf_count=756 591 488 371 599 607 764 83
internal_value=0 0.0130169 -0.0042102 0.00863786 0.0159531 -0.00774186 0.00383245
internal_weight=0 1039.47 388.158 417.226 622.239 269.719 118.438
internal_count=4259 2285 1974 1087 1198 1520 454
is_linear=0
shrinkage=0.0123512


Tree=44
num_leaves=8
num_cat=0
split_feature=21 123 24 69 126 1 60
split_gain=529.556 91.8692 80.2382 70.6716 42.9272 35.5943 35.396
threshold=-0.44909113058436206 -0.77368402171979433 0.54654931987183253 0.10464399882582771 -0.25377002147487188 0.95856203591105249 0.17122284444080829
decision_type=2 2 2 2 2 2 2
left_child=2 6 5 -3 -4 -1 -2
right_child=1 3 4 -5 -6 -7 -8
leaf_value=-0.011513008702736615 0.011425239044088962 0.0036758931429044929 0.0069456509132732221 0.01377557622682472 -0.0062774433083175136 0.00022913722920590878 0.017865763549350353
leaf_weight=167.14543981850147 182.36205673217773 216.8586041033268 113.41604515910149 206.1858929246664 55.91883485019207 51.522431656718254 454.8961214274168
leaf_count=1049 430 653 407 449 280 238 788
internal_value=0 0.0130605 -0.00380363 0.00859834 0.00257904 -0.00874633 0.0160227
internal_weight=0 1060.3 388.003 423.044 169.335 218.668 637.258
internal_count=4294 2320 1974 1102 687 1287 1218
is_linear=0
shrinkage=0.0123512


Tree=45
num_leaves=8
num_cat=0
split_feature=21 123 64 64 60 108 25
split_gain=515.63 89.7289 82.729 70.891 34.725 33.0985 32.3887
threshold=-0.44909113058436206 -0.77368402171979433 1.2073600203503283 0.71870808122859775 0.17122284444080829 1.7279161523433821 0.1425127957775075
decision_type=2 2 2 2 2 2 2
left_child=2 4 6 -3 -2 -4 -1
right_child=1 3 5 -5 -6 -7 -8
leaf_value=-0.01032993542896788 0.011266391815461853 0.0031282385354468854 0.013383892116499372 0.01325110369236848 0.017641855250130449 -0.0012145212958598174 -0.0019098156769799229
leaf_weight=177.32236060500145 182.64726690948009 199.55739787220955 48.53093609213829 224.00057642161846 454.97917813062668 46.293276786804199 114.81610514223576
leaf_count=1092 430 631 149 471 788 196 537
internal_value=0 0.0128884 -0.00376702 0.00848176 0.0158156 0.00625693 -0.00702066
internal_weight=0 1061.18 386.963 423.558 637.626 94.8242 292.138
internal_count=4294 2320 1974 1102 1218 345 1629
is_linear=0
shrinkage=0.0123512


Tree=46
num_leaves=8
num_cat=0
split_feature=21 46 28 132 147 80 40
split_gain=522.6 81.1915 61.785 48.8976 48.3549 36.6283 35.6859
threshold=-0.40775371634483781 -0.34235142496884052 -0.44019950749804754 0.59977595190569943 0.69547221135830151 1.3322164038487381 -0.32376232592564419
decision_type=2 2 2 2 2 2 2
left_child=2 3 6 -2 -3 -4 -1
right_child=1 4 5 -5 -6 -7 -8
leaf_value=0.003865607399205895 0.016131185930128779 0.0076661279620224877 -0.011719465705760266 0.0067567188593790177 -0.015166597004418565 0.0010425654514562806 -0.0059412744664052754
leaf_weight=196.85771630704403 723.80914035439491 145.83496859669685 128.90646274387836 96.158261150121689 15.670011833310125 46.750804275274277 79.450256645679474
leaf_count=747 1326 418 830 237 75 211 411
internal_value=0 0.0134552 -0.00259541 0.0150318 0.00545078 -0.00832288 0.00104571
internal_weight=0 981.472 451.965 819.967 161.505 175.657 276.308
internal_count=4255 2056 2199 1563 493 1041 1158
is_linear=0
shrinkage=0.0123512


Tree=47
num_leaves=8
num_cat=0
split_feature=21 60 131 103 46 122 33
split_gain=509.7 79.2182 62.772 54.7677 47.3051 34.6109 14.1679
threshold=-0.44650754219439176 -0.63744223037154391 -0.46104403151860579 -0.2496863893353676 1.6992414605285255 -0.8299121355927187 1.8892735719414848
decision_type=2 2 2 2 2 2 2
left_child=2 5 6 -3 -4 -2 -1
right_child=1 3 4 -5 -6 -7 -8
leaf_value=-0.0098424590024731497 0.014022958533816098 0.015727597257409992 0.0043810586025802766 0.0049525691158622221 -0.0099010693616591299 0.0038449657637470826 0.004914538083340237
leaf_weight=176.89144338667393 70.903242319822311 718.006561383605 149.02783590555191 79.978717014193535 46.392097264528275 181.29339654743671 10.514939829707144
leaf_count=1061 152 1360 584 217 278 556 47
internal_value=0 0.0127406 -0.00390726 0.0146477 0.000990525 0.00670643 -0.00901448
internal_weight=0 1050.18 382.826 797.985 195.42 252.197 187.406
internal_count=4255 2285 1970 1577 862 708 1108
is_linear=0
shrinkage=0.0123512


Tree=48
num_leaves=8
num_cat=0
split_feature=21 60 24 123 85 81 131
split_gain=485.044 83.1768 70.4623 52.9912 40.7828 32.8048 21.667
threshold=-0.44650754219439176 0.76245229490784527 1.9502997386237377 -1.0093418400865555 0.1960061582464144 -0.046585440415058257 -0.18087733423528116
decision_type=2 2 2 2 2 2 2
left_child=2 3 5 -2 -3 -1 -4
right_child=1 4 6 -5 -6 -7 -8
leaf_value=-0.0097463027073208808 0.01388190276567107 0.016356052168965369 -0.0073853850192811196 0.0051321981857418968 0.0058047664761144892 0.00095621397917581229 0.0067777605189987319
leaf_weight=213.62800443172455 163.56520827114582 526.47356881201267 20.180160805583 297.92894543707371 62.520187646150589 54.923000887036324 89.814216509461403
leaf_count=1287 338 941 97 872 154 271 305
internal_value=0 0.0121597 -0.0041471 0.00823331 0.0152361 -0.00755747 0.00417931
internal_weight=0 1050.49 378.545 461.494 588.994 268.551 109.994
internal_count=4265 2305 1960 1210 1095 1558 402
is_linear=0
shrinkage=0.0123512


Tree=49
num_leaves=8
num_cat=0
split_feature=22 97 24 85 81 46 130
split_gain=465.791 85.0785 69.8951 51.5167 33.3 24.2801 21.6524
threshold=-0.53729928193302035 -0.60699504904008672 1.9502997386237377 0.29767481674825685 -0.046585440415058257 0.51269466373182537 -0.24693357156913701
decision_type=2 2 2 2 2 2 2
left_child=2 5 4 -3 -1 -2 -4
right_child=1 3 6 -5 -6 -7 -8
leaf_value=-0.0098713394582861155 0.006794955469143155 0.014863613236726471 -0.0074023703331056187 0.003477766511904329 0.00094389992713316505 -0.0080744816800595708 0.0067238540236566838
leaf_weight=207.13327631354332 239.0236588716507 733.03121216595173 20.290507733821869 66.088646948337555 54.952120169997215 18.015248715877533 89.860369876027107
leaf_count=1262 667 1410 98 180 271 73 304
internal_value=0 0.0119338 -0.00413394 0.013922 -0.00760368 0.00575279 0.00412171
internal_weight=0 1056.16 372.236 799.12 262.085 257.039 110.151
internal_count=4265 2330 1935 1590 1533 740 402
is_linear=0
shrinkage=0.0123512


Tree=50
num_leaves=8
num_cat=0
split_feature=21 123 48 81 60 96 101
split_gain=455.306 81.9079 75.4522 58.0254 30.0464 28.7992 28.1329
threshold=-0.44909113058436206 -0.77368402171979433 1.0644282866706749 1.1383608034704595 0.69587790430773477 -0.3945532089029683 2.4090816519269653
decision_type=2 2 2 2 2 2 2
left_child=2 4 5 -3 -2 -1 -4
right_child=1 3 6 -5 -6 -7 -8
leaf_value=-0.010541568154508664 0.011429965490036194 0.0039768619838227836 0.0052100594183705703 0.013352949669368321 0.016864623464874051 -0.00035231377811120637 -0.013219278894534271
leaf_weight=186.30772057175636 271.00609451532364 264.57921256124973 121.40624950826168 162.55692771077156 363.14764946699142 54.753550052642822 14.104136094450949
leaf_count=1163 607 783 441 330 618 273 82
internal_value=0 0.0117261 -0.00408204 0.00754516 0.0145421 -0.00822723 0.0032919
internal_weight=0 1061.29 376.572 427.136 634.154 241.061 135.51
internal_count=4297 2338 1959 1113 1225 1436 523
is_linear=0
shrinkage=0.0123512


Tree=51
num_leaves=8
num_cat=0
split_feature=21 80 46 40 147 24 28
split_gain=443.739 78.0813 69.5155 77.4554 45.0565 35.6064 29.9243
threshold=-0.44909113058436206 1.257664311414074 -0.34235142496884052 -0.31847489010101365 0.72263737292283625 0.37357533462278258 3.3518931587680139
decision_type=2 2 2 2 2 2 2
left_child=1 5 3 -2 -4 -1 -3
right_child=2 6 4 -5 -6 -7 -8
leaf_value=-0.011564615773791722 0.013769643429103796 0.0060203024205440709 0.0060629230934959458 -0.0023054605091714338 -0.017498753738979335 -0.0020468082008868595 -0.015562775355988672
leaf_weight=157.23522591590881 853.5511392056942 110.59278844296932 146.14151307940483 48.314349368214607 13.527332454919813 96.923856690526009 10.752611994743345
leaf_count=1032 1650 394 424 197 67 467 66
internal_value=0 -0.00404333 0.0115786 0.0129085 0.00406675 -0.00793499 0.00410779
internal_weight=0 375.504 1061.53 901.865 159.669 254.159 121.345
internal_count=4297 1959 2338 1847 491 1499 460
is_linear=0
shrinkage=0.0123512


Tree=52
num_leaves=8
num_cat=0
split_feature=21 133 45 77 2 114 145
split_gain=444.608 72.2101 60.5629 50.6354 57.0793 32.4752 30.3248
threshold=-0.40775371634483781 1.0000000180025095e-35 1.3102706235895745 1.2975745894576656 -1.0045117721966572 -0.16159321935013349 2.8986139195947094
decision_type=2 2 2 2 2 2 2
left_child=3 2 -2 4 -1 -3 -5
right_child=1 5 -4 6 -6 -7 -8
leaf_value=0.010207874537276309 0.014672235560847614 0.00152821447765137 -0.0015373195099600649 0.0070758701924729496 -0.0069654965164340915 0.010817510206926159 -0.0095898098880088795
leaf_weight=32.784157067537308 725.56148111820221 119.50350211560726 36.953770458698273 96.691392287611961 296.97638890147209 110.49898914992809 20.122282713651657
leaf_count=81 1369 349 124 337 1690 251 99
internal_value=0 0.012057 0.0138867 -0.0027828 -0.00525815 0.00599103 0.00420505
internal_weight=0 992.518 762.515 446.574 329.761 230.002 116.814
internal_count=4300 2093 1493 2207 1771 600 436
is_linear=0
shrinkage=0.0123512


Tree=53
num_leaves=8
num_cat=0
split_feature=21 46 64 7 0 147 100
split_gain=433.41 95.2926 52.5039 53.5654 52.1514 42.1359 34.716
threshold=-0.40775371634483781 -0.34235142496884052 1.2073600203503283 -1.0045117721966572 0.89194715571564132 0.69547221135830151 2.5031487210492682
decision_type=2 2 2 2 2 2 2
left_child=2 4 3 -1 -2 -3 -4
right_child=1 5 6 -5 -6 -7 -8
leaf_value=0.010065444550128045 0.01423501668847074 0.0050361297043329317 0.0097945709505410112 -0.0065033441362872145 -0.00039663187063018068 -0.017464891402556023 -0.0073895570711111427
leaf_weight=32.837079614400864 798.5984710007906 140.98592737317085 70.423725113272667 318.28611558675766 38.975765153765678 13.952465385198591 24.062733948230743
leaf_count=81 1502 413 225 1781 109 69 120
internal_value=0 0.0119081 -0.00275453 -0.00495383 0.0135541 0.00300987 0.00541831
internal_weight=0 992.513 445.61 351.123 837.574 154.938 94.4865
internal_count=4300 2093 2207 1862 1611 482 345
is_linear=0
shrinkage=0.0123512


Tree=54
num_leaves=8
num_cat=0
split_feature=21 60 64 103 24 108 123
split_gain=421.11 73.2472 66.8949 48.8574 35.8281 32.4592 31.2266
threshold=-0.45555010155928771 -0.63744223037154391 1.2223862177402953 -0.2496863893353676 0.54654931987183253 1.7279161523433821 0.16894725174725053
decision_type=2 2 2 2 2 2 2
left_child=2 6 4 -3 -1 -4 -2
right_child=1 3 5 -5 -6 -7 -8
leaf_value=-0.01045949568668534 0.0076285882394650523 0.014371363795420778 0.012684407250153931 0.0041948283169286884 -0.0013373398328342784 -0.0021845661071323462 -0.0043021232106275785
leaf_weight=168.04310530424118 226.07999549806118 718.75942450761795 45.646016389131546 79.978094086050987 107.82924871146679 43.974327176809311 39.281429409980774
leaf_count=1100 613 1368 139 215 500 188 136
internal_value=0 0.0114846 -0.00388222 0.0133524 -0.00689395 0.0053886 0.00586249
internal_weight=0 1064.1 365.493 798.738 275.872 89.6203 265.361
internal_count=4259 2332 1927 1583 1600 327 749
is_linear=0
shrinkage=0.0123512


Tree=55
num_leaves=8
num_cat=0
split_feature=21 96 80 0 145 123 25
split_gain=410.467 71.6543 65.7816 48.3414 33.9783 30.4119 24.5617
threshold=-0.45555010155928771 -0.57417237261252529 1.257664311414074 -0.65617319333264967 2.8266780777180611 0.16894725174725053 0.1425127957775075
decision_type=2 2 2 2 2 2 2
left_child=2 5 6 -3 -4 -2 -1
right_child=1 3 4 -5 -6 -7 -8
leaf_value=-0.010587144287155213 0.0075246771158867121 0.015430198882634845 0.0069118337801289433 0.0090676303575891338 -0.010148729133659438 -0.0042531942394873311 -0.0025948538332935655
leaf_weight=150.5115504860878 226.36927776038647 517.42158959805965 95.970917254686356 281.15598253905773 21.866473063826561 39.242811188101768 96.120204672217369
leaf_count=1001 613 932 340 651 109 136 477
internal_value=0 0.0113418 -0.00384528 0.0131901 0.00374599 0.00578456 -0.0074723
internal_weight=0 1064.19 364.469 798.578 117.837 265.612 246.632
internal_count=4259 2332 1927 1583 449 749 1478
is_linear=0
shrinkage=0.0123512


Tree=56
num_leaves=8
num_cat=0
split_feature=22 96 24 46 73 75 57
split_gain=402.242 81.7958 62.9124 59.2246 29.0329 27.3472 26.4064
threshold=-0.53729928193302035 -0.57417237261252529 0.54654931987183253 -0.25610271614869706 1.4942813566655717 0.25168268543055861 1.2607798033409352
decision_type=2 2 2 2 2 2 2
left_child=2 6 4 -3 -1 -4 -2
right_child=1 3 5 -5 -6 -7 -8
leaf_value=-0.010449265223722777 0.0029176924925135243 0.013950243429999516 0.0050725902802100627 0.0030205951970806643 0.0041302809274423365 -0.0058885056855005682 0.01324565104736904
leaf_weight=181.13766945898533 211.01182417571545 708.61562079191208 108.69378711283207 84.66981303691864 23.544730290770531 51.023967400193214 45.998591288924217
leaf_count=1180 645 1321 396 261 105 262 93
internal_value=0 0.0108218 -0.00423876 0.0127837 -0.00877217 0.00157092 0.00476615
internal_weight=0 1050.3 364.4 793.285 204.682 159.718 257.01
internal_count=4263 2320 1943 1582 1285 658 738
is_linear=0
shrinkage=0.0123512


Tree=57
num_leaves=8
num_cat=0
split_feature=23 60 24 85 67 57 132
split_gain=390.488 81.5597 62.6011 55.9922 34.4479 25.9995 24.8181
threshold=-0.59421864819809056 -0.63744223037154391 0.54654931987183253 0.29767481674825685 2.8842352704073555 1.2607798033409352 0.7117750987800826
decision_type=2 2 2 2 2 2 2
left_child=2 5 4 -3 -1 -2 -4
right_child=1 3 6 -5 -6 -7 -8
leaf_value=-0.010082000278547981 0.0028400860622888394 0.013609591386018225 0.0044544930137868713 0.0015991436769574553 0.011638567649551878 0.013075567382433123 -0.006610093074449503
leaf_weight=189.38004957139492 213.45758244395256 728.37082651257515 117.8461107313633 64.454646468162537 11.83496157824993 46.021254077553749 41.928654655814171
leaf_count=1229 655 1404 449 178 46 93 209
internal_value=0 0.010666 -0.00422116 0.0126332 -0.00880445 0.00465545 0.00155089
internal_weight=0 1052.3 360.99 792.825 201.215 259.479 159.775
internal_count=4263 2330 1933 1582 1275 748 658
is_linear=0
shrinkage=0.0123512


Tree=58
num_leaves=8
num_cat=0
split_feature=21 123 130 64 25 81 69
split_gain=368.777 77.5115 63.856 54.7129 40.1592 29.4937 21.3246
threshold=-0.44909113058436206 -0.69513141559754066 -0.47105666940259888 0.70308083594303217 -0.18116668583638632 0.76790918827677657 -0.018639746644154947
decision_type=2 2 2 2 2 2 2
left_child=2 5 6 -3 -4 -2 -1
right_child=1 3 4 -5 -6 -7 -8
leaf_value=-0.010278624395541613 0.010392091380597228 0.0013386636338658831 -0.0051240776681765639 0.010764247983120994 0.0061167183340574546 0.015588117722613716 0.00463092628926397
leaf_weight=157.9915187805891 293.20576883852482 176.1969431489706 84.182406052947044 201.26505716145039 114.34077733755112 386.0994108915329 16.128178685903549
leaf_count=1017 659 559 475 428 405 667 75
internal_value=0 0.0108519 -0.00343818 0.00636444 0.00135014 0.0133454 -0.0088976
internal_weight=0 1056.77 372.643 377.462 198.523 679.305 174.12
internal_count=4285 2313 1972 987 880 1326 1092
is_linear=0
shrinkage=0.0123512


Tree=59
num_leaves=8
num_cat=0
split_feature=21 81 24 0 85 131 67
split_gain=359.668 70.9201 66.4329 41.2173 40.3547 31.3525 28.6665
threshold=-0.44909113058436206 0.76790918827677657 0.90413977014631086 -0.9006132484455377 0.29767481674825685 -0.46104403151860579 2.4929745194803705
decision_type=2 2 2 2 2 2 2
left_child=2 4 6 -3 -2 -4 -1
right_child=1 3 5 -5 -6 -7 -8
leaf_value=-0.0095686453412071361 0.0083324339983918624 0.016916076238479405 -0.005897806094576818 0.010376914254911581 -0.0038359024581550282 0.006029235619779522 0.0052993355750753967
leaf_weight=187.38567894697189 421.78595170378685 287.85066778957844 47.581775039434433 300.61349274218082 46.123365372419357 114.60339955985546 22.118038818240166
leaf_count=1227 1038 470 246 637 168 405 94
internal_value=0 0.0107219 -0.00340466 0.0135756 0.00713296 0.00253009 -0.00799898
internal_weight=0 1056.37 371.689 588.464 467.909 162.185 209.504
internal_count=4285 2313 1972 1107 1206 651 1321
is_linear=0
shrinkage=0.0123512


Tree=60
num_leaves=8
num_cat=0
split_feature=22 24 123 81 57 75 60
split_gain=347.148 77.8636 71.2074 53.5326 39.0818 36.6471 34.5163
threshold=-0.53729928193302035 0.54654931987183253 -0.77368402171979433 1.1383608034704595 1.9232795751624383 0.25168268543055861 0.69587790430773477
decision_type=2 2 2 2 2 2 2
left_child=1 4 6 -4 -1 -3 -2
right_child=2 5 3 -5 -6 -7 -8
leaf_value=-0.0097857844347674014 0.0096663180060475567 0.0063292971292874239 0.0030470739449393438 0.012073384853880795 0.023704823121205709 -0.0063119614531496849 0.015471368954771627
leaf_weight=193.03152507543564 277.13497683405876 117.69606204330921 268.03884267807007 160.10804748535156 5.4660710394382468 49.78248056769371 358.23490016162395
leaf_count=1259 629 414 788 323 16 260 614
internal_value=0 -0.00363052 0.0103158 0.00642252 -0.00886355 0.00257172 0.0129393
internal_weight=0 365.976 1063.52 428.147 198.498 167.479 635.37
internal_count=4303 1949 2354 1111 1275 674 1243
is_linear=0
shrinkage=0.0123512


Tree=61
num_leaves=8
num_cat=0
split_feature=193 24 123 81 57 60 126
split_gain=334.506 75.6239 68.6472 52.2577 37.9697 35.3916 33.3577
threshold=1.0000000180025095e-35 0.54654931987183253 -0.77368402171979433 1.1383608034704595 1.9232795751624383 0.69587790430773477 -0.25377002147487188
decision_type=2 2 2 2 2 2 2
left_child=1 4 5 -4 -1 -2 -3
right_child=2 6 3 -5 -6 -7 -8
leaf_value=-0.0096841352689207329 0.0094361299372600765 0.0061826129852065913 0.0030079319811745458 0.011925585493490135 0.023159894706638068 0.015309361795504323 -0.0057932645750341932
leaf_weight=190.69429707527161 278.37523171305656 116.59196405112743 268.17228431999683 160.09040042757988 5.525206431746482 357.55853796005249 51.002756133675575
leaf_count=1253 635 408 788 323 16 614 266
internal_value=0 -0.00355504 0.0101641 0.00634147 -0.0087593 0.0127384 0.00253809
internal_weight=0 363.814 1064.2 428.263 196.22 635.934 167.595
internal_count=4303 1943 2360 1111 1269 1249 674
is_linear=0
shrinkage=0.0123512


Tree=62
num_leaves=8
num_cat=0
split_feature=21 47 92 147 132 47 23
split_gain=353.3 73.4358 47.8132 47.4721 45.9123 44.8871 8.70815
threshold=-0.40646192214985272 -0.37124303798347752 0.014767425985510145 0.59586661895500714 1.8619954974249155 0.56197618180647557 0.28612378583705794
decision_type=2 2 2 2 2 2 2
left_child=2 4 5 -3 -2 -1 -4
right_child=1 3 6 -5 -6 -7 -8
leaf_value=0.0029971894249770877 0.013032693817820594 0.0057757916393719605 -0.011225968576477556 -0.015852838282074438 -0.0015090047946629969 -0.006661834773831545 -0.00076746231466250613
leaf_weight=221.65336591005325 783.85895422101021 165.12068769335747 89.689435392618179 17.082667872309685 34.583510994911194 109.73233023285866 14.047490790486334
leaf_count=858 1481 453 623 80 97 654 62
internal_value=0 0.0108395 -0.00249197 0.00374798 0.0124182 -0.00020122 -0.00980973
internal_weight=0 1000.65 435.123 182.203 818.442 331.386 103.737
internal_count=4308 2111 2197 533 1578 1512 685
is_linear=0
shrinkage=0.0123512


Tree=63
num_leaves=8
num_cat=0
split_feature=21 46 52 132 47 90 23
split_gain=344.769 75.9316 47.0209 44.3216 43.8971 28.5668 8.61886
threshold=-0.40646192214985272 -0.34235142496884052 0.014767425985510145 1.8619954974249155 0.56197618180647557 0.2402022163685697 0.28612378583705794
decision_type=2 2 2 2 2 2 2
left_child=2 3 4 -2 -1 -3 -4
right_child=1 5 6 -5 -6 -7 -8
leaf_value=0.0029567012120812852 0.012789555378433848 0.0050898136953743851 -0.011169919565351646 -0.0014904410765828487 -0.0066062365379753376 -0.0096326562466573108 -0.00075826908128559165
leaf_weight=221.9118238389492 804.95418664813042 136.77628412842751 89.030244380235672 34.581797048449516 109.29184746742249 23.570539742708206 14.042217791080473
leaf_count=858 1527 394 623 97 654 93 62
internal_value=0 0.0107138 -0.00246615 0.0122013 -0.000198913 0.00292565 -0.00975147
internal_weight=0 999.883 434.276 839.536 331.204 160.347 103.072
internal_count=4308 2111 2197 1624 1512 487 685
is_linear=0
shrinkage=0.0123512


Tree=64
num_leaves=8
num_cat=0
split_feature=21 64 123 81 145 115 60
split_gain=334.876 67.7106 63.9571 49.5725 35.6576 34.6668 28.0527
threshold=-0.44909113058436206 1.2073600203503283 -0.77368402171979433 1.0055220929717146 2.8986139195947094 1.7226029987000693 0.69587790430773477
decision_type=2 2 2 2 2 2 2
left_child=1 5 6 -4 -3 -1 -2
right_child=2 4 3 -5 -6 -7 -8
leaf_value=-0.0082570408038435666 0.0097686505753273555 0.0088803850062902697 0.0028879541692428926 0.011359644269258937 -0.010659474033712783 0.0057350244643811629 0.015054920755351291
leaf_weight=237.87449839711189 269.28242030739784 79.506442680954933 241.85992440581322 186.71839232742786 17.357592776417732 30.473414063453674 355.07629598677158
leaf_count=1477 602 263 719 379 86 144 610
internal_value=0 -0.00347291 0.0102529 0.00657881 0.00537893 -0.00666811 0.012775
internal_weight=0 365.212 1052.94 428.578 96.864 268.348 624.359
internal_count=4280 1970 2310 1098 349 1621 1212
is_linear=0
shrinkage=0.0123512


Tree=65
num_leaves=8
num_cat=0
split_feature=21 81 48 132 158 145 114
split_gain=326.741 62.7455 61.143 54.7343 34.8143 29.3104 26.3934
threshold=-0.44909113058436206 -0.16133812929660304 1.0644282866706749 -0.15918173866829019 -0.40867342853867134 2.8986139195947094 1.4530102733127339
decision_type=2 2 2 2 2 2 2
left_child=2 4 6 -3 -2 -4 -1
right_child=1 3 5 -5 -6 -7 -8
leaf_value=-0.0085110922160339195 0.011987638098388756 0.013964721713989962 0.005558857135951974 0.0066463931910391953 0.002284358301230657 -0.010067127293220573 0.0081417260724122968
leaf_weight=211.64732818305492 79.123469814658165 560.68497130274773 115.28168551623821 215.95039594173431 196.48164936900139 21.770717993378639 15.588460966944693
leaf_count=1368 170 1040 415 520 580 110 77
internal_value=0 0.0101331 -0.00343895 0.0119298 0.00507007 0.00307668 -0.0073687
internal_weight=0 1052.24 364.288 776.635 275.605 137.052 227.236
internal_count=4280 2310 1970 1560 750 525 1445
is_linear=0
shrinkage=0.0123512


Tree=66
num_leaves=8
num_cat=0
split_feature=21 123 52 69 101 45 9
split_gain=300.238 69.3814 54.0771 47.2075 34.6202 33.8733 7.29265
threshold=-0.37222937598274669 -0.65585511253641371 0.014767425985510145 0.10464399882582771 2.4090816519269653 1.0542650696114626 0.99483471894675335
decision_type=2 2 2 2 2 2 2
left_child=2 5 4 -3 -1 -2 -4
right_child=1 3 6 -5 -6 -7 -8
leaf_value=0.0013433331431311453 0.01336147468523864 0.00089014028081273004 -0.012240302548074428 0.010043734928867667 -0.012735679267959869 0.0036694855920215244 -0.0049706808537846011
leaf_weight=308.98781800270081 576.99829025566578 168.66027815639973 72.422378987073898 175.26835197210312 29.158717408776283 60.808888584375381 29.678168699145317
leaf_count=1345 1060 487 487 389 192 160 197
internal_value=0 0.0100263 -0.00224936 0.00555487 0.000129286 0.0124374 -0.0101272
internal_weight=0 981.736 440.247 343.929 338.147 637.807 102.101
internal_count=4317 2096 2221 876 1537 1220 684
is_linear=0
shrinkage=0.0123512


Tree=67
num_leaves=8
num_cat=0
split_feature=21 46 40 147 8 75 23
split_gain=293.079 70.1928 53.1585 49.7499 44.0956 32.5464 8.34326
threshold=-0.37222937598274669 -0.34163240703955278 0.014767425985510145 0.59586661895500714 -0.77839322088909368 0.25168268543055861 0.03459737611272979
decision_type=2 2 2 2 2 2 2
left_child=2 4 5 -3 -2 -1 -4
right_child=1 3 6 -5 -6 -7 -8
leaf_value=0.002214795602147053 0.013737959586834535 0.0049821622279815833 -0.011724539287553647 -0.016191551030312546 0.0079033591733188215 -0.0069083781411122007 -0.0025002589682957869
leaf_weight=260.74994389712811 487.88874147832394 141.61833260953426 83.216020211577415 19.226795256137848 332.11400949954987 77.348103597760201 18.23676709830761
leaf_count=1085 874 399 602 90 733 452 82
internal_value=0 0.00991149 -0.00222524 0.00245114 0.0113749 0.000127649 -0.0100664
internal_weight=0 980.848 439.551 160.845 820.003 338.098 101.453
internal_count=4317 2096 2221 489 1607 1537 684
is_linear=0
shrinkage=0.0123512


Tree=68
num_leaves=8
num_cat=0
split_feature=21 46 27 22 30 147 27
split_gain=284.817 73.7746 53.8052 44.7908 33.846 31.0402 25.9921
threshold=-0.40646192214985272 -0.28347556150320946 1.0000000180025095e-35 1.6860387151948408 1.4270264094018634 0.72263737292283625 2.4747861918419809
decision_type=2 2 2 2 2 2 2
left_child=2 3 4 -2 -1 -3 -4
right_child=1 5 6 -5 -6 -7 -8
leaf_value=-0.00049793300568229198 0.012679672685216891 0.0035801346153480893 -0.011221679588673764 0.0051948403229704846 0.011976296224998273 -0.017088067324828374 -0.0006073693772948532
leaf_weight=233.84900389611721 693.38609199225903 135.09482385218143 107.66821916401386 148.00135733187199 38.668597653508186 12.075962528586386 52.286255583167076
leaf_count=1054 1300 398 793 351 100 61 252
internal_value=0 0.00995192 -0.00206559 0.0113631 0.00127208 0.00188422 -0.00775205
internal_weight=0 988.558 432.472 841.387 272.518 147.171 159.954
internal_count=4309 2110 2199 1651 1154 459 1045
is_linear=0
shrinkage=0.0123512


Tree=69
num_leaves=8
num_cat=0
split_feature=22 123 24 69 50 139 75
split_gain=270.926 66.2627 64.481 46.0614 42.6242 24.8775 20.6311
threshold=-0.53729928193302035 -0.38092099110852568 1.8721288029823404 0.75091036981584203 -0.60999262684731115 -0.30561295654483556 1.2874671805630149
decision_type=2 2 2 2 2 2 2
left_child=2 4 5 -3 -2 -1 -4
right_child=1 3 6 -5 -6 -7 -8
leaf_value=-0.0088113127644211774 0.0075726671522240987 -0.00056053807969742853 0.0066955479905996739 0.009844006508432309 0.01342878844122365 0.00088204049448456869 -0.0070728690355180692
leaf_weight=188.59814237058163 311.13851150870323 148.15058551728725 98.989841997623444 115.52586281299591 485.42671993374825 51.397801920771599 19.948262378573418
leaf_count=1254 772 459 328 253 875 269 99
internal_value=0 0.00936488 -0.00305004 0.00399806 0.0111414 -0.00673537 0.00438631
internal_weight=0 1060.24 358.934 263.676 796.565 239.996 118.938
internal_count=4309 2359 1950 712 1647 1523 427
is_linear=0
shrinkage=0.0123512


Tree=70
num_leaves=8
num_cat=0
split_feature=21 123 114 114 147 85 4
split_gain=312.162 66.3644 60.8387 53.0575 38.0815 28.8121 20.7183
threshold=-0.44909113058436206 -0.69513141559754066 -0.21941666079645947 1.4530102733127339 1.8312346805802797 -0.51567445126648259 -0.26388038380463774
decision_type=2 2 2 2 2 2 2
left_child=3 5 -3 4 -1 -2 -5
right_child=1 2 -4 6 -6 -7 -8
leaf_value=-0.0074086041965730513 0.013579450763241508 0.00042372610119248069 0.01025746957408776 -0.0093940920723097517 0.0070338060950351743 0.0080967080783993627 0.010668545237610979
leaf_weight=269.50107702612877 459.88403901457787 189.53296922147274 194.4334612339735 9.4717737138271314 31.062043979763985 214.37759727239609 45.926389321684837
leaf_count=1638 844 570 426 46 110 492 165
internal_value=0 0.00950214 0.00540335 -0.00386883 -0.00591604 0.0118362 0.00723831
internal_weight=0 1058.23 383.966 355.961 300.563 674.262 55.3982
internal_count=4291 2332 996 1959 1748 1336 211
is_linear=0
shrinkage=0.0123512


Tree=71
num_leaves=8
num_cat=0
split_feature=21 81 133 24 117 81 9
split_gain=304.721 64.231 54.8272 53.9076 29.3567 26.101 13.8645
threshold=-0.45555010155928771 -0.16133812929660304 -0.2985925025630346 1.8721288029823404 0.90303021532633621 -0.046585440415058257 1.2159265955305545
decision_type=2 2 2 2 2 2 2
left_child=3 4 -3 5 -2 -1 -5
right_child=1 2 -4 6 -6 -7 -8
leaf_value=-0.0094400222327164513 0.005200454847687482 0.013486897335442139 0.0064929088915540237 0.004311717892926871 -0.013955535102364079 0.00063161700658150878 -0.010721472253051541
leaf_weight=185.25883333384991 270.88264010846615 523.74345315992832 253.87001705169678 105.79693701863289 12.780275344848631 49.806687504053116 10.267086550593374
leaf_count=1257 727 966 603 379 54 260 45
internal_value=0 0.00936833 0.0112035 -0.0039054 0.00433739 -0.007306 0.00298187
internal_weight=0 1061.28 777.613 351.13 283.663 235.066 116.064
internal_count=4291 2350 1569 1941 781 1517 424
is_linear=0
shrinkage=0.0123512


Tree=72
num_leaves=8
num_cat=0
split_feature=21 46 40 1 24 145 110
split_gain=272.179 64.0142 61.6655 51.2486 26.2919 24.9546 22.0562
threshold=-0.45555010155928771 -0.34163240703955278 -0.32289224154943913 0.84819044640887731 0.54654931987183253 2.8266780777180611 0.50531126827523731
decision_type=2 2 2 2 2 2 2
left_child=3 2 -2 4 -1 -5 -3
right_child=1 6 -4 5 -6 -7 -8
leaf_value=-0.010514827159130829 0.011178244922872782 0.0031324263494277686 -0.0024607964755930254 0.005032723786720387 -0.001691668191538991 -0.0090323718766880147 -0.015196608227665533
leaf_weight=135.48360627889633 840.61508679389954 151.21273329854012 53.8071478754282 109.64469489455223 83.138402327895164 23.339848533272743 10.72590786218643
leaf_count=1009 1649 447 213 401 416 117 47
internal_value=0 0.009064 0.0103577 -0.00348182 -0.00715952 0.00256419 0.00191841
internal_weight=0 1056.36 894.422 351.607 218.622 132.985 161.939
internal_count=4299 2356 1862 1943 1425 518 494
is_linear=0
shrinkage=0.0123512


Tree=73
num_leaves=8
num_cat=0
split_feature=21 123 48 48 69 101 96
split_gain=265.722 74.1726 51.6328 44.6962 38.7891 24.9588 23.7182
threshold=-0.45555010155928771 -0.38092099110852568 1.0644282866706749 1.0000000180025095e-35 0.74571947526973748 2.4090816519269653 -0.11713633455923737
decision_type=2 2 2 2 2 2 2
left_child=2 3 6 -2 -3 -4 -1
right_child=1 4 5 -5 -6 -7 -8
leaf_value=-0.0093861924152574532 0.0071664709876716219 -0.00093159184346421075 0.0043708677944389188 0.013157311453317912 0.0087812670907442426 -0.013016945687721455 0.00043694878257320469
leaf_weight=167.7237177491188 311.58560314774513 147.8813314884901 120.58171932399273 486.79872864484787 108.92533254623413 14.062426045536993 48.294335663318634
leaf_count=1168 774 460 434 879 243 86 255
internal_value=0 0.00896204 -0.0034483 0.0108193 0.00318815 0.00255486 -0.00719007
internal_weight=0 1055.19 350.662 798.384 256.807 134.644 216.018
internal_count=4299 2356 1943 1653 703 520 1423
is_linear=0
shrinkage=0.0123512


Tree=74
num_leaves=8
num_cat=0
split_feature=21 46 30 0 7 147 145
split_gain=263.59 66.2812 60.8064 49.0381 37.3917 35.1775 21.904
threshold=-0.40646192214985272 -0.34235142496884052 1.4270264094018634 0.85120714653015994 -1.0045117721966572 0.72263737292283625 2.9865228571623228
decision_type=2 2 2 2 2 2 2
left_child=2 3 4 -2 -1 -3 -4
right_child=1 5 6 -5 -6 -7 -8
leaf_value=0.0080175685973052271 0.011504577459861368 0.0037854575889642696 0.012324427204389681 -0.0024836897058969267 -0.0054272071448458001 -0.017736852768658919 -0.0068736090295614428
leaf_weight=34.83764785528183 761.80239516496658 147.2536106556654 51.937681585550308 40.251961410045624 335.04178745299578 12.574608400464056 10.983615756034849
leaf_count=86 1466 421 147 112 1944 62 54
internal_value=0 0.00935523 -0.00225144 0.0108026 -0.00416089 0.00209217 0.0089732
internal_weight=0 961.883 432.801 802.054 369.879 159.828 62.9213
internal_count=4292 2061 2231 1578 2030 483 201
is_linear=0
shrinkage=0.0123512


Tree=75
num_leaves=8
num_cat=0
split_feature=22 30 60 123 96 85 95
split_gain=238.631 70.0437 67.9353 42.5667 37.5692 35.7252 18.3012
threshold=-0.53729928193302035 1.4270264094018634 0.76245229490784527 -1.0093418400865555 -0.3945532089029683 0.1960061582464144 2.1808674524122469
decision_type=2 2 2 2 2 2 2
left_child=1 4 3 -2 -1 -4 -3
right_child=2 6 5 -5 -6 -7 -8
leaf_value=-0.0085949576046902929 0.010171827784655935 0.011798916607416238 0.012681643591595685 0.0024196562205652454 0.00074339415341153096 0.0027727225347200764 -0.0061174679704356699
leaf_weight=197.91141314059496 169.34343861043453 52.661510288715363 502.88896641135216 298.55921858549118 98.397841885685921 62.392779499292374 10.418286710977553
leaf_count=1325 353 149 930 873 456 154 52
internal_value=0 -0.00297804 0.00870648 0.00522532 -0.00549389 0.0115879 0.00883984
internal_weight=0 359.389 1033.18 467.903 296.309 565.282 63.0798
internal_count=4292 1982 2310 1226 1781 1084 201
is_linear=0
shrinkage=0.0123512


Tree=76
num_leaves=8
num_cat=0
split_feature=22 46 30 92 147 96 145
split_gain=242.552 64.9349 55.6473 55.4685 35.427 33.669 24.6835
threshold=-0.53729928193302035 -0.34235142496884052 1.4270264094018634 -0.32289224154943913 0.59586661895500714 -0.10396997154596234 2.7121726078954205
decision_type=2 2 2 2 2 2 2
left_child=2 3 5 -2 -3 -1 -4
right_child=1 4 6 -5 -6 -7 -8
leaf_value=-0.008277711534072486 0.010724429456831872 0.0035092312649840003 0.011635780097433617 -0.0020782975467680174 -0.014440547369351247 0.00077119006618110426 -0.0069040341034726773
leaf_weight=199.82934261113405 840.42874713242054 137.82111556828022 48.171998500823975 55.003895998001099 19.098422184586525 91.426998853683472 14.179785981774328
leaf_count=1338 1656 394 138 218 87 419 67
internal_value=0 0.00865362 -0.00317018 0.00993799 0.00132459 -0.00543721 0.00741953
internal_weight=0 1052.35 353.608 895.433 156.92 291.256 62.3518
internal_count=4317 2355 1962 1874 481 1757 205
is_linear=0
shrinkage=0.0123512


Tree=77
num_leaves=8
num_cat=0
split_feature=21 133 80 92 69 145 115
split_gain=239.06 58.0782 54.2392 54.053 32.3826 27.7315 26.598
threshold=-0.44909113058436206 1.0000000180025095e-35 1.3322164038487381 -0.32289224154943913 0.74571947526973748 2.8986139195947094 1.6082860441375668
decision_type=2 2 2 2 2 2 2
left_child=2 3 6 -2 -3 -4 -1
right_child=1 4 5 -5 -6 -7 -8
leaf_value=-0.0079571526215833268 0.010960415512363805 -0.00065231916611154113 0.0065195235066005525 -0.0020347272438110552 0.0088012046102385662 -0.0094328962418798058 0.0051822155729215639
leaf_weight=212.48654222488403 765.39701725542545 138.76722964644432 96.522853642702103 52.156303718686104 91.874771073460579 20.083098858594894 26.425785101950169
leaf_count=1417 1530 406 325 203 201 103 132
internal_value=0 0.00858717 -0.00313346 0.0101314 0.00311343 0.00377203 -0.00650382
internal_weight=0 1048.2 355.518 817.553 230.642 116.606 238.912
internal_count=4317 2340 1977 1733 607 428 1549
is_linear=0
shrinkage=0.0123512


Tree=78
num_leaves=8
num_cat=0
split_feature=21 123 64 117 24 60 101
split_gain=234.573 63.5769 53.4093 45.7074 30.0253 24.8542 21.8033
threshold=-0.45555010155928771 -0.69513141559754066 1.2073600203503283 0.90303021532633621 0.37357533462278258 0.92736133584389913 1.9064429444943161
decision_type=2 2 2 2 2 2 2
left_child=2 5 4 -3 -1 -2 -4
right_child=1 3 6 -5 -6 -7 -8
leaf_value=-0.0095895441723386887 0.0090986556159303959 0.0058191519814039527 0.0085048595854488977 -0.011078687592915656 -0.0010247548860919419 0.014006498540864994 -0.0049752801775591743
leaf_weight=146.62106268852949 411.21158541738987 356.94742052257061 69.252338737249374 26.213245376944542 108.75862304866314 255.04292169213295 24.880531489849091
leaf_count=1094 896 900 215 102 524 444 121
internal_value=0 0.00867193 -0.00301073 0.00466312 -0.00594205 0.0109774 0.00494188
internal_weight=0 1049.42 349.513 383.161 255.38 666.255 94.1329
internal_count=4296 2342 1954 1002 1618 1340 336
is_linear=0
shrinkage=0.0123512


Tree=79
num_leaves=8
num_cat=0
split_feature=21 123 77 69 27 60 33
split_gain=228.989 62.3471 53.5194 51.1403 31.8199 24.5647 16.4653
threshold=-0.45555010155928771 -0.69513141559754066 0.2308169446049135 0.10464399882582771 1.2960413958272285 0.92736133584389913 1.8892735719414848
decision_type=2 2 2 2 2 2 2
left_child=2 5 6 -3 -4 -2 -1
right_child=1 3 4 -5 -6 -7 -8
leaf_value=-0.0093386690892458112 0.008993179681827064 0.00025952654690403171 0.0054685195520861379 0.0092905118768331456 -0.0048362952841071536 0.013877862045295085 0.0073754227327674235
leaf_weight=147.64871514588594 410.89786709845066 198.77724426984787 115.91829324513674 184.38812850415707 75.477824501693249 254.23269882798195 9.5744115859270078
leaf_count=1049 896 598 415 404 444 444 46
internal_value=0 0.00857404 -0.00298136 0.00460545 0.00140477 0.0108603 -0.00832083
internal_weight=0 1048.3 348.619 383.165 191.396 665.131 157.223
internal_count=4296 2342 1954 1002 859 1340 1095
is_linear=0
shrinkage=0.0123512


Tree=80
num_leaves=8
num_cat=0
split_feature=22 0 131 50 81 46 69
split_gain=198.438 60.1417 49.852 47.2947 41.1079 31.9361 26.3889
threshold=-0.53729928193302035 -0.61543318414716819 -0.46104403151860579 -0.60999262684731115 -0.16133812929660304 1.6992414605285255 -0.018639746644154947
decision_type=2 2 2 2 2 2 2
left_child=2 3 6 -2 -3 -4 -1
right_child=1 4 5 -5 -6 -7 -8
leaf_value=-0.0094484741084885845 0.0067454325780287698 -0.0025498959488598001 0.0044012986045824177 0.013358793047517529 0.0067855732978193539 -0.0078771379716373394 0.0073548692194310922
leaf_weight=138.10829123109579 288.81659488379955 97.611795797944069 149.01973780989647 384.68326453864574 273.78377331793308 41.264225572347641 15.899060770869253
leaf_count=994 714 312 576 684 638 277 74
internal_value=0 0.00832234 -0.00248958 0.0105228 0.00433198 0.00173865 -0.00771377
internal_weight=0 1044.9 344.291 673.5 371.396 190.284 154.007
internal_count=4269 2348 1921 1398 950 853 1068
is_linear=0
shrinkage=0.0123512


Tree=81
num_leaves=8
num_cat=0
split_feature=21 23 69 52 101 45 114
split_gain=197.671 65.0203 43.3526 39.8684 31.2283 30.6769 5.69108
threshold=-0.40646192214985272 0.03459737611272979 0.10464399882582771 0.25491071381809655 2.4090816519269653 1.0542650696114626 -0.26191840646898662
decision_type=2 2 2 2 2 2 2
left_child=3 5 -3 4 -1 -2 -5
right_child=1 2 -4 6 -6 -7 -8
leaf_value=0.0014678425053796427 0.012968475359380898 0.0014582457630087388 0.00884214739261149 -0.010244256363457254 -0.012350754281344035 0.0028763657364918298 0.0019339381710047165
leaf_weight=310.99583114683628 427.46286617219448 222.6278265863657 266.51234087347984 74.631084017455578 27.12415473908186 51.481959387660027 6.3522058650851241
leaf_count=1382 776 612 576 566 189 132 36
internal_value=0 0.00864884 0.00548143 -0.00150504 0.000359308 0.0118837 -0.00928902
internal_weight=0 968.085 489.14 419.103 338.12 478.945 80.9833
internal_count=4269 2096 1188 2173 1571 908 602
is_linear=0
shrinkage=0.0123512


Tree=82
num_leaves=8
num_cat=0
split_feature=21 133 52 45 101 114 30
split_gain=200.613 59.2414 45.5493 44.2942 28.2501 23.1997 7.12325
threshold=-0.40775371634483781 -0.24633785827035473 0.67168113002030261 1.2667496794132951 2.4090816519269653 -0.301180251889346 -0.66428216480417734
decision_type=2 2 2 2 2 2 2
left_child=2 3 4 -2 -1 -3 -4
right_child=1 5 6 -5 -6 -7 -8
leaf_value=0.00097192131113814253 0.011316274081026985 0.00060075303056393082 -0.013217432787682537 -0.0028170658764117007 -0.012253242143978585 0.0074852886812123145 -0.0030434959914794057
leaf_weight=326.11740940064192 619.13294388353825 155.34867092967033 52.981672257184982 35.7832290828228 26.653632164001465 143.78344894945621 13.092631138861178
leaf_count=1489 1195 433 419 117 188 327 101
internal_value=0 0.008464 -0.00179007 0.0105441 -2.73065e-05 0.00390993 -0.0112015
internal_weight=0 954.048 418.845 654.916 352.771 299.132 66.0743
internal_count=4269 2072 2197 1312 1677 760 520
is_linear=0
shrinkage=0.0123512


Tree=83
num_leaves=8
num_cat=0
split_feature=21 123 40 69 0 28 9
split_gain=195.969 54.6896 44.8388 41.7122 27.2196 26.1397 6.73714
threshold=-0.40775371634483781 -0.65585511253641371 0.67168113002030261 0.10464399882582771 0.7697271281591973 -0.44019950749804754 0.99483471894675335
decision_type=2 2 2 2 2 2 2
left_child=2 4 5 -3 -2 -1 -4
right_child=1 3 6 -5 -6 -7 -8
leaf_value=0.0022572688340861072 0.01103129382735442 -7.0186264335122105e-05 -0.013749105338214119 0.0086056842531575667 -0.0040069248159449343 -0.0049765170468036466 -0.0051179978701342563
leaf_weight=241.32530283927917 595.37674410641193 164.66364796459675 45.821136079728603 173.73514240980148 18.945839151740074 111.3764865398407 19.739761911332607
leaf_count=970 1158 476 369 385 53 707 151
internal_value=0 0.00837119 -0.00177056 0.00438404 0.0105675 -2.70225e-05 -0.0111504
internal_weight=0 952.721 418.263 338.399 614.323 352.702 65.5609
internal_count=4269 2072 2197 861 1211 1677 520
is_linear=0
shrinkage=0.0123512


Tree=84
num_leaves=8
num_cat=0
split_feature=21 123 27 115 67 45 10
split_gain=223.369 63.9716 34.9784 34.1306 32.692 30.9655 27.5171
threshold=-0.40646192214985272 -0.61657880947528687 1.0000000180025095e-35 0.23648258938753261 2.4929745194803705 0.99623714404309038 -0.40183848009084716
decision_type=2 2 2 2 2 2 2
left_child=2 5 6 -3 -4 -2 -1
right_child=1 3 4 -5 -6 -7 -8
leaf_value=-0.0050892301564051954 0.011929601463891652 0.00029612067403513064 -0.0093122994812270005 0.0082124576108140099 0.0069237027586740076 0.0038117824267348832 0.0032981578846869759
