tree
version=v4
num_class=1
num_tree_per_iteration=1
label_index=0
max_feature_idx=201
objective=binary sigmoid:1
feature_names=num__tenure num__MonthlyCharges num__TotalCharges num__ABSOLUTE_DIFF_MonthlyCharges_ num__ABSOLUTE_DIFF_TotalCharges_ num__ABSOLUTE_DIFF_tenure_ num__MonthlyCharges_0 num__TotalCharges_0 num__tenure_0 num__COSINE_MonthlyCharges_ num__COSINE_TotalCharges_ num__COSINE_tenure_ num__EXPONENTIAL_WEIGHTED_STD_MonthlyCharges_com_0_5_ num__EXPONENTIAL_WEIGHTED_STD_TotalCharges_com_0_5_ num__EXPONENTIAL_WEIGHTED_STD_tenure_com_0_5_ num__EXPONENTIAL_WEIGHTED_VARIANCE_MonthlyCharges_com_0_5_ num__EXPONENTIAL_WEIGHTED_VARIANCE_TotalCharges_com_0_5_ num__EXPONENTIAL_WEIGHTED_VARIANCE_tenure_com_0_5_ num__MonthlyCharges_tenure num__TotalCharges_MonthlyCharges num__tenure_MonthlyCharges num__Contract_Month_to_month_MonthlyCharges num__Contract_Month_to_month_TotalCharges num__Contract_Month_to_month_tenure num__Contract_One_year_MonthlyCharges num__Contract_One_year_TotalCharges num__Contract_One_year_tenure num__Contract_Two_year_MonthlyCharges num__Contract_Two_year_TotalCharges num__Contract_Two_year_tenure num__Dependents_No_MonthlyCharges num__Dependents_No_TotalCharges num__Dependents_No_tenure num__Dependents_Yes_MonthlyCharges num__Dependents_Yes_TotalCharges num__Dependents_Yes_tenure num__DeviceProtection_No_MonthlyCharges num__DeviceProtection_No_TotalCharges num__DeviceProtection_No_tenure num__DeviceProtection_No_internet_service_MonthlyCharges num__DeviceProtection_No_internet_service_TotalCharges num__DeviceProtection_No_internet_service_tenure num__DeviceProtection_Yes_MonthlyCharges num__DeviceProtection_Yes_TotalCharges num__DeviceProtection_Yes_tenure num__InternetService_DSL_MonthlyCharges num__InternetService_DSL_TotalCharges num__InternetService_DSL_tenure num__InternetService_Fiber_optic_MonthlyCharges num__InternetService_Fiber_optic_TotalCharges num__InternetService_Fiber_optic_tenure num__InternetService_No_MonthlyCharges num__InternetService_No_TotalCharges num__InternetService_No_tenure num__MonthlyCharges_MultipleLines_No num__MonthlyCharges_MultipleLines_No_phone_service num__MonthlyCharges_MultipleLines_Yes num__MonthlyCharges_OnlineBackup_No num__MonthlyCharges_OnlineBackup_No_internet_service num__MonthlyCharges_OnlineBackup_Yes num__MonthlyCharges_OnlineSecurity_No num__MonthlyCharges_OnlineSecurity_No_internet_service num__MonthlyCharges_OnlineSecurity_Yes num__MonthlyCharges_PaperlessBilling_No num__MonthlyCharges_PaperlessBilling_Yes num__MonthlyCharges_Partner_No num__MonthlyCharges_Partner_Yes num__MonthlyCharges_PaymentMethod_Bank_transfer_automatic_ num__MonthlyCharges_PaymentMethod_Credit_card_automatic_ num__MonthlyCharges_PaymentMethod_Electronic_check num__MonthlyCharges_PaymentMethod_Mailed_check num__MonthlyCharges_PhoneService_No num__MonthlyCharges_PhoneService_Yes num__MonthlyCharges_SeniorCitizen_No num__MonthlyCharges_SeniorCitizen_Yes num__MonthlyCharges_StreamingMovies_No num__MonthlyCharges_StreamingMovies_No_internet_service num__MonthlyCharges_StreamingMovies_Yes num__MonthlyCharges_StreamingTV_No num__MonthlyCharges_StreamingTV_No_internet_service num__MonthlyCharges_StreamingTV_Yes num__MonthlyCharges_TechSupport_No num__MonthlyCharges_TechSupport_No_internet_service num__MonthlyCharges_TechSupport_Yes num__MultipleLines_No_TotalCharges num__MultipleLines_No_tenure num__MultipleLines_No_phone_service_TotalCharges num__MultipleLines_No_phone_service_tenure num__MultipleLines_Yes_TotalCharges num__MultipleLines_Yes_tenure num__OnlineBackup_No_TotalCharges num__OnlineBackup_No_tenure num__OnlineBackup_No_internet_service_TotalCharges num__OnlineBackup_No_internet_service_tenure num__OnlineBackup_Yes_TotalCharges num__OnlineBackup_Yes_tenure num__OnlineSecurity_No_TotalCharges num__OnlineSecurity_No_tenure num__OnlineSecurity_No_internet_service_TotalCharges num__OnlineSecurity_No_internet_service_tenure num__OnlineSecurity_Yes_TotalCharges num__OnlineSecurity_Yes_tenure num__PaperlessBilling_No_TotalCharges num__PaperlessBilling_No_tenure num__PaperlessBilling_Yes_TotalCharges num__PaperlessBilling_Yes_tenure num__Partner_No_TotalCharges num__Partner_No_tenure num__Partner_Yes_TotalCharges num__Partner_Yes_tenure num__PaymentMethod_Bank_transfer_automatic_TotalCharges num__PaymentMethod_Bank_transfer_automatic_tenure num__PaymentMethod_Credit_card_automatic_TotalCharges num__PaymentMethod_Credit_card_automatic_tenure num__PaymentMethod_Electronic_check_TotalCharges num__PaymentMethod_Electronic_check_tenure num__PaymentMethod_Mailed_check_TotalCharges num__PaymentMethod_Mailed_check_tenure num__PhoneService_No_TotalCharges num__PhoneService_No_tenure num__PhoneService_Yes_TotalCharges num__PhoneService_Yes_tenure num__SeniorCitizen_No_TotalCharges num__SeniorCitizen_No_tenure num__SeniorCitizen_Yes_TotalCharges num__SeniorCitizen_Yes_tenure num__StreamingMovies_No_TotalCharges num__StreamingMovies_No_tenure num__StreamingMovies_No_internet_service_TotalCharges num__StreamingMovies_No_internet_service_tenure num__StreamingMovies_Yes_TotalCharges num__StreamingMovies_Yes_tenure num__StreamingTV_No_TotalCharges num__StreamingTV_No_tenure num__StreamingTV_No_internet_service_TotalCharges num__StreamingTV_No_internet_service_tenure num__StreamingTV_Yes_TotalCharges num__StreamingTV_Yes_tenure num__TechSupport_No_TotalCharges num__TechSupport_No_tenure num__TechSupport_No_internet_service_TotalCharges num__TechSupport_No_internet_service_tenure num__TechSupport_Yes_TotalCharges num__TechSupport_Yes_tenure num__gender_Female_MonthlyCharges num__gender_Female_TotalCharges num__gender_Female_tenure num__gender_Male_MonthlyCharges num__gender_Male_TotalCharges num__gender_Male_tenure num__MonthlyCharges_1 num__TotalCharges_1 num__tenure_1 num__NATURAL_LOGARITHM_MonthlyCharges_ num__NATURAL_LOGARITHM_TotalCharges_ num__NATURAL_LOGARITHM_tenure_ num__PERCENT_CHANGE_MonthlyCharges_ num__PERCENT_CHANGE_TotalCharges_ num__PERCENT_CHANGE_tenure_ remainder__gender_Female remainder__gender_Male remainder__SeniorCitizen_No remainder__SeniorCitizen_Yes remainder__Partner_No remainder__Partner_Yes remainder__Dependents_No remainder__Dependents_Yes remainder__PhoneService_No remainder__PhoneService_Yes remainder__MultipleLines_No remainder__MultipleLines_No_phone_service remainder__MultipleLines_Yes remainder__InternetService_DSL remainder__InternetService_Fiber_optic remainder__InternetService_No remainder__OnlineSecurity_No remainder__OnlineSecurity_No_internet_service remainder__OnlineSecurity_Yes remainder__OnlineBackup_No remainder__OnlineBackup_No_internet_service remainder__OnlineBackup_Yes remainder__DeviceProtection_No remainder__DeviceProtection_No_internet_service remainder__DeviceProtection_Yes remainder__TechSupport_No remainder__TechSupport_No_internet_service remainder__TechSupport_Yes remainder__StreamingTV_No remainder__StreamingTV_No_internet_service remainder__StreamingTV_Yes remainder__StreamingMovies_No remainder__StreamingMovies_No_internet_service remainder__StreamingMovies_Yes remainder__Contract_Month_to_month remainder__Contract_One_year remainder__Contract_Two_year remainder__PaperlessBilling_No remainder__PaperlessBilling_Yes remainder__PaymentMethod_Bank_transfer_automatic_ remainder__PaymentMethod_Credit_card_automatic_ remainder__PaymentMethod_Electronic_check remainder__PaymentMethod_Mailed_check
feature_infos=[-1.2876433357076105:1.6048973164615647] [-1.5590808125059858:1.7922019960146014] [-1.0075584110313642:2.8123085290869621] [-1.3732146786845074:2.5784136684430314] [-1.2060160305473682:2.9812805775614346] [-1.3806058593655879:2.085520697994244] [-1.5590808125059858:1.7922019960146014] [-1.0075584110313642:2.8123085290869621] [-1.2876433357076105:1.6048973164615647] [-1.6559001007418339:1.28083675737467] [-1.4494730056648946:1.3788448272519644] [-1.3817056216017931:1.468542093412087] [-2.1069659842313064:2.9120514491963907] [-1.7999143369867856:3.453290194399262] [-2.2206246960958627:2.5445546925480507] [-1.2271680645847816:4.0856026757025683] [-1.0062234280601949:5.244261772359744] [-1.2909408643849078:3.3694664154107454] [-2.2341056533153125:0.44760640505790078] [-3.2651149458719058:0.30626793132177549] [-0.44693294684006207:2.2374721019568433] [-0.94578599855614531:2.0421339744444649] [-0.55131773754116165:5.326954298091076] [-0.62565944941363161:3.9018159256242755] [-0.45220912380176848:3.4929283089938705] [-0.39603358032404679:4.7545425139783877] [-0.45876691721978413:3.2581002793627971] [-0.47447813133895117:3.324411347121635] [-0.4452253856704893:3.8163752346607369] [-0.53198941927685561:2.2497124897430973] [-1.1925123852191379:1.8230401606876878] [-0.72227767372610163:3.30795962274903] [-0.85309021038297506:2.0821984027466391] [-0.56000664080333362:3.0756557513555887] [-0.44472849595122205:4.6249667369757201] [-0.52785862556153662:2.7258360060020284] [-0.83236515237594266:2.1196961096541744] [-0.5194368877823935:4.605073361324] [-0.56149002555798422:3.2893793256907413] [-0.51378647107731878:2.5926444251643499] [-0.37891228946356265:4.9940595223046564] [-0.38826659388096679:3.8990813930579238] [-0.6941127114517337:2.1253460400249216] [-0.58503282081547725:3.1417451360629092] [-0.61694867536681908:2.232745741525108] [-0.69083945667266644:2.4904562274286692] [-0.49326158338330245:4.0456477840023153] [-0.53455640144671934:2.8250327897971115] [-0.87338041832362256:1.6952042412161779] [-0.6083220647327694:3.1012042274848013] [-0.63157797459584752:2.4767121011933835] [-0.51378647107731878:2.5926444251643499] [-0.37891228946356265:4.9940595223046564] [-0.38826659388096679:3.8990813930579238] [-0.77212164892543145:2.5502676885873572] [-0.31848462784650311:4.8400029898855816] [-0.79748739490364495:1.9211044460429221] [-0.82275277973335137:2.1088573760840346] [-0.51378647107731878:2.5926444251643499] [-0.69938517712198289:2.1740803828739428] [-0.92389534221972613:1.8355826094435725] [-0.51378647107731878:2.5926444251643499] [-0.60732995136117784:2.5588949716925633] [-0.66134279473815105:3.0588037530045731] [-1.0561863544743169:1.7951848622458408] [-0.85329483658360894:2.324438411931244] [-0.8257003353735729:2.126775697750682] [-0.47441685519710863:3.2826387125277332] [-0.46649816220304485:3.3326000799133659] [-0.66425725581590622:2.4139432100240814] [-0.44939676443749926:4.8543185513408833] [-0.31848462784650311:4.8400029898855816] [-1.7359836349186288:1.6466528147216684] [-1.4550070558081643:1.8534403853777899] [-0.41710791332726999:3.3706824178186463] [-0.76586616718195977:2.3458638724201935] [-0.51378647107731878:2.5926444251643499] [-0.7702854427792577:1.8918388429553319] [-0.76988805514082803:2.3613911675699044] [-0.51378647107731878:2.5926444251643499] [-0.76701356733785586:1.8921979101812898] [-0.9097252306979825:1.8717801628438113] [-0.51378647107731878:2.5926444251643499] [-0.6204416706814615:2.4330536013965216] [-0.48865681981963915:5.4516614546243956] [-0.59192594514286456:3.0681457609234637] [-0.24129326755631633:7.8467854132151649] [-0.25813255831089899:5.6875005505868863] [-0.63462047416298939:3.0501649434399831] [-0.68981401699383549:2.0947777003655546] [-0.52108360110011431:4.5819706249277239] [-0.5634469568684557:3.2696091656734354] [-0.37891228946356265:4.9940595223046564] [-0.38826659388096679:3.8990813930579238] [-0.5798617808862867:3.1869166039220462] [-0.61471973022058302:2.2403480307661368] [-0.58044780376417782:3.7600632029454921] [-0.63108139447280165:2.8373523478381442] [-0.37891228946356265:4.9940595223046564] [-0.38826659388096679:3.8990813930579238] [-0.50999022067282607:3.6040757305513487] [-0.54392075423984843:2.471911490356046] [-0.4762326631124893:4.9586629973026017] [-0.58602364982459332:2.6428140508719737] [-0.69435489121772742:3.1779412796940254] [-0.78729290287767617:2.1138933277021961] [-0.52293187950140729:4.9267435933213708] [-0.6168134979326112:3.0661572054435422] [-0.65576048851083912:3.1841018051580816] [-0.76798420830082204:1.9230249528535812] [-0.40538916607642006:4.5775389463569791] [-0.45768857285834197:2.9396387115011788] [-0.39549286558827301:4.6808720196461611] [-0.45059339100023316:2.9754052875082322] [-0.44084708492738045:5.0156875831152918] [-0.47799837662810996:3.6374119876219915] [-0.29520807663003279:9.7369819907579664] [-0.36876678910603733:4.8637694577014425] [-0.24129326755631633:7.8467854132151649] [-0.25813255831089899:5.6875005505868863] [-0.92767342987711732:2.8062526083924402] [-1.1651692169296075:1.6805201242515022] [-0.84141223651002284:3.1034750023868196] [-1.0682562946782461:1.7596375257228889] [-0.32179746997629316:5.6679928914231166] [-0.34310374184548087:4.2249599697365561] [-0.49426591042210105:4.8979402824613247] [-0.53135783534532288:3.2690612545296216] [-0.37891228946356265:4.9940595223046564] [-0.38826659388096679:3.8990813930579238] [-0.61419959941225544:3.0397486339948481] [-0.64115119405788601:2.2405634065705966] [-0.49757441549527859:4.9101695937348149] [-0.53373840188009425:3.2285959871928589] [-0.37891228946356265:4.9940595223046564] [-0.38826659388096679:3.8990813930579238] [-0.61090196312078071:3.0475067428180771] [-0.63811344996453523:2.2565937849654474] [-0.57305342292020733:3.9487189716425513] [-0.62086302024508577:2.8711376853576849] [-0.37891228946356265:4.9940595223046564] [-0.38826659388096679:3.8990813930579238] [-0.52104988730123203:3.4802121351092921] [-0.55369379733700141:2.4472055830344237] [-0.841143503416522:2.2075900762549461] [-0.58223095230995991:3.8037813026459566] [-0.68513171615649926:2.3417335496517846] [-0.8354786796715522:2.2264231023881544] [-0.5846248674561072:3.7849712108095845] [-0.68415522293669118:2.3361864384112332] [-1.5590808125059858:1.7922019960146014] [-1.0075584110313642:2.8123085290869621] [-1.2876433357076105:1.6048973164615647] [-1.8911839063049838:1.2667235859632604] [-2.6017817001912769:1.3677664440185366] [-2.2207859226309639:1.0214948884585298] [-0.99965520637874117:3.635086143257507] [-0.29579214220398092:12.840457105301496] [-0.41657322126113533:5.3859585618080521] [0:1] [0:1] [0:1] [0:1] [0:1] [0:1] [0:1] [0:1] [0:1] [0:1] [0:1] [0:1] [0:1] [0:1] [0:1] [0:1] [0:1] [0:1] [0:1] [0:1] [0:1] [0:1] [0:1] [0:1] [0:1] [0:1] [0:1] [0:1] [0:1] [0:1] [0:1] [0:1] [0:1] [0:1] [0:1] [0:1] [0:1] [0:1] [0:1] [0:1] [0:1] [0:1] [0:1]
tree_sizes=871 869 985 982 984 983 982 984 986 992 881 987 980 986 985 989 990 998 990 989 985 991 1003 990 888 984 887 991 991 990 996 982 991 997 989 887 989 878 892 992 985 887 990 780 987 880 995 877 990 884 782 782 779 886 993 995 882 880 884 885 883 886 881 889 882

Tree=0
num_leaves=7
num_cat=0
split_feature=21 123 49 2 24 60
split_gain=1919.4 178.047 130.844 129.737 114.345 79.457
threshold=-0.40646192214985272 -0.73440771865866739 -0.26992261343783824 -1.0045117721966572 2.5307605160460311 0.74412906813717272
decision_type=2 2 2 2 2 2
left_child=3 5 -3 -1 -5 -2
right_child=1 2 -4 4 -6 -7
leaf_value=-0.89769530379962392 -0.88568694359512634 -0.97563273470295497 -0.88550366299531835 -1.0584009118113025 -0.97057798510007198 -0.83197825715310225
leaf_weight=22.444660067558289 157.50296254456043 85.484878659248352 174.28766487538815 347.01395709812641 62.259534940123558 259.96771629154682
leaf_count=65 435 322 481 1628 231 562
internal_value=-1.01581 -0.876376 -0.915163 -1.03738 -1.04504 -0.852241
internal_weight=0 677.243 259.773 431.718 409.273 417.471
internal_count=3724 1800 803 1924 1859 997
is_linear=0
shrinkage=1


Tree=1
num_leaves=7
num_cat=0
split_feature=21 46 24 2 0 147
split_gain=1490 221.193 106.378 108.611 88.9998 32.7607
threshold=-0.40775371634483781 -0.34235142496884052 2.87338206375088 -1.0045117721966572 -0.49321315659072429 0.50014176391807508
decision_type=2 2 2 2 2 2
left_child=2 4 3 -1 -2 -3
right_child=1 5 -4 -5 -6 -7
leaf_value=0.091469790551014424 0.15174584226060275 0.063902395666197778 0.074933381145303166 -0.035976021140833189 0.1029548886680435 -0.012568521093044151
leaf_weight=25.506799772381783 430.30492915213108 91.461657419800758 39.853867366909981 357.91308385133743 192.75293752551079 25.512084394693375
leaf_count=74 921 304 130 1689 523 107
internal_value=0 0.122516 -0.0178532 -0.0274978 0.136652 0.047224
internal_weight=0 740.032 423.274 383.42 623.058 116.974
internal_count=3748 1855 1893 1763 1444 411
is_linear=0
shrinkage=0.0596717


Tree=2
num_leaves=8
num_cat=0
split_feature=21 47 24 175 147 120 30
split_gain=1214.76 154.163 122.219 90.7416 42.2999 37.2941 24.3024
threshold=-0.44004857121946611 -0.37124303798347752 1.8721288029823404 1.0000000180025095e-35 1.8383493657519436 -0.70315595119741603 1.4270264094018634
decision_type=2 2 2 2 2 2 2
left_child=2 3 4 -2 -1 -3 -4
right_child=1 5 6 -5 -6 -7 -8
leaf_value=-0.04766628552711559 0.077915130362425394 0.076604227951454745 0.017738820518802031 0.13115437622223405 0.045459240674903312 0.013637162823989508 0.084473785629036985
leaf_weight=261.75389264523983 145.24032516777515 80.718865066766739 72.396728053689003 529.86663539707661 18.601787924766541 57.246066018939018 26.558192998170853
leaf_count=1295 423 239 293 1104 73 220 79
internal_value=0 0.107955 -0.0213638 0.119701 -0.0414873 0.0504772 0.0356496
internal_weight=0 813.072 379.311 675.107 280.356 137.965 98.9549
internal_count=3726 1986 1740 1527 1368 459 372
is_linear=0
shrinkage=0.0596717


Tree=3
num_leaves=8
num_cat=0
split_feature=21 47 48 52 120 0 25
split_gain=1026.23 125.393 101.017 100.365 38.7938 36.1194 27.3234
threshold=-0.44650754219439176 -0.27792111600448216 1.0644282866706749 -0.32490012857145073 -0.43887714087410795 1.5437873026833429 0.1425127957775075
decision_type=2 2 2 2 2 2 2
left_child=2 3 6 -2 -3 -4 -1
right_child=1 4 5 -5 -6 -7 -8
leaf_value=-0.05894751037852683 0.11024822184423057 0.057554996866476645 0.039271452931403036 0.022960255295742967 -0.02194305866949595 -0.043177078842522261 -0.016732283760856382
leaf_weight=170.85308934748173 687.05287057161331 88.678470805287361 90.907405227422714 50.340923085808754 29.005968600511551 23.89194518327713 80.227897077798843
leaf_count=891 1459 278 331 189 122 115 376
internal_value=0 0.0951604 -0.0242573 0.104289 0.0379609 0.0221123 -0.0454585
internal_weight=0 855.078 365.88 737.394 117.684 114.799 251.081
internal_count=3761 2048 1713 1648 400 446 1267
is_linear=0
shrinkage=0.0596717


Tree=4
num_leaves=8
num_cat=0
split_feature=81 0 27 40 0 84 67
split_gain=631.962 183.545 170.983 101.303 64.2691 41.4117 26.6771
threshold=-0.61723060523360995 -0.28951311066331759 1.0000000180025095e-35 -0.31004176460856497 1.0956472016430481 -0.41060468628867747 2.2834555778075023
decision_type=2 2 2 2 2 2 2
left_child=2 5 3 -1 -3 -2 -4
right_child=1 4 6 -5 -6 -7 -8
leaf_value=0.043669523791180651 0.11969296892722189 0.061933984338619907 -0.062860520357248234 -0.034631132456447916 -0.011327411092643649 0.082972558513250957 0.017413125407648222
leaf_weight=236.51766699552536 353.84881150722504 201.00736773014069 130.2525456994772 78.314747214317322 54.116272166371346 158.2710944712162 16.622250437736511
leaf_count=750 663 574 704 375 227 373 71
internal_value=0 0.0877447 -0.000610363 0.0241922 0.0463939 0.108345 -0.0537757
internal_weight=0 767.244 461.707 314.832 255.124 512.12 146.875
internal_count=3737 1837 1900 1125 801 1036 775
is_linear=0
shrinkage=0.0596717


Tree=5
num_leaves=8
num_cat=0
split_feature=21 123 24 49 48 96 65
split_gain=810.284 118.196 90.2676 78.5424 42.8653 34.294 16.7782
threshold=-0.45555010155928771 -0.69513141559754066 2.2688047210775175 -0.27334543558957131 1.0000000180025095e-35 -0.3945532089029683 1.6860784233488972
decision_type=2 2 2 2 2 2 2
left_child=2 4 5 -3 -2 -1 -4
right_child=1 3 6 -5 -6 -7 -8
leaf_value=-0.053634902679223009 0.075495427179693222 0.0083822739079287712 0.010963097762032123 0.072208401698360417 0.10908544502001907 -0.0047041569251338438 0.06860072180019107
leaf_weight=208.67656441032887 213.90894156694412 102.46559448540211 56.18021123111248 208.02480053901672 368.00703425705433 67.500355795025826 26.450219571590424
leaf_count=1121 530 379 212 484 660 311 77
internal_value=0 0.080875 -0.0253046 0.051145 0.096738 -0.0416758 0.0294131
internal_weight=0 892.406 358.807 310.49 581.916 276.177 82.6304
internal_count=3774 2053 1721 863 1190 1432 289
is_linear=0
shrinkage=0.0596717


Tree=6
num_leaves=8
num_cat=0
split_feature=22 77 123 81 85 69 106
split_gain=709.924 97.664 90.6678 65.121 28.6461 22.9035 20.2123
threshold=-0.53729928193302035 1.2543655738586852 -0.77368402171979433 1.0055220929717146 -0.51567445126648259 -0.018639746644154947 2.885940662562287
decision_type=2 2 2 2 2 2 2
left_child=1 5 4 -4 -2 -1 -3
right_child=2 6 3 -5 -6 -7 -8
leaf_value=-0.051742207023354594 0.099805273333673561 0.0080534098457119337 0.028540897675086389 0.07995490839734902 0.069822224214559789 0.0063091864056670699 0.067882422205121515
leaf_weight=217.47920101881027 380.74761244654655 80.489111021161079 191.99658396840096 161.51070855557919 161.6280875056982 27.229874595999718 26.801122665405273
leaf_count=1185 699 324 606 344 374 122 84
internal_value=0 -0.0244702 0.0755447 0.052031 0.0908703 -0.0452826 0.0229987
internal_weight=0 351.999 895.883 353.507 542.376 244.709 107.29
internal_count=3738 1715 2023 950 1073 1307 408
is_linear=0
shrinkage=0.0596717


Tree=7
num_leaves=8
num_cat=0
split_feature=21 69 30 0 24 84 95
split_gain=646.732 86.4352 81.6283 63.1479 44.4753 23.4997 13.3041
threshold=-0.44650754219439176 0.10464399882582771 1.4270264094018634 -0.65617319333264967 0.37357533462278258 -0.40871901181682574 1.7050228255811271
decision_type=2 2 2 2 2 2 2
left_child=2 3 4 -2 -1 -3 -4
right_child=1 5 6 -5 -6 -7 -8
leaf_value=-0.054150970803976933 0.069557440865843131 0.097390563692208346 0.072296674357647348 0.022169072579450166 -0.0068236563156326025 0.068090927335059198 0.013767184270820654
leaf_weight=180.4800800383091 279.87420554459095 349.70755441486835 27.953634634613991 155.90331503748894 116.23785831034184 135.13763125240803 27.366667225956917
leaf_count=1034 636 628 81 464 515 297 106
internal_value=0 0.0718899 -0.0232038 0.0526038 -0.0356107 0.0892241 0.0433425
internal_weight=0 920.623 352.038 435.778 296.718 484.845 55.3203
internal_count=3761 2025 1736 1100 1549 925 187
is_linear=0
shrinkage=0.0596717


Tree=8
num_leaves=8
num_cat=0
split_feature=22 60 46 25 40 67 77
split_gain=526.676 102.716 73.5203 59.3436 47.0333 33.0691 28.8242
threshold=-0.53729928193302035 -0.63744223037154391 -0.25610271614869706 0.1425127957775075 -0.31004176460856497 2.4929745194803705 0.13317579247215247
decision_type=2 2 2 2 2 2 2
left_child=3 4 -3 5 -2 -1 -5
right_child=1 2 -4 6 -6 -7 -8
leaf_value=-0.052794371641783966 0.042995514296731478 0.083141717964162282 0.020897997789382453 -0.027673779310457895 -0.027824402862116619 0.028506094131374868 0.026294336106693791
leaf_weight=167.17549823224545 181.59383144974709 630.26032795011997 75.684165418148041 56.17543713748455 40.914418965578079 19.939231663942337 94.549513518810272
leaf_count=984 469 1169 237 278 173 84 343
internal_value=0 0.0653258 0.0764686 -0.0216849 0.0299733 -0.0441309 0.00618031
internal_weight=0 928.453 705.944 337.84 222.508 187.115 150.725
internal_count=3737 2048 1406 1689 642 1068 621
is_linear=0
shrinkage=0.0596717


Tree=9
num_leaves=8
num_cat=0
split_feature=22 46 41 96 147 25 5
split_gain=481.948 85.0501 70.8373 55.5203 36.3362 36.0235 24.9997
threshold=-0.53729928193302035 -0.34163240703955278 -0.29894684415307321 -0.11713633455923737 0.40377011932008261 1.1666868659760465 -0.62391625881520196
decision_type=2 2 2 2 2 2 2
left_child=3 2 -2 5 -3 -1 -5
right_child=1 4 -4 6 -6 -7 -8
leaf_value=-0.052303273759527362 0.07295420039444471 0.035634498745156562 -0.0055335114099487335 -0.031603853235168351 -0.035304530442151136 0.0039969247585621773 0.030895214194528276
leaf_weight=173.94140321016312 741.57143676280975 97.348882421851158 43.337305381894112 32.291765883564949 34.937283083796501 52.736204117536545 77.439785972237587
leaf_count=1042 1430 279 176 152 134 212 305
internal_value=0 0.0611609 0.0686206 -0.0223387 0.0168992 -0.0392051 0.012503
internal_weight=0 917.195 784.909 336.409 132.286 226.678 109.732
internal_count=3730 2019 1606 1711 413 1254 457
is_linear=0
shrinkage=0.0596717


Tree=10
num_leaves=7
num_cat=0
split_feature=22 46 30 40 114 55
split_gain=419.01 91.1401 77.0418 63.7568 40.9885 18.2846
threshold=-0.53729928193302035 -0.27088438706707763 1.4270264094018634 -0.32490012857145073 1.4530102733127339 2.4814534057365001
decision_type=2 2 2 2 2 2
left_child=2 3 4 -2 -1 -3
right_child=1 5 -4 -5 -6 -7
leaf_value=-0.043948672924954649 0.067990515169188623 -0.0041465186401631448 0.043160153347556504 0.00099474834326892928 0.026847265817027458 0.05199039505008457
leaf_weight=239.25550809502602 750.06271715462208 95.1809072047472 53.22513572871685 54.236281454563141 33.154555425047874 26.387406125664711
leaf_count=1374 1449 326 175 204 136 68
internal_value=0 0.0561942 -0.0225026 0.0634728 -0.0353322 0.00803844
internal_weight=0 925.867 325.635 804.299 272.41 121.568
internal_count=3732 2047 1685 1653 1510 394
is_linear=0
shrinkage=0.0596717


Tree=11
num_leaves=8
num_cat=0
split_feature=21 123 25 69 96 48 146
split_gain=421.072 82.8287 61.3591 51.0961 24.457 23.9325 18.2918
threshold=-0.44909113058436206 -0.77368402171979433 1.45384238463686 0.10464399882582771 -0.3945532089029683 1.0000000180025095e-35 0.97544020050221203
decision_type=2 2 2 2 2 2 2
left_child=2 5 4 -3 -1 -2 -4
right_child=1 3 6 -5 -6 -7 -8
leaf_value=-0.052020563650556066 0.05466390897211261 0.012265656340910589 0.03947457306877631 0.056673060571882636 -0.0069405301696181055 0.080137955553602799 -0.011802777437043692
leaf_weight=164.66366240382195 208.91894282400608 185.96767018735409 54.153008088469505 183.09608519077301 57.927336573600769 353.55526623129845 45.654483839869499
leaf_count=1044 463 555 187 400 283 601 184
internal_value=0 0.056263 -0.0228572 0.0342966 -0.0402889 0.0706762 0.016019
internal_weight=0 931.538 322.398 369.064 222.591 562.474 99.8075
internal_count=3717 2019 1698 955 1327 1064 371
is_linear=0
shrinkage=0.0596717


Tree=12
num_leaves=8
num_cat=0
split_feature=21 80 0 81 48 100 24
split_gain=304.13 73.2634 66.3391 40.6725 24.246 23.3546 21.6387
threshold=-0.45555010155928771 1.257664311414074 -1.1043132943729443 1.1383608034704595 1.0000000180025095e-35 2.474796632770512 0.23885521149611863
decision_type=2 2 2 2 2 2 2
left_child=1 6 4 -4 -2 -3 -1
right_child=2 5 3 -5 -6 -7 -8
leaf_value=-0.052523846989205272 0.053913250361572622 0.040403775939937804 0.024260526094671126 0.057123920139591881 0.084575805990228681 -0.022964476584474959 -0.013901602390333482
leaf_weight=127.67234039306641 172.49792292714119 78.338675603270531 330.39953757822514 225.69665491580963 196.34507769346237 28.15129654109478 86.749281078577042
leaf_count=870 371 262 906 448 314 140 432
internal_value=0 -0.0168056 0.0506134 0.0375984 0.0702358 0.023652 -0.0368983
internal_weight=0 320.912 924.939 556.096 368.843 106.49 214.422
internal_count=3743 1704 2039 1354 685 402 1302
is_linear=0
shrinkage=0.0596717


Tree=13
num_leaves=8
num_cat=0
split_feature=21 0 27 45 75 0 57
split_gain=292.502 57.0149 49.5034 46.6245 37.5477 27.4796 24.4686
threshold=-0.27857429684632468 -0.53395316577620566 1.0000000180025095e-35 0.99623714404309038 0.64776084096360342 0.89194715571564132 1.5008629723653779
decision_type=2 2 2 2 2 2 2
left_child=2 3 4 -2 -1 -3 -4
right_child=1 5 6 -5 -6 -7 -8
leaf_value=0.013888308104691258 0.07009947380574412 0.037395959142303273 -0.047082926945022141 0.020957270477060246 -0.050018797865363895 -0.016653018264523745 0.035848559546416719
leaf_weight=235.2650433331728 468.74538552761078 252.23873846232891 125.32121677696705 80.560076326131821 38.027005612850189 38.623025506734848 14.092507034540175
leaf_count=906 844 597 837 213 202 112 61
internal_value=0 0.051581 -0.00976464 0.0628924 0.00499599 0.0302189 -0.0386999
internal_weight=0 840.167 412.706 549.305 273.292 290.862 139.414
internal_count=3772 1766 2006 1057 1108 709 898
is_linear=0
shrinkage=0.0596717


Tree=14
num_leaves=8
num_cat=0
split_feature=21 0 41 47 45 45 12
split_gain=249.487 72.0439 46.2336 37.24 32.9429 30.5375 7.42427
threshold=-0.40646192214985272 -0.45247314740524297 0.058332154758500933 0.51531522081697789 0.99623714404309038 0.80337962671291274 1.0739780547311788
decision_type=2 2 2 2 2 2 2
left_child=2 4 3 -1 -2 -3 -4
right_child=1 5 6 -5 -6 -7 -8
leaf_value=0.015986874124516364 0.06567860361625584 0.031019800058497842 -0.060611177633447144 -0.029803481801104804 0.026104754137054684 -0.024733898219662438 -0.024908176079609694
leaf_weight=200.22941361367702 499.616021245718 226.69090975821018 56.574857458472252 92.436415895819664 88.109406262636185 41.362897574901581 32.740936815738678
leaf_count=769 916 525 389 558 230 149 206
internal_value=0 0.0480533 -0.00994413 0.00152431 0.0597459 0.0224165 -0.0475234
internal_weight=0 855.779 381.982 292.666 587.725 268.054 89.3158
internal_count=3742 1820 1922 1327 1146 674 595
is_linear=0
shrinkage=0.0596717


Tree=15
num_leaves=8
num_cat=0
split_feature=21 123 24 45 115 73 126
split_gain=268.823 65.825 47.7021 36.5117 32.1372 26.6623 25.1692
threshold=-0.45555010155928771 -0.38092099110852568 0.9681734089163917 1.1720276244413939 0.52227497579378968 1.4942813566655717 0.36071713200606159
decision_type=2 2 2 2 2 2 2
left_child=2 3 5 -2 -3 -1 -4
right_child=1 4 6 -5 -6 -7 -8
leaf_value=-0.051547917858415664 0.055954814292786821 -0.0072168746096086195 0.020225340531478217 0.0043482418080886959 0.037938703941949294 0.022202073709117261 -0.037947315402589762
leaf_weight=149.95611196756363 635.25160756707191 115.17196616530418 98.533443331718445 52.879300683736801 109.45615831017494 19.753899455070496 36.217332258820534
leaf_count=1064 1274 356 363 151 255 92 193
internal_value=0 0.0428336 -0.0219169 0.0519891 0.0147864 -0.0429636 0.0045901
internal_weight=0 912.759 304.461 688.131 224.628 169.71 134.751
internal_count=3748 2036 1712 1425 611 1156 556
is_linear=0
shrinkage=0.0596717


Tree=16
num_leaves=8
num_cat=0
split_feature=21 46 64 133 151 106 54
split_gain=198.858 66.1173 47.5743 44.1796 42.3746 28.8295 14.6325
threshold=-0.40646192214985272 -0.34235142496884052 1.1839191524219796 0.27620858465644432 -1.0045117721966572 2.7916075238898492 0.58037508004869176
decision_type=2 2 2 2 2 2 2
left_child=2 3 4 -2 -1 -4 -3
right_child=1 6 5 -5 -6 -7 -8
leaf_value=0.044209914705328507 0.056693117935741236 0.020453976128526095 0.0078706008375723901 0.014707648478553615 -0.029254666365777671 0.084816169526474777 -0.019464708996801503
leaf_weight=31.441717222332954 604.83666524291039 88.110164895653725 61.071128398180008 104.68634848296642 252.22995373606682 24.212372019886971 51.989302098751068
leaf_count=73 1148 246 242 255 1518 63 176
internal_value=0 0.0431015 -0.00936317 0.0504984 -0.021112 0.0297158 0.00564059
internal_weight=0 849.622 368.955 709.523 283.672 85.2835 140.099
internal_count=3721 1825 1896 1403 1591 305 422
is_linear=0
shrinkage=0.0596717


Tree=17
num_leaves=8
num_cat=0
split_feature=60 151 18 117 114 46 32
split_gain=187.475 60.4627 51.5229 38.103 34.7968 21.1819 6.02313
threshold=-0.30640260004805836 -0.48051196972007343 1.0000000180025095e-35 1.0000000180025095e-35 0.42541924998353192 -0.46443398082302184 1.2872244033573688
decision_type=2 2 2 2 2 2 2
left_child=2 5 6 -4 -3 -2 -1
right_child=1 4 3 -5 -6 -7 -8
leaf_value=-0.05810879914922739 0.068190638086997143 0.0070803802887770264 0.012426040833761415 -0.04399317714652836 0.044339418598557334 0.040766383376170556 -0.021105716681786846
leaf_weight=58.533643677830696 283.17895936965942 181.47896122932434 312.52916647493839 49.353710912168026 175.62203276157379 155.27246033400297 21.386546924710274
leaf_count=426 492 611 1107 258 410 367 157
internal_value=0 0.0436325 -0.00484475 0.00473156 0.0254044 0.0584787 -0.0482069
internal_weight=0 795.552 441.803 361.883 357.101 438.451 79.9202
internal_count=3828 1880 1948 1365 1021 859 583
is_linear=0
shrinkage=0.0596717


Tree=18
num_leaves=8
num_cat=0
split_feature=23 143 40 60 24 156 115
split_gain=209.415 57.0525 52.3882 49.1382 26.9521 22.615 10.6789
threshold=-0.59421864819809056 0.25904978484692626 -0.32449855116704845 -0.10606865402203754 2.9881436501180381 -0.39239677610213392 0.69375040763754392
decision_type=2 2 2 2 2 2 2
left_child=3 2 -2 4 -1 -5 -3
right_child=1 6 -4 5 -6 -7 -8
leaf_value=-0.046731133495187344 0.045147199310316272 -0.041731681331223458 -0.016238457731332357 0.058529472956651306 0.02592955915034879 -0.0042228006547079455 0.007937910439785173
leaf_weight=166.49745933711529 813.29477243125439 32.191352277994156 52.712101995944977 27.508485585451126 20.40503491461277 79.684730932116508 29.570864707231522
leaf_count=1177 1704 111 205 119 59 340 78
internal_value=0 0.037459 0.0414108 -0.0203266 -0.0387984 0.011881 -0.0179505
internal_weight=0 927.769 866.007 294.096 186.902 107.193 61.7622
internal_count=3793 2098 1909 1695 1236 459 189
is_linear=0
shrinkage=0.0596717


Tree=19
num_leaves=8
num_cat=0
split_feature=21 133 102 45 57 115 69
split_gain=168.445 53.2652 35.4643 26.6757 24.9374 22.6809 16.7229
threshold=-0.40775371634483781 -0.19408321397767483 -0.32740161131677142 1.0474382548387129 1.6059804679922962 2.294187771512584 0.74571947526973748
decision_type=2 2 2 2 2 2 2
left_child=2 3 4 -2 -1 -4 -3
right_child=1 6 5 -5 -6 -7 -8
leaf_value=-0.0043223158866309806 0.051879899108697031 0.0013775808397157039 -0.045118908160725599 0.0097925888874902476 0.055190404076557155 0.036545693495126798 0.033112582839173142
leaf_weight=211.31684812158346 526.91904979944229 143.75307585299015 112.65206911414862 59.698535218834877 28.445688262581825 13.56806670129299 100.43272605538368
leaf_count=1030 1029 401 780 163 88 59 224
internal_value=0 0.0378486 -0.0107391 0.0475968 0.00273833 -0.0363403 0.0144301
internal_weight=0 830.803 365.983 586.618 239.763 126.22 244.186
internal_count=3774 1817 1957 1192 1118 839 625
is_linear=0
shrinkage=0.0596717


Tree=20
num_leaves=8
num_cat=0
split_feature=23 60 123 73 84 96 100
split_gain=137.885 48.772 33.9316 31.6259 31.19 18.6989 14.9043
threshold=-0.59421864819809056 0.76245229490784527 -0.18453947580289132 1.0395790523541801 0.39483713125678349 -0.3945532089029683 2.474796632770512
decision_type=2 2 2 2 2 2 2
left_child=3 2 -2 5 -3 -1 -5
right_child=1 4 -4 6 -6 -7 -8
leaf_value=-0.041295639959383117 0.025975724007816281 0.051762228658062744 -0.018940820914801475 0.027685089879153246 0.0032717339961345162 -0.0003123089112073785 -0.025282407139059992
leaf_weight=132.06702931970358 336.21687836945057 412.57716862857342 72.865180820226669 69.141632460057735 53.338783472776413 56.641974672675133 26.04021018743515
leaf_count=1016 841 802 244 243 134 278 137
internal_value=0 0.0330101 0.0179752 -0.0148496 0.046211 -0.0289943 0.013194
internal_weight=0 874.998 409.082 283.891 465.916 188.709 95.1818
internal_count=3695 2021 1085 1674 936 1294 380
is_linear=0
shrinkage=0.0596717


Tree=21
num_leaves=8
num_cat=0
split_feature=123 49 40 32 35 0 22
split_gain=118.993 57.9532 46.7599 28.8438 23.8321 19.9968 11.4162
threshold=-0.18453947580289132 0.25140528922877509 -0.31004176460856497 1.0833849163344789 1.3475348079091296 0.89194715571564132 -0.50920768233335145
decision_type=2 2 2 2 2 2 2
left_child=2 4 3 -1 -2 -3 -4
right_child=1 5 6 -5 -6 -7 -8
leaf_value=0.04107951961206608 -0.020445369270816138 0.026406239603722716 -0.050340080363740894 -0.0093672820541674997 -0.072694163217966734 -0.010754894209855361 0.0037720938960288095
leaf_weight=655.56215786933899 128.1901403516531 144.30383738875389 23.115406952798367 43.004613384604454 41.035510219633579 80.225926429033279 34.755827069282532
leaf_count=1458 744 369 177 164 325 329 129
internal_value=0 -0.00674591 0.0337038 0.0379739 -0.0331152 0.0131283 -0.0178418
internal_weight=0 393.755 756.438 698.567 169.226 224.53 57.8712
internal_count=3695 1767 1928 1622 1069 698 306
is_linear=0
shrinkage=0.0596717


Tree=22
num_leaves=8
num_cat=0
split_feature=60 102 18 84 27 37 9
split_gain=101.159 48.4386 40.5899 29.9977 22.2539 13.3368 11.2101
threshold=-0.63744223037154391 -0.25409091738180589 1.0000000180025095e-35 0.67007165612863506 1.0000000180025095e-35 -0.14489212757548395 0.99483471894675335
decision_type=2 2 2 2 2 2 2
left_child=2 3 6 -2 -4 -3 -1
right_child=1 5 4 -5 -6 -7 -8
leaf_value=-0.063087597841312099 0.043388363908801693 -0.024716937440599135 0.011376189701372261 -0.0042536373302833634 -0.031834085207757087 0.017781558589795986 -0.010093518895441921
leaf_weight=44.964907318353653 601.42245129495859 53.851920932531357 285.11406599730253 51.053927153348923 49.861273236572742 51.378762312233448 20.782540500164032
leaf_count=385 1345 199 936 170 369 155 168
internal_value=0 0.0336015 -0.00346942 0.0396605 0.00494431 -0.00396707 -0.0463364
internal_weight=0 757.707 400.723 652.476 334.975 105.231 65.7474
internal_count=3727 1869 1858 1515 1305 354 553
is_linear=0
shrinkage=0.0596717


Tree=23
num_leaves=8
num_cat=0
split_feature=81 100 109 57 127 16 73
split_gain=103.573 44.2199 42.3643 40.0927 37.9525 20.0283 12.7398
threshold=-0.61723060523360995 -0.45469771713002993 0.85783382656329665 1.6669745703931007 -0.24104804375765354 -0.17209104933175892 1.5493756542738539
decision_type=2 2 2 2 2 2 2
left_child=2 4 3 -1 -2 -3 -4
right_child=1 5 6 -5 -6 -7 -8
leaf_value=0.00042472845645099709 0.050523889688413856 0.021998991222976567 -0.049111099229533876 0.070586253985334163 0.017036603814065337 -0.025107515350429613 0.008048630509974869
leaf_weight=288.67659263312817 442.0919504314661 82.56086565554142 74.758176483213902 32.239246472716331 165.6678649187088 52.622037932276726 17.050737053155899
leaf_count=1214 928 258 541 68 432 202 73
internal_value=0 0.0345298 -0.00275233 0.00747317 0.0413957 0.00366203 -0.0384954
internal_weight=0 742.943 412.725 320.916 607.76 135.183 91.8089
internal_count=3716 1820 1896 1282 1360 460 614
is_linear=0
shrinkage=0.0596717


Tree=24
num_leaves=7
num_cat=0
split_feature=60 103 84 57 123 45
split_gain=90.4635 50.031 39.6686 36.7976 31.3616 11.045
threshold=-0.63744223037154391 -0.025461549009217124 0.67007165612863506 1.612469202290254 -0.73440771865866739 0.64465618324648355
decision_type=2 2 2 2 2 2
left_child=3 2 -2 4 -1 -3
right_child=1 5 -4 -5 -6 -7
leaf_value=0.011971768562629069 0.039410898041766236 -0.00019534916429941144 -0.01479885844147312 0.049315520427618005 -0.025443030186650607 -0.048436853348722761
leaf_weight=124.65878494083881 616.44606800377369 58.486567884683609 52.1295525431633 38.793314754962921 221.53931220620871 23.765994034707546
leaf_count=411 1415 177 177 102 1310 121
internal_value=0 0.0297813 0.0351841 -0.00579526 -0.0119707 -0.0141342
internal_weight=0 750.828 668.576 384.991 346.198 82.2526
internal_count=3713 1890 1592 1823 1721 298
is_linear=0
shrinkage=0.0596717


Tree=25
num_leaves=8
num_cat=0
split_feature=21 45 8 16 144 24 147
split_gain=100.077 41.3098 36.8087 36.6355 31.0464 26.7074 23.6323
threshold=-0.44650754219439176 1.1959214761460175 -0.85987323926005621 0.34475874447297533 0.64594956221580924 0.23885521149611863 1.2154910184508247
decision_type=2 2 2 2 2 2 2
left_child=3 2 -2 5 -3 -1 -5
right_child=1 4 -4 6 -6 -7 -8
leaf_value=-0.058429495575652197 0.040909744285502599 -0.065731998165086472 0.015048654922328087 -0.013917124560086914 0.017461567338829698 -0.010895533462098601 0.040728328693055565
leaf_weight=80.791995324194431 416.20205873250961 29.726651787757874 370.36010381579399 64.174628250300884 34.520312607288361 87.857669785618782 50.240796081721783
leaf_count=722 896 113 930 373 96 432 193
internal_value=0 0.024975 0.0287328 -0.015985 -0.0210315 -0.0336668 0.0100781
internal_weight=0 850.809 786.562 283.065 64.247 168.65 114.415
internal_count=3755 2035 1826 1720 209 1154 566
is_linear=0
shrinkage=0.0596717


Tree=26
num_leaves=7
num_cat=0
split_feature=21 45 132 69 18 10
split_gain=97.3762 46.9985 38.0612 25.1107 20.2332 11.2307
threshold=-0.18427332061241006 1.3102706235895745 -0.30373511774375078 -0.16528251757160797 1.0000000180025095e-35 -0.34864300139630344
decision_type=2 2 2 2 2 2
left_child=3 2 -2 4 -1 -5
right_child=1 -3 -4 5 -6 -7
leaf_value=-0.049378133164281933 0.040661157198713174 -0.031062383731069561 0.011647887188201153 -0.010423983919422744 -0.010813743795600492 0.035227219498212663
leaf_weight=61.0610496327281 453.42465907335281 47.345942333340645 249.64327810704708 30.34382264316082 234.4198848977685 52.194611392915249
leaf_count=565 956 160 627 131 1154 189
internal_value=0 0.0264839 0.0303592 -0.0106547 -0.0187831 0.0184443
internal_weight=0 750.414 703.068 378.019 295.481 82.5384
internal_count=3782 1743 1583 2039 1719 320
is_linear=0
shrinkage=0.0596717


Tree=27
num_leaves=8
num_cat=0
split_feature=57 35 132 146 143 42 156
split_gain=81.3228 45.1827 35.8857 34.3874 28.8584 22.7504 20.0602
threshold=0.34067727989050273 0.48892094680207759 -0.30723181293183643 1.7741963123127316 0.46744557515049739 1.4971487591836856 -0.45403681708422378
decision_type=2 2 2 2 2 2 2
left_child=1 3 4 -1 -2 -3 -4
right_child=2 5 6 -5 -6 -7 -8
leaf_value=0.012074175766779474 0.048527259586688257 -0.054972387625823502 0.037952733792209772 -0.054042735921469201 -0.0015578775454728974 0.013942544318204225 -0.0051400454287083754
leaf_weight=430.281588986516 340.32988908141851 69.397721610963345 58.563931286334991 29.960201017558575 46.568025089800358 22.615345895290375 112.07627587765455
leaf_count=1498 749 496 168 188 192 88 339
internal_value=0 0.000138556 0.032445 0.00777018 0.0424989 -0.0380342 0.00964943
internal_weight=0 552.255 557.538 460.242 386.898 92.0131 170.64
internal_count=3718 2270 1448 1686 941 584 507
is_linear=0
shrinkage=0.0596717


Tree=28
num_leaves=8
num_cat=0
split_feature=138 121 27 127 80 32 110
split_gain=78.8119 39.9274 32.0752 29.5013 24.4926 14.915 13.0724
threshold=-0.56653160907076772 1.0000000180025095e-35 0.14612459754109827 -0.45218243763959487 1.0082230998845589 1.5725996851894148 3.4485837329168176
decision_type=2 2 2 2 2 2 2
left_child=2 3 4 -2 -1 -3 -4
right_child=1 5 6 -5 -6 -7 -8
leaf_value=-0.0090333844384202604 0.04770739531661608 0.010297753670849301 -0.048231625063672748 0.019140420923551001 0.028532394544979873 -0.032788452080209848 0.022878306236569723
leaf_weight=223.8371092826128 273.34472848474979 164.56016418337822 76.524380460381508 243.29011182487011 85.36991611123085 34.627532444894314 10.463861882686613
leaf_count=934 597 501 713 612 221 139 50
internal_value=0 0.0255042 -0.00766717 0.0342548 0.00133826 0.00280747 -0.0396777
internal_weight=0 715.823 396.195 516.635 309.207 199.188 86.9882
internal_count=3767 1849 1918 1209 1155 640 763
is_linear=0
shrinkage=0.0596717


Tree=29
num_leaves=8
num_cat=0
split_feature=69 123 147 73 121 84 5
split_gain=59.6056 51.8163 33.2906 29.4968 28.4447 14.0004 8.83442
threshold=0.50888491160371829 -0.57730250641416003 1.689587766708063 0.49421524564941233 -0.11779744552267134 -0.34284981433439649 -0.77037231053463151
decision_type=2 2 2 2 2 2 2
left_child=1 3 -3 -1 5 -2 -6
right_child=4 2 -4 -5 6 -7 -8
leaf_value=0.0096371667913884556 0.048953414746399623 -0.022931011503176935 0.037129397923444704 0.056213541264365494 -0.019651653771336638 0.020938544835486735 0.015955620337116509
leaf_weight=266.36620133370161 206.98551024496555 278.12510792165995 37.263866543769836 59.170022286474705 32.220876961946487 91.640958368778229 107.88022309541702
leaf_count=826 451 1542 119 121 111 222 312
internal_value=0 0.00140277 -0.0158347 0.018103 0.0299493 0.0403564 0.00776653
internal_weight=0 640.925 315.389 325.536 438.728 298.626 140.101
internal_count=3704 2608 1661 947 1096 673 423
is_linear=0
shrinkage=0.0596717


Tree=30
num_leaves=8
num_cat=0
split_feature=60 18 45 117 84 91 9
split_gain=66.4164 34.5475 28.7482 26.3738 23.0929 17.5249 7.20333
threshold=-0.63744223037154391 1.0000000180025095e-35 1.1925080687596428 0.53965964263137234 -0.34284981433439649 -0.32388094920958738 0.82681268721429524
decision_type=2 2 2 2 2 2 2
left_child=1 6 4 -3 -2 -4 -1
right_child=2 3 5 -5 -6 -7 -8
leaf_value=-0.070038582540463218 0.032494860403039477 0.0037921429343527129 -0.047196037229706445 -0.057979972156688001 0.0067401971454013098 0.019704510114553209 -0.025214324416141184
leaf_weight=33.249540500342846 483.10906545072794 299.2737815156579 32.350483678281307 26.816018782556057 166.75673417747021 24.50205759704113 20.721776492893696
leaf_count=340 1170 1140 154 165 459 86 209
internal_value=0 -0.00860688 0.0223265 -0.00128768 0.0258862 -0.0183635 -0.0528288
internal_weight=0 380.061 706.718 326.09 649.866 56.8525 53.9713
internal_count=3723 1854 1869 1305 1629 240 549
is_linear=0
shrinkage=0.0596717


Tree=31
num_leaves=8
num_cat=0
split_feature=21 123 64 81 73 2 139
split_gain=66.8291 31.7556 24.5884 24.421 20.9994 18.7566 18.3348
threshold=-0.44650754219439176 -0.65585511253641371 1.2073600203503283 1.5568339243373976 0.66159032699102893 1.8384769180845033 2.5073876118573968
decision_type=2 2 2 2 2 2 2
left_child=2 4 6 -3 -2 -4 -1
right_child=1 3 5 -5 -6 -7 -8
leaf_value=-0.031967355279337507 0.022806536710642915 -0.0019907914870042689 0.040555166514321762 0.051523751091642082 0.053209785196231242 -0.016388156933175062 0.034916088100295707
leaf_weight=172.63957358896732 416.97202657163143 262.07946765422821 42.189539827406406 34.342729344964027 100.3618957400322 40.244529537856579 15.941644117236136
leaf_count=1342 998 751 121 67 209 176 85
internal_value=0 0.0197819 -0.01443 0.00420926 0.0287047 0.0127553 -0.0263134
internal_weight=0 813.756 271.015 296.422 517.334 82.4341 188.581
internal_count=3749 2025 1724 818 1207 297 1427
is_linear=0
shrinkage=0.0596717


Tree=32
num_leaves=8
num_cat=0
split_feature=81 121 64 158 65 60 145
split_gain=52.9415 30.5933 27.7236 22.5259 28.7793 15.8368 7.65469
threshold=-0.16133812929660304 -0.75017285467402894 0.49030988090109767 -0.40815321541486188 1.0229342589244232 0.91636739978149551 -0.57240427348820244
decision_type=2 2 2 2 2 2 2
left_child=3 5 -3 6 -5 -2 -1
right_child=1 2 -4 4 -6 -7 -8
leaf_value=0.0079910176892018531 0.02711765356134303 -0.015190186426545797 0.021642884383806037 -0.020053192907130313 0.021204630282877054 0.055566017233087704 0.047647286369014545
leaf_weight=36.803028181195259 214.02391192317009 103.11458116769791 247.20163074880838 262.61551155149937 78.105950534343719 103.3110007494688 32.759228959679604
leaf_count=102 534 380 646 1544 254 220 79
internal_value=0 0.0229585 0.0108012 -0.00427773 -0.0105954 0.0363793 0.0266665
internal_weight=0 667.651 350.316 410.284 340.721 317.335 69.5623
internal_count=3759 1780 1026 1979 1798 754 181
is_linear=0
shrinkage=0.0596717


Tree=33
num_leaves=8
num_cat=0
split_feature=81 102 44 92 109 10 30
split_gain=50.3371 26.938 22.201 21.3393 21.4915 10.9985 6.43795
threshold=-0.16133812929660304 -0.34326104318128298 0.39231809728240513 0.014767425985510145 1.0820845899928304 0.56662341952783202 -0.66428216480417734
decision_type=2 2 2 2 2 2 2
left_child=3 2 -2 4 -1 -3 -5
right_child=1 5 -4 6 -6 -7 -8
leaf_value=0.0076294671636852676 0.031857395220012859 0.007819674526981622 -0.00058060446495395129 -0.045364601465364932 -0.029928366758258468 -0.030612920935585049 0.0038813435887460651
leaf_weight=277.1348490640521 457.11814560741186 82.559198275208473 89.903606370091438 54.373657763004303 67.454924277961254 39.057026289403439 11.441319011151789
leaf_count=941 1099 266 296 517 421 147 103
internal_value=0 0.0208788 0.0265262 -0.00566917 0.000277352 -0.00452292 -0.0368036
internal_weight=0 668.638 547.022 410.405 344.59 121.616 65.815
internal_count=3790 1808 1395 1982 1362 413 620
is_linear=0
shrinkage=0.0596717


Tree=34
num_leaves=8
num_cat=0
split_feature=0 60 114 130 94 94 23
split_gain=43.1357 40.7175 31.2873 19.4159 18.6795 16.3236 9.73072
threshold=-0.53395316577620566 0.92736133584389913 0.2647968059548747 0.31144607378061756 0.56118302602493531 -0.50765516648101505 0.03459737611272979
decision_type=2 2 2 2 2 2 2
left_child=1 5 3 -2 -4 -1 -3
right_child=2 6 4 -5 -6 -7 -8
leaf_value=0.014838421349840711 -0.028116837607568584 0.055883795591233736 0.029541069133171529 0.0013612469711958486 -0.0087716037289637065 -0.026459675658181581 0.02478928701719911
leaf_weight=335.76154331862926 167.33178681880236 114.23374845832586 128.80455531924963 151.67737527191639 69.904314383864403 37.929139591753483 52.216649159789085
leaf_count=970 1030 252 350 658 236 124 121
internal_value=0 0.021581 -0.00252361 -0.0141011 0.0160629 0.0106467 0.0461292
internal_weight=0 540.141 517.718 319.009 198.709 373.691 166.45
internal_count=3741 1467 2274 1688 586 1094 373
is_linear=0
shrinkage=0.0596717


Tree=35
num_leaves=7
num_cat=0
split_feature=69 123 73 75 146 85
split_gain=51.9312 44.868 21.329 17.4181 16.6754 14.7347
threshold=-0.062113488467780427 -0.57730250641416003 0.77735809158564706 0.27575373355687621 1.0174799958606606 -0.51567445126648259
decision_type=2 2 2 2 2 2
left_child=1 2 -1 -3 5 -2
right_child=4 3 -4 -5 -6 -7
leaf_value=0.0080892093821811981 0.035104081944909785 -0.0089852631425239755 0.059901377249679255 -0.039866574956867844 -0.010218619943256686 0.011042863662204349
leaf_weight=259.02304076403379 290.2148347645998 192.98222155123949 31.759531140327454 98.092412158846855 46.070110008120537 131.77306495606899
leaf_count=815 715 1149 65 484 165 350
internal_value=0 -0.00283037 0.0137482 -0.0193923 0.0238691 0.0275906
internal_weight=0 581.857 290.783 291.075 468.058 421.988
internal_count=3743 2513 880 1633 1230 1065
is_linear=0
shrinkage=0.0596717


Tree=36
num_leaves=8
num_cat=0
split_feature=41 122 50 46 9 144 32
split_gain=49.6018 39.2617 23.4445 23.1506 11.6104 9.95003 6.56661
threshold=-0.29894684415307321 0.63128317947565338 0.94415241104730441 -0.42309881056257309 0.56187075183551249 -0.33666292583597751 -0.66963467206237404
decision_type=2 2 2 2 2 2 2
left_child=1 3 -3 -1 6 -6 -2
right_child=4 2 -4 -5 5 -7 -8
leaf_value=0.026492449336168865 -0.07900469864553844 -0.048114429098520817 0.0011071490713000084 0.0037907011490880666 -0.031751551168033666 0.030076170781263022 -0.031209342948427175
leaf_weight=547.9852702319622 21.887836240231991 44.30072670057416 155.0529763251543 225.87985846027732 29.457062218338251 13.522952437400816 19.226806335151196
leaf_count=1348 185 352 544 821 260 116 154
internal_value=0 0.013783 -0.00983094 0.0198661 -0.0339842 -0.0122984 -0.0566538
internal_weight=0 973.219 199.354 773.865 84.0947 42.98 41.1146
internal_count=3780 3065 896 2169 715 376 339
is_linear=0
shrinkage=0.0596717


Tree=37
num_leaves=7
num_cat=0
split_feature=102 127 9 57 15 113
split_gain=44.6238 39.8049 34.7991 31.4066 11.4931 10.5263
threshold=-0.38743865032165664 2.1869974858846724 -0.34931014100634311 1.2789482593752175 -0.95694274616127928 -0.33163510355202253
decision_type=2 2 2 2 2 2
left_child=1 3 5 -1 -4 -2
right_child=2 -3 4 -5 -6 -7
leaf_value=0.011079896803676638 0.0033791033574613371 -0.053171889223621746 0.012670859569928307 0.038923665824411049 -0.039167533384364156 0.051497730383891764
leaf_weight=580.1855319365859 77.019802447408438 29.03058273717761 17.353636346757412 191.97433218359947 124.38168659806252 20.49538142234087
leaf_count=1875 322 166 75 469 770 96
internal_value=0 0.0154235 -0.013944 0.0180024 -0.0328206 0.0134925
internal_weight=0 801.19 239.251 772.16 141.735 97.5152
internal_count=3773 2510 1263 2344 845 418
is_linear=0
shrinkage=0.0596717


Tree=38
num_leaves=7
num_cat=0
split_feature=60 112 35 117 103 15
split_gain=43.9233 29.9788 24.8406 24.5873 22.481 16.3481
threshold=0.65923145076638956 1.3300999868312984 -0.46007332073729562 1.0000000180025095e-35 -0.025461549009217124 1.5681953928613614
decision_type=2 2 2 2 2 2
left_child=2 4 3 -1 -2 -4
right_child=1 -3 5 -5 -6 -7
leaf_value=0.0088778730527166779 0.029066705874314886 -0.036394758078654048 -0.034602146754851099 -0.035931080300952177 -0.012593033512215055 0.029324856814483522
leaf_weight=357.51163598522544 418.09786660224199 30.696323044598103 113.41451767459512 49.659851633012295 51.842244558036327 16.290009398013353
leaf_count=1281 1069 122 709 300 171 101
internal_value=0 0.020739 -0.00383155 0.00341283 0.0244709 -0.0265733
internal_weight=0 500.636 536.876 407.171 469.94 129.705
internal_count=3753 1362 2391 1581 1240 810
is_linear=0
shrinkage=0.0596717


Tree=39
num_leaves=8
num_cat=0
split_feature=69 123 77 73 5 121 85
split_gain=30.9287 24.145 20.2994 18.7251 12.0201 15.4136 10.8443
threshold=-0.16528251757160797 -0.57730250641416003 0.67469137757625863 0.75504141407343162 -0.81919099444110788 -0.15732090859463119 -0.51567445126648259
decision_type=2 2 2 2 2 2 2
left_child=1 3 -3 -1 5 -2 -6
right_child=4 2 -4 -5 6 -7 -8
leaf_value=0.0066859591503992677 0.017141079528063905 -0.026384821216464693 0.0051527037603804008 0.054805015292623077 0.03327684504105323 -0.030939863225505647 0.0099739462207885602
leaf_weight=250.827746540308 90.161231376230717 161.64458075165749 132.02919750660658 32.530262932181358 237.43047339469194 32.226469032466412 101.51019960641861
leaf_count=798 240 1106 554 72 615 115 297
internal_value=0 -0.000216282 -0.0122062 0.0122102 0.0205098 0.00448064 0.0262978
internal_weight=0 577.032 293.674 283.358 461.328 122.388 338.941
internal_count=3797 2530 1660 870 1267 355 912
is_linear=0
shrinkage=0.0596717


Tree=40
num_leaves=8
num_cat=0
split_feature=121 60 147 84 57 5 147
split_gain=38.7793 27.02 23.7329 18.8687 18.3674 12.5891 8.00572
threshold=-0.39446168702639028 0.69587790430773477 0.59069230246652438 -0.3999191976148509 1.5955984931155638 -1.2097404656929198 1.6462528661170193
decision_type=2 2 2 2 2 2 2
left_child=1 2 -1 -3 5 -2 -6
right_child=4 3 -4 -5 6 -7 -8
leaf_value=0.012227077418048777 -0.051942036537475311 0.046519240529517489 -0.042600519542536124 0.011681418212098666 0.0052517213776686255 -0.0081095855696615964 0.043849487770075989
leaf_weight=306.72324350103736 25.052412956953049 148.15018451213837 30.948347538709641 88.383004233241081 48.699922546744347 339.63022857159376 31.517999202013016
leaf_count=994 148 362 116 233 143 1653 79
internal_value=0 0.0180357 0.007202 0.0335018 -0.0054343 -0.0111207 0.020417
internal_weight=0 574.205 337.672 236.533 444.901 364.683 80.2179
internal_count=3728 1705 1110 595 2023 1801 222
is_linear=0
shrinkage=0.0596717


Tree=41
num_leaves=7
num_cat=0
split_feature=69 126 112 40 85 45
split_gain=30.4087 20.4259 32.963 27.0847 14.5537 12.5285
threshold=-0.16528251757160797 0.65943129961140412 1.0070782792173334 -0.31847489010101365 0.45017780450102052 1.0098907735885898
decision_type=2 2 2 2 2 2
left_child=1 3 -3 -1 5 -2
right_child=4 2 -4 -5 -6 -7
leaf_value=0.0072168007464178769 0.025210520244153396 -0.058604411746466599 0.019338219937316645 -0.032149846982043137 -0.015028779810972228 -0.0066156855472550751
leaf_weight=416.11664213240147 345.11343210935593 53.667353168129921 30.187975231558084 73.173960328102112 43.997349336743355 50.484324723482132
leaf_count=1428 906 295 145 668 158 172
internal_value=0 -0.00333398 -0.030545 0.00132947 0.0175281 0.021149
internal_weight=0 573.146 83.8553 489.291 439.595 395.598
internal_count=3772 2536 440 2096 1236 1078
is_linear=0
shrinkage=0.0596717


Tree=42
num_leaves=8
num_cat=0
split_feature=81 154 8 85 96 40 17
split_gain=29.2501 23.9649 19.4543 16.3701 15.6944 14.9236 2.45785
threshold=0.47790918648374198 0.69814149758967436 1.5437873026833429 -0.51567445126648259 1.5384802925592316 0.28101324510424724 1.493291918993233
decision_type=2 2 2 2 2 2 2
left_child=2 3 5 -2 -3 -1 -4
right_child=1 4 6 -5 -6 -7 -8
leaf_value=0.0028140066749896843 0.036922823732722529 -0.021379847255028606 -0.071531874069358195 0.0099299894265727391 0.016891430963481079 -0.034408362306883718 -0.031420864964607234
leaf_weight=464.19824689254165 205.76575886458158 75.647570587694645 14.304719664156439 130.89019554108381 76.978192083537579 41.80750622600317 8.7778062559664232
leaf_count=1659 528 289 146 361 215 492 78
internal_value=0 0.0175362 -0.00270526 0.0264281 -0.00207736 -0.000261396 -0.0562786
internal_weight=0 489.282 529.088 336.656 152.626 506.006 23.0825
internal_count=3768 1393 2375 889 504 2151 224
is_linear=0
shrinkage=0.0596717


Tree=43
num_leaves=6
num_cat=0
split_feature=123 49 30 138 60
split_gain=34.0264 20.9794 20.0922 22.738 13.4509
threshold=-0.77368402171979433 1.4879746657769024 1.4435534680430055 -0.20477257433053753 0.92736133584389913
decision_type=2 2 2 2 2
left_child=1 4 3 -2 -1
right_child=2 -3 -4 -5 -6
leaf_value=0.013151173648904569 -0.023044203712004451 -0.028823801617431893 0.027910676909323005 0.003064250046040877 0.035809376031698571
leaf_weight=286.85070317983627 224.62682858482003 33.066896714270115 58.164507299661636 252.05455417186022 138.25463833659887
leaf_count=827 1429 120 169 814 357
internal_value=0 0.016959 -0.00519883 -0.00923884 0.0205202
internal_weight=0 458.172 534.846 476.681 425.105
internal_count=3716 1304 2412 2243 1184
is_linear=0
shrinkage=0.0596717


Tree=44
num_leaves=8
num_cat=0
split_feature=146 60 121 57 12 90 95
split_gain=33.3148 23.8468 21.2145 21.052 15.0679 11.4271 7.4196
threshold=1.3117585633697992 0.17122284444080829 -0.86874324388990853 1.612469202290254 -0.17863380899557016 2.044298572549649 1.5067542310681603
decision_type=2 2 2 2 2 2 2
left_child=1 3 -3 -1 6 -6 -2
right_child=4 2 -4 -5 5 -7 -8
leaf_value=-0.0052871638552645138 -0.077797393653569274 0.034488032481587452 0.0094430010679355768 0.047650084776686877 -0.021674136504721178 0.036137312375664164 -0.028018449540476071
leaf_weight=347.26582594960928 21.018749464303255 188.64385948330164 333.03304104506969 28.981455728411674 46.906849719583988 16.441622082144022 21.637534152716398
leaf_count=1613 141 499 968 70 297 53 137
internal_value=0 0.0102411 0.0184996 -0.00120952 -0.0251306 -0.00666956 -0.0525469
internal_weight=0 897.924 521.677 376.247 106.005 63.3485 42.6563
internal_count=3778 3150 1467 1683 628 350 278
is_linear=0
shrinkage=0.0596717


Tree=45
num_leaves=7
num_cat=0
split_feature=109 81 123 64 148 67
split_gain=39.4316 26.1255 21.691 22.2825 11.5616 10.5016
threshold=1.2315850989458528 1.5356296231310249 -1.0093418400865555 0.62374251372400569 2.0151739627598135 1.0000000180025095e-35
decision_type=2 2 2 2 2 2
left_child=2 4 5 -4 -2 -1
right_child=1 -3 3 -5 -6 -7
leaf_value=0.026391985937373207 -0.060176182436534269 0.019490212559752751 -0.0079020354377868883 0.015324447572296436 -0.01417002789484134 -0.010411701020206797
leaf_weight=248.93623953312635 58.0585404522717 30.370074540376663 338.52578287944198 260.05438669025898 29.249209009110928 31.049580082297325
leaf_count=662 518 93 1522 733 155 99
internal_value=0 -0.028181 0.00860127 0.00218875 -0.0447636 0.0223106
internal_weight=0 117.678 878.566 598.58 87.3077 279.986
internal_count=3782 766 3016 2255 673 761
is_linear=0
shrinkage=0.0596717


Tree=46
num_leaves=8
num_cat=0
split_feature=60 102 85 117 109 9 73
split_gain=28.3283 27.8208 19.8556 14.837 14.5385 10.8891 8.30092
threshold=-0.311288793853571 -0.34562742086067161 -0.51567445126648259 0.53965964263137234 1.8669622619961979 -0.90487423384688326 -0.90057709886405923
decision_type=2 2 2 2 2 2 2
left_child=3 2 -2 4 -1 -3 -5
right_child=1 5 -4 6 -6 -7 -8
leaf_value=-4.1583916247423932e-05 0.027097523635767503 0.014090137648638658 0.0019075686396534423 0.004410222837752456 -0.054590231953130779 -0.027121631304349011 -0.059027879930913602
leaf_weight=302.70446516945958 360.61994223296642 33.249880135059357 161.23924972862005 9.9257542230188829 18.458470318466425 72.839806973934174 28.241386692970991
leaf_count=1361 987 117 473 90 188 266 271
internal_value=0 0.0136515 0.0193146 -0.00735674 -0.00317671 -0.0142053 -0.0425301
internal_weight=0 627.949 521.859 359.33 321.163 106.09 38.1671
internal_count=3753 1843 1460 1910 1549 383 361
is_linear=0
shrinkage=0.0596717


Tree=47
num_leaves=7
num_cat=0
split_feature=117 110 77 9 64 5
split_gain=17.7585 18.3332 18.0775 16.1491 10.65 8.40902
threshold=0.90303021532633621 0.3856245858365609 1.3873595569360668 -0.39764424222626821 0.91585179098496627 0.49891347103375761
decision_type=2 2 2 2 2 2
left_child=1 3 -3 -1 5 -2
right_child=4 2 -4 -5 -6 -7
leaf_value=0.021435283357064554 -0.058003809329732037 -0.033474039548187076 0.013184923599245406 0.0040724056231191417 0.022702192987101466 -0.00022454751973119945
leaf_weight=305.4866073988378 30.736817732453346 71.627298839390278 50.350975669920444 507.80743900686502 11.84092193841934 12.6644338555634
leaf_count=965 258 411 160 1828 38 104
internal_value=0 0.00735872 -0.0142138 0.0105942 -0.0274588 -0.041144
internal_weight=0 935.272 121.978 813.294 55.2422 43.4013
internal_count=3764 3364 571 2793 400 362
is_linear=0
shrinkage=0.0596717


Tree=48
num_leaves=8
num_cat=0
split_feature=57 33 38 114 126 133 5
split_gain=22.8944 18.3911 20.7883 14.3829 14.3838 13.1315 11.2968
threshold=0.34067727989050273 0.042072654156657924 1.1232653156133334 -0.41226254624938707 -0.1414001174305001 2.0006118463148814 0.84064425837909329
decision_type=2 2 2 2 2 2 2
left_child=1 5 -3 4 -2 -1 -5
right_child=3 2 -4 6 -6 -7 -8
leaf_value=0.0051184363225431273 0.012832614385420006 -0.014309317243224562 -0.084094398706363802 0.016642052655144724 -0.020851190913499049 -0.039169855843237608 0.046329499929758371
leaf_weight=354.67234630510211 148.88312400877476 104.38606658950448 17.789942838251591 193.62533356249332 64.782631028443575 25.555778559297323 59.7163290604949
leaf_count=1407 480 640 110 532 261 148 156
internal_value=0 -0.00432994 -0.0244707 0.0140227 0.0026198 0.00214174 0.0236398
internal_weight=0 502.404 122.176 467.007 213.666 380.228 253.342
internal_count=3734 2305 750 1429 741 1555 688
is_linear=0
shrinkage=0.0596717


Tree=49
num_leaves=7
num_cat=0
split_feature=45 124 85 144 123 22
split_gain=32.2536 19.9253 21.1667 13.5184 21.4341 13.3505
threshold=1.4570471412036914 3.1339536021626877 -0.51567445126648259 0.81432397154842395 0.12967094868612369 -0.44739157964517634
decision_type=2 2 2 2 2 2
left_child=1 2 -1 5 -5 -2
right_child=3 -3 -4 4 -6 -7
leaf_value=0.018937102416536851 -0.027282538154009533 -0.036057684029762262 -0.0002933332266672413 0.027171736345280074 -0.060423645277395424 -0.10120067813561519
leaf_weight=560.04370510950685 22.314381085336208 31.914170831441879 320.3993031270802 25.881152108311653 16.155739590525627 14.260411873459814
leaf_count=1806 189 119 1324 89 152 64
internal_value=0 0.0102601 0.011939 -0.0295746 -0.0064931 -0.0561031
internal_weight=0 912.357 880.443 78.6117 42.0369 36.5748
internal_count=3743 3249 3130 494 241 253
is_linear=0
shrinkage=0.0596717


Tree=50
num_leaves=6
num_cat=0
split_feature=60 112 102 144 122
split_gain=23.6317 25.7921 20.9086 13.5412 18.0076
threshold=-0.30640260004805836 1.4408624148499167 -0.3395625985962783 1.515455576822786 -0.82671576728632667
decision_type=2 2 2 2 2
left_child=3 2 -2 4 -1
right_child=1 -3 -4 -5 -6
leaf_value=0.013371803199687093 0.019371736080721229 -0.04254116595981372 -0.010684214122043966 0.021224869295526347 -0.020441828572605531
leaf_weight=73.52121589332819 483.69817340373993 29.936259366571903 99.340061783790588 49.380547061562538 236.40091481804848
leaf_count=239 1356 130 343 170 1500
internal_value=0 0.0114771 0.0142507 -0.00779636 -0.0124204
internal_weight=0 612.974 583.038 359.303 309.922
internal_count=3738 1829 1699 1909 1739
is_linear=0
shrinkage=0.0596717


Tree=51
num_leaves=6
num_cat=0
split_feature=127 40 45 121 10
split_gain=21.0984 17.1773 14.5658 10.6793 8.50643
threshold=2.1869974858846724 0.014767425985510145 1.3751253639306957 1.3445706881398436 -1.0804070393814633
decision_type=2 2 2 2 2
left_child=1 2 -1 -2 -3
right_child=3 4 -4 -5 -6
leaf_value=0.0092145323644001777 -0.065149913283310809 -0.071923434470513414 -0.017246764423823838 -0.0014615749884691149 -0.015186339156110049
leaf_weight=791.86054787412286 23.706556811928749 12.141508769243954 81.714611064642668 15.50728991255164 41.811592560261488
leaf_count=2393 151 147 469 124 462
internal_value=0 0.00472124 0.00673933 -0.0399642 -0.0279544
internal_weight=0 927.528 873.575 39.2138 53.9531
internal_count=3746 3471 2862 275 609
is_linear=0
shrinkage=0.0596717


Tree=52
num_leaves=6
num_cat=0
split_feature=9 81 120 149 11
split_gain=25.078 18.9248 20.4639 18.2623 6.48041
threshold=1.2677455268286277 -0.16133812929660304 -0.87646712245848868 -0.62123143832527605 0.2258768063207276
decision_type=2 2 2 2 2
left_child=1 3 -3 -1 -2
right_child=4 2 -4 -5 -6
leaf_value=0.0058820710815931966 -0.070328609109114842 0.0327429329635281 0.0057193052872643165 -0.021235434771241235 -0.020709624707615466
leaf_weight=209.82880373671651 18.121536873281002 129.53351672738791 434.37986841052771 152.84102498367429 19.412319466471672
leaf_count=1009 100 368 1332 867 81
internal_value=0 0.00508777 0.0119268 -0.00554613 -0.044666
internal_weight=0 926.583 563.913 362.67 37.5339
internal_count=3757 3576 1700 1876 181
is_linear=0
shrinkage=0.0596717


Tree=53
num_leaves=7
num_cat=0
split_feature=133 114 147 123 125 96
split_gain=25.0384 17.5676 16.9557 14.8535 12.8923 6.40065
threshold=2.0528664906075611 -0.42562114975216786 1.901087953174798 1.4650652527644377 1.0844161680239057 0.70952126028135731
decision_type=2 2 2 2 2 2
left_child=1 2 -1 5 -3 -2
right_child=3 4 -4 -5 -6 -7
leaf_value=-0.0030820165914246531 -0.086243142432380335 0.019706515173232103 0.052743099112777657 0.013485928949611382 -0.014545059016424482 -0.033933054400549709
leaf_weight=472.49512185156345 16.251872137188911 360.51923809200525 20.201102823019028 14.17595027387142 43.893647514283657 17.085291430354118
leaf_count=2140 118 1048 64 122 132 71
internal_value=0 0.00677216 -0.000793118 -0.0376779 0.015989 -0.0594343
internal_weight=0 897.109 492.696 47.5131 404.413 33.3372
internal_count=3695 3384 2204 311 1180 189
is_linear=0
shrinkage=0.0596717


Tree=54
num_leaves=8
num_cat=0
split_feature=57 103 158 13 38 70 158
split_gain=19.4563 15.2903 15.8191 13.8521 17.9297 16.1075 9.8587
threshold=0.99344395026506904 -0.20484142127013746 -0.35901767048084282 -0.25249496823775697 2.3534041361511209 1.7150199411584011 -0.29861910389918794
decision_type=2 2 2 2 2 2 2
left_child=3 2 -2 5 -5 -1 -3
right_child=1 6 -4 4 -6 -7 -8
leaf_value=0.011342994899727574 0.034783456731099026 -0.040712231410889428 0.0062288369063929613 -0.0067057716247701151 -0.061619369593553151 -0.039056003283187785 0.01256744757012253
leaf_weight=275.94473550096154 146.85295091569424 25.286083929240704 130.44692637771368 306.72242204844952 22.741138197481632 24.592263352125883 24.202058635652065
leaf_count=1152 403 102 403 1355 133 119 88
internal_value=0 0.0158981 0.0213509 -0.00204531 -0.0104962 0.00721895 -0.0146559
internal_weight=0 326.788 277.3 630.001 329.464 300.537 49.4881
internal_count=3755 996 806 2759 1488 1271 190
is_linear=0
shrinkage=0.0596717


Tree=55
num_leaves=8
num_cat=0
split_feature=85 146 17 17 10 10 109
split_gain=20.6648 27.5872 17.036 13.2384 18.3036 10.1863 9.87239
threshold=-0.51567445126648259 1.6060371308789381 0.27616666873284784 -0.35007066384347318 -0.89086450492187697 0.20690282022143316 1.7174617530431757
decision_type=2 2 2 2 2 2 2
left_child=1 2 -1 5 -5 -2 -3
right_child=3 6 -4 4 -6 -7 -8
leaf_value=0.0065888215329797861 0.01392154473544986 -0.049174064338446434 0.029601618223276487 -0.057157678070768089 -0.0099392783252584289 -0.014432501509940762 0.0011243204082241475
leaf_weight=380.01387831941247 104.46687354519963 35.725237015634775 163.96383637934923 39.349042255431414 113.68853931874037 79.409323863685131 22.738419804722071
leaf_count=1293 442 193 543 213 519 362 167
internal_value=0 0.00933909 0.0135253 -0.00911456 -0.0220801 0.00167647 -0.0296113
internal_weight=0 602.441 543.978 336.914 153.038 183.876 58.4637
internal_count=3732 2196 1836 1536 732 804 360
is_linear=0
shrinkage=0.0596717


Tree=56
num_leaves=7
num_cat=0
split_feature=143 31 117 130 10 85
split_gain=19.7448 15.2384 14.7367 27.5032 11.8992 11.4776
threshold=1.5094245266683535 2.6193716531241491 0.32163729901439397 -0.24693357156913701 1.1278302058716199 -0.51567445126648259
decision_type=2 2 2 2 2 2
left_child=2 4 5 -4 -2 -1
right_child=1 -3 3 -5 -6 -7
leaf_value=0.016622516442303382 -0.045261281267996667 0.025662844073616343 -0.042088939787917813 0.042202996542161753 0.020387249753065054 0.0019272716066672199
leaf_weight=506.27080269157887 56.920661427080631 19.646164424717426 48.061130207031965 19.325328927487135 11.883600726723669 302.22485268488526
leaf_count=1587 419 73 369 66 81 1139
internal_value=0 -0.0206878 0.0088947 -0.0179154 -0.0339227 0.0111293
internal_weight=0 88.4504 875.882 67.3865 68.8043 808.496
internal_count=3734 573 3161 435 500 2726
is_linear=0
shrinkage=0.0596717


Tree=57
num_leaves=7
num_cat=0
split_feature=27 110 136 56 103 114
split_gain=15.1948 14.0075 17.0258 13.2163 12.7471 12.1093
threshold=0.14612459754109827 0.52854612153353142 0.23697827513639522 1.31824639025123 1.1405076206867657 1.4530102733127339
decision_type=2 2 2 2 2 2
left_child=1 4 -3 5 -1 -2
right_child=3 2 -4 -5 -6 -7
leaf_value=0.005543061813757127 -0.050673740374964166 -0.055044508527655259 0.0025697263391251733 0.007702777803712705 0.038651034225973005 0.036049801111820351
leaf_weight=727.69623902440071 46.228613410145044 29.309183150529861 48.461820118129253 34.198018707334995 43.906509719789028 6.5445696413516989
leaf_count=2359 657 135 152 170 195 43
internal_value=0 0.00499418 -0.019143 -0.0211935 0.00742701 -0.0399188
internal_weight=0 849.374 77.771 86.9712 771.603 52.7732
internal_count=3711 2841 287 870 2554 700
is_linear=0
shrinkage=0.0596717


Tree=58
num_leaves=7
num_cat=0
split_feature=39 121 95 131 116 11
split_gain=19.3482 18.3492 15.1836 7.60567 7.4795 6.45216
threshold=1.8218107362270588 1.6212349296435626 1.9825988578992804 2.2205514996217883 -0.27001306499889072 0.037194444351849175
decision_type=2 2 2 2 2 2
left_child=1 2 -1 -3 5 -2
right_child=4 3 -4 -5 -6 -7
leaf_value=0.0027659182978660283 -0.05545953468918291 -0.01360079446951303 0.042210110137692408 -0.077862408835021199 -0.071933961062485105 0.0070553162700468372
leaf_weight=838.36348156630993 10.047531403601171 12.910869562998414 36.251987528055906 13.328028757125139 15.533197171986101 14.168009068816898
leaf_count=2990 117 105 178 104 145 98
internal_value=0 0.00292577 0.00440085 -0.0462425 -0.0396147 -0.0188833
internal_weight=0 900.854 874.615 26.2389 39.7487 24.2155
internal_count=3737 3377 3168 209 360 215
is_linear=0
shrinkage=0.0596717


Tree=59
num_leaves=7
num_cat=0
split_feature=22 21 121 148 81 31
split_gain=18.2563 22.5688 19.0954 17.4786 13.1379 9.73322
threshold=1.9052115263478722 1.0946029324228708 -1.1058840223216675 1.0000000180025095e-35 1.4657801603335632 1.2013512490457776
decision_type=2 2 2 2 2 2
left_child=1 2 -1 -3 5 -2
right_child=4 3 -4 -5 -6 -7
leaf_value=0.016566302377547106 -0.063665816410593587 0.032351672503086563 -0.0059995277270075585 -0.0066038163729184984 0.005996674982743983 -0.013862621363772375
leaf_weight=190.64997893199325 28.926192536950111 168.08529342710972 445.63032278046012 54.247408382594585 37.610538527369499 27.029218137264252
leaf_count=604 101 451 2276 153 96 75
internal_value=0 0.00648067 0.000761914 0.0228468 -0.0212766 -0.0396085
internal_weight=0 858.613 636.28 222.333 93.5659 55.9554
internal_count=3756 3484 2880 604 272 176
is_linear=0
shrinkage=0.0596717


Tree=60
num_leaves=7
num_cat=0
split_feature=69 0 32 9 125 22
split_gain=15.1441 15.0529 10.885 15.8838 15.5651 8.84975
threshold=-0.16528251757160797 -1.2672733311148696 1.5725996851894148 -0.93918665502159127 2.0360961079368303 1.6860387151948408
decision_type=2 2 2 2 2 2
left_child=2 -2 4 -4 -1 -3
right_child=1 5 3 -5 -6 -7
leaf_value=-0.0034078796834743023 0.043302026014960263 0.011592439894369012 0.012377854894530433 -0.053493129671707891 0.045935612638891926 -0.012968765468457407
leaf_weight=453.86148123443127 46.70117212831974 299.60178714990616 20.841054916381836 34.799933280795813 23.964952822774649 63.266384676098824
leaf_count=2030 141 928 112 278 75 178
internal_value=0 0.0114141 -0.00384175 -0.0288202 -0.000933095 0.00731016
internal_weight=0 409.569 533.467 55.641 477.826 362.868
internal_count=3742 1247 2495 390 2105 1106
is_linear=0
shrinkage=0.0596717


Tree=61
num_leaves=7
num_cat=0
split_feature=103 13 109 110 97 11
split_gain=17.0955 17.602 14.8482 17.2709 15.091 11.3785
threshold=-0.025461549009217124 -1.0683264999323707 0.85783382656329665 1.0069842289489428 1.6089487307696844 -0.74764971584107365
decision_type=2 2 2 2 2 2
left_child=2 -2 3 -1 -4 -3
right_child=1 5 4 -5 -6 -7
leaf_value=0.012266545907344814 -0.072574090576324662 0.016172995316123807 -0.039984586881914641 -0.034564352453984183 0.004441407972925953 -0.019747940500898349
leaf_weight=630.99307115003467 16.758324261754751 46.826842281967402 45.073112990707159 29.344562541693449 68.758841000497341 95.31095333956182
leaf_count=1998 145 283 337 116 239 615
internal_value=0 -0.0147334 0.00675431 0.0101854 -0.0131496 -0.00791388
internal_weight=0 158.896 774.17 660.338 113.832 142.138
internal_count=3733 1043 2690 2114 576 898
is_linear=0
shrinkage=0.0596717


Tree=62
num_leaves=7
num_cat=0
split_feature=39 158 9 10 10 14
split_gain=10.5922 13.6592 13.7212 11.1719 8.41822 1.65875
threshold=1.7813924903651783 -0.41431050617995041 1.2159265955305545 -0.75636879087058517 0.81024871053660019 1.4297392719197841
decision_type=2 2 2 2 2 2
left_child=1 5 -3 -2 -5 -1
right_child=3 2 -4 4 -6 -7
leaf_value=0.040508624245297102 -0.065999478300422881 0.004011804402238698 -0.022075686883346358 0.0088472142729075273 -0.04522440234493022 0.020739927290202041
leaf_weight=30.838751941919327 15.395854525268076 719.38088474050164 79.748348731547594 33.628236327320337 14.748638734221457 29.640544451773167
leaf_count=87 166 2702 316 202 149 90
internal_value=0 0.00347774 0.00140842 -0.0217272 -0.00763752 0.0308202
internal_weight=0 859.609 799.129 63.7727 48.3769 60.4793
internal_count=3712 3195 3018 517 351 177
is_linear=0
shrinkage=0.0596717


Tree=63
num_leaves=7
num_cat=0
split_feature=158 64 16 63 145 157
split_gain=11.3898 13.5488 19.6177 10.7804 10.6806 8.26866
threshold=-0.41092825959518303 1.2073600203503283 -0.42278693175594168 -0.037920259861366455 0.25893022544281391 -0.29469676411793416
decision_type=2 2 2 2 2 2
left_child=3 2 -2 5 -3 -1
right_child=1 4 -4 -5 -6 -7
leaf_value=0.04741531794119231 0.0060599786980773023 0.025807485597179103 -0.015601627565241047 -0.0055886854635450031 -0.0026899940485399362 0.011015043688669386
leaf_weight=50.815955974161625 341.63014548271894 119.62058816850185 263.83940817788243 40.391219839453697 76.95732032880187 39.489178188145161
leaf_count=130 1428 334 1322 129 258 129
internal_value=0 0.00103988 -0.00337928 0.0200365 0.0146511 0.031498
internal_weight=0 802.047 605.47 130.696 196.578 90.3051
internal_count=3730 3342 2750 388 592 259
is_linear=0
shrinkage=0.0596717


Tree=64
num_leaves=7
num_cat=0
split_feature=51 121 149 30 3 9
split_gain=15.3928 11.78 16.9431 9.84592 5.38516 3.20967
threshold=1.8275847713501845 1.6212349296435626 2.0215675153541581 -0.66428216480417734 0.086386779153234075 -0.086601771331669838
decision_type=2 2 2 2 2 2
left_child=1 2 -1 5 -3 -2
right_child=3 4 -4 -5 -6 -7
leaf_value=0.0034204072024340802 -0.077052695576415184 -0.011726550018373888 0.045503766058057303 0.006038556029463198 -0.065257479867111071 -0.033100343679798971
leaf_weight=833.76481718942523 13.596589621156452 15.628361785784366 35.516085792332888 13.303820166736839 11.702131811529396 10.473597411066295
leaf_count=3030 118 128 167 111 93 112
internal_value=0 0.00392702 0.0051398 -0.0351581 -0.0346471 -0.0579279
internal_weight=0 896.611 869.281 37.374 27.3305 24.0702
internal_count=3759 3418 3197 341 221 230
is_linear=0
shrinkage=0.0596717


end of trees

feature_importances:
num__Contract_Month_to_month_MonthlyCharges=17
num__MonthlyCharges_OnlineSecurity_No=16
num__SeniorCitizen_No_tenure=16
num__tenure=12
num__InternetService_DSL_MonthlyCharges=12
num__MonthlyCharges_TechSupport_No=11
num__COSINE_MonthlyCharges_=10
num__MonthlyCharges_OnlineBackup_No=10
num__MonthlyCharges_PaymentMethod_Electronic_check=10
num__PhoneService_Yes_tenure=10
num__Contract_One_year_MonthlyCharges=9
num__MultipleLines_No_tenure=9
num__COSINE_TotalCharges_=8
num__Contract_Month_to_month_TotalCharges=8
num__DeviceProtection_No_internet_service_TotalCharges=8
num__MonthlyCharges_SeniorCitizen_No=8
num__MultipleLines_No_TotalCharges=8
num__gender_Male_MonthlyCharges=8
num__InternetService_DSL_TotalCharges=7
num__ABSOLUTE_DIFF_tenure_=6
num__Dependents_No_MonthlyCharges=6
num__MonthlyCharges_PaperlessBilling_Yes=6
num__OnlineSecurity_No_TotalCharges=6
num__PaperlessBilling_No_TotalCharges=6
num__Partner_Yes_tenure=6
num__PaymentMethod_Electronic_check_TotalCharges=6
num__PaymentMethod_Mailed_check_tenure=6
num__Contract_Two_year_MonthlyCharges=5
num__Dependents_No_tenure=5
num__PaperlessBilling_No_tenure=5
num__gender_Female_tenure=5
num__PERCENT_CHANGE_tenure_=5
num__MonthlyCharges_tenure=4
num__Contract_One_year_TotalCharges=4
num__InternetService_Fiber_optic_MonthlyCharges=4
num__InternetService_Fiber_optic_TotalCharges=4
num__MonthlyCharges_StreamingMovies_Yes=4
num__PaymentMethod_Bank_transfer_automatic_TotalCharges=4
num__StreamingMovies_No_tenure=4
num__StreamingTV_No_tenure=4
num__gender_Female_MonthlyCharges=4
num__TotalCharges=3
num__COSINE_tenure_=3
num__EXPONENTIAL_WEIGHTED_VARIANCE_TotalCharges_com_0_5_=3
num__EXPONENTIAL_WEIGHTED_VARIANCE_tenure_com_0_5_=3
num__Contract_Month_to_month_tenure=3
num__Dependents_Yes_tenure=3
num__DeviceProtection_No_internet_service_tenure=3
num__InternetService_DSL_tenure=3
num__MonthlyCharges_PaymentMethod_Bank_transfer_automatic_=3
num__OnlineBackup_Yes_tenure=3
num__OnlineSecurity_Yes_TotalCharges=3
num__PaymentMethod_Credit_card_automatic_TotalCharges=3
num__PaymentMethod_Electronic_check_tenure=3
num__PhoneService_Yes_TotalCharges=3
num__StreamingMovies_No_TotalCharges=3
num__TechSupport_Yes_tenure=3
num__tenure_0=2
num__EXPONENTIAL_WEIGHTED_STD_MonthlyCharges_com_0_5_=2
num__EXPONENTIAL_WEIGHTED_STD_TotalCharges_com_0_5_=2
num__EXPONENTIAL_WEIGHTED_VARIANCE_MonthlyCharges_com_0_5_=2
num__Dependents_No_TotalCharges=2
num__DeviceProtection_No_tenure=2
num__DeviceProtection_No_internet_service_MonthlyCharges=2
num__MonthlyCharges_Partner_No=2
num__MonthlyCharges_StreamingMovies_No=2
num__MonthlyCharges_StreamingTV_Yes=2
num__OnlineBackup_Yes_TotalCharges=2
num__Partner_No_TotalCharges=2
num__SeniorCitizen_No_TotalCharges=2
num__SeniorCitizen_Yes_tenure=2
num__StreamingMovies_Yes_TotalCharges=2
num__StreamingTV_No_TotalCharges=2
num__TechSupport_No_TotalCharges=2
num__gender_Female_TotalCharges=2
num__gender_Male_TotalCharges=2
num__gender_Male_tenure=2
num__TotalCharges_1=2
num__PERCENT_CHANGE_MonthlyCharges_=2
num__ABSOLUTE_DIFF_MonthlyCharges_=1
num__EXPONENTIAL_WEIGHTED_STD_tenure_com_0_5_=1
num__Dependents_Yes_MonthlyCharges=1
num__DeviceProtection_No_TotalCharges=1
num__DeviceProtection_Yes_MonthlyCharges=1
num__DeviceProtection_Yes_tenure=1
num__InternetService_Fiber_optic_tenure=1
num__InternetService_No_MonthlyCharges=1
num__InternetService_No_TotalCharges=1
num__MonthlyCharges_MultipleLines_No=1
num__MonthlyCharges_MultipleLines_No_phone_service=1
num__MonthlyCharges_MultipleLines_Yes=1
num__MonthlyCharges_PaperlessBilling_No=1
num__MonthlyCharges_PaymentMethod_Mailed_check=1
num__OnlineBackup_No_TotalCharges=1
num__OnlineBackup_No_tenure=1
num__OnlineBackup_No_internet_service_TotalCharges=1
num__OnlineSecurity_No_tenure=1
num__PaymentMethod_Credit_card_automatic_tenure=1
num__PaymentMethod_Mailed_check_TotalCharges=1
num__SeniorCitizen_Yes_TotalCharges=1
num__StreamingMovies_Yes_tenure=1
num__StreamingTV_Yes_TotalCharges=1
num__TechSupport_No_tenure=1
num__NATURAL_LOGARITHM_TotalCharges_=1
num__PERCENT_CHANGE_TotalCharges_=1
remainder__OnlineSecurity_No=1

parameters:
[boosting: gbdt]
[objective: binary]
[metric: auc]
[tree_learner: serial]
[device_type: cpu]
[data_sample_strategy: bagging]
[data: ]
[valid: ]
[num_iterations: 3000]
[learning_rate: 0.0596717]
[num_leaves: 8]
[num_threads: 0]
[seed: 0]
[deterministic: 0]
[force_col_wise: 0]
[force_row_wise: 0]
[histogram_pool_size: -1]
[max_depth: 3]
[min_data_in_leaf: 88]
[min_sum_hessian_in_leaf: 0.001]
[bagging_fraction: 0.782579]
[pos_bagging_fraction: 1]
[neg_bagging_fraction: 1]
[bagging_freq: 1]
[bagging_seed: 3]
[feature_fraction: 0.751247]
[feature_fraction_bynode: 1]
[feature_fraction_seed: 2]
[extra_trees: 0]
[extra_seed: 6]
[early_stopping_round: 200]
[first_metric_only: 0]
[max_delta_step: 0]
[lambda_l1: 4.85085e-05]
[lambda_l2: 5.27135e-08]
[linear_lambda: 0]
[min_gain_to_split: 0]
[drop_rate: 0.1]
[max_drop: 50]
[skip_drop: 0.5]
[xgboost_dart_mode: 0]
[uniform_drop: 0]
[drop_seed: 4]
[top_rate: 0.2]
[other_rate: 0.1]
[min_data_per_group: 100]
[max_cat_threshold: 32]
[cat_l2: 10]
[cat_smooth: 10]
[max_cat_to_onehot: 4]
[top_k: 20]
[monotone_constraints: ]
[monotone_constraints_method: basic]
[monotone_penalty: 0]
[feature_contri: ]
[forcedsplits_filename: ]
[refit_decay_rate: 0.9]
[cegb_tradeoff: 1]
[cegb_penalty_split: 0]
[cegb_penalty_feature_lazy: ]
[cegb_penalty_feature_coupled: ]
[path_smooth: 0]
[interaction_constraints: ]
[verbosity: -1]
[saved_feature_importance_type: 0]
[use_quantized_grad: 0]
[num_grad_quant_bins: 4]
[quant_train_renew_leaf: 0]
[stochastic_rounding: 1]
[linear_tree: 0]
[max_bin: 255]
[max_bin_by_feature: ]
[min_data_in_bin: 3]
[bin_construct_sample_cnt: 200000]
[data_random_seed: 1]
[is_enable_sparse: 1]
[enable_bundle: 1]
[use_missing: 1]
[zero_as_missing: 0]
[feature_pre_filter: 1]
[pre_partition: 0]
[two_round: 0]
[header: 0]
[label_column: ]
[weight_column: ]
[group_column: ]
[ignore_column: ]
[categorical_feature: ]
[forcedbins_filename: ]
[precise_float_parser: 0]
[parser_config_file: ]
[objective_seed: 5]
[num_class: 1]
[is_unbalance: 0]
[scale_pos_weight: 3]
[sigmoid: 1]
[boost_from_average: 1]
[reg_sqrt: 0]
[alpha: 0.9]
[fair_c: 1]
[poisson_max_delta_step: 0.7]
[tweedie_variance_power: 1.5]
[lambdarank_truncation_level: 30]
[lambdarank_norm: 1]
[label_gain: ]
[lambdarank_position_bias_regularization: 0]
[eval_at: ]
[multi_error_top_k: 1]
[auc_mu_weights: ]
[num_machines: 1]
[local_listen_port: 12400]
[time_out: 120]
[machine_list_filename: ]
[machines: ]
[gpu_platform_id: -1]
[gpu_device_id: -1]
[gpu_use_dp: 0]
[num_gpu: 1]

end of parameters

pandas_categorical:[]
