tree
version=v4
num_class=1
num_tree_per_iteration=1
label_index=0
max_feature_idx=201
objective=binary sigmoid:1
feature_names=num__tenure num__MonthlyCharges num__TotalCharges num__ABSOLUTE_DIFF_MonthlyCharges_ num__ABSOLUTE_DIFF_TotalCharges_ num__ABSOLUTE_DIFF_tenure_ num__MonthlyCharges_0 num__TotalCharges_0 num__tenure_0 num__COSINE_MonthlyCharges_ num__COSINE_TotalCharges_ num__COSINE_tenure_ num__EXPONENTIAL_WEIGHTED_STD_MonthlyCharges_com_0_5_ num__EXPONENTIAL_WEIGHTED_STD_TotalCharges_com_0_5_ num__EXPONENTIAL_WEIGHTED_STD_tenure_com_0_5_ num__EXPONENTIAL_WEIGHTED_VARIANCE_MonthlyCharges_com_0_5_ num__EXPONENTIAL_WEIGHTED_VARIANCE_TotalCharges_com_0_5_ num__EXPONENTIAL_WEIGHTED_VARIANCE_tenure_com_0_5_ num__MonthlyCharges_tenure num__TotalCharges_MonthlyCharges num__tenure_MonthlyCharges num__Contract_Month_to_month_MonthlyCharges num__Contract_Month_to_month_TotalCharges num__Contract_Month_to_month_tenure num__Contract_One_year_MonthlyCharges num__Contract_One_year_TotalCharges num__Contract_One_year_tenure num__Contract_Two_year_MonthlyCharges num__Contract_Two_year_TotalCharges num__Contract_Two_year_tenure num__Dependents_No_MonthlyCharges num__Dependents_No_TotalCharges num__Dependents_No_tenure num__Dependents_Yes_MonthlyCharges num__Dependents_Yes_TotalCharges num__Dependents_Yes_tenure num__DeviceProtection_No_MonthlyCharges num__DeviceProtection_No_TotalCharges num__DeviceProtection_No_tenure num__DeviceProtection_No_internet_service_MonthlyCharges num__DeviceProtection_No_internet_service_TotalCharges num__DeviceProtection_No_internet_service_tenure num__DeviceProtection_Yes_MonthlyCharges num__DeviceProtection_Yes_TotalCharges num__DeviceProtection_Yes_tenure num__InternetService_DSL_MonthlyCharges num__InternetService_DSL_TotalCharges num__InternetService_DSL_tenure num__InternetService_Fiber_optic_MonthlyCharges num__InternetService_Fiber_optic_TotalCharges num__InternetService_Fiber_optic_tenure num__InternetService_No_MonthlyCharges num__InternetService_No_TotalCharges num__InternetService_No_tenure num__MonthlyCharges_MultipleLines_No num__MonthlyCharges_MultipleLines_No_phone_service num__MonthlyCharges_MultipleLines_Yes num__MonthlyCharges_OnlineBackup_No num__MonthlyCharges_OnlineBackup_No_internet_service num__MonthlyCharges_OnlineBackup_Yes num__MonthlyCharges_OnlineSecurity_No num__MonthlyCharges_OnlineSecurity_No_internet_service num__MonthlyCharges_OnlineSecurity_Yes num__MonthlyCharges_PaperlessBilling_No num__MonthlyCharges_PaperlessBilling_Yes num__MonthlyCharges_Partner_No num__MonthlyCharges_Partner_Yes num__MonthlyCharges_PaymentMethod_Bank_transfer_automatic_ num__MonthlyCharges_PaymentMethod_Credit_card_automatic_ num__MonthlyCharges_PaymentMethod_Electronic_check num__MonthlyCharges_PaymentMethod_Mailed_check num__MonthlyCharges_PhoneService_No num__MonthlyCharges_PhoneService_Yes num__MonthlyCharges_SeniorCitizen_No num__MonthlyCharges_SeniorCitizen_Yes num__MonthlyCharges_StreamingMovies_No num__MonthlyCharges_StreamingMovies_No_internet_service num__MonthlyCharges_StreamingMovies_Yes num__MonthlyCharges_StreamingTV_No num__MonthlyCharges_StreamingTV_No_internet_service num__MonthlyCharges_StreamingTV_Yes num__MonthlyCharges_TechSupport_No num__MonthlyCharges_TechSupport_No_internet_service num__MonthlyCharges_TechSupport_Yes num__MultipleLines_No_TotalCharges num__MultipleLines_No_tenure num__MultipleLines_No_phone_service_TotalCharges num__MultipleLines_No_phone_service_tenure num__MultipleLines_Yes_TotalCharges num__MultipleLines_Yes_tenure num__OnlineBackup_No_TotalCharges num__OnlineBackup_No_tenure num__OnlineBackup_No_internet_service_TotalCharges num__OnlineBackup_No_internet_service_tenure num__OnlineBackup_Yes_TotalCharges num__OnlineBackup_Yes_tenure num__OnlineSecurity_No_TotalCharges num__OnlineSecurity_No_tenure num__OnlineSecurity_No_internet_service_TotalCharges num__OnlineSecurity_No_internet_service_tenure num__OnlineSecurity_Yes_TotalCharges num__OnlineSecurity_Yes_tenure num__PaperlessBilling_No_TotalCharges num__PaperlessBilling_No_tenure num__PaperlessBilling_Yes_TotalCharges num__PaperlessBilling_Yes_tenure num__Partner_No_TotalCharges num__Partner_No_tenure num__Partner_Yes_TotalCharges num__Partner_Yes_tenure num__PaymentMethod_Bank_transfer_automatic_TotalCharges num__PaymentMethod_Bank_transfer_automatic_tenure num__PaymentMethod_Credit_card_automatic_TotalCharges num__PaymentMethod_Credit_card_automatic_tenure num__PaymentMethod_Electronic_check_TotalCharges num__PaymentMethod_Electronic_check_tenure num__PaymentMethod_Mailed_check_TotalCharges num__PaymentMethod_Mailed_check_tenure num__PhoneService_No_TotalCharges num__PhoneService_No_tenure num__PhoneService_Yes_TotalCharges num__PhoneService_Yes_tenure num__SeniorCitizen_No_TotalCharges num__SeniorCitizen_No_tenure num__SeniorCitizen_Yes_TotalCharges num__SeniorCitizen_Yes_tenure num__StreamingMovies_No_TotalCharges num__StreamingMovies_No_tenure num__StreamingMovies_No_internet_service_TotalCharges num__StreamingMovies_No_internet_service_tenure num__StreamingMovies_Yes_TotalCharges num__StreamingMovies_Yes_tenure num__StreamingTV_No_TotalCharges num__StreamingTV_No_tenure num__StreamingTV_No_internet_service_TotalCharges num__StreamingTV_No_internet_service_tenure num__StreamingTV_Yes_TotalCharges num__StreamingTV_Yes_tenure num__TechSupport_No_TotalCharges num__TechSupport_No_tenure num__TechSupport_No_internet_service_TotalCharges num__TechSupport_No_internet_service_tenure num__TechSupport_Yes_TotalCharges num__TechSupport_Yes_tenure num__gender_Female_MonthlyCharges num__gender_Female_TotalCharges num__gender_Female_tenure num__gender_Male_MonthlyCharges num__gender_Male_TotalCharges num__gender_Male_tenure num__MonthlyCharges_1 num__TotalCharges_1 num__tenure_1 num__NATURAL_LOGARITHM_MonthlyCharges_ num__NATURAL_LOGARITHM_TotalCharges_ num__NATURAL_LOGARITHM_tenure_ num__PERCENT_CHANGE_MonthlyCharges_ num__PERCENT_CHANGE_TotalCharges_ num__PERCENT_CHANGE_tenure_ remainder__gender_Female remainder__gender_Male remainder__SeniorCitizen_No remainder__SeniorCitizen_Yes remainder__Partner_No remainder__Partner_Yes remainder__Dependents_No remainder__Dependents_Yes remainder__PhoneService_No remainder__PhoneService_Yes remainder__MultipleLines_No remainder__MultipleLines_No_phone_service remainder__MultipleLines_Yes remainder__InternetService_DSL remainder__InternetService_Fiber_optic remainder__InternetService_No remainder__OnlineSecurity_No remainder__OnlineSecurity_No_internet_service remainder__OnlineSecurity_Yes remainder__OnlineBackup_No remainder__OnlineBackup_No_internet_service remainder__OnlineBackup_Yes remainder__DeviceProtection_No remainder__DeviceProtection_No_internet_service remainder__DeviceProtection_Yes remainder__TechSupport_No remainder__TechSupport_No_internet_service remainder__TechSupport_Yes remainder__StreamingTV_No remainder__StreamingTV_No_internet_service remainder__StreamingTV_Yes remainder__StreamingMovies_No remainder__StreamingMovies_No_internet_service remainder__StreamingMovies_Yes remainder__Contract_Month_to_month remainder__Contract_One_year remainder__Contract_Two_year remainder__PaperlessBilling_No remainder__PaperlessBilling_Yes remainder__PaymentMethod_Bank_transfer_automatic_ remainder__PaymentMethod_Credit_card_automatic_ remainder__PaymentMethod_Electronic_check remainder__PaymentMethod_Mailed_check
feature_infos=[-1.2876433357076105:1.6048973164615647] [-1.5590808125059858:1.7922019960146014] [-1.0075584110313642:2.8123085290869621] [-1.3732146786845074:2.5784136684430314] [-1.2060160305473682:2.9812805775614346] [-1.3806058593655879:2.085520697994244] [-1.5590808125059858:1.7922019960146014] [-1.0075584110313642:2.8123085290869621] [-1.2876433357076105:1.6048973164615647] [-1.6559001007418339:1.28083675737467] [-1.4494730056648946:1.3788448272519644] [-1.3817056216017931:1.468542093412087] [-2.1069659842313064:2.9120514491963907] [-1.7999143369867856:3.453290194399262] [-2.2206246960958627:2.5445546925480507] [-1.2271680645847816:4.0856026757025683] [-1.0062234280601949:5.244261772359744] [-1.2909408643849078:3.3694664154107454] [-2.2341056533153125:0.44760640505790078] [-3.2651149458719058:0.30626793132177549] [-0.44693294684006207:2.2374721019568433] [-0.94578599855614531:2.0421339744444649] [-0.55131773754116165:5.326954298091076] [-0.62565944941363161:3.9018159256242755] [-0.45220912380176848:3.4929283089938705] [-0.39603358032404679:4.7545425139783877] [-0.45876691721978413:3.2581002793627971] [-0.47447813133895117:3.324411347121635] [-0.4452253856704893:3.8163752346607369] [-0.53198941927685561:2.2497124897430973] [-1.1925123852191379:1.8230401606876878] [-0.72227767372610163:3.30795962274903] [-0.85309021038297506:2.0821984027466391] [-0.56000664080333362:3.0756557513555887] [-0.44472849595122205:4.6249667369757201] [-0.52785862556153662:2.7258360060020284] [-0.83236515237594266:2.1196961096541744] [-0.5194368877823935:4.605073361324] [-0.56149002555798422:3.2893793256907413] [-0.51378647107731878:2.5926444251643499] [-0.37891228946356265:4.9940595223046564] [-0.38826659388096679:3.8990813930579238] [-0.6941127114517337:2.1253460400249216] [-0.58503282081547725:3.1417451360629092] [-0.61694867536681908:2.232745741525108] [-0.69083945667266644:2.4904562274286692] [-0.49326158338330245:4.0456477840023153] [-0.53455640144671934:2.8250327897971115] [-0.87338041832362256:1.6952042412161779] [-0.6083220647327694:3.1012042274848013] [-0.63157797459584752:2.4767121011933835] [-0.51378647107731878:2.5926444251643499] [-0.37891228946356265:4.9940595223046564] [-0.38826659388096679:3.8990813930579238] [-0.77212164892543145:2.5502676885873572] [-0.31848462784650311:4.8400029898855816] [-0.79748739490364495:1.9211044460429221] [-0.82275277973335137:2.1088573760840346] [-0.51378647107731878:2.5926444251643499] [-0.69938517712198289:2.1740803828739428] [-0.92389534221972613:1.8355826094435725] [-0.51378647107731878:2.5926444251643499] [-0.60732995136117784:2.5588949716925633] [-0.66134279473815105:3.0588037530045731] [-1.0561863544743169:1.7951848622458408] [-0.85329483658360894:2.324438411931244] [-0.8257003353735729:2.126775697750682] [-0.47441685519710863:3.2826387125277332] [-0.46649816220304485:3.3326000799133659] [-0.66425725581590622:2.4139432100240814] [-0.44939676443749926:4.8543185513408833] [-0.31848462784650311:4.8400029898855816] [-1.7359836349186288:1.6466528147216684] [-1.4550070558081643:1.8534403853777899] [-0.41710791332726999:3.3706824178186463] [-0.76586616718195977:2.3458638724201935] [-0.51378647107731878:2.5926444251643499] [-0.7702854427792577:1.8918388429553319] [-0.76988805514082803:2.3613911675699044] [-0.51378647107731878:2.5926444251643499] [-0.76701356733785586:1.8921979101812898] [-0.9097252306979825:1.8717801628438113] [-0.51378647107731878:2.5926444251643499] [-0.6204416706814615:2.4330536013965216] [-0.48865681981963915:5.4516614546243956] [-0.59192594514286456:3.0681457609234637] [-0.24129326755631633:7.8467854132151649] [-0.25813255831089899:5.6875005505868863] [-0.63462047416298939:3.0501649434399831] [-0.68981401699383549:2.0947777003655546] [-0.52108360110011431:4.5819706249277239] [-0.5634469568684557:3.2696091656734354] [-0.37891228946356265:4.9940595223046564] [-0.38826659388096679:3.8990813930579238] [-0.5798617808862867:3.1869166039220462] [-0.61471973022058302:2.2403480307661368] [-0.58044780376417782:3.7600632029454921] [-0.63108139447280165:2.8373523478381442] [-0.37891228946356265:4.9940595223046564] [-0.38826659388096679:3.8990813930579238] [-0.50999022067282607:3.6040757305513487] [-0.54392075423984843:2.471911490356046] [-0.4762326631124893:4.9586629973026017] [-0.58602364982459332:2.6428140508719737] [-0.69435489121772742:3.1779412796940254] [-0.78729290287767617:2.1138933277021961] [-0.52293187950140729:4.9267435933213708] [-0.6168134979326112:3.0661572054435422] [-0.65576048851083912:3.1841018051580816] [-0.76798420830082204:1.9230249528535812] [-0.40538916607642006:4.5775389463569791] [-0.45768857285834197:2.9396387115011788] [-0.39549286558827301:4.6808720196461611] [-0.45059339100023316:2.9754052875082322] [-0.44084708492738045:5.0156875831152918] [-0.47799837662810996:3.6374119876219915] [-0.29520807663003279:9.7369819907579664] [-0.36876678910603733:4.8637694577014425] [-0.24129326755631633:7.8467854132151649] [-0.25813255831089899:5.6875005505868863] [-0.92767342987711732:2.8062526083924402] [-1.1651692169296075:1.6805201242515022] [-0.84141223651002284:3.1034750023868196] [-1.0682562946782461:1.7596375257228889] [-0.32179746997629316:5.6679928914231166] [-0.34310374184548087:4.2249599697365561] [-0.49426591042210105:4.8979402824613247] [-0.53135783534532288:3.2690612545296216] [-0.37891228946356265:4.9940595223046564] [-0.38826659388096679:3.8990813930579238] [-0.61419959941225544:3.0397486339948481] [-0.64115119405788601:2.2405634065705966] [-0.49757441549527859:4.9101695937348149] [-0.53373840188009425:3.2285959871928589] [-0.37891228946356265:4.9940595223046564] [-0.38826659388096679:3.8990813930579238] [-0.61090196312078071:3.0475067428180771] [-0.63811344996453523:2.2565937849654474] [-0.57305342292020733:3.9487189716425513] [-0.62086302024508577:2.8711376853576849] [-0.37891228946356265:4.9940595223046564] [-0.38826659388096679:3.8990813930579238] [-0.52104988730123203:3.4802121351092921] [-0.55369379733700141:2.4472055830344237] [-0.841143503416522:2.2075900762549461] [-0.58223095230995991:3.8037813026459566] [-0.68513171615649926:2.3417335496517846] [-0.8354786796715522:2.2264231023881544] [-0.5846248674561072:3.7849712108095845] [-0.68415522293669118:2.3361864384112332] [-1.5590808125059858:1.7922019960146014] [-1.0075584110313642:2.8123085290869621] [-1.2876433357076105:1.6048973164615647] [-1.8911839063049838:1.2667235859632604] [-2.6017817001912769:1.3677664440185366] [-2.2207859226309639:1.0214948884585298] [-0.99965520637874117:3.635086143257507] [-0.29579214220398092:12.840457105301496] [-0.41657322126113533:5.3859585618080521] [0:1] [0:1] [0:1] [0:1] [0:1] [0:1] [0:1] [0:1] [0:1] [0:1] [0:1] [0:1] [0:1] [0:1] [0:1] [0:1] [0:1] [0:1] [0:1] [0:1] [0:1] [0:1] [0:1] [0:1] [0:1] [0:1] [0:1] [0:1] [0:1] [0:1] [0:1] [0:1] [0:1] [0:1] [0:1] [0:1] [0:1] [0:1] [0:1] [0:1] [0:1] [0:1] [0:1]
tree_sizes=974 874 871 868 983 877 983 986 882 776 982 887 765 880 985 879 882 883 883 778 890 881 980 881 885 983 780 878 890 986 881 677 877 671 883 884 878 876 772 779 884 993 883 669 881 784 992 669 882 766 876 886 780 775 776 878 992

Tree=0
num_leaves=8
num_cat=0
split_feature=21 123 48 98 83 48 145
split_gain=1355.51 125.151 72.4988 70.2105 55.3736 50.398 4.1748
threshold=-0.37222937598274669 -0.61657880947528687 0.63994043399799272 -0.20717101951417111 0.25106604398835086 1.0000000180025095e-35 -0.49944402880001931
decision_type=2 2 2 2 2 2 2
left_child=3 5 -3 4 -1 -2 -5
right_child=1 2 -4 6 -6 -7 -8
leaf_value=-0.96430345724201705 -0.80015064313552098 -0.95691418900949676 -0.80774360573269632 -1.1449077289532124 -1.06638108763968 -0.71531888832282409 -1.1015592187151768
leaf_weight=98.951674535870552 102.85509449243546 46.060345560312271 107.73436838388443 46.255516082048416 112.41846990585327 212.93151530623436 41.961755186319351
leaf_count=383 285 176 304 235 512 469 201
internal_value=-1.01581 -0.778802 -0.852419 -1.04972 -1.01859 -0.74295 -1.12429
internal_weight=0 469.581 153.795 299.587 211.37 315.787 88.2173
internal_count=2565 1234 480 1331 895 754 436
is_linear=0
shrinkage=1


Tree=1
num_leaves=7
num_cat=0
split_feature=21 46 114 60 77 72
split_gain=950.31 107.081 69.716 60.2128 36.9643 17.4755
threshold=-0.44392395380442157 -0.35016029410784916 1.4530102733127339 -0.31983963301321827 1.2627829145597851 -0.32631410268025013
decision_type=2 2 2 2 2 2
left_child=2 3 4 -2 -1 -3
right_child=1 5 -4 -5 -6 -7
leaf_value=-0.084475665858252641 0.13459095709923097 0.13163429248067252 0.087292782331765517 0.22311988006726122 0.013638103100962652 0.041886830359125889
leaf_weight=181.14416714012623 95.99873585999012 40.476716741919518 34.796255052089691 366.76322768628597 48.131873935461044 45.796168580651283
leaf_count=891 283 121 126 778 200 166
internal_value=0 0.185779 -0.0439591 0.204755 -0.0638787 0.0839937
internal_weight=0 549.035 264.072 462.762 229.276 86.2729
internal_count=2565 1348 1217 1061 1091 287
is_linear=0
shrinkage=0.0995148


Tree=2
num_leaves=7
num_cat=0
split_feature=21 127 24 0 0 69
split_gain=733.32 87.4565 57.5297 43.192 37.0519 26.6263
threshold=-0.40775371634483781 -0.13548084681668285 2.6812811474406368 -1.0228332760019816 1.0000000180025095e-35 0.10464399882582771
decision_type=2 2 2 2 2 2
left_child=2 4 3 -1 -2 -3
right_child=1 5 -4 -5 -6 -7
leaf_value=0.054861787061690932 0.19848058021705275 0.05771008409438267 0.090994776308344419 -0.065774689477027193 0.1187704059616973 0.14081642387597884
leaf_weight=34.05343721807003 360.55681857466698 78.643348321318626 32.779045730829239 214.69236296415329 68.76495672762394 74.199430480599403
leaf_count=127 703 243 116 1058 175 183
internal_value=0 0.162699 -0.0329291 -0.0492595 0.185713 0.0980551
internal_weight=0 582.165 281.525 248.746 429.322 152.843
internal_count=2605 1304 1301 1185 878 426
is_linear=0
shrinkage=0.0995148


Tree=3
num_leaves=7
num_cat=0
split_feature=21 8 56 25 8 85
split_gain=559.833 67.6292 49.3645 44.8268 34.8529 22.8927
threshold=-0.40775371634483781 -0.65617319333264967 1.033436073018843 2.9468000472225842 -1.0228332760019816 -0.46484012201556146
decision_type=2 2 2 2 2 2
left_child=3 5 -3 4 -1 -2
right_child=1 2 -4 -5 -6 -7
leaf_value=0.048177698514008861 0.18224071346813203 0.04300798318007102 0.13686623828243699 0.086611876988701819 -0.059159311365053605 0.12819550248704245
leaf_weight=34.872358396649361 267.08635461330414 94.864534974098206 133.71423006057739 29.063725844025612 212.59272322058678 109.41360639035702
leaf_count=127 480 291 291 99 1075 242
internal_value=0 0.140612 0.0979133 -0.0303025 -0.0440336 0.166535
internal_weight=0 605.079 228.579 276.529 247.465 376.5
internal_count=2605 1304 582 1301 1202 722
is_linear=0
shrinkage=0.0995148


Tree=4
num_leaves=8
num_cat=0
split_feature=60 27 0 104 123 45 143
split_gain=278.813 93.0758 86.1294 54.8895 49.7199 28.2856 7.85097
threshold=-0.63744223037154391 1.0000000180025095e-35 -0.77839322088909368 -0.31009446706222038 -1.0093418400865555 0.32379588892725003 1.6761411589112105
decision_type=2 2 2 2 2 2 2
left_child=1 4 5 -4 -1 -2 -3
right_child=2 6 3 -5 -6 -7 -8
leaf_value=0.11730054938137795 0.17219575009928759 -0.10693208400897219 -0.0150310500480906 0.098227927860804351 0.0076390618156612616 0.10449403053164501 -0.045784122986898962
leaf_weight=54.342535316944122 218.0660402327776 58.309702068567276 53.052329063415527 210.57159703969955 166.07449293136597 84.910665467381477 32.319209903478622
leaf_count=143 357 335 203 571 638 195 166
internal_value=0 -0.000230904 0.11703 0.0754354 0.0346755 0.153222 -0.0851261
internal_weight=0 311.046 566.601 263.624 220.417 302.977 90.6289
internal_count=2608 1282 1326 774 781 552 501
is_linear=0
shrinkage=0.0995148


Tree=5
num_leaves=7
num_cat=0
split_feature=21 64 46 2 27 157
split_gain=304.239 80.0231 74.4664 35.5501 18.2831 16.9742
threshold=-0.44650754219439176 1.2073600203503283 -0.42075782195558975 0.33381264432037488 0.14612459754109827 -0.28292971335505129
decision_type=2 2 2 2 2 2
left_child=1 4 3 -2 -1 -4
right_child=2 -3 5 -5 -6 -7
leaf_value=-0.02950011566918451 0.13137596604134824 0.074898572819108306 0.070311002036989978 0.058623009202799385 -0.091959080321290826 -0.0038393554953490639
leaf_weight=99.62701940536499 436.72425484657288 58.389435201883316 62.306375503540039 78.464583829045296 86.892838686704636 60.027879819273949
leaf_count=484 856 207 161 196 505 199
internal_value=0 -0.0267704 0.103722 0.120296 -0.0585975 0.0339264
internal_weight=0 244.909 637.523 515.189 186.52 122.334
internal_count=2608 1196 1412 1052 989 360
is_linear=0
shrinkage=0.0995148


Tree=6
num_leaves=8
num_cat=0
split_feature=22 123 25 64 130 73 83
split_gain=276.979 61.1889 60.3914 48.2975 24.4047 18.4377 15.2269
threshold=-0.54442700123442889 -0.77368402171979433 0.25515288347625298 -0.32531211342631672 0.37209164312667836 0.45725324851980526 1.7063680697405263
decision_type=2 2 2 2 2 2 2
left_child=2 5 6 -3 -4 -2 -1
right_child=1 3 4 -5 -6 -7 -8
leaf_value=-0.092019062171330671 0.10500815708488531 -0.011711545927231325 -0.033165807237841828 0.085208830917613693 0.068030412619348418 0.15139848270808529 -0.0035378461112275904
leaf_weight=108.08297644555569 266.27192418277264 72.705797553062439 39.707028925418854 169.91095623373985 58.181530997157097 124.52333638072014 23.438071146607399
leaf_count=650 552 245 195 393 202 196 110
internal_value=0 0.0954194 -0.0322019 0.0561644 0.0269817 0.11979 -0.076251
internal_weight=0 633.412 229.41 242.617 97.8886 390.795 131.521
internal_count=2543 1386 1157 638 397 748 760
is_linear=0
shrinkage=0.0995148


Tree=7
num_leaves=8
num_cat=0
split_feature=21 46 48 96 137 46 4
split_gain=226.963 57.067 39.4943 32.8944 18.9328 15.4792 14.9372
threshold=-0.45555010155928771 -0.34163240703955278 1.0644282866706749 -0.57417237261252529 1.6334276441124653 -0.27295783411897717 -0.52879893993462324
decision_type=2 2 2 2 2 2 2
left_child=2 3 5 -2 -4 -1 -3
right_child=1 6 4 -5 -6 -7 -8
leaf_value=-0.096041503529471745 0.052578321591947919 0.051135826120827954 0.074470347341991538 0.11144072627243891 -0.022420012685771745 -0.030876365325252866 -0.030597426506152891
leaf_weight=67.200045987963676 120.93948958814144 46.586249649524689 39.991422668099403 422.40309280157089 39.898127734661102 77.998749434947968 42.204092472791672
leaf_count=436 325 129 138 787 166 421 141
internal_value=0 0.0862518 -0.0301155 0.0983389 0.0260817 -0.0610357 0.0122861
internal_weight=0 632.133 225.088 543.343 79.8896 145.199 88.7903
internal_count=2543 1382 1161 1112 304 857 270
is_linear=0
shrinkage=0.0995148


Tree=8
num_leaves=7
num_cat=0
split_feature=193 80 138 152 33 46
split_gain=179.947 52.3835 48.8255 31.107 22.4642 22.0118
threshold=1.0000000180025095e-35 1.4745940841374952 -0.56653160907076772 -0.57469317496168693 1.6744108710443377 -0.41992175459595282
decision_type=2 2 2 2 2 2
left_child=1 4 3 -2 -1 -4
right_child=2 -3 5 -5 -6 -7
leaf_value=-0.07516335492364179 0.054403591691219083 0.048212846080441171 0.099417321229965647 -0.044673096309469876 0.024110573377166759 0.040289845104113556
leaf_weight=137.73613925278187 104.4099288135767 62.331414952874184 392.13533844053745 44.869226470589638 26.998026862740517 74.141135051846504
leaf_count=845 273 225 752 151 127 205
internal_value=0 -0.0294919 0.0741574 0.0246239 -0.0588935 0.0900157
internal_weight=0 227.066 615.556 149.279 164.734 466.276
internal_count=2578 1197 1381 424 972 957
is_linear=0
shrinkage=0.0995148


Tree=9
num_leaves=6
num_cat=0
split_feature=22 30 123 48 90
split_gain=150.721 46.0353 41.1921 35.7526 25.157
threshold=-0.53729928193302035 1.4270264094018634 0.12967094868612369 0.62261439919502604 -0.31431617395995209
decision_type=2 2 2 2 2
left_child=1 4 3 -2 -1
right_child=2 -3 -4 -5 -6
leaf_value=-0.073530200931834711 0.045652268264005633 0.068637572681752995 0.0033735752795462479 0.098862956517044187 0.006368936724107755
leaf_weight=127.02976588904858 205.2663968205452 40.172503650188446 84.937706932425499 319.99426275491714 56.331523790955544
leaf_count=793 532 132 243 601 277
internal_value=0 -0.0278455 0.0676714 0.0780688 -0.0489839
internal_weight=0 223.534 610.198 525.261 183.361
internal_count=2578 1202 1376 1133 1070
is_linear=0
shrinkage=0.0995148


Tree=10
num_leaves=8
num_cat=0
split_feature=96 123 0 114 127 1 40
split_gain=119.878 45.971 45.434 26.6352 26.1511 16.8108 15.6984
threshold=-0.57417237261252529 -0.57730250641416003 0.60676709141727192 0.2647968059548747 -0.29383164222813885 1.010403237040862 -0.32516784684105232
decision_type=2 2 2 2 2 2 2
left_child=1 6 4 -3 -2 -4 -1
right_child=2 3 5 -5 -6 -7 -8
leaf_value=0.058676132892043154 0.0941564167279728 -0.065699932081977303 -0.053178720142289505 0.034229074084840473 0.042948067227801007 0.038431494571813343 -0.015289187594309358
leaf_weight=81.890681430697441 317.02032546699047 137.0402320548892 36.225848883390427 32.722106866538525 143.44932897388935 43.847368881106377 43.51798902451992
leaf_count=217 637 785 160 117 377 132 171
internal_value=0 -0.0126835 0.0661724 -0.0464384 0.0782036 -0.00301379 0.0330095
internal_weight=0 295.171 540.543 169.762 460.47 80.0732 125.409
internal_count=2596 1290 1306 902 1014 292 388
is_linear=0
shrinkage=0.0995148


Tree=11
num_leaves=7
num_cat=0
split_feature=22 101 25 81 146 137
split_gain=99.1204 32.0723 30.4058 25.4828 19.7365 11.9716
threshold=-0.53729928193302035 1.0000000180025095e-35 0.1425127957775075 -0.16133812929660304 0.97544020050221203 1.2715892397462174
decision_type=2 2 2 2 2 2
left_child=2 3 5 -2 -4 -1
right_child=1 -3 4 -5 -6 -7
leaf_value=-0.086865456791438894 0.029118110847527693 -0.017007908008973706 0.047650210099604053 0.075992975507940277 -0.046311172153120569 -0.021195024076926645
leaf_weight=64.994492076337337 161.75634136795998 55.368741825222969 66.499734096229076 396.09651993215084 33.186608389019966 47.641934216022491
leaf_count=488 436 169 284 812 149 258
internal_value=0 0.0552311 -0.0236608 0.062401 0.0163695 -0.0590888
internal_weight=0 613.222 212.323 557.853 99.6863 112.636
internal_count=2596 1417 1179 1248 433 746
is_linear=0
shrinkage=0.0995148


Tree=12
num_leaves=6
num_cat=0
split_feature=22 80 0 81 25
split_gain=87.0599 46.8419 28 30.5063 13.4841
threshold=-0.53729928193302035 1.3434272448163569 -1.2672733311148696 0.9899306950258524 0.1425127957775075
decision_type=2 2 2 2 2
left_child=1 4 -2 -4 -1
right_child=2 -3 3 -5 -6
leaf_value=-0.078843727999126687 0.098216216389029803 0.046983920609965708 0.0220124309657274 0.071316871300166243 -0.015732016665184107
leaf_weight=84.537370271980762 113.19566760957241 67.727721586823463 285.66868135333061 219.97645637392998 55.559108272194862
leaf_count=661 216 238 767 454 289
internal_value=0 -0.0209657 0.0534773 0.0434619 -0.053815
internal_weight=0 207.824 618.841 505.645 140.096
internal_count=2625 1188 1437 1221 950
is_linear=0
shrinkage=0.0995148


Tree=13
num_leaves=7
num_cat=0
split_feature=28 132 40 73 106 47
split_gain=73.8091 38.1396 32.5591 22.6916 16.6028 5.59034
threshold=-0.44019950749804754 0.59977595190569943 -0.32289224154943913 1.1602285901545952 0.65175320352100929 2.428414621386382
decision_type=2 2 2 2 2 2
left_child=1 2 -1 5 -3 -2
right_child=3 4 -4 -5 -6 -7
leaf_value=0.058207722693491074 -0.10275436577066234 -0.048187505409167053 -0.025279990745844819 0.025202453626545419 0.034545823332957221 -0.038593625081446759
leaf_weight=574.38160672783852 46.12260414659977 59.479405745863914 50.311772048473358 26.488357231020927 40.29456415772438 18.983945474028587
leaf_count=1376 408 216 250 117 118 140
internal_value=0 0.0423586 0.0514838 -0.0524526 -0.0147749 -0.0840462
internal_weight=0 724.467 624.693 91.5949 99.774 65.1065
internal_count=2625 1960 1626 665 334 548
is_linear=0
shrinkage=0.0995148


Tree=14
num_leaves=8
num_cat=0
split_feature=21 92 69 121 146 95 146
split_gain=86.4277 25.2767 25.1826 21.7564 20.1677 14.9077 2.865
threshold=-0.17523076124751411 0.50455800022153785 0.50888491160371829 -0.67112592853010922 1.7741963123127316 -0.55523915186669293 0.34484327012548621
decision_type=2 2 2 2 2 2 2
left_child=1 4 3 -2 -1 -4 -3
right_child=2 6 5 -5 -6 -7 -8
leaf_value=0.010493872297274123 0.057082932885476854 -0.11939115149116428 0.08697120039661882 -0.001548532514394478 -0.06918465457889994 0.034636180037714868 -0.06272927402803076
leaf_weight=191.26124483346939 144.3769161850214 18.878890916705132 223.39952930808067 110.7575144469738 37.652542270720005 71.042363330721855 16.614721603691578
leaf_count=825 320 171 445 304 215 168 148
internal_value=0 -0.0147277 0.0545146 0.0316302 -0.00261193 0.0743439 -0.0928675
internal_weight=0 264.407 549.576 255.134 228.914 294.442 35.4936
internal_count=2596 1359 1237 624 1040 613 319
is_linear=0
shrinkage=0.0995148


Tree=15
num_leaves=7
num_cat=0
split_feature=21 30 115 127 8 59
split_gain=71.4935 23.5597 21.4115 22.5911 20.7505 8.98582
threshold=-0.17523076124751411 1.4270264094018634 -0.44941913798748417 0.12843714553574384 -1.1043132943729443 0.11528834273352306
decision_type=2 2 2 2 2 2
left_child=1 4 3 -2 -1 -4
right_child=2 -3 5 -5 -6 -7
leaf_value=0.035076182556313118 0.046986241287824207 0.055368298532995179 0.077475422014993536 -0.021001899524108879 -0.04161214176634237 0.038740892668407308
leaf_weight=43.56558533012867 167.61028718948364 41.43344746530056 225.15343831479549 68.050965130329132 176.5183507502079 80.523037776350975
leaf_count=118 380 133 465 204 1108 188
internal_value=0 -0.0134717 0.0498941 0.0273536 -0.0264317 0.0672718
internal_weight=0 261.517 541.338 235.661 220.084 305.676
internal_count=2596 1359 1237 584 1226 653
is_linear=0
shrinkage=0.0995148


Tree=16
num_leaves=7
num_cat=0
split_feature=115 40 8 60 81 9
split_gain=68.1345 31.0472 31.7882 18.2135 9.43961 8.34453
threshold=-0.44941913798748417 -0.31004176460856497 -0.94135325763101896 -0.20623562703504797 -0.14761769910424441 0.56187075183551249
decision_type=2 2 2 2 2 2
left_child=1 2 -1 -2 -5 -3
right_child=3 5 -4 4 -6 -7
leaf_value=0.047302895146233634 0.012032383778592273 -0.11115867868441104 -0.014422771879693081 0.028982755737787313 0.075436070487814533 -0.035423364945634361
leaf_weight=123.89140798151493 78.06724863499403 28.107906006276608 248.05745995044708 53.72106446325779 223.76647950708866 29.55749998241663
leaf_count=286 251 209 999 143 484 238
internal_value=0 -0.00439631 0.00613726 0.0544962 0.0664428 -0.0723391
internal_weight=0 429.614 371.949 355.555 277.488 57.6654
internal_count=2610 1732 1285 878 627 447
is_linear=0
shrinkage=0.0995148


Tree=17
num_leaves=7
num_cat=0
split_feature=114 123 64 121 84 21
split_gain=56.8784 30.3598 42.4451 16.5229 13.9412 11.1365
threshold=-0.4245677831677192 -0.85223662784204801 0.49030988090109767 0.47505450055672654 -0.3999191976148509 0.47066633624505178
decision_type=2 2 2 2 2 2
left_child=1 5 -3 4 -2 -1
right_child=3 2 -4 -5 -6 -7
leaf_value=0.0063997382192904828 0.076045940586883409 -0.063721619720341433 0.016935932749790349 0.0054423378841032717 0.028636168441410235 0.057991561131472281
leaf_weight=94.881676889955997 190.66966769099236 135.7921079993248 123.26161779463291 65.986061275005341 90.615968108177185 73.55620177090168
leaf_count=309 425 850 419 213 233 161
internal_value=0 -0.00395911 -0.0253436 0.0502594 0.0607729 0.0289297
internal_weight=0 427.492 259.054 347.272 281.286 168.438
internal_count=2610 1739 1269 871 658 470
is_linear=0
shrinkage=0.0995148


Tree=18
num_leaves=7
num_cat=0
split_feature=60 74 143 2 64 120
split_gain=76.1476 29.5064 26.595 25.3863 24.6408 17.6576
threshold=-0.18669085181299719 0.22851973198154144 -0.40781674412450158 -1.0052403162658263 0.76318562550290059 -0.73197834080205604
decision_type=2 2 2 2 2 2
left_child=1 3 5 -1 -4 -2
right_child=2 -3 4 -5 -6 -7
leaf_value=0.060103961913580327 0.078450686889135507 0.059865394421986545 -0.06592610367604726 -0.046519397426783342 0.038480046099459063 0.035090978844039694
leaf_weight=24.619115144014359 167.38232752680779 36.897287502884865 38.582801476120949 217.34353397786617 53.326483443379402 209.33312392234802
leaf_count=57 374 115 175 1161 149 540
internal_value=0 -0.0230299 0.0426468 -0.0356707 -0.00534884 0.0543566
internal_weight=0 278.86 468.625 241.963 91.9093 376.715
internal_count=2571 1333 1238 1218 324 914
is_linear=0
shrinkage=0.0995148


Tree=19
num_leaves=6
num_cat=0
split_feature=60 122 102 21 108
split_gain=63.0082 43.6784 38.4087 32.684 14.863
threshold=-0.17814001265334992 -0.82403127290800438 -0.34326104318128298 1.245742853236131 -0.044711249566073787
decision_type=2 2 2 2 2
left_child=1 -1 4 -3 -2
right_child=2 3 -4 -5 -6
leaf_value=0.048269996938150185 0.061409570460994607 -0.058471917047206619 -0.031076466666670632 0.058898191450957836 0.014960032627608371
leaf_weight=68.335735082626343 305.1750815436244 182.44469342380762 65.887109607458115 26.969279363751411 87.862476721405983
leaf_count=194 724 1085 246 60 262
internal_value=0 -0.0208133 0.0392386 -0.0433565 0.0510259
internal_weight=0 277.75 458.925 209.414 393.038
internal_count=2571 1339 1232 1145 986
is_linear=0
shrinkage=0.0995148


Tree=20
num_leaves=7
num_cat=0
split_feature=29 127 34 81 10 177
split_gain=45.7805 27.1175 18.6861 12.4616 6.86483 4.26138
threshold=-0.51267204490866136 -0.24104804375765354 -0.39654648107328744 0.48289843382641778 -1.0538320931164133 1.0000000180025095e-35
decision_type=2 2 2 2 2 2
left_child=1 2 -1 -3 -2 -6
right_child=4 3 -4 -5 5 -7
leaf_value=0.044689707797975306 -0.0062378142904858163 -0.035329764607559259 -0.010403171943692958 0.015429306084037227 -0.051173344788355127 -0.1068867654187744
leaf_weight=408.22683259099722 18.170793890953064 87.994540587067604 71.672198712825775 105.1185106113553 29.519928067922592 25.203880235552788
leaf_count=1109 146 331 266 294 269 206
internal_value=0 0.0237901 0.0364617 -0.00769974 -0.0592354 -0.076833
internal_weight=0 673.012 479.899 193.113 72.8946 54.7238
internal_count=2621 2000 1375 625 621 475
is_linear=0
shrinkage=0.0995148


Tree=21
num_leaves=7
num_cat=0
split_feature=69 121 26 34 109 106
split_gain=36.9916 33.8263 16.7994 12.8432 9.81512 7.20766
threshold=1.0987003044048458 -0.47350861317031001 2.1998255914469236 -0.39654648107328744 0.035581027321673397 -0.39660708666952604
decision_type=2 2 2 2 2 2
left_child=1 3 -3 -1 5 -2
right_child=4 2 -4 -5 -6 -7
leaf_value=0.031007049118302415 0.080439402016536904 -0.044604726086509471 0.026986614074684227 -0.02755827517847553 0.012024100743809009 0.040595538987551111
leaf_weight=228.78247345238924 76.311183035373688 174.59726599231362 39.87283680588007 44.255588047206402 64.961015023291111 109.44874855875969
leaf_count=651 174 968 172 188 192 276
internal_value=0 -0.00171806 -0.0312949 0.0215144 0.0453199 0.0569636
internal_weight=0 487.508 214.47 273.038 250.721 185.76
internal_count=2621 1979 1140 839 642 450
is_linear=0
shrinkage=0.0995148


Tree=22
num_leaves=8
num_cat=0
split_feature=48 8 8 122 60 139 34
split_gain=38.5035 37.1389 22.1697 14.6049 14.2373 13.8041 12.0371
threshold=1.0000000180025095e-35 0.93268716490112269 -0.4117331382197616 -0.31204359507629875 1.4367470400685984 1.149387337456319 -0.42664562204223988
decision_type=2 2 2 2 2 2 2
left_child=2 3 6 -2 -3 -4 -1
right_child=1 4 5 -5 -6 -7 -8
leaf_value=0.022851546496521175 0.065804243080044289 -0.066363536947510904 -0.065858493355283487 0.024191161863934031 0.021637567811127023 0.012717350991368484 -0.039168434012834465
leaf_weight=154.43888784945011 214.95450024306774 41.683599635958672 83.408227499574423 136.60548307001591 32.325627952814102 30.143020607531071 38.771131902933121
leaf_count=456 502 194 682 374 98 129 168
internal_value=0 0.0361463 -0.0101031 0.0496347 -0.0279266 -0.045 0.0104061
internal_weight=0 425.569 306.761 351.56 74.0092 113.551 193.21
internal_count=2603 1168 1435 876 292 811 624
is_linear=0
shrinkage=0.0995148


Tree=23
num_leaves=7
num_cat=0
split_feature=57 45 97 11 45 84
split_gain=44.951 24.1186 20.9492 18.679 14.7865 15.2587
threshold=0.34067727989050273 0.78972599716741354 -0.60699504904008672 -0.74764971584107365 1.1908013650664555 0.031049854226403772
decision_type=2 2 2 2 2 2
left_child=1 2 -1 -3 5 -2
right_child=4 3 -4 -5 -6 -7
leaf_value=-0.026107987250062296 0.057246705674829076 0.0053909357942555714 0.027866351014056712 -0.102240218655168 -0.013423017246112503 -0.00037903399573980964
leaf_weight=132.73165626451373 265.49229830503464 25.21100252866745 153.65539032965899 43.554432302713394 45.213308893144131 54.918125711381435
leaf_count=763 683 129 418 242 199 169
internal_value=0 -0.00985674 0.00285089 -0.0627801 0.039852 0.0473697
internal_weight=0 355.152 286.387 68.7654 365.624 320.41
internal_count=2603 1552 1181 371 1051 852
is_linear=0
shrinkage=0.0995148


Tree=24
num_leaves=7
num_cat=0
split_feature=57 155 42 97 155 137
split_gain=30.2881 22.1964 13.0748 12.3197 11.1058 5.75543
threshold=1.2231451444127792 0.8103492184498865 0.73285197284325998 1.0000000180025095e-35 -1.9580371201470144 -0.45719424778141121
decision_type=2 2 2 2 2 2
left_child=1 4 -3 5 -1 -2
right_child=3 2 -4 -5 -6 -7
leaf_value=0.046268381381351337 0.048956139764263142 -0.083073016944163913 -0.0086352880939932364 0.019933761880739607 0.0056863833628297547 0.096010722454316619
leaf_weight=81.877001225948334 49.465388499200344 39.966004725545645 56.26817087829113 72.602006673812866 362.22376779839396 53.676364883780479
leaf_count=207 139 314 296 203 1341 148
internal_value=0 0.00377927 -0.0395492 0.0513382 0.0131683 0.073444
internal_weight=0 540.335 96.2342 175.744 444.101 103.142
internal_count=2648 2158 610 490 1548 287
is_linear=0
shrinkage=0.0995148


Tree=25
num_leaves=8
num_cat=0
split_feature=8 136 72 123 5 111 64
split_gain=22.3173 16.9877 13.8073 17.6005 12.7849 12.5656 10.6395
threshold=0.89194715571564132 1.563030645870424 0.27691322371007254 -1.0093418400865555 0.2548200515013751 0.037754989444088172 0.046736533949268785
decision_type=2 2 2 2 2 2 2
left_child=2 6 3 -1 -3 -4 -2
right_child=1 4 5 -5 -6 -7 -8
leaf_value=0.039463781479139558 -0.027583917511644629 -0.04259353694818558 0.044133183525029915 -0.013365203652697003 0.042038505727304297 -0.01156815560328713 -0.12293525189967856
leaf_weight=97.000977776944637 24.73766727745533 31.476834431290627 272.71278783679008 175.35466917231679 40.319560803472996 47.023554965853691 21.80303993076086
leaf_count=251 254 150 735 803 159 148 148
internal_value=0 -0.0254228 0.0219157 0.00545013 0.00493429 0.0359412 -0.0722534
internal_weight=0 118.337 592.092 272.356 71.7964 319.736 46.5407
internal_count=2648 711 1937 1054 309 883 402
is_linear=0
shrinkage=0.0995148


Tree=26
num_leaves=6
num_cat=0
split_feature=146 98 45 11 3
split_gain=43.4093 21.457 14.1118 10.0381 7.11264
threshold=1.1435993819360057 -0.31847489010101365 1.2061616983051422 -0.17633835658745253 -0.059673407854517795
decision_type=2 2 2 2 2
left_child=1 2 -1 -3 -2
right_child=4 3 -4 -5 -6
leaf_value=0.029686015526210453 -0.090378019109713312 -0.088364559217166475 -0.017814796210212949 0.00076452521531074347 -0.030165874948502223
leaf_weight=508.29602574557066 38.950911153107882 25.149032663553953 70.53233552724123 24.907185401767492 38.763319209218025
leaf_count=1419 247 202 352 197 214
internal_value=0 0.0184923 0.0238979 -0.0440153 -0.0603446
internal_weight=0 628.885 578.828 50.0562 77.7142
internal_count=2631 2170 1771 399 461
is_linear=0
shrinkage=0.0995148


Tree=27
num_leaves=7
num_cat=0
split_feature=8 40 4 148 9 21
split_gain=26.9565 19.1009 14.1059 13.6331 12.0508 7.66068
threshold=0.89194715571564132 -0.31847489010101365 -1.032619222958105 2.3396372152552991 1.0236261289528692 -0.43229780604955531
decision_type=2 2 2 2 2 2
left_child=1 2 -1 4 -2 -3
right_child=3 5 -4 -5 -6 -7
leaf_value=-0.018334064828062175 -0.082801906313662646 -0.0092420613711088721 0.028800826865321323 0.016269936166470819 0.01031825310335174 -0.090897670662466123
leaf_weight=72.541456364095211 56.826892845332623 26.830658506602049 471.9539026170969 33.296754315495491 18.161007333546877 19.756180003285408
leaf_count=223 419 264 1379 131 127 88
internal_value=0 0.0172885 0.0225212 -0.0367203 -0.0602495 -0.0438699
internal_weight=0 591.082 544.495 108.285 74.9879 46.5868
internal_count=2631 1954 1602 677 546 352
is_linear=0
shrinkage=0.0995148


Tree=28
num_leaves=7
num_cat=0
split_feature=109 103 50 139 132 123
split_gain=34.0269 28.3696 16.5611 19.8578 12.6347 11.298
threshold=1.0000000180025095e-35 -0.51875619772674808 1.8939077119829031 0.56738721985585705 -0.15918173866829019 -0.26309208192514505
decision_type=2 2 2 2 2 2
left_child=1 4 3 -2 -1 -3
right_child=2 5 -4 -5 -6 -7
leaf_value=0.048010657000613854 -0.05366476681960114 -0.00056390543710322988 -0.084343295144639147 0.023091407860472979 0.0032205973003281399 -0.070792447109881293
leaf_weight=275.57404737919569 60.311025887727737 97.792798433452845 39.634419411420822 74.750704754143953 80.615928959101439 29.537565063685179
leaf_count=783 487 367 202 246 251 204
internal_value=0 0.0234611 -0.0277818 -0.0111836 0.0378734 -0.0168552
internal_weight=0 483.52 174.696 135.062 356.19 127.33
internal_count=2540 1605 935 733 1034 571
is_linear=0
shrinkage=0.0995148


Tree=29
num_leaves=8
num_cat=0
split_feature=109 102 9 85 114 144 89
split_gain=28.0224 24.7003 18.0652 15.5891 15.4265 14.5292 11.8349
threshold=0.035581027321673397 -0.46367989144897764 -0.4942031382555982 -0.51567445126648259 1.3453594004020333 0.82524902864252481 0.5284448593508978
decision_type=2 2 2 2 2 2 2
left_child=1 3 6 -1 -4 -3 -2
right_child=2 5 4 -5 -6 -7 -8
leaf_value=0.052115030085332734 -0.038999529040673518 -0.028437091462343408 -0.032892476283106736 0.006492694515045542 -0.12867736183958553 0.046133075502048371 0.040934878853883715
leaf_weight=217.0205311961472 30.052423518151045 117.89808227866888 70.810922503471375 112.68481288850307 21.770852908492088 33.151073891669512 47.077819518744946
leaf_count=602 160 533 480 368 88 110 199
internal_value=0 0.0212548 -0.0257817 0.0365225 -0.0554166 -0.012071 0.00978986
internal_weight=0 480.755 169.712 329.705 92.5818 151.049 77.1302
internal_count=2540 1613 927 970 568 643 359
is_linear=0
shrinkage=0.0995148


Tree=30
num_leaves=7
num_cat=0
split_feature=45 3 132 52 14 3
split_gain=24.2035 18.6106 16.9478 21.8708 13.308 5.70321
threshold=1.3102706235895745 -0.21673812949984023 0.30327368343197697 -0.31004176460856497 -0.19107984626047739 -0.77997022049548703
decision_type=2 2 2 2 2 2
left_child=2 5 3 -1 -4 -2
right_child=1 -3 4 -5 -6 -7
leaf_value=0.027836586798208992 -0.044116060685316413 -0.1140752436080557 0.004331120395289237 -0.041904461086263264 -0.068648939342538379 0.026149536882975923
leaf_weight=455.03352937847376 22.988430980592966 26.398744251579046 66.659030683338642 49.361709129065275 39.352896355092525 22.770866017788649
leaf_count=1326 143 175 219 491 178 125
internal_value=0 -0.0475367 0.0134095 0.0210115 -0.0227599 -0.0091503
internal_weight=0 72.158 610.407 504.395 106.012 45.7593
internal_count=2657 443 2214 1817 397 268
is_linear=0
shrinkage=0.0995148


Tree=31
num_leaves=5
num_cat=0
split_feature=147 143 144 156
split_gain=14.0754 24.7983 16.7672 6.63744
threshold=1.7264547716885028 1.5094245266683535 0.95634971377173661 0.078619466524202999
decision_type=2 2 2 2
left_child=1 2 -1 -3
right_child=-2 3 -4 -5
leaf_value=-0.0042231606197949828 0.052259253752118116 -0.039516650218379669 0.032400792014036298 -0.11896369529664622
leaf_weight=391.31052528694272 60.172884747385979 26.933771047741175 181.08347713202238 16.979170929640532
leaf_count=1616 177 206 533 125
internal_value=0 0.00183422 0.00736325 -0.0702353
internal_weight=0 616.307 572.394 43.9129
internal_count=2657 2480 2149 331
is_linear=0
shrinkage=0.0995148


Tree=32
num_leaves=7
num_cat=0
split_feature=84 1 17 126 114 17
split_gain=15.4769 13.8866 15.119 13.0666 23.2413 14.5647
threshold=-0.38390945160873696 0.61908578335133213 -0.1569000678445675 -0.24313686746534649 0.23527062139078334 0.30200008193614508
decision_type=2 2 2 2 2 2
left_child=3 2 -2 5 -5 -1
right_child=1 -3 -4 4 -6 -7
leaf_value=0.010002297375844691 -0.011556111759798806 0.020538645671756107 -0.081081635851204689 -0.04743520491051282 0.051735899855866845 0.053094728093768868
leaf_weight=212.4323414824903 92.711896300315857 66.34267695248127 46.515539772808552 70.298256911337376 35.081537991762161 122.44427227973938
leaf_count=753 458 204 289 305 97 442
internal_value=0 -0.0169303 -0.0347844 0.0161413 -0.0144206 0.0257586
internal_weight=0 205.57 139.227 440.256 105.38 334.877
internal_count=2548 951 747 1597 402 1195
is_linear=0
shrinkage=0.0995148


Tree=33
num_leaves=5
num_cat=0
split_feature=73 7 57 144
split_gain=16.0205 14.7788 13.7533 12.5922
threshold=1.4098964198225066 0.48809840878667388 1.1874571057740109 1.3393693624825702
decision_type=2 2 2 2
left_child=1 3 -3 -1
right_child=-2 2 -4 -5
leaf_value=0.0016184641835492056 0.051755690055906273 -0.060054776877773407 0.012518878466885031 0.052645541766455847
leaf_weight=413.23829887062311 65.414054222404957 69.205103926360607 41.287596292793751 54.171639323234558
leaf_count=1647 200 411 147 143
internal_value=0 -0.000205078 -0.0329363 0.00753238
internal_weight=0 577.903 110.493 467.41
internal_count=2548 2348 558 1790
is_linear=0
shrinkage=0.0995148


Tree=34
num_leaves=7
num_cat=0
split_feature=1 17 122 115 13 13
split_gain=25.0081 20.1995 8.83326 15.9301 8.44819 3.87636
threshold=-1.3935234282527229 0.55946783360689423 -0.31971032902116814 1.093859748606304 0.098149070976823238 -0.86707157084642861
decision_type=2 2 2 2 2 2
left_child=1 5 4 -4 -2 -1
right_child=2 -3 3 -5 -6 -7
leaf_value=-0.055421645374090667 0.034343320128989129 0.032918790512900656 -0.016854615223972115 0.039119977319530375 0.0026257323228487885 -0.11722128741494398
leaf_weight=16.557453140616417 218.3110532797873 18.033493880182505 189.36422628909349 68.589302688837051 134.34139351174235 25.580369707196951
leaf_count=121 643 106 939 217 449 216
internal_value=0 -0.0552184 0.0120238 -0.00197109 0.0222606 -0.092938
internal_weight=0 60.1713 610.606 257.954 352.652 42.1378
internal_count=2691 443 2248 1156 1092 337
is_linear=0
shrinkage=0.0995148


Tree=35
num_leaves=7
num_cat=0
split_feature=39 85 73 24 105 102
split_gain=15.6885 13.1418 7.64281 13.9553 9.77363 0.0508083
threshold=1.7352002093801719 -0.15983414651003416 -0.46400709503134269 1.8721288029823404 0.24021055378602871 -0.28649932162667735
decision_type=2 2 2 2 2 2
left_child=2 -2 4 -4 -1 -3
right_child=1 5 3 -5 -6 -7
leaf_value=0.046373433714552346 -0.012215374387197778 -0.118678699922364 -0.0038821545478548085 0.048575923999793436 -0.0022897750734399373 -0.10814061624380633
leaf_weight=107.42172414809465 41.018033050000668 9.75819971971214 375.37775185331702 57.978273816406727 65.974791992455721 8.4605533797293884
leaf_count=341 243 108 1411 218 219 151
internal_value=0 -0.0434539 0.0102011 0.00313616 0.0278578 -0.113785
internal_weight=0 59.2368 606.753 433.356 173.397 18.2188
internal_count=2691 502 2189 1629 560 259
is_linear=0
shrinkage=0.0995148


Tree=36
num_leaves=7
num_cat=0
split_feature=84 36 11 22 17 9
split_gain=22.2994 20.7976 18.1887 18.1481 15.7272 12.2939
threshold=-0.13028623514467672 1.048330056130885 -0.25658182982393402 -0.36869499595161948 -0.600386921851918 1.1748345567784806
decision_type=2 2 2 2 2 2
left_child=2 4 3 -1 -2 -4
right_child=1 -3 5 -5 -6 -7
leaf_value=-0.029349279142076853 -0.010416868240106975 0.021187080813801579 0.042303077892976243 0.026521908067757588 -0.091223952738630376 -0.018737776990749983
leaf_weight=123.82194415479898 44.005597479641438 58.145386647433043 246.4512292034924 107.61180394142866 52.082139423117042 37.670168034732342
leaf_count=609 229 170 855 300 354 153
internal_value=0 -0.0257896 0.0173401 -0.00337036 -0.0542165 0.03421
internal_weight=0 154.233 515.555 231.434 96.0877 284.121
internal_count=2670 753 1917 909 583 1008
is_linear=0
shrinkage=0.0995148


Tree=37
num_leaves=7
num_cat=0
split_feature=143 26 85 15 88 109
split_gain=22.6065 24.7373 20.7886 13.278 9.48604 4.46421
threshold=1.6344620008504962 2.6128108355116546 -0.51567445126648259 -0.82204425345458298 -0.06348532192186708 1.7174617530431757
decision_type=2 2 2 2 2 2
left_child=2 5 4 -4 -1 -2
right_child=1 -3 3 -5 -6 -7
leaf_value=0.039829421318083792 -0.1376880045127282 0.03792788658479835 0.026020702951255251 -0.026720813441934579 0.0081082131238439034 -0.066239512183701429
leaf_weight=219.80445323511958 18.786263391375542 18.38016739487648 66.45060983300209 163.78587118722498 162.2922842130065 16.067168612033129
leaf_count=700 147 81 230 801 567 144
internal_value=0 -0.0554876 0.0121228 -0.0114986 0.0263561 -0.104751
internal_weight=0 53.2336 612.333 230.236 382.097 34.8534
internal_count=2670 372 2298 1031 1267 291
is_linear=0
shrinkage=0.0995148


Tree=38
num_leaves=6
num_cat=0
split_feature=10 109 81 158 10
split_gain=19.1617 12.3194 13.9678 11.1377 4.27687
threshold=1.3074308302630169 1.4558358623753864 1.3235866110673009 -0.31222818779224654 1.3571460405026066
decision_type=2 2 2 2 2
left_child=1 3 -3 -1 -2
right_child=4 2 -4 -5 -6
leaf_value=0.0040716552745045055 -0.07494261743958 -0.073940890793922159 0.034625996899461449 0.035037544506343388 -0.022736814585308317
leaf_weight=337.70159147679806 30.409041862934828 33.849720500409603 17.963750407099724 174.44808594882488 31.783266449347138
leaf_count=1251 132 316 65 665 138
internal_value=0 0.00994102 -0.0363007 0.0146192 -0.0482629
internal_weight=0 563.963 51.8135 512.15 62.1923
internal_count=2567 2297 381 1916 270
is_linear=0
shrinkage=0.0995148


Tree=39
num_leaves=6
num_cat=0
split_feature=101 63 9 113 0
split_gain=13.7092 10.7568 30.465 12.2185 9.50972
threshold=1.9064429444943161 -0.028510108391528236 -0.34931014100634311 -0.093718528655601332 1.4215672751268988
decision_type=2 2 2 2 2
left_child=1 3 -3 -1 -2
right_child=4 2 -4 -5 -6
leaf_value=0.02179186360212081 -0.0024874745329333684 0.035137125457006979 -0.052720798876158534 -0.028945442330854408 -0.10722798388297788
leaf_weight=377.3858457878232 16.401453543454409 68.780074195936322 90.531162707135081 53.691693566739559 18.011814408004284
leaf_count=1303 113 265 457 250 179
internal_value=0 0.00730649 -0.0147895 0.0154724 -0.0573084
internal_weight=0 590.389 159.311 431.078 34.4133
internal_count=2567 2275 722 1553 292
is_linear=0
shrinkage=0.0995148


Tree=40
num_leaves=7
num_cat=0
split_feature=84 137 2 49 137 22
split_gain=13.5703 12.5278 12.6733 12.4431 8.16811 11.7129
threshold=-0.37993474561414753 0.22627829379927913 -0.98901365290706122 1.1272519962611376 -0.33658144632599524 -0.43561534775589267
decision_type=2 2 2 2 2 2
left_child=1 2 -1 -3 5 -2
right_child=4 3 -4 -5 -6 -7
leaf_value=-0.01958324895276509 -0.091998725583924593 -0.047330361182113784 0.03389160528094446 0.014067826527894798 0.011195983635895008 -0.017956205601886637
leaf_weight=53.532897852361202 26.379531381651759 57.568347454071045 243.66075722873211 75.635239146649837 61.646427109837532 106.89549875259399
leaf_count=162 357 296 923 251 231 361
internal_value=0 0.0128927 0.0242593 -0.0124674 -0.0187569 -0.0326117
internal_weight=0 430.397 297.194 133.204 194.921 133.275
internal_count=2581 1632 1085 547 949 718
is_linear=0
shrinkage=0.0995148


Tree=41
num_leaves=8
num_cat=0
split_feature=12 85 13 32 107 147 139
split_gain=12.6242 20.6728 15.0736 13.3096 10.9993 14.3354 11.0825
threshold=-0.093361081135799981 0.29767481674825685 -0.96219382907467077 0.14572327602918533 -0.43778019985182587 0.59586661895500714 -0.59661301534506639
decision_type=2 2 2 2 2 2 2
left_child=4 2 -2 -3 6 -6 -1
right_child=1 3 -4 -5 5 -7 -8
leaf_value=-0.035441218244942049 0.074866784364630845 -0.11319535048467269 0.015356261437120055 0.0023258384243352169 -0.010920082941426256 -0.083032684552708166 0.018578465245810621
leaf_weight=51.771339517086744 52.353731211274862 18.005387891083956 216.28209974244237 21.877846751362085 84.337160542607307 40.366831388324499 137.50324738770723
leaf_count=341 171 162 813 145 326 166 457
internal_value=0 0.0170284 0.0269541 -0.0498265 -0.011316 -0.034263 0.00380273
internal_weight=0 308.519 268.636 39.8832 313.979 124.704 189.275
internal_count=2581 1291 984 307 1290 492 798
is_linear=0
shrinkage=0.0995148


Tree=42
num_leaves=7
num_cat=0
split_feature=3 13 9 15 104 85
split_gain=14.8154 16.9383 25.4918 16.5938 15.5626 16.7004
threshold=0.24045026407921918 0.58973296470699499 -0.68708537789484991 -0.40123323918494885 -0.011429252004377241 -0.058165488008191733
decision_type=2 2 2 2 2 2
left_child=1 3 -3 -1 5 -2
right_child=4 2 -4 -5 -6 -7
leaf_value=-0.010983608630741338 0.021071737239311796 0.091495545543934367 -0.017703065361260994 -0.068789074938009828 -0.018691727472103209 0.10160821409345157
leaf_weight=236.17490085028112 113.99632773920894 35.691593151539564 52.038366425782442 62.113572891801596 67.339069055393338 32.845444234088063
leaf_count=961 436 117 208 311 254 232
internal_value=0 -0.0117155 0.0267227 -0.0230206 0.0209206 0.0390861
internal_weight=0 386.018 87.73 298.288 214.181 146.842
internal_count=2519 1597 325 1272 922 668
is_linear=0
shrinkage=0.0995148


Tree=43
num_leaves=5
num_cat=0
split_feature=23 10 17 12
split_gain=14.3898 12.9021 11.7653 11.4212
threshold=2.361216666062766 1.3017581213631322 -0.57823598175425261 0.12682506968394547
decision_type=2 2 2 2
left_child=1 3 -3 -1
right_child=-2 2 -4 -5
leaf_value=-0.003363522869169275 -0.061832718204042798 0.0067813479969310734 -0.083124049112931114 0.027078224403693001
leaf_weight=304.45596262440085 35.168330430984497 27.260150419548154 30.590292299166322 203.723010731861
leaf_count=1255 116 96 164 888
internal_value=0 0.00377098 -0.040759 0.00884022
internal_weight=0 566.029 57.8504 508.179
internal_count=2519 2403 260 2143
is_linear=0
shrinkage=0.0995148


Tree=44
num_leaves=7
num_cat=0
split_feature=57 146 24 4 149 109
split_gain=19.2599 23.9553 18.5804 7.80924 10.9495 5.99623
threshold=1.1582578014332003 1.4378779494451446 0.9681734089163917 0.3540558510524916 -0.32758711013867231 1.4184607351371308
decision_type=2 2 2 2 2 2
left_child=1 2 -1 4 -2 -3
right_child=3 5 -4 -5 -6 -7
leaf_value=-0.0056360966153816321 0.043062132256598801 -0.045567534782578099 0.062105165138468893 0.063450856422029134 -0.021938850218519691 -0.12260631080975513
leaf_weight=371.6156926676631 67.307749424129725 23.757920967414975 44.948190309107304 58.158755645155907 41.480711102485657 17.284693267196417
leaf_count=1503 208 146 208 179 139 185
internal_value=0 -0.00547359 0.00167334 0.0340143 0.0182775 -0.0780117
internal_weight=0 457.606 416.564 166.947 108.788 41.0426
internal_count=2568 2042 1711 526 347 331
is_linear=0
shrinkage=0.0995148


Tree=45
num_leaves=6
num_cat=0
split_feature=146 11 148 109 10
split_gain=15.1296 14.1081 13.6285 11.3397 9.38889
threshold=1.6901167215958348 0.34344466972574789 1.5174907782312441 -0.30079511782262697 -0.24895247227151768
decision_type=2 2 2 2 2
left_child=1 2 -1 -3 -2
right_child=4 3 -4 -5 -6
leaf_value=-0.015097360369465624 -0.11171204630549293 0.036159044461898542 0.044958811511232571 -0.0095115243543773889 -0.010876526281119254
leaf_weight=259.55418352596462 16.948487235233188 210.25942458212376 43.724128168076277 72.371511247009039 19.860053105279803
leaf_count=1065 156 693 171 325 158
internal_value=0 0.00846824 -0.00643896 0.0244645 -0.0573062
internal_weight=0 585.909 303.278 282.631 36.8085
internal_count=2568 2254 1236 1018 314
is_linear=0
shrinkage=0.0995148


Tree=46
num_leaves=8
num_cat=0
split_feature=114 123 78 13 107 60 13
split_gain=21.0015 14.0644 10.8906 10.6612 16.5282 5.78846 5.19291
threshold=-0.43471840661786088 -0.85223662784204801 0.54673891280400644 -0.26563775660269923 -0.48893257073205026 0.1980969103711282 -0.98305651146021644
decision_type=2 2 2 2 2 2 2
left_child=1 5 -3 6 -5 -1 -2
right_child=3 2 -4 4 -6 -7 -8
leaf_value=-0.0020618085228260741 0.021730335183162593 -0.0078026336132084118 -0.055853679638106897 0.035656204658220163 -0.033315553647777232 0.03849573028075115 0.063669833040370646
leaf_weight=74.50240963511169 43.895315799862146 140.31020204350352 70.023096963763237 95.47665935754776 53.794527847319841 65.476999290287495 87.556572234258056
leaf_count=254 141 919 361 299 179 188 247
internal_value=0 -0.00753288 -0.0237995 0.0289991 0.0108001 0.0169095 0.0496651
internal_weight=0 350.313 210.333 280.723 149.271 139.979 131.452
internal_count=2588 1722 1280 866 478 442 388
is_linear=0
shrinkage=0.0995148


Tree=47
num_leaves=5
num_cat=0
split_feature=45 10 9 127
split_gain=16.0281 25.1713 14.403 13.9039
threshold=1.3751253639306957 0.21971334233462567 1.2522752344009109 -0.29383164222813885
decision_type=2 2 2 2
left_child=2 -2 3 -1
right_child=1 -3 -4 -5
leaf_value=0.027752115314951108 0.016758698677037227 -0.12628865606794376 -0.044971805256767278 -0.0067135690856094101
leaf_weight=367.47043382376432 27.55486567877233 21.835634659975767 40.066505622118711 169.32746422663331
leaf_count=1464 183 161 170 610
internal_value=0 -0.0464828 0.0125843 0.0168803
internal_weight=0 49.3905 576.864 536.798
internal_count=2588 344 2244 2074
is_linear=0
shrinkage=0.0995148


Tree=48
num_leaves=7
num_cat=0
split_feature=14 31 126 103 73 91
split_gain=16.3464 21.76 14.0975 13.5465 16.9423 12.3076
threshold=0.46074817861475398 -0.69241807214215678 0.25100551646407104 -0.42906626159628791 0.57720539014796401 0.58114619083502572
decision_type=2 2 2 2 2 2
left_child=1 2 -1 4 -2 -3
right_child=3 5 -4 -5 -6 -7
leaf_value=-0.062998191902177703 -0.013246645005507145 0.020168339161401389 0.019968329677414347 0.080226363412952487 0.055133322136365501 -0.026014367944175706
leaf_weight=83.631919682025909 83.745575251057744 229.49407440237701 26.7756232842803 41.887407038360834 62.785266289487481 76.094952844083309
leaf_count=450 341 888 123 244 219 276
internal_value=0 -0.00501216 -0.0428775 0.0303192 0.0160527 0.00866835
internal_weight=0 415.997 110.408 188.418 146.531 305.589
internal_count=2541 1737 573 804 560 1164
is_linear=0
shrinkage=0.0995148


Tree=49
num_leaves=6
num_cat=0
split_feature=9 9 30 9 36
split_gain=13.0113 12.4465 12.379 4.54161 3.109
threshold=1.2159265955305545 1.0106278086753948 -0.44307384145350809 1.1232889757363664 0.49904764602730362
decision_type=2 2 2 2 2
left_child=1 2 -1 -3 -2
right_child=4 3 -4 -5 -6
leaf_value=-0.019959535176992088 -0.061145284266097583 0.075489486079404547 0.015052413569750293 0.025579570956351959 -0.015880023266982377
leaf_weight=144.0177506711334 30.073960052803159 33.515828628093004 327.24783881939948 39.142320843413472 30.03333674184978
leaf_count=849 159 120 1146 164 103
internal_value=0 0.0102637 0.00435284 0.0486021 -0.038528
internal_weight=0 543.924 471.266 72.6581 60.1073
internal_count=2541 2279 1995 284 262
is_linear=0
shrinkage=0.0995148


Tree=50
num_leaves=7
num_cat=0
split_feature=9 57 136 44 10 73
split_gain=12.9724 24.7397 17.4655 12.416 11.8884 11.4792
threshold=0.78180745412279551 1.2789482593752175 -0.11154759317975435 0.55063445377640119 -0.86704012866464863 1.4098964198225066
decision_type=2 2 2 2 2 2
left_child=2 4 3 -1 -2 -4
right_child=1 -3 5 -5 -6 -7
leaf_value=0.016205306402315441 -0.099078981051560169 0.049411597712151728 -0.039268885399311691 0.081020158704270193 -0.026875303552679246 0.020263791283998116
leaf_weight=269.01805218309164 28.49971030652523 37.423428691923618 94.136614661663771 32.84213450923562 108.77481085062027 48.653605118393898
leaf_count=1064 157 113 449 154 503 157
internal_value=0 -0.0223124 0.00969225 0.0232571 -0.0418656 -0.018984
internal_weight=0 174.698 444.65 301.86 137.275 142.79
internal_count=2597 773 1824 1218 660 606
is_linear=0
shrinkage=0.0995148


Tree=51
num_leaves=7
num_cat=0
split_feature=92 156 3 94 10 32
split_gain=12.4413 14.2035 16.7091 10.5579 5.43987 2.4048
threshold=-0.171296771387564 -0.39239677610213392 -0.42982593657279372 0.75787219273147299 0.42950612482197342 -0.34349149282575031
decision_type=2 2 2 2 2 2
left_child=1 2 -1 -3 5 -2
right_child=4 3 -4 -5 -6 -7
leaf_value=0.056916031920453317 -0.12238211908364191 0.0019195045672313964 0.00055736349525649983 -0.036839672451482952 -0.0080485752848126167 -0.054426141787939301
leaf_weight=90.459806816652417 10.796310145407913 278.64571661129594 122.84103944338858 92.770904511213303 13.149601992219685 9.8730558697134274
leaf_count=316 139 952 432 456 172 130
internal_value=0 0.00399217 0.0244588 -0.0077616 -0.0580876 -0.0899219
internal_weight=0 584.717 213.301 371.417 33.819 20.6694
internal_count=2597 2156 748 1408 441 269
is_linear=0
shrinkage=0.0995148


Tree=52
num_leaves=6
num_cat=0
split_feature=9 26 21 149 120
split_gain=13.6384 12.1008 12.3452 9.27676 7.91906
threshold=1.2143838763095909 1.5287245698417353 -0.44909113058436206 1.05673615131246 -0.40572654782491596
decision_type=2 2 2 2 2
left_child=1 2 -1 -3 -2
right_child=4 3 -4 -5 -6
leaf_value=-0.042006227082430153 -0.089139443395066728 0.078619568729934947 0.0023626661750716935 0.0028201667723068034 -0.014413498743233184
leaf_weight=73.373951215296984 27.156562315300107 32.764799118041992 404.30899897217751 31.230787202715874 29.087778482586145
leaf_count=754 135 142 1263 144 136
internal_value=0 0.000991575 -0.00445257 0.0416284 -0.0504936
internal_weight=0 541.679 477.683 63.9956 56.2443
internal_count=2574 2303 2017 286 271
is_linear=0
shrinkage=0.0995148


Tree=53
num_leaves=6
num_cat=0
split_feature=9 26 22 64 64
split_gain=10.956 9.67826 11.1116 8.99612 6.27651
threshold=1.2143838763095909 1.5287245698417353 -0.53667948025463708 0.94590418576490054 0.57686077786730838
decision_type=2 2 2 2 2
left_child=1 2 -1 -3 -2
right_child=4 3 -4 -5 -6
leaf_value=-0.037734547341583262 -0.076920286032079746 0.077530872738436493 0.0028313363847364149 0.0030899528526153615 -0.010604114707498259
leaf_weight=80.497389253228903 29.4798822440207 29.491155333817005 394.98687215149403 35.345821753144264 27.150578934699297
leaf_count=777 177 175 1240 111 94
internal_value=0 0.000881884 -0.00403629 0.0369495 -0.0451261
internal_weight=0 540.321 475.484 64.837 56.6305
internal_count=2574 2303 2017 286 271
is_linear=0
shrinkage=0.0995148


Tree=54
num_leaves=6
num_cat=0
split_feature=156 21 96 112 5
split_gain=22.9712 16.2812 18.6648 11.7761 9.50456
threshold=-0.32920783189353126 1.4705150431635439 0.27282350655751841 -0.14104813369351352 -0.81919099444110788
decision_type=2 2 2 2 2
left_child=3 2 -2 4 -1
right_child=1 -3 -4 -5 -6
leaf_value=-0.019462293872365418 -0.014606638495436076 0.017204740329833566 -0.075490968235108397 0.07599769675331923 0.024575324700578362
leaf_weight=68.243224611505866 159.19362382031977 85.15684100240469 72.606391167268157 32.212255878373981 168.06714515574276
leaf_count=306 740 238 309 211 750
internal_value=0 -0.0200069 -0.0336774 0.0195521 0.0118579
internal_weight=0 316.957 231.8 268.523 236.31
internal_count=2554 1287 1049 1267 1056
is_linear=0
shrinkage=0.0995148


Tree=55
num_leaves=7
num_cat=0
split_feature=104 9 70 9 145 17
split_gain=15.442 15.7813 9.70816 8.80546 7.24118 7.13929
threshold=0.8019786746398635 0.098121293459672854 0.44163635248395339 -1.1096877637987346 -0.53412196101270759 1.493291918993233
decision_type=2 2 2 2 2 2
left_child=2 3 5 -2 -4 -1
right_child=1 -3 4 -5 -6 -7
leaf_value=0.009226655199752562 -0.036452765423814697 0.0065231540020666773 -0.04496807719644752 -0.11084155771698746 0.013515688363514949 0.057683117708836898
leaf_weight=343.74937793053687 39.10166753642261 53.22327259555459 55.829708382487297 26.396536337211728 33.574111863970757 33.001993056386709
leaf_count=1421 181 204 258 150 182 158
internal_value=0 -0.0337261 0.00647539 -0.0664323 -0.0230055 0.0134713
internal_weight=0 118.721 466.155 65.4982 89.4038 376.751
internal_count=2554 535 2019 331 440 1579
is_linear=0
shrinkage=0.0995148


Tree=56
num_leaves=8
num_cat=0
split_feature=85 103 64 3 96 3 88
split_gain=12.8253 17.3354 21.3125 12.7918 12.5618 25.8052 13.4889
threshold=-0.51567445126648259 -0.11515148513967731 0.62374251372400569 0.20243459896761237 -0.55632285202339016 -0.81698547336731442 -0.10748336235477415
decision_type=2 2 2 2 2 2 2
left_child=4 2 -2 -3 5 -1 -6
right_child=1 3 -4 -5 6 -7 -8
leaf_value=0.051975029970073257 -0.073098422202006214 -0.012990867680887433 -0.0020423658267253722 0.090084002019591491 0.046869778844593188 -0.044270217949985244 0.00035544006564500679
leaf_weight=39.176530638709664 81.464037466794252 28.084571279585361 85.86348838545382 20.720251278951764 116.22259240038693 93.268126033246517 131.71235482767224
leaf_count=171 411 192 309 172 381 487 433
internal_value=0 -0.0214153 -0.0366363 0.0307699 0.00894197 -0.0158013 0.0221596
internal_weight=0 216.132 167.328 48.8048 380.38 132.445 247.935
internal_count=2556 1084 720 364 1472 658 814
is_linear=0
shrinkage=0.0995148


end of trees

feature_importances:
num__COSINE_MonthlyCharges_=15
num__Contract_Month_to_month_MonthlyCharges=13
num__SeniorCitizen_No_tenure=9
num__tenure_0=8
num__COSINE_TotalCharges_=8
num__MonthlyCharges_PaperlessBilling_Yes=8
num__ABSOLUTE_DIFF_MonthlyCharges_=7
num__Contract_Month_to_month_TotalCharges=7
num__MonthlyCharges_OnlineSecurity_No=7
num__MultipleLines_No_tenure=7
num__Partner_Yes_tenure=7
num__tenure=6
num__EXPONENTIAL_WEIGHTED_STD_TotalCharges_com_0_5_=6
num__EXPONENTIAL_WEIGHTED_VARIANCE_tenure_com_0_5_=6
num__InternetService_DSL_MonthlyCharges=6
num__MonthlyCharges_SeniorCitizen_No=6
num__PaymentMethod_Electronic_check_TotalCharges=6
num__gender_Female_tenure=6
num__InternetService_DSL_TotalCharges=5
num__InternetService_Fiber_optic_MonthlyCharges=5
num__MonthlyCharges_OnlineBackup_No=5
num__MonthlyCharges_TechSupport_No=5
num__MultipleLines_No_TotalCharges=5
num__StreamingMovies_No_tenure=5
num__StreamingTV_Yes_tenure=5
num__COSINE_tenure_=4
num__Contract_One_year_TotalCharges=4
num__Contract_One_year_tenure=4
num__DeviceProtection_No_internet_service_TotalCharges=4
num__OnlineSecurity_No_TotalCharges=4
num__TechSupport_Yes_tenure=4
num__MonthlyCharges=3
num__TotalCharges=3
num__ABSOLUTE_DIFF_TotalCharges_=3
num__Contract_One_year_MonthlyCharges=3
num__Dependents_No_MonthlyCharges=3
num__Dependents_Yes_TotalCharges=3
num__MonthlyCharges_PaymentMethod_Electronic_check=3
num__PaperlessBilling_No_TotalCharges=3
num__PaperlessBilling_No_tenure=3
num__PaperlessBilling_Yes_TotalCharges=3
num__PaymentMethod_Electronic_check_tenure=3
num__PhoneService_Yes_tenure=3
num__SeniorCitizen_No_TotalCharges=3
num__StreamingTV_No_TotalCharges=3
num__TechSupport_No_tenure=3
num__gender_Female_MonthlyCharges=3
num__PERCENT_CHANGE_MonthlyCharges_=3
num__ABSOLUTE_DIFF_tenure_=2
num__EXPONENTIAL_WEIGHTED_STD_MonthlyCharges_com_0_5_=2
num__EXPONENTIAL_WEIGHTED_STD_tenure_com_0_5_=2
num__EXPONENTIAL_WEIGHTED_VARIANCE_MonthlyCharges_com_0_5_=2
num__Contract_Two_year_MonthlyCharges=2
num__Dependents_No_tenure=2
num__DeviceProtection_No_MonthlyCharges=2
num__MonthlyCharges_PhoneService_Yes=2
num__MonthlyCharges_StreamingTV_Yes=2
num__MonthlyCharges_TechSupport_Yes=2
num__MultipleLines_Yes_TotalCharges=2
num__OnlineBackup_No_internet_service_TotalCharges=2
num__OnlineSecurity_No_tenure=2
num__OnlineSecurity_No_internet_service_TotalCharges=2
num__OnlineSecurity_Yes_tenure=2
num__Partner_No_TotalCharges=2
num__Partner_No_tenure=2
num__PhoneService_Yes_TotalCharges=2
num__StreamingMovies_No_TotalCharges=2
num__StreamingTV_Yes_TotalCharges=2
num__gender_Female_TotalCharges=2
num__gender_Male_MonthlyCharges=2
num__gender_Male_TotalCharges=2
num__gender_Male_tenure=2
num__NATURAL_LOGARITHM_tenure_=2
num__TotalCharges_0=1
num__Contract_Month_to_month_tenure=1
num__Contract_Two_year_TotalCharges=1
num__Contract_Two_year_tenure=1
num__Dependents_No_TotalCharges=1
num__Dependents_Yes_MonthlyCharges=1
num__DeviceProtection_No_internet_service_MonthlyCharges=1
num__DeviceProtection_Yes_MonthlyCharges=1
num__DeviceProtection_Yes_tenure=1
num__InternetService_DSL_tenure=1
num__InternetService_Fiber_optic_TotalCharges=1
num__InternetService_Fiber_optic_tenure=1
num__InternetService_No_TotalCharges=1
num__MonthlyCharges_MultipleLines_Yes=1
num__MonthlyCharges_OnlineBackup_Yes=1
num__MonthlyCharges_PaperlessBilling_No=1
num__MonthlyCharges_PaymentMethod_Mailed_check=1
num__MonthlyCharges_SeniorCitizen_Yes=1
num__MonthlyCharges_StreamingMovies_Yes=1
num__MonthlyCharges_StreamingTV_No=1
num__MultipleLines_Yes_tenure=1
num__OnlineBackup_No_TotalCharges=1
num__OnlineBackup_No_tenure=1
num__OnlineBackup_Yes_TotalCharges=1
num__OnlineBackup_Yes_tenure=1
num__PaperlessBilling_Yes_tenure=1
num__Partner_Yes_TotalCharges=1
num__PaymentMethod_Bank_transfer_automatic_tenure=1
num__PaymentMethod_Credit_card_automatic_TotalCharges=1
num__PaymentMethod_Credit_card_automatic_tenure=1
num__StreamingMovies_Yes_TotalCharges=1
num__TechSupport_No_TotalCharges=1
num__tenure_1=1
num__PERCENT_CHANGE_TotalCharges_=1
num__PERCENT_CHANGE_tenure_=1
remainder__OnlineSecurity_Yes=1
remainder__Contract_Month_to_month=1

parameters:
[boosting: gbdt]
[objective: binary]
[metric: auc]
[tree_learner: serial]
[device_type: cpu]
[data_sample_strategy: bagging]
[data: ]
[valid: ]
[num_iterations: 3000]
[learning_rate: 0.0995148]
[num_leaves: 8]
[num_threads: 0]
[seed: 0]
[deterministic: 0]
[force_col_wise: 0]
[force_row_wise: 0]
[histogram_pool_size: -1]
[max_depth: 3]
[min_data_in_leaf: 129]
[min_sum_hessian_in_leaf: 0.001]
[bagging_fraction: 0.539316]
[pos_bagging_fraction: 1]
[neg_bagging_fraction: 1]
[bagging_freq: 2]
[bagging_seed: 3]
[feature_fraction: 0.438145]
[feature_fraction_bynode: 1]
[feature_fraction_seed: 2]
[extra_trees: 0]
[extra_seed: 6]
[early_stopping_round: 200]
[first_metric_only: 0]
[max_delta_step: 0]
[lambda_l1: 3.221e-06]
[lambda_l2: 2.17935e-08]
[linear_lambda: 0]
[min_gain_to_split: 0]
[drop_rate: 0.1]
[max_drop: 50]
[skip_drop: 0.5]
[xgboost_dart_mode: 0]
[uniform_drop: 0]
[drop_seed: 4]
[top_rate: 0.2]
[other_rate: 0.1]
[min_data_per_group: 100]
[max_cat_threshold: 32]
[cat_l2: 10]
[cat_smooth: 10]
[max_cat_to_onehot: 4]
[top_k: 20]
[monotone_constraints: ]
[monotone_constraints_method: basic]
[monotone_penalty: 0]
[feature_contri: ]
[forcedsplits_filename: ]
[refit_decay_rate: 0.9]
[cegb_tradeoff: 1]
[cegb_penalty_split: 0]
[cegb_penalty_feature_lazy: ]
[cegb_penalty_feature_coupled: ]
[path_smooth: 0]
[interaction_constraints: ]
[verbosity: -1]
[saved_feature_importance_type: 0]
[use_quantized_grad: 0]
[num_grad_quant_bins: 4]
[quant_train_renew_leaf: 0]
[stochastic_rounding: 1]
[linear_tree: 0]
[max_bin: 255]
[max_bin_by_feature: ]
[min_data_in_bin: 3]
[bin_construct_sample_cnt: 200000]
[data_random_seed: 1]
[is_enable_sparse: 1]
[enable_bundle: 1]
[use_missing: 1]
[zero_as_missing: 0]
[feature_pre_filter: 1]
[pre_partition: 0]
[two_round: 0]
[header: 0]
[label_column: ]
[weight_column: ]
[group_column: ]
[ignore_column: ]
[categorical_feature: ]
[forcedbins_filename: ]
[precise_float_parser: 0]
[parser_config_file: ]
[objective_seed: 5]
[num_class: 1]
[is_unbalance: 0]
[scale_pos_weight: 3]
[sigmoid: 1]
[boost_from_average: 1]
[reg_sqrt: 0]
[alpha: 0.9]
[fair_c: 1]
[poisson_max_delta_step: 0.7]
[tweedie_variance_power: 1.5]
[lambdarank_truncation_level: 30]
[lambdarank_norm: 1]
[label_gain: ]
[lambdarank_position_bias_regularization: 0]
[eval_at: ]
[multi_error_top_k: 1]
[auc_mu_weights: ]
[num_machines: 1]
[local_listen_port: 12400]
[time_out: 120]
[machine_list_filename: ]
[machines: ]
[gpu_platform_id: -1]
[gpu_device_id: -1]
[gpu_use_dp: 0]
[num_gpu: 1]

end of parameters

pandas_categorical:[]
