tree
version=v4
num_class=1
num_tree_per_iteration=1
label_index=0
max_feature_idx=201
objective=binary sigmoid:1
feature_names=num__tenure num__MonthlyCharges num__TotalCharges num__ABSOLUTE_DIFF_MonthlyCharges_ num__ABSOLUTE_DIFF_TotalCharges_ num__ABSOLUTE_DIFF_tenure_ num__MonthlyCharges_0 num__TotalCharges_0 num__tenure_0 num__COSINE_MonthlyCharges_ num__COSINE_TotalCharges_ num__COSINE_tenure_ num__EXPONENTIAL_WEIGHTED_STD_MonthlyCharges_com_0_5_ num__EXPONENTIAL_WEIGHTED_STD_TotalCharges_com_0_5_ num__EXPONENTIAL_WEIGHTED_STD_tenure_com_0_5_ num__EXPONENTIAL_WEIGHTED_VARIANCE_MonthlyCharges_com_0_5_ num__EXPONENTIAL_WEIGHTED_VARIANCE_TotalCharges_com_0_5_ num__EXPONENTIAL_WEIGHTED_VARIANCE_tenure_com_0_5_ num__MonthlyCharges_tenure num__TotalCharges_MonthlyCharges num__tenure_MonthlyCharges num__Contract_Month_to_month_MonthlyCharges num__Contract_Month_to_month_TotalCharges num__Contract_Month_to_month_tenure num__Contract_One_year_MonthlyCharges num__Contract_One_year_TotalCharges num__Contract_One_year_tenure num__Contract_Two_year_MonthlyCharges num__Contract_Two_year_TotalCharges num__Contract_Two_year_tenure num__Dependents_No_MonthlyCharges num__Dependents_No_TotalCharges num__Dependents_No_tenure num__Dependents_Yes_MonthlyCharges num__Dependents_Yes_TotalCharges num__Dependents_Yes_tenure num__DeviceProtection_No_MonthlyCharges num__DeviceProtection_No_TotalCharges num__DeviceProtection_No_tenure num__DeviceProtection_No_internet_service_MonthlyCharges num__DeviceProtection_No_internet_service_TotalCharges num__DeviceProtection_No_internet_service_tenure num__DeviceProtection_Yes_MonthlyCharges num__DeviceProtection_Yes_TotalCharges num__DeviceProtection_Yes_tenure num__InternetService_DSL_MonthlyCharges num__InternetService_DSL_TotalCharges num__InternetService_DSL_tenure num__InternetService_Fiber_optic_MonthlyCharges num__InternetService_Fiber_optic_TotalCharges num__InternetService_Fiber_optic_tenure num__InternetService_No_MonthlyCharges num__InternetService_No_TotalCharges num__InternetService_No_tenure num__MonthlyCharges_MultipleLines_No num__MonthlyCharges_MultipleLines_No_phone_service num__MonthlyCharges_MultipleLines_Yes num__MonthlyCharges_OnlineBackup_No num__MonthlyCharges_OnlineBackup_No_internet_service num__MonthlyCharges_OnlineBackup_Yes num__MonthlyCharges_OnlineSecurity_No num__MonthlyCharges_OnlineSecurity_No_internet_service num__MonthlyCharges_OnlineSecurity_Yes num__MonthlyCharges_PaperlessBilling_No num__MonthlyCharges_PaperlessBilling_Yes num__MonthlyCharges_Partner_No num__MonthlyCharges_Partner_Yes num__MonthlyCharges_PaymentMethod_Bank_transfer_automatic_ num__MonthlyCharges_PaymentMethod_Credit_card_automatic_ num__MonthlyCharges_PaymentMethod_Electronic_check num__MonthlyCharges_PaymentMethod_Mailed_check num__MonthlyCharges_PhoneService_No num__MonthlyCharges_PhoneService_Yes num__MonthlyCharges_SeniorCitizen_No num__MonthlyCharges_SeniorCitizen_Yes num__MonthlyCharges_StreamingMovies_No num__MonthlyCharges_StreamingMovies_No_internet_service num__MonthlyCharges_StreamingMovies_Yes num__MonthlyCharges_StreamingTV_No num__MonthlyCharges_StreamingTV_No_internet_service num__MonthlyCharges_StreamingTV_Yes num__MonthlyCharges_TechSupport_No num__MonthlyCharges_TechSupport_No_internet_service num__MonthlyCharges_TechSupport_Yes num__MultipleLines_No_TotalCharges num__MultipleLines_No_tenure num__MultipleLines_No_phone_service_TotalCharges num__MultipleLines_No_phone_service_tenure num__MultipleLines_Yes_TotalCharges num__MultipleLines_Yes_tenure num__OnlineBackup_No_TotalCharges num__OnlineBackup_No_tenure num__OnlineBackup_No_internet_service_TotalCharges num__OnlineBackup_No_internet_service_tenure num__OnlineBackup_Yes_TotalCharges num__OnlineBackup_Yes_tenure num__OnlineSecurity_No_TotalCharges num__OnlineSecurity_No_tenure num__OnlineSecurity_No_internet_service_TotalCharges num__OnlineSecurity_No_internet_service_tenure num__OnlineSecurity_Yes_TotalCharges num__OnlineSecurity_Yes_tenure num__PaperlessBilling_No_TotalCharges num__PaperlessBilling_No_tenure num__PaperlessBilling_Yes_TotalCharges num__PaperlessBilling_Yes_tenure num__Partner_No_TotalCharges num__Partner_No_tenure num__Partner_Yes_TotalCharges num__Partner_Yes_tenure num__PaymentMethod_Bank_transfer_automatic_TotalCharges num__PaymentMethod_Bank_transfer_automatic_tenure num__PaymentMethod_Credit_card_automatic_TotalCharges num__PaymentMethod_Credit_card_automatic_tenure num__PaymentMethod_Electronic_check_TotalCharges num__PaymentMethod_Electronic_check_tenure num__PaymentMethod_Mailed_check_TotalCharges num__PaymentMethod_Mailed_check_tenure num__PhoneService_No_TotalCharges num__PhoneService_No_tenure num__PhoneService_Yes_TotalCharges num__PhoneService_Yes_tenure num__SeniorCitizen_No_TotalCharges num__SeniorCitizen_No_tenure num__SeniorCitizen_Yes_TotalCharges num__SeniorCitizen_Yes_tenure num__StreamingMovies_No_TotalCharges num__StreamingMovies_No_tenure num__StreamingMovies_No_internet_service_TotalCharges num__StreamingMovies_No_internet_service_tenure num__StreamingMovies_Yes_TotalCharges num__StreamingMovies_Yes_tenure num__StreamingTV_No_TotalCharges num__StreamingTV_No_tenure num__StreamingTV_No_internet_service_TotalCharges num__StreamingTV_No_internet_service_tenure num__StreamingTV_Yes_TotalCharges num__StreamingTV_Yes_tenure num__TechSupport_No_TotalCharges num__TechSupport_No_tenure num__TechSupport_No_internet_service_TotalCharges num__TechSupport_No_internet_service_tenure num__TechSupport_Yes_TotalCharges num__TechSupport_Yes_tenure num__gender_Female_MonthlyCharges num__gender_Female_TotalCharges num__gender_Female_tenure num__gender_Male_MonthlyCharges num__gender_Male_TotalCharges num__gender_Male_tenure num__MonthlyCharges_1 num__TotalCharges_1 num__tenure_1 num__NATURAL_LOGARITHM_MonthlyCharges_ num__NATURAL_LOGARITHM_TotalCharges_ num__NATURAL_LOGARITHM_tenure_ num__PERCENT_CHANGE_MonthlyCharges_ num__PERCENT_CHANGE_TotalCharges_ num__PERCENT_CHANGE_tenure_ remainder__gender_Female remainder__gender_Male remainder__SeniorCitizen_No remainder__SeniorCitizen_Yes remainder__Partner_No remainder__Partner_Yes remainder__Dependents_No remainder__Dependents_Yes remainder__PhoneService_No remainder__PhoneService_Yes remainder__MultipleLines_No remainder__MultipleLines_No_phone_service remainder__MultipleLines_Yes remainder__InternetService_DSL remainder__InternetService_Fiber_optic remainder__InternetService_No remainder__OnlineSecurity_No remainder__OnlineSecurity_No_internet_service remainder__OnlineSecurity_Yes remainder__OnlineBackup_No remainder__OnlineBackup_No_internet_service remainder__OnlineBackup_Yes remainder__DeviceProtection_No remainder__DeviceProtection_No_internet_service remainder__DeviceProtection_Yes remainder__TechSupport_No remainder__TechSupport_No_internet_service remainder__TechSupport_Yes remainder__StreamingTV_No remainder__StreamingTV_No_internet_service remainder__StreamingTV_Yes remainder__StreamingMovies_No remainder__StreamingMovies_No_internet_service remainder__StreamingMovies_Yes remainder__Contract_Month_to_month remainder__Contract_One_year remainder__Contract_Two_year remainder__PaperlessBilling_No remainder__PaperlessBilling_Yes remainder__PaymentMethod_Bank_transfer_automatic_ remainder__PaymentMethod_Credit_card_automatic_ remainder__PaymentMethod_Electronic_check remainder__PaymentMethod_Mailed_check
feature_infos=[-1.2876433357076105:1.6048973164615647] [-1.5590808125059858:1.7922019960146014] [-1.0075584110313642:2.8123085290869621] [-1.3732146786845074:2.5784136684430314] [-1.2060160305473682:2.9812805775614346] [-1.3806058593655879:2.085520697994244] [-1.5590808125059858:1.7922019960146014] [-1.0075584110313642:2.8123085290869621] [-1.2876433357076105:1.6048973164615647] [-1.6559001007418339:1.28083675737467] [-1.4494730056648946:1.3788448272519644] [-1.3817056216017931:1.468542093412087] [-2.1069659842313064:2.9120514491963907] [-1.7999143369867856:3.453290194399262] [-2.2206246960958627:2.5445546925480507] [-1.2271680645847816:4.0856026757025683] [-1.0062234280601949:5.244261772359744] [-1.2909408643849078:3.3694664154107454] [-2.2341056533153125:0.44760640505790078] [-3.2651149458719058:0.30626793132177549] [-0.44693294684006207:2.2374721019568433] [-0.94578599855614531:2.0421339744444649] [-0.55131773754116165:5.326954298091076] [-0.62565944941363161:3.9018159256242755] [-0.45220912380176848:3.4929283089938705] [-0.39603358032404679:4.7545425139783877] [-0.45876691721978413:3.2581002793627971] [-0.47447813133895117:3.324411347121635] [-0.4452253856704893:3.8163752346607369] [-0.53198941927685561:2.2497124897430973] [-1.1925123852191379:1.8230401606876878] [-0.72227767372610163:3.30795962274903] [-0.85309021038297506:2.0821984027466391] [-0.56000664080333362:3.0756557513555887] [-0.44472849595122205:4.6249667369757201] [-0.52785862556153662:2.7258360060020284] [-0.83236515237594266:2.1196961096541744] [-0.5194368877823935:4.605073361324] [-0.56149002555798422:3.2893793256907413] [-0.51378647107731878:2.5926444251643499] [-0.37891228946356265:4.9940595223046564] [-0.38826659388096679:3.8990813930579238] [-0.6941127114517337:2.1253460400249216] [-0.58503282081547725:3.1417451360629092] [-0.61694867536681908:2.232745741525108] [-0.69083945667266644:2.4904562274286692] [-0.49326158338330245:4.0456477840023153] [-0.53455640144671934:2.8250327897971115] [-0.87338041832362256:1.6952042412161779] [-0.6083220647327694:3.1012042274848013] [-0.63157797459584752:2.4767121011933835] [-0.51378647107731878:2.5926444251643499] [-0.37891228946356265:4.9940595223046564] [-0.38826659388096679:3.8990813930579238] [-0.77212164892543145:2.5502676885873572] [-0.31848462784650311:4.8400029898855816] [-0.79748739490364495:1.9211044460429221] [-0.82275277973335137:2.1088573760840346] [-0.51378647107731878:2.5926444251643499] [-0.69938517712198289:2.1740803828739428] [-0.92389534221972613:1.8355826094435725] [-0.51378647107731878:2.5926444251643499] [-0.60732995136117784:2.5588949716925633] [-0.66134279473815105:3.0588037530045731] [-1.0561863544743169:1.7951848622458408] [-0.85329483658360894:2.324438411931244] [-0.8257003353735729:2.126775697750682] [-0.47441685519710863:3.2826387125277332] [-0.46649816220304485:3.3326000799133659] [-0.66425725581590622:2.4139432100240814] [-0.44939676443749926:4.8543185513408833] [-0.31848462784650311:4.8400029898855816] [-1.7359836349186288:1.6466528147216684] [-1.4550070558081643:1.8534403853777899] [-0.41710791332726999:3.3706824178186463] [-0.76586616718195977:2.3458638724201935] [-0.51378647107731878:2.5926444251643499] [-0.7702854427792577:1.8918388429553319] [-0.76988805514082803:2.3613911675699044] [-0.51378647107731878:2.5926444251643499] [-0.76701356733785586:1.8921979101812898] [-0.9097252306979825:1.8717801628438113] [-0.51378647107731878:2.5926444251643499] [-0.6204416706814615:2.4330536013965216] [-0.48865681981963915:5.4516614546243956] [-0.59192594514286456:3.0681457609234637] [-0.24129326755631633:7.8467854132151649] [-0.25813255831089899:5.6875005505868863] [-0.63462047416298939:3.0501649434399831] [-0.68981401699383549:2.0947777003655546] [-0.52108360110011431:4.5819706249277239] [-0.5634469568684557:3.2696091656734354] [-0.37891228946356265:4.9940595223046564] [-0.38826659388096679:3.8990813930579238] [-0.5798617808862867:3.1869166039220462] [-0.61471973022058302:2.2403480307661368] [-0.58044780376417782:3.7600632029454921] [-0.63108139447280165:2.8373523478381442] [-0.37891228946356265:4.9940595223046564] [-0.38826659388096679:3.8990813930579238] [-0.50999022067282607:3.6040757305513487] [-0.54392075423984843:2.471911490356046] [-0.4762326631124893:4.9586629973026017] [-0.58602364982459332:2.6428140508719737] [-0.69435489121772742:3.1779412796940254] [-0.78729290287767617:2.1138933277021961] [-0.52293187950140729:4.9267435933213708] [-0.6168134979326112:3.0661572054435422] [-0.65576048851083912:3.1841018051580816] [-0.76798420830082204:1.9230249528535812] [-0.40538916607642006:4.5775389463569791] [-0.45768857285834197:2.9396387115011788] [-0.39549286558827301:4.6808720196461611] [-0.45059339100023316:2.9754052875082322] [-0.44084708492738045:5.0156875831152918] [-0.47799837662810996:3.6374119876219915] [-0.29520807663003279:9.7369819907579664] [-0.36876678910603733:4.8637694577014425] [-0.24129326755631633:7.8467854132151649] [-0.25813255831089899:5.6875005505868863] [-0.92767342987711732:2.8062526083924402] [-1.1651692169296075:1.6805201242515022] [-0.84141223651002284:3.1034750023868196] [-1.0682562946782461:1.7596375257228889] [-0.32179746997629316:5.6679928914231166] [-0.34310374184548087:4.2249599697365561] [-0.49426591042210105:4.8979402824613247] [-0.53135783534532288:3.2690612545296216] [-0.37891228946356265:4.9940595223046564] [-0.38826659388096679:3.8990813930579238] [-0.61419959941225544:3.0397486339948481] [-0.64115119405788601:2.2405634065705966] [-0.49757441549527859:4.9101695937348149] [-0.53373840188009425:3.2285959871928589] [-0.37891228946356265:4.9940595223046564] [-0.38826659388096679:3.8990813930579238] [-0.61090196312078071:3.0475067428180771] [-0.63811344996453523:2.2565937849654474] [-0.57305342292020733:3.9487189716425513] [-0.62086302024508577:2.8711376853576849] [-0.37891228946356265:4.9940595223046564] [-0.38826659388096679:3.8990813930579238] [-0.52104988730123203:3.4802121351092921] [-0.55369379733700141:2.4472055830344237] [-0.841143503416522:2.2075900762549461] [-0.58223095230995991:3.8037813026459566] [-0.68513171615649926:2.3417335496517846] [-0.8354786796715522:2.2264231023881544] [-0.5846248674561072:3.7849712108095845] [-0.68415522293669118:2.3361864384112332] [-1.5590808125059858:1.7922019960146014] [-1.0075584110313642:2.8123085290869621] [-1.2876433357076105:1.6048973164615647] [-1.8911839063049838:1.2667235859632604] [-2.6017817001912769:1.3677664440185366] [-2.2207859226309639:1.0214948884585298] [-0.99965520637874117:3.635086143257507] [-0.29579214220398092:12.840457105301496] [-0.41657322126113533:5.3859585618080521] [0:1] [0:1] [0:1] [0:1] [0:1] [0:1] [0:1] [0:1] [0:1] [0:1] [0:1] [0:1] [0:1] [0:1] [0:1] [0:1] [0:1] [0:1] [0:1] [0:1] [0:1] [0:1] [0:1] [0:1] [0:1] [0:1] [0:1] [0:1] [0:1] [0:1] [0:1] [0:1] [0:1] [0:1] [0:1] [0:1] [0:1] [0:1] [0:1] [0:1] [0:1] [0:1] [0:1]
tree_sizes=971 872 973 983 987 878 985 985 991 989 986 987 979 883 992 983 881 992 988 983 988 984 1000 988 989 883 887 986 875 986 993 990 997 881 981 986 885 883 994 993 987 873 986 878 881 878 1002 995 999 991 878 883 775 774 987 986 888 878 770 777 884 991 782 678 886 995 892 781 887 883 782 986 988 771 985 887 773 885 877

Tree=0
num_leaves=8
num_cat=0
split_feature=21 48 152 121 48 145 60
split_gain=1771.1 214.192 140.16 100.556 92.5891 30.526 20.009
threshold=-0.44909113058436206 1.0000000180025095e-35 -1.1857933127439069 -0.55255553931422963 1.0698426725466021 2.8986139195947094 -0.10606865402203754
decision_type=2 2 2 2 2 2 2
left_child=4 2 -2 -3 6 -6 -1
right_child=1 3 -4 -5 5 -7 -8
leaf_value=-1.0750091513626279 -0.87505085145551509 -0.83242166774666326 -0.96484561965645521 -0.89006961158146902 -0.98292753651680054 -1.0670562657451901 -1.034790564837524
leaf_weight=194.19509944319725 103.830949395895 234.98583368957043 142.66996885836124 188.53514471650124 79.629749938845634 18.34606970846653 54.843038320541382
leaf_count=949 272 502 519 526 306 88 243
internal_value=-1.01581 -0.883447 -0.927022 -0.858084 -1.0471 -0.998681 -1.06615
internal_weight=0 670.022 246.501 423.521 347.014 97.9758 249.038
internal_count=3405 1819 791 1028 1586 394 1192
is_linear=0
shrinkage=1


Tree=1
num_leaves=7
num_cat=0
split_feature=21 46 24 154 123 143
split_gain=1443.8 177.731 95.8367 103.745 93.58 22.6333
threshold=-0.40775371634483781 -0.30466150839640871 2.87338206375088 -2.4002036419466584 -0.4987499002919063 0.17569146872549773
decision_type=2 2 2 2 2 2
left_child=2 4 3 -1 -2 -3
right_child=1 5 -4 -5 -6 -7
leaf_value=0.090420953979162735 0.14745095843775305 0.06243102084718874 0.073740669590652716 -0.037618022145790256 0.092534831010178079 -0.010969394377641264
leaf_weight=23.420701786875725 441.69619996845722 83.509397774934769 34.294383317232132 332.06447687745094 141.68863369524479 17.580925956368446
leaf_count=68 954 282 114 1565 404 74
internal_value=0 0.121641 -0.0201267 -0.0291823 0.134113 0.0496657
internal_weight=0 684.475 389.78 355.485 583.385 101.09
internal_count=3461 1714 1747 1633 1358 356
is_linear=0
shrinkage=0.0587976


Tree=2
num_leaves=8
num_cat=0
split_feature=21 0 24 21 48 48 77
split_gain=1109.96 116.18 92.1487 87.7027 83.9476 37.4481 20.6658
threshold=-0.40775371634483781 -0.9006132484455377 1.8721288029823404 -0.44909113058436206 0.62261439919502604 0.76880281784505689 0.84303819159826043
decision_type=2 2 2 2 2 2 2
left_child=2 5 3 -1 -3 -2 -4
right_child=1 4 6 -5 -6 -7 -8
leaf_value=-0.044513788377121707 0.11562602030294584 0.034109341228599349 -0.013165324578552273 0.039523782729975879 0.1013100839649111 0.1535076331695315 0.052887841674337507
leaf_weight=248.91819252073765 209.93600824475288 86.264452531933784 21.382131785154343 51.880410298705101 252.00916793942451 158.20603878796101 69.926541388034821
leaf_count=1228 480 308 96 181 626 276 248
internal_value=0 0.109048 -0.014315 -0.0300193 0.084173 0.131905 0.0374199
internal_weight=0 706.416 392.107 300.799 338.274 368.142 91.3087
internal_count=3443 1690 1753 1409 934 756 344
is_linear=0
shrinkage=0.0587976


Tree=3
num_leaves=8
num_cat=0
split_feature=21 175 25 47 8 131 67
split_gain=977.888 124.252 97.4235 77.2825 43.6968 38.3515 27.5098
threshold=-0.44650754219439176 1.0000000180025095e-35 1.0710303435707151 -0.32458207699397984 -1.1857933127439069 0.53955131592183958 2.8270937408602097
decision_type=2 2 2 2 2 2 2
left_child=2 4 6 -3 -2 -4 -1
right_child=1 3 5 -5 -6 -7 -8
leaf_value=-0.050373781352713233 0.09866539877934366 0.11697638586598862 -0.034853499810983846 0.052974759127756135 0.036364613159780693 0.045820720305677506 0.042243262494171693
leaf_weight=219.540682554245 54.648260861635208 519.15491916239262 28.212220922112465 74.598202496767044 135.23923754692078 73.304646030068398 11.676951602101324
leaf_count=1126 130 1051 136 239 441 259 46
internal_value=0 0.095695 -0.0246149 0.108935 0.0542944 0.0234008 -0.0456964
internal_weight=0 783.641 332.735 593.753 189.887 101.517 231.218
internal_count=3428 1861 1567 1290 571 395 1172
is_linear=0
shrinkage=0.0587976


Tree=4
num_leaves=8
num_cat=0
split_feature=81 123 27 40 45 0 42
split_gain=563.69 169.828 148.525 99.5324 78.0991 47.8749 26.1123
threshold=-0.61723060523360995 -0.066710566619510706 1.0000000180025095e-35 -0.31004176460856497 0.45350536960949323 0.56602708223179066 1.4971487591836856
decision_type=2 2 2 2 2 2 2
left_child=2 5 3 -1 -3 -2 -4
right_child=1 4 6 -5 -6 -7 -8
leaf_value=0.043162496059463505 0.10619649264129642 0.055979691502198191 -0.064794742690043289 -0.036321741330244579 -0.039705548605215989 0.031125310082846875 -0.0030110245981308792
leaf_weight=220.35161772370338 499.9793880879879 121.60493448376656 105.18592463433743 72.348070800304413 38.930970564484596 31.201249867677689 30.508540198206902
leaf_count=701 1021 363 577 341 183 103 138
internal_value=0 0.0857705 -5.659e-05 0.023516 0.0327754 0.101787 -0.0509038
internal_weight=0 691.717 428.394 292.7 160.536 531.181 135.694
internal_count=3427 1670 1757 1042 546 1124 715
is_linear=0
shrinkage=0.0587976


Tree=5
num_leaves=7
num_cat=0
split_feature=21 46 2 64 0 118
split_gain=722.437 120.299 65.8106 77.3631 57.3496 30.4164
threshold=-0.40646192214985272 -0.25610271614869706 -1.0045117721966572 1.1839191524219796 -0.12655307392139226 0.44117998535651609
decision_type=2 2 2 2 2 2
left_child=2 4 -1 -4 -2 -3
right_child=1 5 3 -5 -6 -7
leaf_value=0.078877287835914647 0.10077669459846142 0.0018287979954587621 -0.03544842017249103 0.030381482236350413 0.056958137655475027 0.069661329664807134
leaf_weight=24.038544058799744 524.05511839687824 69.889465749263763 291.69678609073162 78.279486462473869 128.60019898414612 33.957295745611191
leaf_count=61 1001 252 1461 289 330 97
internal_value=0 0.0827899 -0.015395 -0.0215201 0.0921426 0.0240097
internal_weight=0 756.502 394.015 369.976 652.655 103.847
internal_count=3491 1680 1811 1750 1331 349
is_linear=0
shrinkage=0.0587976


Tree=6
num_leaves=8
num_cat=0
split_feature=22 123 1 64 85 108 25
split_gain=638.066 87.7824 83.2858 61.2469 29.4743 29.1463 27.7973
threshold=-0.53729928193302035 -0.77368402171979433 0.95856203591105249 0.7920359244916374 -0.51567445126648259 1.9880782159710757 -0.30741222091434461
decision_type=2 2 2 2 2 2 2
left_child=2 4 6 -3 -2 -4 -1
right_child=1 3 5 -5 -6 -7 -8
leaf_value=-0.060923399586027008 0.099548623674904968 0.026663983422713356 0.050762400283938233 0.078017805336238047 0.068408032035499319 -0.013332184826931447 -0.01933939058824358
leaf_weight=124.57034093141556 350.75517737865448 170.29161222279072 55.180098205804825 151.91414493322372 150.02049991488457 44.154841631650925 100.33603672683239
leaf_count=715 646 539 184 330 346 190 488
internal_value=0 0.0748164 -0.0225674 0.0508764 0.0902196 0.022272 -0.0423718
internal_weight=0 822.981 324.241 322.206 500.776 99.3349 224.906
internal_count=3438 1861 1577 869 992 374 1203
is_linear=0
shrinkage=0.0587976


Tree=7
num_leaves=8
num_cat=0
split_feature=21 81 30 40 133 81 95
split_gain=608.935 87.1324 84.8234 51.8759 46.4547 31.8049 14.2667
threshold=-0.44004857121946611 0.76790918827677657 1.4270264094018634 -0.31847489010101365 -0.24633785827035473 -0.046585440415058257 1.7050228255811271
decision_type=2 2 2 2 2 2 2
left_child=2 3 5 -2 -3 -1 -4
right_child=1 4 6 -5 -6 -7 -8
leaf_value=-0.047229679320076656 0.056455831306462555 0.098304123949739655 0.077689192875231322 -0.020721784754736773 0.057410125625184126 -0.0027563758982859427 0.015629132917881271
leaf_weight=204.80834330618382 322.81159402430058 361.52358137071133 25.983171239495277 33.206553354859352 130.77419376373291 76.304051101207733 25.252080529928207
leaf_count=1113 800 628 75 135 298 342 98
internal_value=0 0.0714162 -0.0224767 0.0492573 0.087441 -0.035158 0.047102
internal_weight=0 848.316 332.348 356.018 492.298 281.112 51.2353
internal_count=3489 1861 1628 935 926 1455 173
is_linear=0
shrinkage=0.0587976


Tree=8
num_leaves=8
num_cat=0
split_feature=193 60 114 46 40 147 28
split_gain=481.754 99.9365 67.64 64.0722 46.3816 40.5603 13.3649
threshold=1.0000000180025095e-35 -0.63744223037154391 1.4530102733127339 -0.25610271614869706 -0.033890369514570751 0.259536047203624 1.1066281660197739
decision_type=2 2 2 2 2 2 2
left_child=2 4 5 -3 -2 -1 -4
right_child=1 3 6 -5 -6 -7 -8
leaf_value=-0.049447092457161432 0.038586409784086846 0.082181710889139892 0.063372924764566407 0.022185697795440086 -0.050455985471869746 -0.00090636600737853596 -0.0040954816225832885
leaf_weight=173.26703928411007 184.94677133858204 574.83847866952419 33.615721553564072 68.915839552879333 22.707229509949684 90.647434145212173 14.541057422757147
leaf_count=967 501 1070 109 216 106 414 70
internal_value=0 0.064318 -0.0210815 0.075759 0.0288495 -0.0327747 0.0430006
internal_weight=0 851.408 312.071 643.754 207.654 263.914 48.1568
internal_count=3453 1893 1560 1286 607 1381 179
is_linear=0
shrinkage=0.0587976


Tree=9
num_leaves=8
num_cat=0
split_feature=22 96 96 103 123 30 5
split_gain=458.238 86.4709 58.4372 58.2027 40.5094 34.6532 21.5332
threshold=-0.5370440694772155 -0.56718777759938543 -0.11713633455923737 -0.15999645320490738 -1.0093418400865555 1.4435534680430055 -0.62391625881520196
decision_type=2 2 2 2 2 2 2
left_child=2 4 5 -3 -2 -1 -4
right_child=1 3 6 -5 -6 -7 -8
leaf_value=-0.048464611562339416 0.067764675811597078 0.077360735526421281 -0.026795699947415368 0.012104804623284296 0.010591529682706262 0.024085517652838902 0.032848447322508918
leaf_weight=185.67248970270157 61.560304209589958 584.95253275334835 29.857733950018883 51.404820755124092 140.92082677781582 25.940540105104446 69.955723732709885
leaf_count=1066 132 1106 140 149 455 93 276
internal_value=0 0.0614407 -0.0220786 0.0720894 0.0279739 -0.0395711 0.0150067
internal_weight=0 838.838 311.426 636.357 202.481 211.613 99.8135
internal_count=3417 1842 1575 1255 587 1159 416
is_linear=0
shrinkage=0.0587976


Tree=10
num_leaves=8
num_cat=0
split_feature=22 46 114 123 106 71 62
split_gain=394.294 99.4953 74.8931 54.3326 34.5278 25.0564 13.5249
threshold=-0.53729928193302035 -0.27088438706707763 1.4530102733127339 -0.30236838498627189 2.885940662562287 2.4814534057365001 1.0285084311018748
decision_type=2 2 2 2 2 2 2
left_child=2 3 4 -2 -1 -3 -4
right_child=1 5 6 -5 -6 -7 -8
leaf_value=-0.041495506581759788 0.071170306139065248 -0.0096200571202938335 0.068695144088089563 0.029974234071046043 0.042702524974025373 0.057490582718616741 0.0046230840851498216
leaf_weight=233.14393773674965 608.36791017651558 89.817678228020668 30.094200819730759 135.29372081160545 18.148389160633087 24.474229574203491 18.32562755048275
leaf_count=1309 1181 307 97 349 64 63 77
internal_value=0 0.0558259 -0.0225129 0.0636755 -0.0354147 0.00475084 0.0444456
internal_weight=0 857.954 299.712 743.662 251.292 114.292 48.4198
internal_count=3447 1900 1547 1530 1373 370 174
is_linear=0
shrinkage=0.0587976


Tree=11
num_leaves=8
num_cat=0
split_feature=22 97 25 47 47 97 146
split_gain=396.61 70.5408 65.4662 42.5546 23.3787 22.9585 17.6134
threshold=-0.54442700123442889 -0.60699504904008672 1.45384238463686 -0.32458207699397984 0.048705610922001284 -0.41430428557836757 1.3537983587282476
decision_type=2 2 2 2 2 2 2
left_child=2 4 5 -3 -2 -1 -4
right_child=1 3 6 -5 -6 -7 -8
leaf_value=-0.053161043998987093 0.033886149491833016 0.071226078757688133 0.039743235350430492 0.027222008698867969 -0.023070474499909954 -0.0086438714496632242 -0.012790142247772187
leaf_weight=151.77384106814861 180.18478763103485 561.79854895174503 54.215805992484093 87.85867303609848 28.912031605839729 54.407890483736992 37.206144109368324
leaf_count=954 488 1025 191 254 106 267 154
internal_value=0 0.0557146 -0.0230505 0.065275 0.0260107 -0.0414137 0.0183636
internal_weight=0 858.754 297.604 649.657 209.097 206.182 91.422
internal_count=3439 1873 1566 1279 594 1221 345
is_linear=0
shrinkage=0.0587976


Tree=12
num_leaves=8
num_cat=0
split_feature=22 80 0 81 6 24 100
split_gain=297.659 71.0936 49.8326 43.5844 23.8411 23.8352 21.0426
threshold=-0.53729928193302035 1.257664311414074 -1.1043132943729443 1.1383608034704595 0.035454196438315495 0.23885521149611863 2.5615848661794582
decision_type=2 2 2 2 2 2 2
left_child=1 5 4 -4 -2 -1 -3
right_child=2 6 3 -5 -6 -7 -8
leaf_value=-0.052792210890578922 0.052072198845514214 0.039860709621197553 0.025884342138949756 0.060499388593076249 0.083083702621471064 -0.011322854264818322 -0.022587898355560597
leaf_weight=121.85159920156002 157.90531931817532 74.737847149372101 306.46462452411652 213.26354469358921 187.4362763017416 78.970540881156921 24.858462080359459
leaf_count=811 339 254 836 419 300 401 119
internal_value=0 -0.0163418 0.0515916 0.0400882 0.0689039 -0.036485 0.024274
internal_weight=0 300.418 865.07 519.728 345.342 200.822 99.5963
internal_count=3479 1585 1894 1255 639 1212 373
is_linear=0
shrinkage=0.0587976


Tree=13
num_leaves=7
num_cat=0
split_feature=21 57 28 155 45 114
split_gain=277.632 51.8446 53.106 50.9453 47.69 10.5719
threshold=-0.27857429684632468 1.6059804679922962 -0.44019950749804754 0.76742075272516697 1.1959214761460175 2.1236855856112462
decision_type=2 2 2 2 2 2
left_child=1 2 -1 4 -2 -5
right_child=3 -3 -4 5 -6 -7
leaf_value=0.00057964584921064749 0.060515960738114834 0.057289532095320617 -0.048102633521070422 -0.037280929550365813 0.0045034852006968339 0.019387513479444569
leaf_weight=229.21120941638947 672.76999814808369 37.068868860602379 117.01618467271328 21.974450320005417 57.003108382225037 23.609147757291794
leaf_count=956 1320 118 765 72 175 59
internal_value=0 -0.00879805 -0.0158737 0.052374 0.0561408 -0.00793052
internal_weight=0 383.296 346.227 775.357 729.773 45.5836
internal_count=3465 1839 1721 1626 1495 131
is_linear=0
shrinkage=0.0587976


Tree=14
num_leaves=8
num_cat=0
split_feature=21 0 99 47 45 45 156
split_gain=239.397 64.3872 45.6217 37.317 37.1155 29.5017 4.77156
threshold=-0.40646192214985272 -0.45247314740524297 0.058332154758500933 0.51531522081697789 0.99623714404309038 0.80337962671291274 -0.92005168321766506
decision_type=2 2 2 2 2 2 2
left_child=2 4 3 -1 -2 -3 -4
right_child=1 5 6 -5 -6 -7 -8
leaf_value=0.015743474067621992 0.065264877247271896 0.031077943103295862 -0.032555429359353842 -0.031393844698147051 0.021768286072270004 -0.025835554470086196 -0.061185359788444603
leaf_weight=184.10561206936836 460.16839505732059 201.18518802523613 34.820243522524834 84.809251680970192 79.544732451438904 37.329717680811882 47.689216732978821
leaf_count=700 843 470 221 517 210 135 326
internal_value=0 0.0476112 -0.0108572 0.000877488 0.0588542 0.0221705 -0.0491031
internal_weight=0 778.228 351.424 268.915 539.713 238.515 82.5095
internal_count=3422 1658 1764 1217 1053 605 547
is_linear=0
shrinkage=0.0587976


Tree=15
num_leaves=8
num_cat=0
split_feature=21 123 24 70 49 30 64
split_gain=281.367 61.4239 56.6971 37.0871 29.9104 19.1049 12.4418
threshold=-0.45555010155928771 -0.38092099110852568 1.8721288029823404 0.41704070810218186 -0.59366810739566223 1.4270264094018634 0.013077851795742494
decision_type=2 2 2 2 2 2 2
left_child=2 4 6 -3 -2 -4 -1
right_child=1 3 5 -5 -6 -7 -8
leaf_value=-0.054312620940028762 0.037531682353701606 0.024076909907400523 -0.0036840629115034024 -0.061754133644292719 0.063427353381821899 0.055085976748735291 -0.023231283023064077
leaf_weight=116.87060401588678 259.18768627941608 189.1666312366724 63.112364828586578 19.167654424905777 380.68836437165737 27.43567681312561 71.92873252928257
leaf_count=824 626 485 265 76 687 73 405
internal_value=0 0.0439097 -0.0241267 0.0161801 0.0529381 0.014123 -0.0424713
internal_weight=0 848.21 279.347 208.334 639.876 90.548 188.799
internal_count=3441 1874 1567 561 1313 338 1229
is_linear=0
shrinkage=0.0587976


Tree=16
num_leaves=7
num_cat=0
split_feature=21 46 151 30 22 54
split_gain=196.018 53.7375 42.0345 54.667 36.0445 20.2984
threshold=-0.27857429684632468 -0.34235142496884052 -1.0045117721966572 1.4270264094018634 1.6860387151948408 0.58037508004869176
decision_type=2 2 2 2 2 2
left_child=2 4 -1 -4 -2 -3
right_child=1 5 3 -5 -6 -7
leaf_value=0.048204796908519733 0.058209207209923793 0.027558967214937495 -0.025736898189167891 0.040924131513842721 0.022686933228632255 -0.020755921685693655
leaf_weight=40.528575479984283 509.45336343348026 81.200480163097382 272.28154917806387 50.403498634696007 122.5005821287632 47.734078705310822
leaf_count=91 951 222 1543 162 290 160
internal_value=0 0.0442655 -0.0082356 -0.0153244 0.0513234 0.00967183
internal_weight=0 760.889 363.214 322.685 631.954 128.935
internal_count=3419 1623 1796 1705 1241 382
is_linear=0
shrinkage=0.0587976


Tree=17
num_leaves=8
num_cat=0
split_feature=60 45 99 96 46 12 54
split_gain=171.823 57.0059 55.9325 42.4205 37.6502 22.212 11.4225
threshold=-0.31006724540219283 1.1959214761460175 -0.29894684415307321 0.081001372250291831 -0.22988364375048367 -0.46896339806417536 -0.18359679970023832
decision_type=2 2 2 2 2 2 2
left_child=2 3 4 -2 -1 -3 -4
right_child=1 5 6 -5 -6 -7 -8
leaf_value=0.021794896185056929 0.059367397679283958 0.018114403342933329 -0.026067692933944588 0.029639015112701467 -0.022085217214490038 -0.057082954774633099 -0.065307113582323023
leaf_weight=196.3573591709137 377.59130227565765 29.869599148631096 58.229005351662636 296.04363642632961 103.09242034703493 24.901236563920975 45.835212640464306
leaf_count=572 720 110 380 785 550 121 293
internal_value=0 0.0416124 -0.00621663 0.0463026 0.00668815 -0.0160736 -0.0433508
internal_weight=0 728.406 403.514 673.635 299.45 54.7708 104.064
internal_count=3531 1736 1795 1505 1122 231 673
is_linear=0
shrinkage=0.0587976


Tree=18
num_leaves=8
num_cat=0
split_feature=23 139 60 85 8 24 120
split_gain=202.655 57.3845 37.0555 35.3423 27.0944 25.6402 22.0398
threshold=-0.59421864819809056 -0.59661301534506639 -0.08285923344585229 -0.51567445126648259 -0.61543318414716819 2.6854391759322005 -0.29789829534435175
decision_type=2 2 2 2 2 2 2
left_child=2 4 5 -3 -2 -1 -4
right_child=1 3 6 -5 -6 -7 -8
leaf_value=-0.047905862913035814 0.025096745152536314 0.054089446819518952 0.067325738479480271 0.024120224884294515 -0.019483402392630592 0.01498099007387471 -0.0059139205224505841
leaf_weight=145.97005971521139 137.1052457690239 457.8616426885128 17.369790390133858 193.54490239918232 71.821496337652206 26.480037808418274 77.95547703653574
leaf_count=1046 365 900 77 453 234 86 339
internal_value=0 0.0365851 -0.0219875 0.045185 0.00977168 -0.0382494 0.00743148
internal_weight=0 860.333 267.775 651.407 208.927 172.45 95.3253
internal_count=3500 1952 1548 1353 599 1132 416
is_linear=0
shrinkage=0.0587976


Tree=19
num_leaves=8
num_cat=0
split_feature=21 64 133 48 127 9 60
split_gain=155.824 45.2418 43.0393 34.4163 26.2647 16.6441 11.2363
threshold=-0.44392395380442157 -0.46776046468320492 -0.14182856968499494 1.0000000180025095e-35 2.2925646828256432 0.51099986715732248 1.2974905166114865
decision_type=2 2 2 2 2 2 2
left_child=1 6 3 -2 -3 -4 -1
right_child=2 4 5 -5 -6 -7 -8
leaf_value=-0.043862187381412142 0.025857009066115513 0.016787961259931462 0.024601201147386651 0.055037670458071349 -0.06235072493332125 -0.010881861628658548 0.015016557256117636
leaf_weight=125.73073345422745 223.110940143466 132.45778398215771 141.22549238801003 373.90036156773567 16.28007959574461 67.56777411699295 12.301539719104765
leaf_count=895 566 589 347 710 106 194 45
internal_value=0 -0.014372 0.0360964 0.0441325 0.00812582 0.0131185 -0.0386148
internal_weight=0 286.77 805.805 597.011 148.738 208.793 138.032
internal_count=3452 1635 1817 1276 695 541 940
is_linear=0
shrinkage=0.0587976


Tree=20
num_leaves=8
num_cat=0
split_feature=23 81 123 175 94 83 113
split_gain=136.62 41.1854 32.3251 27.9428 21.9558 19.2873 17.6487
threshold=-0.59421864819809056 0.81593069395003182 -0.18453947580289132 1.0000000180025095e-35 0.84369900786842489 1.7926177254020885 0.76278114097151517
decision_type=2 2 2 2 2 2 2
left_child=3 2 -2 5 -3 -1 -5
right_child=1 4 -4 6 -6 -7 -8
leaf_value=-0.03966986376135808 0.027503210610729373 0.050540793578311441 -0.016427650580926996 0.022406032922856881 0.0084675987649562249 0.013049484836344563 -0.038108762707591684
leaf_weight=134.66063597798347 312.2885989844799 383.5145044028759 71.086470499634743 77.237300023436546 48.27839557826519 29.191810756921768 21.243963435292244
leaf_count=999 773 748 235 314 119 122 109
internal_value=0 0.0333834 0.0193574 -0.0154003 0.0458366 -0.0302774 0.009352
internal_weight=0 815.168 383.375 262.334 431.793 163.852 98.4813
internal_count=3419 1875 1008 1544 867 1121 423
is_linear=0
shrinkage=0.0587976


Tree=21
num_leaves=8
num_cat=0
split_feature=8 49 74 98 8 127 15
split_gain=96.589 47.9902 40.8493 40.2505 30.6674 24.7735 18.21
threshold=-0.4117331382197616 0.25140528922877509 0.56025554470931016 -0.32289224154943913 0.89194715571564132 -0.45218243763959487 1.6417306399046099
decision_type=2 2 2 2 2 2 2
left_child=3 2 -2 5 -3 -1 -5
right_child=1 4 -4 6 -6 -7 -8
leaf_value=0.051991309257765558 -0.035009195287042529 0.028526664391737688 0.051401776354763021 -0.031297891620123322 -0.011580483352479081 0.026424516932290806 0.050550211161266928
leaf_weight=289.25503255426884 155.76200937479734 186.52582068741322 21.527096584439278 41.823114365339279 101.92616458982229 239.52416650950909 12.120979331433771
leaf_count=593 996 464 77 215 401 573 53
internal_value=0 -0.000442225 -0.0245168 0.0354745 0.0143546 0.0404102 -0.0129069
internal_weight=0 465.741 177.289 582.723 288.452 528.779 53.9441
internal_count=3372 1938 1073 1434 865 1166 268
is_linear=0
shrinkage=0.0587976


Tree=22
num_leaves=8
num_cat=0
split_feature=60 102 18 85 109 69 9
split_gain=96.6763 43.3157 41.2709 34.5732 27.0052 17.4061 13.2387
threshold=-0.63744223037154391 -0.25409091738180589 1.0000000180025095e-35 -0.058165488008191733 1.8669622619961979 0.53354166069771469 0.99483471894675335
decision_type=2 2 2 2 2 2 2
left_child=2 3 6 -2 -4 -3 -1
right_child=1 5 4 -5 -6 -7 -8
leaf_value=-0.065864745546122927 0.04576150963950474 -0.022141347034983334 0.010178682448358796 0.0036762168636106491 -0.066236564100807471 0.027976332207206564 -0.0074835411940421086
leaf_weight=41.424385115504265 522.53275137394667 58.54941188544035 287.94632698595524 77.491437315940857 16.928394742310047 40.549166113138199 19.869214899837971
leaf_count=351 1151 227 1075 234 113 105 156
internal_value=0 0.0343785 -0.00291524 0.0403263 0.00593566 -0.00163415 -0.0469397
internal_weight=0 699.123 366.168 600.024 304.875 99.0986 61.2936
internal_count=3412 1717 1695 1385 1188 332 507
is_linear=0
shrinkage=0.0587976


Tree=23
num_leaves=8
num_cat=0
split_feature=69 8 77 121 45 63 69
split_gain=109.427 66.3658 34.1172 21.0183 22.1602 10.8252 6.13454
threshold=-0.062113488467780427 -1.1043132943729443 0.019822271030671138 -1.1058840223216675 1.1959214761460175 -0.037920259861366455 0.77362053345504944
decision_type=2 2 2 2 2 2 2
left_child=1 5 -3 6 -5 -1 -2
right_child=3 2 -4 4 -6 -7 -8
leaf_value=0.050451101337532535 0.051459251157532929 -0.020969028948024295 0.011776536378640673 0.040251768980993002 -0.013976203523016192 0.018562173039247523 0.078319221203810671
leaf_weight=96.423029445111752 60.045845985412598 245.50242657959461 199.2929764315486 328.18206464499235 28.298688247799873 59.520058639347553 57.592480339109898
leaf_count=205 130 1247 756 736 117 152 101
internal_value=0 0.00527435 -0.00629719 0.0430586 0.035947 0.0382798 0.0646092
internal_weight=0 600.738 444.795 474.119 356.481 155.943 117.638
internal_count=3444 2360 2003 1084 853 357 231
is_linear=0
shrinkage=0.0587976


Tree=24
num_leaves=8
num_cat=0
split_feature=138 28 132 100 72 15 34
split_gain=87.6606 38.3199 34.5309 31.6602 28.7743 13.171 12.6013
threshold=-0.56653160907076772 -0.44019950749804754 0.30327368343197697 -0.45822096826759923 0.52932749503651999 1.9791299931185515 0.47549536223020333
decision_type=2 2 2 2 2 2 2
left_child=1 4 3 -2 -1 -3 -4
right_child=2 5 6 -5 -6 -7 -8
leaf_value=-0.0093322158735451837 0.043603954078677669 -0.04557158129107336 0.011590515830469852 0.0037740973632383219 0.028184186147454247 0.023896988033610699 -0.038757680924190803
leaf_weight=166.20617170631886 469.83862961828709 79.313644677400589 96.127927757799625 80.870355866849422 122.9682250469923 10.709327928721903 20.926904983818531
leaf_count=713 1025 637 285 264 323 63 89
internal_value=0 -0.00380761 0.0315907 0.037755 0.00662121 -0.0373074 0.0025893
internal_weight=0 379.197 667.764 550.709 289.174 90.023 117.055
internal_count=3399 1736 1663 1289 1036 700 374
is_linear=0
shrinkage=0.0587976


Tree=25
num_leaves=7
num_cat=0
split_feature=40 45 8 111 69 11
split_gain=89.6491 71.4872 45.624 18.1504 4.87893 5.11031
threshold=0.014767425985510145 1.1959214761460175 -0.45247314740524297 0.2736804953023883 -0.16138934666202956 -1.2601957816132245
decision_type=2 2 2 2 2 2
left_child=1 2 -1 -3 5 -2
right_child=4 3 -4 -5 -6 -7
leaf_value=0.03683558634068794 -0.018196476629302773 -0.011548503447819965 0.0094197474721128861 -0.068670180650888479 -0.0049745449334990446 -0.063515137410761133
leaf_weight=497.63094661384821 10.36250878870487 99.518629215657711 362.87353800237179 23.837482988834381 7.3064767420291892 50.648135840892792
leaf_count=1126 88 484 1140 162 43 434
internal_value=0 0.0192735 0.0252744 -0.0225868 -0.0503803 -0.0558179
internal_weight=0 983.861 860.504 123.356 68.3171 61.0106
internal_count=3477 2912 2266 646 565 522
is_linear=0
shrinkage=0.0587976


Tree=26
num_leaves=7
num_cat=0
split_feature=21 45 132 29 90 131
split_gain=101.265 43.8849 37.8141 26.7265 26.2591 17.7396
threshold=-0.18427332061241006 1.3751253639306957 -0.30373511774375078 -0.51267204490866136 3.3903248225319955 -0.18087733423528116
decision_type=2 2 2 2 2 2
left_child=3 2 -2 5 -5 -1
right_child=1 -3 -4 4 -6 -7
leaf_value=-0.013199235901761907 0.041102632819818512 -0.038041416586025445 0.011653900095457737 -0.046116105808024589 0.051249092247374138 0.019784018660042771
leaf_weight=150.45212408900261 424.16259376704693 33.819065272808075 233.85356190800667 95.071693181991577 10.648728698492048 90.153565190732479
leaf_count=713 892 119 588 775 39 321
internal_value=0 0.0272796 0.0306368 -0.0116678 -0.0363089 -0.000840585
internal_weight=0 691.835 658.016 346.326 105.72 240.606
internal_count=3447 1599 1480 1848 814 1034
is_linear=0
shrinkage=0.0587976


Tree=27
num_leaves=8
num_cat=0
split_feature=21 8 132 35 4 66 89
split_gain=88.426 33.7703 28.9524 19.7834 18.1691 14.9313 14.5152
threshold=-0.40775371634483781 0.44380705467534654 -0.43676688617446918 1.7090564336384146 0.32358108197491797 1.6232864248169718 1.843390948103943
decision_type=2 2 2 2 2 2 2
left_child=3 2 -2 4 -1 -3 -5
right_child=1 5 -4 6 -6 -7 -8
leaf_value=-0.016293398499994911 0.043252967683278416 -0.026397521117907663 0.017952531239365445 -0.067534196829887483 0.015039001942282465 0.030266591247466404 -0.0036984484757001594
leaf_weight=155.9022144600749 348.1478449255228 53.708729863166809 283.86351084709167 32.138657607138157 108.52039109170437 22.944927170872688 19.964069247245789
leaf_count=897 739 162 696 256 505 50 128
internal_value=0 0.0274194 0.0318895 -0.00995951 -0.00343441 -0.00943606 -0.0430745
internal_weight=0 708.665 632.011 316.525 264.423 76.6537 52.1027
internal_count=3433 1647 1435 1786 1402 212 384
is_linear=0
shrinkage=0.0587976


Tree=28
num_leaves=7
num_cat=0
split_feature=27 128 133 110 14 115
split_gain=79.2113 47.7153 36.923 19.8971 11.7709 11.644
threshold=0.14612459754109827 -0.31847489010101365 1.9483572020222011 3.1981881416360998 -1.0276561646718252 3.1515649307313547
decision_type=2 2 2 2 2 2
left_child=1 2 -1 5 -3 -2
right_child=3 4 -4 -5 -6 -7
leaf_value=0.025319640345052959 -0.054685279260208726 0.020402953391503314 -0.030728713067977594 0.025829634054488751 -0.042880313396690205 0.013119721818821043
leaf_weight=816.46799498796463 76.081362970173359 12.695305883884428 42.762166060507298 15.330609709024428 50.90666888654232 9.8944227471947652
leaf_count=2084 693 74 183 74 308 52
internal_value=0 0.0188927 0.0225302 -0.0358786 -0.0302486 -0.046882
internal_weight=0 922.832 859.23 101.306 63.602 85.9758
internal_count=3468 2649 2267 819 382 745
is_linear=0
shrinkage=0.0587976


Tree=29
num_leaves=8
num_cat=0
split_feature=69 152 77 1 121 106 10
split_gain=64.0876 45.5355 31.8438 30.214 22.8588 11.3841 10.2059
threshold=0.13968253701203329 -0.81913323007457495 0.019822271030671138 0.4886466321214889 -0.11779744552267134 -0.39660708666952604 1.2077469413160904
decision_type=2 2 2 2 2 2 2
left_child=1 3 -3 -1 5 -2 -6
right_child=4 2 -4 -5 6 -7 -8
leaf_value=0.010506974190501041 0.048796980862001384 -0.031125391176809594 0.0047372599484996969 0.066546899232057491 0.002103825282406047 0.025381793060497516 0.045741127485849138
leaf_weight=177.89086251705885 176.01769383251667 172.74346148222685 169.67216413468122 40.909899413585663 107.13027715682983 121.21938136219978 22.404084600508213
leaf_count=523 384 1029 696 76 328 289 59
internal_value=0 3.31402e-05 -0.0133549 0.020985 0.0302646 0.0392478 0.0096513
internal_weight=0 561.216 342.416 218.801 426.771 297.237 129.534
internal_count=3384 2324 1725 599 1060 673 387
is_linear=0
shrinkage=0.0587976


Tree=30
num_leaves=8
num_cat=0
split_feature=115 123 96 84 50 60 34
split_gain=62.2925 39.8356 24.6058 20.53 16.3505 15.2354 12.2959
threshold=-0.44941913798748417 -0.57730250641416003 -0.12430825587541157 -0.34869170779621167 -0.48048054035609317 0.29582078648138227 -0.39825682565481607
decision_type=2 2 2 2 2 2 2
left_child=1 5 -3 6 -5 -1 -2
right_child=3 2 -4 4 -6 -7 -8
leaf_value=0.0036545696170600765 0.040564039478138338 -0.032103707898221173 0.0022246989762763863 -0.027050472328959848 0.021762470751380946 0.032331333535431168 0.0087354471700631254
leaf_weight=149.32230199873447 290.86392549425364 151.15764138102531 138.16666994988918 34.02593044936657 78.351712301373482 112.15739950537682 49.035149328410625
leaf_count=501 671 1024 482 130 188 271 151
internal_value=0 -0.00067796 -0.0157102 0.0287693 0.00698275 0.015955 0.0359723
internal_weight=0 550.804 289.324 452.277 112.378 261.48 339.899
internal_count=3418 2278 1506 1140 318 772 822
is_linear=0
shrinkage=0.0587976


Tree=31
num_leaves=8
num_cat=0
split_feature=81 132 0 147 153 84 110
split_gain=60.9823 30.0382 21.2528 27.6926 19.5536 17.0298 12.519
threshold=-0.61723060523360995 -0.15918173866829019 -0.53395316577620566 1.7335694568601665 0.60950337319063685 0.49250397669592855 0.76908049425870528
decision_type=2 2 2 2 2 2 2
left_child=2 5 4 -4 -1 -2 -3
right_child=1 6 3 -5 -6 -7 -8
leaf_value=-0.0031775106514958748 0.032395927726586511 0.0065352735169791447 -0.031958743204927816 0.024315668160369251 0.05024936823095847 -0.013023804349692743 -0.042716994938594786
leaf_weight=117.59745913743973 420.05005863308907 166.80488290637732 166.55743460357189 36.935567207634449 29.654345959424973 30.6192397326231 19.978689625859261
leaf_count=441 1026 489 1111 116 62 102 84
internal_value=0 0.021093 -0.00943251 -0.0217445 0.00758185 0.02931 0.00126715
internal_weight=0 637.453 350.745 203.493 147.252 450.669 186.784
internal_count=3431 1701 1730 1227 503 1128 573
is_linear=0
shrinkage=0.0587976


Tree=32
num_leaves=8
num_cat=0
split_feature=138 127 114 158 57 102 145
split_gain=55.6136 26.4186 24.1173 19.7673 24.2908 17.3316 11.2279
threshold=-0.56653160907076772 -0.29383164222813885 0.23527062139078334 -0.40815321541486188 1.6565925955163678 -0.35314968103356248 -0.57240427348820244
decision_type=2 2 2 2 2 2 2
left_child=3 5 -3 6 -5 -2 -1
right_child=1 2 -4 4 -6 -7 -8
leaf_value=0.0020259537373373488 0.036963372284316801 -0.0049305484341422637 0.038994579197072582 -0.017780781601355315 0.030942042379942032 0.0020909774018687331 0.054346735299475438
leaf_weight=30.256239913403988 364.36085407435894 158.63504577428102 59.392953775823116 262.28893541544676 40.889629423618317 56.976350419223309 26.686903312802315
leaf_count=87 866 503 140 1524 110 181 64
internal_value=0 0.02365 0.00703507 -0.00523945 -0.0112095 0.0322477 0.0265466
internal_weight=0 639.365 218.028 360.122 303.179 421.337 56.9431
internal_count=3475 1690 643 1785 1634 1047 151
is_linear=0
shrinkage=0.0587976


Tree=33
num_leaves=7
num_cat=0
split_feature=123 31 57 30 156 84
split_gain=53.5853 35.5827 34.9189 28.6449 19.1533 15.4171
threshold=-0.77368402171979433 1.5978262651303574 1.2938723482605206 1.3202361843360231 -0.60440091385615202 0.49250397669592855
decision_type=2 2 2 2 2 2
left_child=1 4 3 -2 -1 -4
right_child=2 -3 5 -5 -6 -7
leaf_value=0.00689648722673376 -0.017562845688012699 -0.041102521221728569 0.034135849815726309 0.025935343177896971 0.035602266387547023 -0.019917172857729825
leaf_weight=105.13994681835175 339.24986925721169 26.651905961334705 103.81003527343273 61.886494293808937 340.91237123310566 22.131388328969479
leaf_count=315 1742 105 268 173 819 72
internal_value=0 0.0248927 -0.00237212 -0.010852 0.028836 0.0246372
internal_weight=0 472.704 527.078 401.136 446.052 125.941
internal_count=3494 1239 2255 1915 1134 340
is_linear=0
shrinkage=0.0587976


Tree=34
num_leaves=8
num_cat=0
split_feature=29 57 117 2 122 0 47
split_gain=44.3188 29.9277 28.0026 17.7119 11.9495 14.4811 7.16049
threshold=-0.51267204490866136 1.1874571057740109 0.90303021532633621 -0.32954880775104528 1.318809489706801 1.5845273118688243 2.428414621386382
decision_type=2 2 2 2 2 2 2
left_child=1 2 -1 -3 6 -6 -2
right_child=4 3 -4 -5 5 -7 -8
leaf_value=0.0097279834364493202 -0.055977602650832466 0.047236248095660481 -0.046502453552685584 0.016335207127629283 0.016110448544061819 -0.058476635405309375 0.0079304092468548519
leaf_weight=592.14510960131884 45.048505589365959 119.3121095597744 32.287217743694782 138.64432893693447 30.857028052210808 12.70383934676647 7.0032473281025878
leaf_count=1819 477 265 185 358 177 98 63
internal_value=0 0.0137803 0.0068205 0.0306278 -0.0283636 -0.00564161 -0.0473791
internal_weight=0 882.389 624.432 257.956 95.6126 43.5609 52.0518
internal_count=3442 2627 2004 623 815 275 540
is_linear=0
shrinkage=0.0587976


Tree=35
num_leaves=8
num_cat=0
split_feature=114 123 64 94 73 102 24
split_gain=58.2571 50.6719 20.5996 17.3198 16.5583 14.882 12.3745
threshold=-0.43471840661786088 -0.57730250641416003 1.3858712453431374 0.75787219273147299 0.77735809158564706 -0.36184729435846757 2.5249392761578417
decision_type=2 2 2 2 2 2 2
left_child=1 4 -3 5 -1 -2 -5
right_child=3 2 -4 6 -6 -7 -8
leaf_value=0.0093542954643563749 0.034745464571562468 -0.0289716363324002 0.017489839590430538 -0.022889360511507691 0.057504829317326554 0.0033013250004876255 0.03591198278918329
leaf_weight=231.68948063999414 319.8263762742281 224.38015603274107 38.677353203296661 40.26665411144495 27.635767996311188 62.147084094583988 17.861133739352226
leaf_count=722 775 1344 130 140 57 197 48
internal_value=0 -0.00395822 -0.0221404 0.0250793 0.0144856 0.0296295 -0.00482119
internal_weight=0 522.383 263.058 440.101 259.325 381.973 58.1278
internal_count=3413 2253 1474 1160 779 972 188
is_linear=0
shrinkage=0.0587976


Tree=36
num_leaves=7
num_cat=0
split_feature=60 122 84 57 147 123
split_gain=45.0891 26.4648 24.2283 23.6369 18.8667 16.4262
threshold=-0.63744223037154391 0.56673018965794764 -0.34090867884866671 1.5514750998894498 1.6462528661170193 1.7007230711311989
decision_type=2 2 2 2 2 2
left_child=3 2 -2 5 -3 -1
right_child=1 4 -4 -5 -6 -7
leaf_value=-0.0085064698538652016 0.033136940771719123 -0.022137718236528922 0.0047079498371668336 0.036942409675069669 0.033792378132813647 -0.069328126070183918
leaf_weight=293.72882449999452 383.89332154393196 76.356101952493191 141.9637711122632 38.89435101300478 28.683568924665451 16.197691608220339
leaf_count=1490 948 292 405 105 78 159
internal_value=0 0.0200799 0.0254621 -0.0062631 -0.00686464 -0.0116852
internal_weight=0 630.897 525.857 348.821 105.04 309.927
internal_count=3477 1723 1353 1754 370 1649
is_linear=0
shrinkage=0.0587976


Tree=37
num_leaves=7
num_cat=0
split_feature=40 158 45 85 14 32
split_gain=41.7926 39.9544 31.9158 30.4458 10.8649 7.77258
threshold=-0.31004176460856497 -0.35901767048084282 1.4570471412036914 -0.46484012201556146 -1.3233386305119852 -0.75117046687153
decision_type=2 2 2 2 2 2
left_child=1 3 -3 -1 -2 -6
right_child=4 2 -4 -5 5 -7
leaf_value=0.035755158893790981 0.029772761207327435 0.0062317222713318896 -0.043936458152459786 0.00065126399365477415 -0.062662279442006447 -0.022501645936214478
leaf_weight=304.58622659742832 8.5738782919943315 408.06905697286129 49.116454400122166 118.7036105170846 30.192951332777739 37.172057174146175
leaf_count=747 65 1338 358 349 284 310
internal_value=0 0.012894 0.000842035 0.0259109 -0.0325673 -0.0405017
internal_weight=0 880.475 457.186 423.29 75.9389 67.365
internal_count=3451 2792 1696 1096 659 594
is_linear=0
shrinkage=0.0587976


Tree=38
num_leaves=8
num_cat=0
split_feature=60 120 126 40 200 113 84
split_gain=45.5033 28.9996 25.1451 19.5308 18.6975 17.7912 7.00978
threshold=0.65923145076638956 -0.72188996610667033 -0.33621217416793053 0.014767425985510145 1.0000000180025095e-35 1.3813642357022105 -0.38390945160873696
decision_type=2 2 2 2 2 2 2
left_child=2 6 3 -1 -4 -3 -2
right_child=1 5 4 -5 -6 -7 -8
leaf_value=0.011198711924867715 0.056228934069713132 0.01710050802214547 -0.039127184930806552 -0.027294859159002496 0.0036766105827987831 -0.033504201587943386 0.023570126898132458
leaf_weight=284.70864815637469 83.860766351222992 322.61121714860201 97.767290022224188 54.251419302076101 55.200632780790329 25.950184561312199 31.164856672286987
leaf_count=989 196 867 494 544 167 107 79
internal_value=0 0.0217809 -0.00389248 0.00503771 -0.0236808 0.013333 0.0473804
internal_weight=0 463.587 491.928 338.96 152.968 348.561 115.026
internal_count=3443 1249 2194 1533 661 974 275
is_linear=0
shrinkage=0.0587976


Tree=39
num_leaves=8
num_cat=0
split_feature=115 123 21 9 57 31 121
split_gain=32.1606 20.0849 22.6492 19.9337 13.3392 13.8728 7.94017
threshold=-0.44941913798748417 -0.57730250641416003 1.1075208743727221 -0.4942031382555982 0.34716601418846066 -0.69635714796948522 -1.1058840223216675
decision_type=2 2 2 2 2 2 2
left_child=1 2 -1 -3 5 -2 -6
right_child=4 3 -4 -5 6 -7 -8
leaf_value=0.0016593784277038489 -0.019883243160367974 0.0067664959585150789 0.043764423660654306 -0.02554223850855358 0.050906355800077165 0.017905182948073601 0.024510663440611129
leaf_weight=200.82116797566414 44.029555097222328 113.60312462225556 56.620406657457352 157.61316261067986 49.415086962282658 141.60732441395521 194.37923840433359
leaf_count=666 158 524 125 1011 123 397 494
internal_value=0 -0.000843435 0.0109198 -0.0120092 0.0208182 0.00894246 0.0298609
internal_weight=0 528.658 257.442 271.216 429.431 185.637 243.794
internal_count=3498 2326 791 1535 1172 555 617
is_linear=0
shrinkage=0.0587976


Tree=40
num_leaves=8
num_cat=0
split_feature=0 60 147 5 84 112 147
split_gain=38.0704 26.2632 29.7796 17.3042 16.7648 15.6101 14.7562
threshold=-0.53395316577620566 0.69587790430773477 0.59069230246652438 -0.81919099444110788 -0.3999191976148509 0.90609374229379047 1.5919225429879493
decision_type=2 2 2 2 2 2 2
left_child=1 2 -1 5 -3 -2 -5
right_child=3 4 -4 6 -6 -7 -8
leaf_value=0.013767895150579555 -0.036999640860163142 0.047716074583624854 -0.052683517306113169 -0.0041954962871404416 0.01398172069841884 0.020830966638935789 0.025351958741923381
leaf_weight=245.02413404732943 81.073726084083319 134.28898350894451 25.766410537064075 272.39758014678955 82.04680385440588 20.146193347871304 74.389404430985451
leaf_count=750 418 326 88 1317 214 90 211
internal_value=0 0.0196477 0.00744486 -0.00410029 0.0349221 -0.0254894 0.00214273
internal_weight=0 487.126 270.791 448.007 216.336 101.22 346.787
internal_count=3414 1378 838 2036 540 508 1528
is_linear=0
shrinkage=0.0587976


Tree=41
num_leaves=7
num_cat=0
split_feature=40 0 132 21 22 31
split_gain=28.6491 24.7123 22.4345 11.0658 11.7694 3.59641
threshold=-0.31847489010101365 1.5845273118688243 0.5212226945053553 -0.42842242346459991 -0.47318626714260126 1.9540664352643684
decision_type=2 2 2 2 2 2
left_child=1 2 -1 4 -2 -3
right_child=3 5 -4 -5 -6 -7
leaf_value=0.014723297633282234 -0.030814845969686554 -0.028073389524334288 -0.011215043114950401 -0.068910307063158538 0.03375677182249294 -0.079661233963387271
leaf_weight=703.94717298448086 42.946903198957443 8.2489500343799609 137.8537936322391 18.251535281538963 12.62796341627836 10.77459319680929
leaf_count=2092 518 72 577 87 56 72
internal_value=0 0.008978 0.0104756 -0.029188 -0.0161425 -0.057292
internal_weight=0 860.825 841.801 73.8264 55.5749 19.0235
internal_count=3474 2813 2669 661 574 144
is_linear=0
shrinkage=0.0587976


Tree=42
num_leaves=8
num_cat=0
split_feature=81 35 32 3 121 115 89
split_gain=34.0229 23.7571 21.711 15.796 15.6132 14.4488 10.7484
threshold=0.48289843382641778 1.7090564336384146 1.5318317877848369 0.086386779153234075 -1.1058840223216675 1.7226029987000693 1.8047160631406183
decision_type=2 2 2 2 2 2 2
left_child=1 5 4 -4 -2 -1 -3
right_child=2 6 3 -5 -6 -7 -8
leaf_value=-0.0034614731507908482 0.05267611070212519 -0.073764373380788575 -0.065682110416790881 0.016769415022838314 0.017884590039224681 0.033187488644727717 -0.0083550833623936994
leaf_weight=411.96050301194191 50.719788707792759 23.080639485269785 17.52874443680048 14.827835544943808 369.14891547709703 40.88057991117239 13.925674334168432
leaf_count=1730 137 227 82 47 1008 136 112
internal_value=0 -0.00385457 0.018511 -0.0278975 0.0220874 -0.000152951 -0.0491506
internal_weight=0 489.847 452.225 32.3566 419.869 452.841 37.0063
internal_count=3479 2205 1274 129 1145 1866 339
is_linear=0
shrinkage=0.0587976


Tree=43
num_leaves=7
num_cat=0
split_feature=123 30 85 105 56 136
split_gain=41.2614 22.9429 16.6888 13.2094 15.1916 10.1555
threshold=-0.73440771865866739 1.4435534680430055 0.043503170493650711 1.5699209094684703 0.88902520794326634 2.0142819267493839
decision_type=2 2 2 2 2 2
left_child=3 2 -2 4 -1 -3
right_child=1 5 -4 -5 -6 -7
leaf_value=0.014179717925572998 -0.0023656615634525899 0.055799694627969035 -0.02726177318650139 -0.02489147273741333 0.038752923824290728 0.0047249664633113985
leaf_weight=299.50977125018835 282.86729722097516 26.854639247059822 138.7429442293942 22.530233565717936 122.56952218711376 26.981430001556873
leaf_count=845 1191 58 812 95 313 92
internal_value=0 -0.005943 -0.0105585 0.0189741 0.0213157 0.0302023
internal_weight=0 475.446 421.61 444.61 422.079 53.8361
internal_count=3406 2153 2003 1253 1158 150
is_linear=0
shrinkage=0.0587976


Tree=44
num_leaves=7
num_cat=0
split_feature=146 69 57 85 104 56
split_gain=35.6103 26.9043 16.512 15.9784 12.1474 15.031
threshold=1.1435993819360057 -0.16138934666202956 1.6747610515506504 -0.51567445126648259 2.3102182986651383 1.0414588988563749
decision_type=2 2 2 2 2 2
left_child=1 2 -1 -3 5 -2
right_child=4 3 -4 -5 -6 -7
leaf_value=-0.00091871499819076621 -0.040486769226448692 0.031723224068252086 0.045015363390832133 0.0063044875712737099 -0.071436755806711466 0.0067437854224574115
leaf_weight=418.02654951810837 44.500439573079348 256.80049475282431 28.927318185567856 128.16533460468054 15.847956150770186 48.88504359126091
leaf_count=1758 369 675 71 368 80 183
internal_value=0 0.0118674 0.00205418 0.0232607 -0.0238401 -0.0157627
internal_weight=0 831.92 446.954 384.966 109.233 93.3855
internal_count=3504 2872 1829 1043 632 552
is_linear=0
shrinkage=0.0587976


Tree=45
num_leaves=7
num_cat=0
split_feature=109 67 121 64 60 60
split_gain=43.4037 25.424 18.2738 21.7014 19.257 15.8126
threshold=1.2315850989458528 2.4398011517073317 -0.51303207624226976 0.26070958478240042 0.92736133584389913 1.5210338832136925
decision_type=2 2 2 2 2 2
left_child=2 5 4 -4 -1 -2
right_child=1 -3 3 -5 -6 -7
leaf_value=0.0102501341366458 -0.055800114789278675 0.028310463928708486 -0.021806885244981256 0.0098082910281520035 0.03726487832621183 0.006512347167347228
leaf_weight=361.67841704934835 71.053952410817146 21.138073809444904 112.79656021296978 224.36908311396837 121.99268426001072 17.557968690991402
leaf_count=1105 572 79 688 680 319 53
internal_value=0 -0.0296313 0.00973913 -0.000768348 0.0170639 -0.0434532
internal_weight=0 109.75 820.837 337.166 483.671 88.6119
internal_count=3496 704 2792 1368 1424 625
is_linear=0
shrinkage=0.0587976


Tree=46
num_leaves=8
num_cat=0
split_feature=60 103 117 158 125 10 10
split_gain=23.5946 30.2253 19.5097 16.0804 15.6606 11.9637 7.62777
threshold=-0.20623562703504797 -0.38422129353105783 1.0000000180025095e-35 2.3632235021347348 2.226432095919415 0.32810934681022941 -0.16743674186840354
decision_type=2 2 2 2 2 2 2
left_child=2 4 3 -1 -2 -3 -4
right_child=1 5 6 -5 -6 -7 -8
leaf_value=-0.0035416258122698903 0.021778493948765101 -0.0030687994602632122 -0.064622412793186174 0.05926797382471554 -0.022589096711460699 -0.049301907970238708 -0.019200508330233013
leaf_weight=280.09083139523864 448.42210101336241 57.076597653329372 23.148663561791182 14.838280003517864 29.300988391041756 29.274541229009628 28.540925245732069
leaf_count=1311 1238 194 193 79 95 121 219
internal_value=0 0.0132706 -0.00622144 -0.000381577 0.0190572 -0.0187427 -0.0395423
internal_weight=0 564.074 346.619 294.929 477.723 86.3511 51.6896
internal_count=3450 1648 1802 1390 1333 315 412
is_linear=0
shrinkage=0.0587976


Tree=47
num_leaves=8
num_cat=0
split_feature=138 148 105 60 103 13 132
split_gain=16.423 22.5009 31.143 24.9198 15.5166 16.3632 16.0703
threshold=-0.56653160907076772 -0.57434199946265496 0.96550711143099688 1.5014891079916419 -0.51875619772674808 -0.98305651146021644 -0.30723181293183643
decision_type=2 2 2 2 2 2 2
left_child=1 2 -1 -3 6 -6 -2
right_child=4 3 -4 -5 5 -7 -8
leaf_value=0.020840062442285895 0.025020093943791396 -0.031663844113096189 -0.041434967173004204 0.031039791887197347 -0.056132281055632192 0.0028896365190395792 0.0016063545872032714
leaf_weight=153.45149267464876 303.2270353063941 126.61132277920842 33.894019342958927 26.497444808483124 19.234900772571564 104.26172383874655 152.21990826353431
leaf_count=699 830 776 226 70 74 349 443
internal_value=0 -0.00409154 0.00957342 -0.0208121 0.0121823 -0.00630314 0.0171947
internal_weight=0 340.454 187.346 153.109 578.944 123.497 455.447
internal_count=3467 1771 925 846 1696 423 1273
is_linear=0
shrinkage=0.0587976


Tree=48
num_leaves=8
num_cat=0
split_feature=114 27 127 57 13 72 14
split_gain=27.1997 19.2601 21.9544 18.2605 17.2632 11.2576 10.727
threshold=-0.43471840661786088 0.14612459754109827 1.0000000180025095e-35 0.34716601418846066 -0.25249496823775697 -0.31347947871449861 -0.53217343981756049
decision_type=2 2 2 2 2 2 2
left_child=1 2 -1 4 -2 -5 -3
right_child=3 6 -4 5 -6 -7 -8
leaf_value=0.0074702222741744482 0.020335886979831144 0.0068568138235528958 -0.022883283705556947 0.062922257202160728 -0.017280005559069254 0.02162699839829689 -0.048091312573478991
leaf_weight=318.35241709277034 81.168146077543497 16.317728195339441 111.13960301876068 25.560904085636139 87.809051170945168 213.04938556998968 49.669077292084694
leaf_count=1123 237 173 449 57 295 583 539
internal_value=0 -0.00492823 -0.000384342 0.0155777 0.000788754 0.0260507 -0.0345033
internal_weight=0 495.479 429.492 407.587 168.977 238.61 65.9868
internal_count=3456 2284 1572 1172 532 640 712
is_linear=0
shrinkage=0.0587976


Tree=49
num_leaves=8
num_cat=0
split_feature=45 81 148 144 120 2 22
split_gain=28.569 20.0869 20.0731 19.6797 17.7094 17.5837 11.4734
threshold=1.4570471412036914 -0.30166071080936169 -0.57434199946265496 0.81432397154842395 -0.89119593418024723 -0.52988738822602999 -0.49633768277633233
decision_type=2 2 2 2 2 2 2
left_child=1 2 -1 6 -3 -5 -2
right_child=3 4 -4 5 -6 -7 -8
leaf_value=0.010700883976334239 -0.033891460899937761 0.034204185897616271 -0.020824747604620462 0.051617109574884301 0.010019071358079846 -0.031121998501597078 -0.10439271327917225
leaf_weight=158.36479293555021 19.791710622608662 139.0778771713376 124.88871669769287 14.141115486621855 423.09986006096005 23.867408443242311 13.37221387028694
leaf_count=738 180 382 651 34 1225 184 59
internal_value=0 0.00956906 -0.003199 -0.0292194 0.0160023 -0.000338716 -0.0623188
internal_weight=0 845.431 283.254 71.1724 562.178 38.0085 33.1639
internal_count=3453 2996 1389 457 1607 218 239
is_linear=0
shrinkage=0.0587976


Tree=50
num_leaves=7
num_cat=0
split_feature=0 64 85 60 156 156
split_gain=19.8615 16.7461 16.2817 15.4893 10.2255 8.24273
threshold=1.0549071924575668 1.2073600203503283 -0.51567445126648259 1.6627335035735611 -0.22284116497714376 -0.49367191697666662
decision_type=2 2 2 2 2 2
left_child=1 2 -1 5 -3 -2
right_child=3 4 -4 -5 -6 -7
leaf_value=0.011903018609600906 -0.067731684225767905 0.052752334160780526 -0.0070434753090934579 0.037057305948389602 0.016623443327485204 -0.019433495925282811
leaf_weight=376.61206959560513 14.141148835420607 37.924682632088661 268.6675101518631 15.468524023890494 94.73902927339077 89.73612892255187
leaf_count=1212 197 85 1125 47 253 526
internal_value=0 0.007926 0.00401448 -0.0178345 0.0269517 -0.0260085
internal_weight=0 777.943 645.28 119.346 132.664 103.877
internal_count=3445 2675 2337 770 338 723
is_linear=0
shrinkage=0.0587976


Tree=51
num_leaves=7
num_cat=0
split_feature=30 97 88 121 96 147
split_gain=18.039 18.7849 19.3994 15.7579 22.3288 14.8176
threshold=-0.66428216480417734 1.8979848759622633 1.4742785973959489 1.1469533727800443 2.7665915352527644 0.33973795277510771
decision_type=2 2 2 2 2 2
left_child=1 2 -1 5 -5 -2
right_child=3 -3 -4 4 -6 -7
leaf_value=-0.0099013010391786199 0.020091090054612674 -0.067433693907998707 0.054714123521336408 -0.041967714577304714 0.022982572675934548 0.0006730625311428029
leaf_weight=226.24160554260015 331.64419027417898 18.078527621924877 17.290934138000011 46.301426321268082 30.256319932639599 230.1324520856142
leaf_count=1151 996 99 99 315 91 717
internal_value=0 -0.00960636 -0.00531356 0.00872614 -0.0162987 0.0121365
internal_weight=0 261.611 243.533 638.334 76.5577 561.777
internal_count=3468 1349 1250 2119 406 1713
is_linear=0
shrinkage=0.0587976


Tree=52
num_leaves=6
num_cat=0
split_feature=9 57 157 157 10
split_gain=26.8755 15.0793 15.5388 14.3329 5.95704
threshold=1.2677455268286277 1.0816907367172968 -0.28146574961455867 -0.29510238239148429 0.32810934681022941
decision_type=2 2 2 2 2
left_child=1 3 -3 -1 -2
right_child=4 2 -4 -5 -6
leaf_value=0.030176016636981984 -0.025065360448541029 0.038721014104938181 0.007809692856577251 -0.0024007681255134626 -0.07514789811392418
leaf_weight=51.093194782733917 17.567171040922403 81.091654755175114 183.31490207090974 541.93453432992101 15.41622334346175
leaf_count=134 81 224 560 2372 77
internal_value=0 0.00561246 0.01729 0.000405927 -0.0484737
internal_weight=0 857.434 264.407 593.028 32.9834
internal_count=3448 3290 784 2506 158
is_linear=0
shrinkage=0.0587976


Tree=53
num_leaves=6
num_cat=0
split_feature=158 39 132 31 14
split_gain=16.5016 14.6903 12.8448 9.77138 3.97225
threshold=-0.41431050617995041 1.8391328415964361 1.8619954974249155 -0.66900636253746992 1.525190422605526
decision_type=2 2 2 2 2
left_child=4 2 -2 -3 -1
right_child=1 3 -4 -5 -6
leaf_value=0.04181959553082662 0.005901911018148848 -0.073084738226516469 -0.024975258271534576 -0.0020777208523293845 0.014717516167184537
leaf_weight=46.011045217514038 712.6392254345119 14.503427121788265 49.834198355674744 12.452678855508564 31.493677280843258
leaf_count=119 2630 146 273 132 94
internal_value=0 0.0023757 0.00388382 -0.0402824 0.0308068
internal_weight=0 789.43 762.473 26.9561 77.5047
internal_count=3394 3181 2903 278 213
is_linear=0
shrinkage=0.0587976


Tree=54
num_leaves=8
num_cat=0
split_feature=146 63 44 151 130 46 43
split_gain=16.9891 14.1697 21.3138 12.3581 19.3712 12.0932 6.71338
threshold=1.4378779494451446 -0.037920259861366455 0.90684625588789214 1.6952407386672681 2.2079265874570608 0.22169305853660312 1.569230616213537
decision_type=2 2 2 2 2 2 2
left_child=1 5 -3 6 -5 -1 -2
right_child=3 2 -4 4 -6 -7 -8
leaf_value=0.016016518262833533 -0.025557579447730801 -0.010496130745294142 0.042570209008462444 0.058181676000205781 -0.02964000729656922 -0.012472590385027614 -0.074487652675024663
leaf_weight=504.08906199783087 32.564407479017973 211.4879335090518 29.860741496086121 14.546491317450998 21.541483603417873 57.373747881501913 13.803455118089913
leaf_count=1579 266 894 161 60 101 303 87
internal_value=0 0.00798384 -0.00393051 -0.0200423 0.00575942 0.0131053 -0.0401239
internal_weight=0 802.811 241.349 82.4558 36.088 561.463 46.3679
internal_count=3451 2937 1055 514 161 1882 353
is_linear=0
shrinkage=0.0587976


Tree=55
num_leaves=8
num_cat=0
split_feature=84 107 69 63 9 70 1
split_gain=15.191 17.2941 16.9043 15.4354 12.2839 16.6864 15.9957
threshold=-0.42874043782678106 0.73872433039333429 0.74182630436015928 0.2741830972216025 0.78180745412279551 2.2371183923532798 0.9736127072068036
decision_type=2 2 2 2 2 2 2
left_child=1 2 -1 -3 5 -2 -6
right_child=4 3 -4 -5 6 -7 -8
leaf_value=0.004304199970262366 -0.006637529642061611 -0.0014155034548473239 0.027471245573076647 -0.056378611491120043 -0.040101373029949788 0.042912843173853105 0.020536718279158744
leaf_weight=288.11998162046075 192.68936141207814 78.892277922481298 175.03721551597118 22.760385952889919 67.934380006045103 26.758375242352486 19.315364457666874
leaf_count=1127 909 292 510 123 349 88 55
internal_value=0 0.00823948 0.0130595 -0.013722 -0.00801535 -0.000595584 -0.0266773
internal_weight=0 564.81 463.157 101.653 306.697 219.448 87.2497
internal_count=3453 2052 1637 415 1401 997 404
is_linear=0
shrinkage=0.0587976


Tree=56
num_leaves=7
num_cat=0
split_feature=40 143 32 126 123 151
split_gain=24.6273 23.0813 17.1582 11.9541 8.81105 14.4746
threshold=0.014767425985510145 1.5094245266683535 1.8172070696168825 -0.41305607690233165 -0.45947359723077941 -0.84277498884112945
decision_type=2 2 2 2 2 2
left_child=1 3 -3 -1 -2 -6
right_child=4 2 -4 -5 5 -7
leaf_value=0.017852697085050256 -0.073952964177901911 -0.041561438094062708 0.014300894820160623 0.0029821327102047845 0.07419953637136803 -0.036199762759499952
leaf_weight=457.12371791154146 14.472335401922463 51.806291770190001 30.025603380054235 316.13504264876246 4.9126032069325438 24.997512359172109
leaf_count=1375 121 346 179 1013 39 387
internal_value=0 0.00863055 -0.0210645 0.0117731 -0.0362905 -0.018067
internal_weight=0 855.091 81.8319 773.259 44.3825 29.9101
internal_count=3460 2913 525 2388 547 426
is_linear=0
shrinkage=0.0587976


Tree=57
num_leaves=7
num_cat=0
split_feature=27 137 91 57 143 47
split_gain=19.649 17.2897 14.9207 17.7353 13.8141 1.93556
threshold=0.14612459754109827 1.2715892397462174 2.3912004709242525 0.9830619753883364 1.5511036847290678 2.3817536603968841
decision_type=2 2 2 2 2 2
left_child=2 5 3 -1 -3 -2
right_child=1 4 -4 -5 -6 -7
leaf_value=-6.599467050989841e-05 -0.06548222531220102 0.040586615784087413 -0.045399195011924021 0.018664387925087567 -0.026648361185904443 -0.022709451990687236
leaf_weight=499.41224751994014 26.950759805738929 16.273796983063221 19.64914908260107 268.85289885103703 30.113717913627625 4.2322041466832152
leaf_count=1781 400 77 85 756 251 59
internal_value=0 -0.0258203 0.00519467 0.00648866 -0.00306072 -0.0596772
internal_weight=0 77.5705 787.914 768.265 46.3875 31.183
internal_count=3409 787 2622 2537 328 459
is_linear=0
shrinkage=0.0587976


Tree=58
num_leaves=6
num_cat=0
split_feature=8 9 148 123 50
split_gain=19.9503 19.4889 18.2428 9.33011 1.96733
threshold=1.5845273118688243 1.2677455268286277 2.9031866815416776 -0.57730250641416003 2.4551267534448473
decision_type=2 2 2 2 2
left_child=1 2 -1 -3 -2
right_child=4 3 -4 -5 -6
leaf_value=0.003607431790225268 -0.035603658105818843 -0.013061313166095009 0.063144067671685164 -0.072220399050789308 -0.077673796636808554
leaf_weight=801.36679853871465 6.0801717415452012 21.58262025937438 18.196689277887344 16.085610251873732 10.44509020075202
leaf_count=3066 97 78 50 96 74
internal_value=0 0.00302868 0.00492932 -0.0383243 -0.0621951
internal_weight=0 857.232 819.563 37.6682 16.5253
internal_count=3461 3290 3116 174 171
is_linear=0
shrinkage=0.0587976


Tree=59
num_leaves=6
num_cat=0
split_feature=117 23 84 95 14
split_gain=17.9513 13.4575 12.6079 10.6845 5.56667
threshold=0.90303021532633621 2.612743075787094 2.1079539019294722 0.23783522618517364 0.38238126030365133
decision_type=2 2 2 2 2
left_child=1 2 -1 4 -2
right_child=3 -3 -4 -5 -6
leaf_value=0.0090123738736428254 -0.065086652038965923 -0.028481305718115114 -0.029960398273126757 0.011486179338204745 -0.0065929113890039028
leaf_weight=762.74922607839108 23.804115127772096 37.541875556111336 29.818922124803066 13.418957468122242 7.3650895878672591
leaf_count=2796 210 117 164 81 79
internal_value=0 0.00591674 0.00754609 -0.0323798 -0.0512651
internal_weight=0 830.11 792.568 44.5882 31.1692
internal_count=3447 3077 2960 370 289
is_linear=0
shrinkage=0.0587976


Tree=60
num_leaves=7
num_cat=0
split_feature=200 60 73 10 45 10
split_gain=23.2032 11.1317 16.4043 10.6633 10.483 8.72895
threshold=1.0000000180025095e-35 -0.19524169097264435 -0.89918230651954578 1.0769057122371646 1.3614717343851968 1.2077469413160904
decision_type=2 2 2 2 2 2
left_child=1 2 -1 -3 5 -2
right_child=4 3 -4 -5 -6 -7
leaf_value=0.0090220875260161124 0.011117050255932482 0.008211512637751375 -0.025679004253841089 -0.02127118606148894 -0.02561717275878013 0.034441759526119005
leaf_weight=66.195736322551966 288.53658456727862 205.3418843075633 163.23029742389917 53.450469896197319 22.686453398317099 68.670301903039217
leaf_count=358 855 665 1070 194 104 184
internal_value=0 -0.00623727 -0.0156668 0.0021222 0.0131396 0.0156011
internal_weight=0 488.218 229.426 258.792 379.893 357.207
internal_count=3430 2287 1428 859 1143 1039
is_linear=0
shrinkage=0.0587976


Tree=61
num_leaves=8
num_cat=0
split_feature=63 9 57 109 97 111 109
split_gain=17.8237 22.1298 22.5614 14.7277 22.4094 15.8591 10.8388
threshold=-0.028510108391528236 -0.30339824058499071 0.49510915618190104 0.82045869932504101 1.6089487307696844 0.98145701287728848 1.0073343355163191
decision_type=2 2 2 2 2 2 2
left_child=3 6 -3 5 -5 -1 -2
right_child=1 2 -4 4 -6 -7 -8
leaf_value=0.015117591275510711 -1.2378062140951919e-05 -0.048158880883895798 0.001855722010359733 -0.04152911190965438 0.011703788901488378 -0.029339442627494324 0.047354110857791225
leaf_weight=487.01231273263693 87.904562879353762 74.090260677039623 53.839482296258211 47.591423638164997 64.246001020073891 29.41617339476943 20.619098711758852
leaf_count=1601 341 448 200 376 217 141 125
internal_value=0 -0.0105428 -0.0271101 0.00839595 -0.010949 0.0125853 0.00898705
internal_weight=0 236.453 127.93 628.266 111.837 516.428 108.524
internal_count=3449 1114 648 2335 593 1742 466
is_linear=0
shrinkage=0.0587976


Tree=62
num_leaves=6
num_cat=0
split_feature=101 30 10 37 12
split_gain=14.4413 12.3829 15.5232 9.76325 2.39341
threshold=2.4090816519269653 -0.66428216480417734 -0.28190284767832119 0.29072378017156969 -0.3751601814154305
decision_type=2 2 2 2 2
left_child=1 2 -1 -3 -2
right_child=4 3 -4 -5 -6
leaf_value=-0.028743360555447517 -0.026110974652615641 0.010810909729649832 0.0020310111491568935 -0.006561984731723423 -0.072032142153343734
leaf_weight=89.340292625129223 6.5089548788964775 449.25783380866051 154.93865648470819 148.89702540636063 9.8808551765978319
leaf_count=523 69 1486 748 510 91
internal_value=0 0.00193079 -0.0092241 0.00648632 -0.0537955
internal_weight=0 842.434 244.279 598.155 16.3898
internal_count=3427 3267 1271 1996 160
is_linear=0
shrinkage=0.0587976


Tree=63
num_leaves=5
num_cat=0
split_feature=132 138 122 10
split_gain=12.4021 10.3078 12.9643 12.486
threshold=2.8325906642577889 -0.54262756214712915 -0.8299121355927187 -0.44381560957793009
decision_type=2 2 2 2
left_child=1 2 -1 -3
right_child=-2 3 -4 -5
leaf_value=0.019239699240733418 -0.043213484273277133 -0.0020466922996763312 -0.0090766877930939759 0.017088957949485319
leaf_weight=70.880277261137962 18.920971341431141 184.55085758119822 264.43914666958153 326.32987373694777
leaf_count=230 122 601 1520 971
internal_value=0 0.00491893 -0.00309112 0.0101764
internal_weight=0 846.2 335.319 510.881
internal_count=3444 3322 1750 1572
is_linear=0
shrinkage=0.0587976


Tree=64
num_leaves=7
num_cat=0
split_feature=158 149 121 16 60 148
split_gain=12.0502 12.0158 14.9375 13.1992 10.5734 6.27183
threshold=-0.40815321541486188 2.0215675153541581 1.6212349296435626 -0.40833476392460438 0.92736133584389913 -0.57441826300772403
decision_type=2 2 2 2 2 2
left_child=4 3 -3 -2 5 -1
right_child=1 2 -4 -5 -6 -7
leaf_value=0.022781710067319653 0.0055627896795174755 0.048943308672787407 -0.02225027465136277 -0.011127494288873821 0.04808163650392349 -0.0039220902382661044
leaf_weight=64.551748298108578 356.134949516505 34.687911953777075 14.425765132531522 303.32883602753282 32.199166089296341 57.483439292758703
leaf_count=176 1386 172 113 1315 102 179
internal_value=0 -2.4582e-05 0.0280321 -0.00211411 0.018111 0.0102031
internal_weight=0 708.577 49.1137 659.464 154.234 122.035
internal_count=3443 2986 285 2701 457 355
is_linear=0
shrinkage=0.0587976


Tree=65
num_leaves=8
num_cat=0
split_feature=96 11 124 75 85 14 45
split_gain=13.4122 12.4834 9.92124 9.54713 8.57755 21.4702 13.8235
threshold=-0.55362000107960807 1.2528907912537266 -0.31486690432237585 0.38152046017251434 -0.51567445126648259 -0.2513688527179348 1.1617874022822694
decision_type=2 2 2 2 2 2 2
left_child=1 2 -1 -3 6 -6 -2
right_child=4 3 -4 -5 5 -7 -8
leaf_value=-0.0063846609961343958 0.017923754034525178 -0.020425126668769084 0.024727254058862114 -0.088809954729577659 0.017188595388951643 -0.023802180247396904 -0.023846749461676107
leaf_weight=254.73246175795794 321.56706676632166 26.387420421466231 41.16060159727931 9.6350089572370035 97.038824010640383 81.091593567281961 29.940458565950394
leaf_count=1403 952 183 149 57 286 278 133
internal_value=0 -0.00603541 -0.00205678 -0.0387163 0.00903921 -0.00147191 0.0143658
internal_weight=0 331.915 295.893 36.0224 529.638 178.13 351.508
internal_count=3441 1792 1552 240 1649 564 1085
is_linear=0
shrinkage=0.0587976


Tree=66
num_leaves=7
num_cat=0
split_feature=158 101 130 60 148 156
split_gain=13.0846 16.3109 17.2361 10.4206 12.5467 0.67095
threshold=-0.40815321541486188 2.4090816519269653 -0.57278234209825862 0.905373463719092 -0.57434199946265496 -0.1532490483618453
decision_type=2 2 2 2 2 2
left_child=3 2 -2 4 -1 -3
right_child=1 5 -4 -5 -6 -7
leaf_value=0.025105808187165398 -0.0095239386920970195 -0.045779562455516926 0.0090972299685453915 0.04642269029735907 -0.014069611036436511 -0.071440700437434432
leaf_weight=68.824798054993153 356.22918805480003 5.5425885729491702 332.01539932191372 33.032647080719471 47.956914640963078 9.6706604566425067
leaf_count=183 1688 69 1152 109 156 99
internal_value=0 -0.00187204 -0.000540913 0.0172656 0.00901822 -0.0620919
internal_weight=0 703.458 688.245 149.814 116.782 15.2132
internal_count=3456 3008 2840 448 339 168
is_linear=0
shrinkage=0.0587976


Tree=67
num_leaves=6
num_cat=0
split_feature=81 86 103 106 147
split_gain=12.3413 17.7996 22.3333 15.854 23.002
threshold=-0.15572522603609271 0.82357872941559418 -0.473911229661518 2.885940662562287 -0.31740024126221006
decision_type=2 2 2 2 2
left_child=3 2 -2 4 -1
right_child=1 -3 -4 -5 -6
leaf_value=0.0023820557044754958 0.010554796013463708 0.048887286691351381 -0.021228795712353924 0.042827042020244892 -0.030076679464737213
leaf_weight=190.59994378685951 394.87207350507379 33.205398172140121 94.774699922651052 20.550510086119175 124.96451114676893
leaf_count=1076 1194 99 350 72 692
internal_value=0 0.00722798 0.00440284 -0.00721293 -0.0104717
internal_weight=0 522.852 489.647 336.115 315.564
internal_count=3483 1643 1544 1840 1768
is_linear=0
shrinkage=0.0587976


Tree=68
num_leaves=7
num_cat=0
split_feature=84 7 108 24 15 31
split_gain=12.6125 20.8895 11.3179 11.261 14.0313 10.5822
threshold=-0.34869170779621167 -0.90228379303643735 0.042714364529524339 1.5394865236572444 -0.49332301413424617 1.5376615712439012
decision_type=2 2 2 2 2 2
left_child=3 -2 -3 5 -5 -1
right_child=1 2 -4 4 -6 -7
leaf_value=0.013568433795741726 -0.077115105201136167 0.0029857038750714911 -0.027536222051738463 -0.050246412279736585 0.0051220530838740532 -0.015009781505220912
leaf_weight=479.01976073533297 14.089729662984608 196.66997286304832 53.406875446438789 24.35682462900877 45.161633305251598 49.415421903133392
leaf_count=1698 71 898 270 121 163 228
internal_value=0 -0.00745725 -0.0035326 0.00796936 -0.0142771 0.010896
internal_weight=0 264.167 250.077 597.954 69.5185 528.435
internal_count=3449 1239 1168 2210 284 1926
is_linear=0
shrinkage=0.0587976


Tree=69
num_leaves=7
num_cat=0
split_feature=27 10 110 137 103 11
split_gain=16.3653 13.2945 10.8052 21.2335 16.4035 9.41775
threshold=0.14612459754109827 -1.3891146718998906 1.092443224329702 0.82934230107635898 1.2301975568172259 -0.46175963747565807
decision_type=2 2 2 2 2 2
left_child=2 -2 4 -4 -1 -3
right_child=1 5 3 -5 -6 -7
leaf_value=0.0041591266896769032 0.041377729525120324 -0.058254731461364194 -0.064262974088351035 0.010426826340536008 0.044524087229516902 -0.013573070214167121
leaf_weight=695.42668808624148 9.3062516637146455 29.673396907746792 22.763097248971462 31.187770463526249 36.639042820781469 36.208350297063589
leaf_count=2304 85 346 104 95 162 391
internal_value=0 -0.0244055 0.00430787 -0.0210864 0.00617935 -0.0336979
internal_weight=0 75.188 786.017 53.9509 732.066 65.8817
internal_count=3487 822 2665 199 2466 737
is_linear=0
shrinkage=0.0587976


Tree=70
num_leaves=6
num_cat=0
split_feature=147 158 121 34 10
split_gain=14.9144 10.4424 10.2825 6.71621 4.8565
threshold=1.7794915156954516 -0.25921341729893371 1.6212349296435626 2.3968409154663823 0.8432826163485877
decision_type=2 2 2 2 2
left_child=2 -2 3 -1 -4
right_child=1 -3 4 -5 -6
leaf_value=-0.00061343015023736388 0.0051630418386985543 0.053668600925709999 -0.070640599693333611 0.033013352279011948 -4.4623006202096985e-05
leaf_weight=733.58827195689082 30.617584720253944 30.758500628173351 10.536409325897692 21.125255148857832 4.9524219762533894
leaf_count=2934 99 86 140 105 58
internal_value=0 0.0294716 -0.000645431 0.000327815 -0.0480684
internal_weight=0 61.3761 770.202 754.714 15.4888
internal_count=3422 185 3237 3039 198
is_linear=0
shrinkage=0.0587976


Tree=71
num_leaves=8
num_cat=0
split_feature=108 13 108 138 112 100 130
split_gain=9.54753 17.2229 22.2533 16.2583 13.0564 13.0993 4.94842
threshold=0.063751429724767036 0.70204322372218142 1.7279161523433821 0.6013597725049763 1.0070782792173334 0.53144485463763835 0.78030080552135905
decision_type=2 2 2 2 2 2 2
left_child=4 3 -3 -2 5 -1 -6
right_child=1 2 -4 -5 6 -7 -8
leaf_value=0.0061082652465020365 -0.044309500352035749 0.06145054413698578 -0.0065217093231718318 -0.0035766017490646541 0.06188913533670274 -0.039340386885370622 0.018190829898836497
leaf_weight=573.824463294819 57.071307761594653 23.98726299777627 54.44727423414588 83.357047915458679 18.640350166708231 22.795211713761091 17.249908350408077
leaf_count=2164 386 80 268 292 63 134 67
internal_value=0 -0.00780397 0.0142659 -0.0201308 0.00644374 0.00437179 0.0408866
internal_weight=0 218.863 78.4345 140.428 632.51 596.62 35.8903
internal_count=3454 1026 348 678 2428 2298 130
is_linear=0
shrinkage=0.0587976


Tree=72
num_leaves=8
num_cat=0
split_feature=1 38 110 22 105 63 132
split_gain=11.8364 14.9357 14.813 14.5907 10.7679 8.30425 0.981667
threshold=0.12659437261814191 2.3534041361511209 0.50531126827523731 -0.074289198719526772 1.7713921754809616 2.3083441732849734 0.80410533522148409
decision_type=2 2 2 2 2 2 2
left_child=2 5 3 -1 -3 -2 -4
right_child=1 4 6 -5 -6 -7 -8
leaf_value=-0.01134017646114204 0.011637977446518477 -0.06610986343158412 -0.081594451786177358 0.01899549670548489 0.0021262476439340375 -0.020911310593044317 -0.050556166558238087
leaf_weight=239.22900643385947 464.69046323560178 15.864910654723646 7.0228134375065547 71.105699054896832 16.11721695959568 28.775912046432495 7.0706424284726381
leaf_count=1259 1586 82 66 213 74 110 64
internal_value=0 0.00721622 -0.0070669 -0.00438948 -0.0317225 0.0097399 -0.0660229
internal_weight=0 525.449 324.428 310.335 31.9821 493.466 14.0935
internal_count=3454 1852 1602 1472 156 1696 130
is_linear=0
shrinkage=0.0587976


Tree=73
num_leaves=6
num_cat=0
split_feature=145 122 96 108 64
split_gain=13.5329 17.5108 17.2899 17.1366 11.8643
threshold=1.188291220573884 1.938620566742389 3.0632762579086048 1.7279161523433821 1.4555928012325849
decision_type=2 2 2 2 2
left_child=2 4 3 -1 -2
right_child=1 -3 -4 -5 -6
leaf_value=0.0033113878245822157 -0.048191496396398012 0.022891061972714743 0.0640105644148833 -0.046264692046146895 0.0075176564288236703
leaf_weight=689.16265277191997 55.33402187936008 24.162598315626383 15.671372935175894 24.978151131421328 17.363196313381195
leaf_count=2749 308 116 37 146 51
internal_value=0 -0.0204727 0.00291803 0.00157738 -0.0348857
internal_weight=0 96.8598 729.812 714.141 72.6972
internal_count=3407 475 2932 2895 359
is_linear=0
shrinkage=0.0587976


Tree=74
num_leaves=8
num_cat=0
split_feature=148 81 88 131 144 25 15
split_gain=21.0472 22.2629 18.0668 11.9885 15.3114 9.85108 7.93614
threshold=-0.40183386051688241 1.1383608034704595 1.09257620605275 0.53955131592183958 1.4511905350927803 2.0935308507658887 -0.019774712753525117
decision_type=2 2 2 2 2 2 2
left_child=3 2 -2 4 -1 -5 -3
right_child=1 6 -4 5 -6 -7 -8
leaf_value=0.0061442557534659428 -0.036281001905290107 -0.008143778922387504 0.010903485739545785 -0.024555031724894441 0.038338911904246119 0.016629785502354062 0.023185182094872542
leaf_weight=382.25486098788679 137.60401057824492 57.840603731572628 35.238647056743503 68.153037659823895 58.94527718052268 28.463954620063305 54.098242804408073
leaf_count=1526 770 184 174 351 170 95 149
internal_value=0 -0.0134312 -0.0266611 0.00633751 0.0104455 -0.0124217 0.00699697
internal_weight=0 284.782 172.843 537.817 441.2 96.617 111.939
internal_count=3419 1277 944 2142 1696 446 333
is_linear=0
shrinkage=0.0587976


Tree=75
num_leaves=7
num_cat=0
split_feature=0 15 156 30 158 81
split_gain=18.5229 10.304 24.2855 20.1575 6.95343 0.475412
threshold=1.5437873026833429 -0.088739612169686649 -0.31672097656423792 -0.66428216480417734 0.019404332848360243 0.37687692779455573
decision_type=2 2 2 2 2 2
left_child=1 2 -1 -3 5 -2
right_child=4 3 -4 -5 -6 -7
leaf_value=0.009485219179852478 -0.067772474108588637 -0.0092379444701601969 -0.017111795102330015 0.020771906446242869 -0.011179907228451053 -0.089791077137611447
leaf_weight=246.5250746794045 8.7843771837651747 120.01535447128117 228.87466254457831 217.81743308901787 9.4013615157455188 5.5237957723438731
leaf_count=970 132 653 875 696 75 39
internal_value=0 0.00225971 -0.00331954 0.0101109 -0.0504624 -0.0762732
internal_weight=0 813.233 475.4 337.833 23.7095 14.3082
internal_count=3440 3194 1845 1349 246 171
is_linear=0
shrinkage=0.0587976


Tree=76
num_leaves=6
num_cat=0
split_feature=38 125 26 64 75
split_gain=19.8674 16.3303 10.8107 5.84296 6.53192
threshold=2.3534041361511209 3.2415573651598675 2.2514487469550146 1.2175778345755057 0.41142691390521197
decision_type=2 2 2 2 2
left_child=1 2 -1 4 -2
right_child=3 -3 -4 -5 -6
leaf_value=0.005029938891129346 0.0034231505643671379 -0.053153801267803377 0.037299912211021684 -0.075186348842669004 -0.057362490801600746
leaf_weight=759.81166164763272 13.739729899913074 16.156924095004797 37.669611595571041 10.958324417471884 11.00811750628054
leaf_count=3004 73 101 152 52 84
internal_value=0 0.00536857 0.00655424 -0.0394424 -0.0236148
internal_weight=0 813.638 797.481 35.7062 24.7478
internal_count=3466 3257 3156 209 157
is_linear=0
shrinkage=0.0587976


Tree=77
num_leaves=7
num_cat=0
split_feature=8 64 13 85 3 69
split_gain=14.257 19.9174 11.5277 9.93404 8.57915 9.77066
threshold=-1.2672733311148696 0.71870808122859775 -1.0683264999323707 1.4160300602685241 -0.47584489960263326 -0.14970983393329435
decision_type=2 2 2 2 2 2
left_child=4 2 -2 -3 -1 -6
right_child=1 3 -4 -5 5 -7
leaf_value=0.042568741230960515 -0.036932415115568128 0.0088426804932526578 -0.008893136762579093 -0.029586886899666289 -0.013612483237408275 0.034457473982330233
leaf_weight=36.301462776958942 59.988566260784864 326.01029232889414 327.04719807393849 25.041042804718018 35.154564410448074 25.023793421685696
leaf_count=104 327 1049 1675 119 104 83
internal_value=0 -0.00404029 -0.0132391 0.00610143 0.0199941 0.00637624
internal_weight=0 738.087 387.036 351.051 96.4798 60.1784
internal_count=3461 3170 2002 1168 291 187
is_linear=0
shrinkage=0.0587976


Tree=78
num_leaves=7
num_cat=0
split_feature=94 56 110 158 14 14
split_gain=11.5483 13.7672 22.0611 13.437 8.38932 13.4756
threshold=1.5305742026622537 1.0695387892877373 0.8431351593874491 -0.37800041240210375 -0.39781658258075719 0.844091629387835
decision_type=2 2 2 2 2 2
left_child=1 2 -1 -3 -2 -6
right_child=4 3 -4 -5 5 -7
leaf_value=0.00068305700565504581 -0.050775132211933499 0.042941175959300942 -0.059213885547845228 0.0073351765719143766 0.016148491300353267 -0.03823409208137258
leaf_weight=550.01474423334002 22.389595795422792 49.611039087176323 22.11335177347064 140.1632243655622 34.18888721242547 29.211433928459883
leaf_count=2312 115 143 165 426 163 168
internal_value=0 0.00292 -0.00163202 0.0166434 -0.0198346 -0.008908
internal_weight=0 761.902 572.128 189.774 85.7899 63.4003
internal_count=3492 3046 2477 569 446 331
is_linear=0
shrinkage=0.0587976


end of trees

feature_importances:
num__MonthlyCharges_OnlineSecurity_No=18
num__Contract_Month_to_month_MonthlyCharges=16
num__SeniorCitizen_No_tenure=15
num__InternetService_DSL_MonthlyCharges=12
num__tenure=11
num__MonthlyCharges_OnlineBackup_No=11
num__MonthlyCharges_TechSupport_No=11
num__COSINE_TotalCharges_=10
num__MonthlyCharges_PaperlessBilling_Yes=10
num__tenure_0=9
num__Contract_Month_to_month_TotalCharges=9
num__Dependents_No_MonthlyCharges=9
num__MultipleLines_No_TotalCharges=9
num__MultipleLines_No_tenure=9
num__PhoneService_Yes_tenure=9
num__StreamingTV_No_TotalCharges=9
num__PERCENT_CHANGE_tenure_=9
num__EXPONENTIAL_WEIGHTED_STD_tenure_com_0_5_=8
num__DeviceProtection_No_internet_service_TotalCharges=8
num__MonthlyCharges_PaymentMethod_Electronic_check=8
num__gender_Male_MonthlyCharges=8
num__COSINE_MonthlyCharges_=7
num__Contract_One_year_MonthlyCharges=7
num__InternetService_DSL_TotalCharges=7
num__OnlineSecurity_No_TotalCharges=7
num__InternetService_DSL_tenure=6
num__PaymentMethod_Electronic_check_TotalCharges=6
num__gender_Male_TotalCharges=6
num__PERCENT_CHANGE_MonthlyCharges_=6
num__EXPONENTIAL_WEIGHTED_VARIANCE_MonthlyCharges_com_0_5_=5
num__Contract_Two_year_MonthlyCharges=5
num__Dependents_No_TotalCharges=5
num__InternetService_Fiber_optic_MonthlyCharges=5
num__MonthlyCharges_PaperlessBilling_No=5
num__PaperlessBilling_No_tenure=5
num__Partner_Yes_TotalCharges=5
num__PaymentMethod_Bank_transfer_automatic_TotalCharges=5
num__TechSupport_No_TotalCharges=5
num__MonthlyCharges=4
num__EXPONENTIAL_WEIGHTED_STD_TotalCharges_com_0_5_=4
num__Contract_One_year_TotalCharges=4
num__OnlineSecurity_No_tenure=4
num__Partner_Yes_tenure=4
num__PaymentMethod_Electronic_check_tenure=4
num__SeniorCitizen_No_TotalCharges=4
num__StreamingMovies_No_tenure=4
num__TotalCharges=3
num__COSINE_tenure_=3
num__Contract_Month_to_month_tenure=3
num__Contract_Two_year_TotalCharges=3
num__Dependents_No_tenure=3
num__Dependents_Yes_TotalCharges=3
num__MonthlyCharges_MultipleLines_Yes=3
num__MonthlyCharges_StreamingMovies_Yes=3
num__OnlineBackup_Yes_TotalCharges=3
num__OnlineSecurity_Yes_TotalCharges=3
num__PaperlessBilling_No_TotalCharges=3
num__PaperlessBilling_Yes_tenure=3
num__Partner_No_TotalCharges=3
num__PaymentMethod_Mailed_check_tenure=3
num__PhoneService_Yes_TotalCharges=3
num__StreamingMovies_Yes_TotalCharges=3
num__StreamingMovies_Yes_tenure=3
num__StreamingTV_No_tenure=3
num__TechSupport_Yes_tenure=3
num__gender_Female_TotalCharges=3
num__gender_Female_tenure=3
num__TotalCharges_1=3
num__ABSOLUTE_DIFF_MonthlyCharges_=2
num__ABSOLUTE_DIFF_tenure_=2
num__EXPONENTIAL_WEIGHTED_STD_MonthlyCharges_com_0_5_=2
num__Contract_Two_year_tenure=2
num__Dependents_Yes_tenure=2
num__DeviceProtection_No_tenure=2
num__InternetService_Fiber_optic_TotalCharges=2
num__InternetService_Fiber_optic_tenure=2
num__MonthlyCharges_MultipleLines_No=2
num__MonthlyCharges_PaymentMethod_Bank_transfer_automatic_=2
num__MonthlyCharges_PaymentMethod_Mailed_check=2
num__MonthlyCharges_PhoneService_Yes=2
num__MonthlyCharges_SeniorCitizen_No=2
num__MonthlyCharges_StreamingMovies_No=2
num__MultipleLines_Yes_TotalCharges=2
num__MultipleLines_Yes_tenure=2
num__OnlineBackup_Yes_tenure=2
num__OnlineSecurity_No_internet_service_tenure=2
num__OnlineSecurity_Yes_tenure=2
num__PaymentMethod_Bank_transfer_automatic_tenure=2
num__PaymentMethod_Credit_card_automatic_TotalCharges=2
num__PaymentMethod_Credit_card_automatic_tenure=2
num__SeniorCitizen_Yes_tenure=2
num__StreamingMovies_No_TotalCharges=2
num__StreamingTV_Yes_tenure=2
num__gender_Female_MonthlyCharges=2
num__tenure_1=2
num__PERCENT_CHANGE_TotalCharges_=2
remainder__OnlineSecurity_No=2
remainder__PaymentMethod_Electronic_check=2
num__ABSOLUTE_DIFF_TotalCharges_=1
num__MonthlyCharges_0=1
num__TotalCharges_0=1
num__EXPONENTIAL_WEIGHTED_VARIANCE_TotalCharges_com_0_5_=1
num__MonthlyCharges_tenure=1
num__Contract_One_year_tenure=1
num__DeviceProtection_No_TotalCharges=1
num__DeviceProtection_No_internet_service_MonthlyCharges=1
num__DeviceProtection_Yes_MonthlyCharges=1
num__DeviceProtection_Yes_TotalCharges=1
num__DeviceProtection_Yes_tenure=1
num__MonthlyCharges_OnlineSecurity_Yes=1
num__MonthlyCharges_Partner_Yes=1
num__MonthlyCharges_PhoneService_No=1
num__MonthlyCharges_SeniorCitizen_Yes=1
num__MonthlyCharges_StreamingTV_Yes=1
num__MonthlyCharges_TechSupport_Yes=1
num__MultipleLines_No_phone_service_TotalCharges=1
num__OnlineBackup_No_TotalCharges=1
num__OnlineBackup_No_tenure=1
num__OnlineSecurity_No_internet_service_TotalCharges=1
num__PaperlessBilling_Yes_TotalCharges=1
num__Partner_No_tenure=1
num__PhoneService_No_TotalCharges=1
num__SeniorCitizen_Yes_TotalCharges=1
num__StreamingMovies_No_internet_service_TotalCharges=1
num__StreamingTV_Yes_TotalCharges=1
num__TechSupport_No_tenure=1
num__gender_Male_tenure=1
num__NATURAL_LOGARITHM_MonthlyCharges_=1
num__NATURAL_LOGARITHM_TotalCharges_=1
num__NATURAL_LOGARITHM_tenure_=1
remainder__Contract_Month_to_month=1

parameters:
[boosting: gbdt]
[objective: binary]
[metric: auc]
[tree_learner: serial]
[device_type: cpu]
[data_sample_strategy: bagging]
[data: ]
[valid: ]
[num_iterations: 3000]
[learning_rate: 0.0587976]
[num_leaves: 8]
[num_threads: 0]
[seed: 0]
[deterministic: 0]
[force_col_wise: 0]
[force_row_wise: 0]
[histogram_pool_size: -1]
[max_depth: 3]
[min_data_in_leaf: 62]
[min_sum_hessian_in_leaf: 0.001]
[bagging_fraction: 0.720581]
[pos_bagging_fraction: 1]
[neg_bagging_fraction: 1]
[bagging_freq: 1]
[bagging_seed: 3]
[feature_fraction: 0.442451]
[feature_fraction_bynode: 1]
[feature_fraction_seed: 2]
[extra_trees: 0]
[extra_seed: 6]
[early_stopping_round: 200]
[first_metric_only: 0]
[max_delta_step: 0]
[lambda_l1: 6.53955e-05]
[lambda_l2: 4.74081e-08]
[linear_lambda: 0]
[min_gain_to_split: 0]
[drop_rate: 0.1]
[max_drop: 50]
[skip_drop: 0.5]
[xgboost_dart_mode: 0]
[uniform_drop: 0]
[drop_seed: 4]
[top_rate: 0.2]
[other_rate: 0.1]
[min_data_per_group: 100]
[max_cat_threshold: 32]
[cat_l2: 10]
[cat_smooth: 10]
[max_cat_to_onehot: 4]
[top_k: 20]
[monotone_constraints: ]
[monotone_constraints_method: basic]
[monotone_penalty: 0]
[feature_contri: ]
[forcedsplits_filename: ]
[refit_decay_rate: 0.9]
[cegb_tradeoff: 1]
[cegb_penalty_split: 0]
[cegb_penalty_feature_lazy: ]
[cegb_penalty_feature_coupled: ]
[path_smooth: 0]
[interaction_constraints: ]
[verbosity: -1]
[saved_feature_importance_type: 0]
[use_quantized_grad: 0]
[num_grad_quant_bins: 4]
[quant_train_renew_leaf: 0]
[stochastic_rounding: 1]
[linear_tree: 0]
[max_bin: 255]
[max_bin_by_feature: ]
[min_data_in_bin: 3]
[bin_construct_sample_cnt: 200000]
[data_random_seed: 1]
[is_enable_sparse: 1]
[enable_bundle: 1]
[use_missing: 1]
[zero_as_missing: 0]
[feature_pre_filter: 1]
[pre_partition: 0]
[two_round: 0]
[header: 0]
[label_column: ]
[weight_column: ]
[group_column: ]
[ignore_column: ]
[categorical_feature: ]
[forcedbins_filename: ]
[precise_float_parser: 0]
[parser_config_file: ]
[objective_seed: 5]
[num_class: 1]
[is_unbalance: 0]
[scale_pos_weight: 3]
[sigmoid: 1]
[boost_from_average: 1]
[reg_sqrt: 0]
[alpha: 0.9]
[fair_c: 1]
[poisson_max_delta_step: 0.7]
[tweedie_variance_power: 1.5]
[lambdarank_truncation_level: 30]
[lambdarank_norm: 1]
[label_gain: ]
[lambdarank_position_bias_regularization: 0]
[eval_at: ]
[multi_error_top_k: 1]
[auc_mu_weights: ]
[num_machines: 1]
[local_listen_port: 12400]
[time_out: 120]
[machine_list_filename: ]
[machines: ]
[gpu_platform_id: -1]
[gpu_device_id: -1]
[gpu_use_dp: 0]
[num_gpu: 1]

end of parameters

pandas_categorical:[]
