tree
version=v4
num_class=1
num_tree_per_iteration=1
label_index=0
max_feature_idx=201
objective=binary sigmoid:1
feature_names=num__tenure num__MonthlyCharges num__TotalCharges num__ABSOLUTE_DIFF_MonthlyCharges_ num__ABSOLUTE_DIFF_TotalCharges_ num__ABSOLUTE_DIFF_tenure_ num__MonthlyCharges_0 num__TotalCharges_0 num__tenure_0 num__COSINE_MonthlyCharges_ num__COSINE_TotalCharges_ num__COSINE_tenure_ num__EXPONENTIAL_WEIGHTED_STD_MonthlyCharges_com_0_5_ num__EXPONENTIAL_WEIGHTED_STD_TotalCharges_com_0_5_ num__EXPONENTIAL_WEIGHTED_STD_tenure_com_0_5_ num__EXPONENTIAL_WEIGHTED_VARIANCE_MonthlyCharges_com_0_5_ num__EXPONENTIAL_WEIGHTED_VARIANCE_TotalCharges_com_0_5_ num__EXPONENTIAL_WEIGHTED_VARIANCE_tenure_com_0_5_ num__MonthlyCharges_tenure num__TotalCharges_MonthlyCharges num__tenure_MonthlyCharges num__Contract_Month_to_month_MonthlyCharges num__Contract_Month_to_month_TotalCharges num__Contract_Month_to_month_tenure num__Contract_One_year_MonthlyCharges num__Contract_One_year_TotalCharges num__Contract_One_year_tenure num__Contract_Two_year_MonthlyCharges num__Contract_Two_year_TotalCharges num__Contract_Two_year_tenure num__Dependents_No_MonthlyCharges num__Dependents_No_TotalCharges num__Dependents_No_tenure num__Dependents_Yes_MonthlyCharges num__Dependents_Yes_TotalCharges num__Dependents_Yes_tenure num__DeviceProtection_No_MonthlyCharges num__DeviceProtection_No_TotalCharges num__DeviceProtection_No_tenure num__DeviceProtection_No_internet_service_MonthlyCharges num__DeviceProtection_No_internet_service_TotalCharges num__DeviceProtection_No_internet_service_tenure num__DeviceProtection_Yes_MonthlyCharges num__DeviceProtection_Yes_TotalCharges num__DeviceProtection_Yes_tenure num__InternetService_DSL_MonthlyCharges num__InternetService_DSL_TotalCharges num__InternetService_DSL_tenure num__InternetService_Fiber_optic_MonthlyCharges num__InternetService_Fiber_optic_TotalCharges num__InternetService_Fiber_optic_tenure num__InternetService_No_MonthlyCharges num__InternetService_No_TotalCharges num__InternetService_No_tenure num__MonthlyCharges_MultipleLines_No num__MonthlyCharges_MultipleLines_No_phone_service num__MonthlyCharges_MultipleLines_Yes num__MonthlyCharges_OnlineBackup_No num__MonthlyCharges_OnlineBackup_No_internet_service num__MonthlyCharges_OnlineBackup_Yes num__MonthlyCharges_OnlineSecurity_No num__MonthlyCharges_OnlineSecurity_No_internet_service num__MonthlyCharges_OnlineSecurity_Yes num__MonthlyCharges_PaperlessBilling_No num__MonthlyCharges_PaperlessBilling_Yes num__MonthlyCharges_Partner_No num__MonthlyCharges_Partner_Yes num__MonthlyCharges_PaymentMethod_Bank_transfer_automatic_ num__MonthlyCharges_PaymentMethod_Credit_card_automatic_ num__MonthlyCharges_PaymentMethod_Electronic_check num__MonthlyCharges_PaymentMethod_Mailed_check num__MonthlyCharges_PhoneService_No num__MonthlyCharges_PhoneService_Yes num__MonthlyCharges_SeniorCitizen_No num__MonthlyCharges_SeniorCitizen_Yes num__MonthlyCharges_StreamingMovies_No num__MonthlyCharges_StreamingMovies_No_internet_service num__MonthlyCharges_StreamingMovies_Yes num__MonthlyCharges_StreamingTV_No num__MonthlyCharges_StreamingTV_No_internet_service num__MonthlyCharges_StreamingTV_Yes num__MonthlyCharges_TechSupport_No num__MonthlyCharges_TechSupport_No_internet_service num__MonthlyCharges_TechSupport_Yes num__MultipleLines_No_TotalCharges num__MultipleLines_No_tenure num__MultipleLines_No_phone_service_TotalCharges num__MultipleLines_No_phone_service_tenure num__MultipleLines_Yes_TotalCharges num__MultipleLines_Yes_tenure num__OnlineBackup_No_TotalCharges num__OnlineBackup_No_tenure num__OnlineBackup_No_internet_service_TotalCharges num__OnlineBackup_No_internet_service_tenure num__OnlineBackup_Yes_TotalCharges num__OnlineBackup_Yes_tenure num__OnlineSecurity_No_TotalCharges num__OnlineSecurity_No_tenure num__OnlineSecurity_No_internet_service_TotalCharges num__OnlineSecurity_No_internet_service_tenure num__OnlineSecurity_Yes_TotalCharges num__OnlineSecurity_Yes_tenure num__PaperlessBilling_No_TotalCharges num__PaperlessBilling_No_tenure num__PaperlessBilling_Yes_TotalCharges num__PaperlessBilling_Yes_tenure num__Partner_No_TotalCharges num__Partner_No_tenure num__Partner_Yes_TotalCharges num__Partner_Yes_tenure num__PaymentMethod_Bank_transfer_automatic_TotalCharges num__PaymentMethod_Bank_transfer_automatic_tenure num__PaymentMethod_Credit_card_automatic_TotalCharges num__PaymentMethod_Credit_card_automatic_tenure num__PaymentMethod_Electronic_check_TotalCharges num__PaymentMethod_Electronic_check_tenure num__PaymentMethod_Mailed_check_TotalCharges num__PaymentMethod_Mailed_check_tenure num__PhoneService_No_TotalCharges num__PhoneService_No_tenure num__PhoneService_Yes_TotalCharges num__PhoneService_Yes_tenure num__SeniorCitizen_No_TotalCharges num__SeniorCitizen_No_tenure num__SeniorCitizen_Yes_TotalCharges num__SeniorCitizen_Yes_tenure num__StreamingMovies_No_TotalCharges num__StreamingMovies_No_tenure num__StreamingMovies_No_internet_service_TotalCharges num__StreamingMovies_No_internet_service_tenure num__StreamingMovies_Yes_TotalCharges num__StreamingMovies_Yes_tenure num__StreamingTV_No_TotalCharges num__StreamingTV_No_tenure num__StreamingTV_No_internet_service_TotalCharges num__StreamingTV_No_internet_service_tenure num__StreamingTV_Yes_TotalCharges num__StreamingTV_Yes_tenure num__TechSupport_No_TotalCharges num__TechSupport_No_tenure num__TechSupport_No_internet_service_TotalCharges num__TechSupport_No_internet_service_tenure num__TechSupport_Yes_TotalCharges num__TechSupport_Yes_tenure num__gender_Female_MonthlyCharges num__gender_Female_TotalCharges num__gender_Female_tenure num__gender_Male_MonthlyCharges num__gender_Male_TotalCharges num__gender_Male_tenure num__MonthlyCharges_1 num__TotalCharges_1 num__tenure_1 num__NATURAL_LOGARITHM_MonthlyCharges_ num__NATURAL_LOGARITHM_TotalCharges_ num__NATURAL_LOGARITHM_tenure_ num__PERCENT_CHANGE_MonthlyCharges_ num__PERCENT_CHANGE_TotalCharges_ num__PERCENT_CHANGE_tenure_ remainder__gender_Female remainder__gender_Male remainder__SeniorCitizen_No remainder__SeniorCitizen_Yes remainder__Partner_No remainder__Partner_Yes remainder__Dependents_No remainder__Dependents_Yes remainder__PhoneService_No remainder__PhoneService_Yes remainder__MultipleLines_No remainder__MultipleLines_No_phone_service remainder__MultipleLines_Yes remainder__InternetService_DSL remainder__InternetService_Fiber_optic remainder__InternetService_No remainder__OnlineSecurity_No remainder__OnlineSecurity_No_internet_service remainder__OnlineSecurity_Yes remainder__OnlineBackup_No remainder__OnlineBackup_No_internet_service remainder__OnlineBackup_Yes remainder__DeviceProtection_No remainder__DeviceProtection_No_internet_service remainder__DeviceProtection_Yes remainder__TechSupport_No remainder__TechSupport_No_internet_service remainder__TechSupport_Yes remainder__StreamingTV_No remainder__StreamingTV_No_internet_service remainder__StreamingTV_Yes remainder__StreamingMovies_No remainder__StreamingMovies_No_internet_service remainder__StreamingMovies_Yes remainder__Contract_Month_to_month remainder__Contract_One_year remainder__Contract_Two_year remainder__PaperlessBilling_No remainder__PaperlessBilling_Yes remainder__PaymentMethod_Bank_transfer_automatic_ remainder__PaymentMethod_Credit_card_automatic_ remainder__PaymentMethod_Electronic_check remainder__PaymentMethod_Mailed_check
feature_infos=[-1.2876433357076105:1.6048973164615647] [-1.5590808125059858:1.7922019960146014] [-1.0075584110313642:2.8123085290869621] [-1.3732146786845074:2.5784136684430314] [-1.2060160305473682:2.9812805775614346] [-1.3806058593655879:2.085520697994244] [-1.5590808125059858:1.7922019960146014] [-1.0075584110313642:2.8123085290869621] [-1.2876433357076105:1.6048973164615647] [-1.6559001007418339:1.28083675737467] [-1.4494730056648946:1.3788448272519644] [-1.3817056216017931:1.468542093412087] [-2.1069659842313064:2.9120514491963907] [-1.7999143369867856:3.453290194399262] [-2.2206246960958627:2.5445546925480507] [-1.2271680645847816:4.0856026757025683] [-1.0062234280601949:5.244261772359744] [-1.2909408643849078:3.3694664154107454] [-2.2341056533153125:0.44760640505790078] [-3.2651149458719058:0.30626793132177549] [-0.44693294684006207:2.2374721019568433] [-0.94578599855614531:2.0421339744444649] [-0.55131773754116165:5.326954298091076] [-0.62565944941363161:3.9018159256242755] [-0.45220912380176848:3.4929283089938705] [-0.39603358032404679:4.7545425139783877] [-0.45876691721978413:3.2581002793627971] [-0.47447813133895117:3.324411347121635] [-0.4452253856704893:3.8163752346607369] [-0.53198941927685561:2.2497124897430973] [-1.1925123852191379:1.8230401606876878] [-0.72227767372610163:3.30795962274903] [-0.85309021038297506:2.0821984027466391] [-0.56000664080333362:3.0756557513555887] [-0.44472849595122205:4.6249667369757201] [-0.52785862556153662:2.7258360060020284] [-0.83236515237594266:2.1196961096541744] [-0.5194368877823935:4.605073361324] [-0.56149002555798422:3.2893793256907413] [-0.51378647107731878:2.5926444251643499] [-0.37891228946356265:4.9940595223046564] [-0.38826659388096679:3.8990813930579238] [-0.6941127114517337:2.1253460400249216] [-0.58503282081547725:3.1417451360629092] [-0.61694867536681908:2.232745741525108] [-0.69083945667266644:2.4904562274286692] [-0.49326158338330245:4.0456477840023153] [-0.53455640144671934:2.8250327897971115] [-0.87338041832362256:1.6952042412161779] [-0.6083220647327694:3.1012042274848013] [-0.63157797459584752:2.4767121011933835] [-0.51378647107731878:2.5926444251643499] [-0.37891228946356265:4.9940595223046564] [-0.38826659388096679:3.8990813930579238] [-0.77212164892543145:2.5502676885873572] [-0.31848462784650311:4.8400029898855816] [-0.79748739490364495:1.9211044460429221] [-0.82275277973335137:2.1088573760840346] [-0.51378647107731878:2.5926444251643499] [-0.69938517712198289:2.1740803828739428] [-0.92389534221972613:1.8355826094435725] [-0.51378647107731878:2.5926444251643499] [-0.60732995136117784:2.5588949716925633] [-0.66134279473815105:3.0588037530045731] [-1.0561863544743169:1.7951848622458408] [-0.85329483658360894:2.324438411931244] [-0.8257003353735729:2.126775697750682] [-0.47441685519710863:3.2826387125277332] [-0.46649816220304485:3.3326000799133659] [-0.66425725581590622:2.4139432100240814] [-0.44939676443749926:4.8543185513408833] [-0.31848462784650311:4.8400029898855816] [-1.7359836349186288:1.6466528147216684] [-1.4550070558081643:1.8534403853777899] [-0.41710791332726999:3.3706824178186463] [-0.76586616718195977:2.3458638724201935] [-0.51378647107731878:2.5926444251643499] [-0.7702854427792577:1.8918388429553319] [-0.76988805514082803:2.3613911675699044] [-0.51378647107731878:2.5926444251643499] [-0.76701356733785586:1.8921979101812898] [-0.9097252306979825:1.8717801628438113] [-0.51378647107731878:2.5926444251643499] [-0.6204416706814615:2.4330536013965216] [-0.48865681981963915:5.4516614546243956] [-0.59192594514286456:3.0681457609234637] [-0.24129326755631633:7.8467854132151649] [-0.25813255831089899:5.6875005505868863] [-0.63462047416298939:3.0501649434399831] [-0.68981401699383549:2.0947777003655546] [-0.52108360110011431:4.5819706249277239] [-0.5634469568684557:3.2696091656734354] [-0.37891228946356265:4.9940595223046564] [-0.38826659388096679:3.8990813930579238] [-0.5798617808862867:3.1869166039220462] [-0.61471973022058302:2.2403480307661368] [-0.58044780376417782:3.7600632029454921] [-0.63108139447280165:2.8373523478381442] [-0.37891228946356265:4.9940595223046564] [-0.38826659388096679:3.8990813930579238] [-0.50999022067282607:3.6040757305513487] [-0.54392075423984843:2.471911490356046] [-0.4762326631124893:4.9586629973026017] [-0.58602364982459332:2.6428140508719737] [-0.69435489121772742:3.1779412796940254] [-0.78729290287767617:2.1138933277021961] [-0.52293187950140729:4.9267435933213708] [-0.6168134979326112:3.0661572054435422] [-0.65576048851083912:3.1841018051580816] [-0.76798420830082204:1.9230249528535812] [-0.40538916607642006:4.5775389463569791] [-0.45768857285834197:2.9396387115011788] [-0.39549286558827301:4.6808720196461611] [-0.45059339100023316:2.9754052875082322] [-0.44084708492738045:5.0156875831152918] [-0.47799837662810996:3.6374119876219915] [-0.29520807663003279:9.7369819907579664] [-0.36876678910603733:4.8637694577014425] [-0.24129326755631633:7.8467854132151649] [-0.25813255831089899:5.6875005505868863] [-0.92767342987711732:2.8062526083924402] [-1.1651692169296075:1.6805201242515022] [-0.84141223651002284:3.1034750023868196] [-1.0682562946782461:1.7596375257228889] [-0.32179746997629316:5.6679928914231166] [-0.34310374184548087:4.2249599697365561] [-0.49426591042210105:4.8979402824613247] [-0.53135783534532288:3.2690612545296216] [-0.37891228946356265:4.9940595223046564] [-0.38826659388096679:3.8990813930579238] [-0.61419959941225544:3.0397486339948481] [-0.64115119405788601:2.2405634065705966] [-0.49757441549527859:4.9101695937348149] [-0.53373840188009425:3.2285959871928589] [-0.37891228946356265:4.9940595223046564] [-0.38826659388096679:3.8990813930579238] [-0.61090196312078071:3.0475067428180771] [-0.63811344996453523:2.2565937849654474] [-0.57305342292020733:3.9487189716425513] [-0.62086302024508577:2.8711376853576849] [-0.37891228946356265:4.9940595223046564] [-0.38826659388096679:3.8990813930579238] [-0.52104988730123203:3.4802121351092921] [-0.55369379733700141:2.4472055830344237] [-0.841143503416522:2.2075900762549461] [-0.58223095230995991:3.8037813026459566] [-0.68513171615649926:2.3417335496517846] [-0.8354786796715522:2.2264231023881544] [-0.5846248674561072:3.7849712108095845] [-0.68415522293669118:2.3361864384112332] [-1.5590808125059858:1.7922019960146014] [-1.0075584110313642:2.8123085290869621] [-1.2876433357076105:1.6048973164615647] [-1.8911839063049838:1.2667235859632604] [-2.6017817001912769:1.3677664440185366] [-2.2207859226309639:1.0214948884585298] [-0.99965520637874117:3.635086143257507] [-0.29579214220398092:12.840457105301496] [-0.41657322126113533:5.3859585618080521] [0:1] [0:1] [0:1] [0:1] [0:1] [0:1] [0:1] [0:1] [0:1] [0:1] [0:1] [0:1] [0:1] [0:1] [0:1] [0:1] [0:1] [0:1] [0:1] [0:1] [0:1] [0:1] [0:1] [0:1] [0:1] [0:1] [0:1] [0:1] [0:1] [0:1] [0:1] [0:1] [0:1] [0:1] [0:1] [0:1] [0:1] [0:1] [0:1] [0:1] [0:1] [0:1] [0:1]
tree_sizes=1394 1514 1501 1613 1509 1398 1186 1393 1401 1189 1405 1401 1300 1300 1409 1510 1514 1411 1295 1192 1297 1091 1196 1409 1076 1085 984 1201

Tree=0
num_leaves=12
num_cat=0
split_feature=21 123 48 2 114 57 130 121 11 19 49
split_gain=1096.68 98.3783 64.9998 61.2266 64.7877 36.1146 28.0531 27.2188 22.8205 15.4141 11.5653
threshold=-0.37222937598274669 -0.81296032478092128 0.63994043399799272 -0.98901365290706122 1.4530102733127339 0.91038815125120764 -0.47105666940259888 -0.31541476088247056 0.2508697374008273 1.0000000180025095e-35 -0.54275362788863335
decision_type=2 2 2 2 2 2 2 2 2 2 2
left_child=3 5 8 -1 6 9 -5 -4 -3 -2 -7
right_child=1 2 7 4 -6 10 -8 -9 -10 -11 -12
leaf_value=-0.88758005656439054 -0.75555119329274523 -0.89391071869052496 -0.77369164260824475 -1.1083164755639925 -0.93426177785775277 -0.69641948759073846 -1.041236678903753 -0.86347466246778826 -1.0137821134897222 -0.83072179849177819 -0.75596790558271021
leaf_weight=17.175044178962708 31.617695197463036 30.837011128664017 50.158936157822609 118.66394014656544 27.714275762438774 41.376243233680725 86.265562072396278 58.746458008885384 21.663976028561592 70.847057461738586 71.04222871363163
leaf_count=56 72 102 121 582 100 76 380 181 91 201 162
internal_value=-1.01581 -0.808751 -0.861561 -1.05067 -1.06271 -0.769084 -1.08008 -0.822122 -0.943374 -0.807525 -0.734049
internal_weight=0 376.29 161.406 249.819 232.644 214.883 204.93 108.905 52.501 102.465 112.418
internal_count=2124 1006 495 1118 1062 511 962 302 193 273 238
is_linear=0
shrinkage=1


Tree=1
num_leaves=13
num_cat=0
split_feature=21 46 27 152 40 75 114 127 144 77 149 110
split_gain=800.154 96.4879 54.9261 44.7474 42.8708 54.9375 37.8823 18.8887 16.9054 12.1337 6.75897 3.11399
threshold=-0.37222937598274669 -0.34163240703955278 1.0000000180025095e-35 -0.45247314740524297 -0.32376232592564419 0.25168268543055861 0.85429905085178248 -0.45218243763959487 1.0000000180025095e-35 1.2975745894576656 -0.53733305884338922 -0.21073664779298829
decision_type=2 2 2 2 2 2 2 2 2 2 2 2
left_child=2 3 4 7 5 -1 -5 -2 -3 11 -6 -4
right_child=1 8 9 6 10 -7 -8 -9 -10 -11 -12 -13
leaf_value=0.078546478705450021 0.23206197775893564 0.025564352242419226 -0.08333005197500569 0.07856241052312829 -0.043055039035480774 -0.076450581155970365 0.18839142743216378 0.18112043008354348 0.11669544720779576 -0.023850840656440865 -0.11905418097015652 -0.11983072163255315
leaf_weight=70.707258984446526 145.40011471509933 32.00562709569931 58.387604236602783 44.171727612614632 24.216412127017975 24.729619979858398 58.474821597337723 97.409383907914162 33.257535114884377 24.6932393014431 15.300310432910917 27.579381436109543
leaf_count=253 274 121 292 142 113 123 139 227 103 109 82 146
internal_value=0 0.171822 -0.0324106 0.19068 0.00591972 0.0383833 0.14113 0.211626 0.0720047 -0.0791555 -0.0724825 -0.0950409
internal_weight=0 410.719 245.614 345.456 134.954 95.4369 102.647 242.809 65.2632 110.66 39.5167 85.967
internal_count=2124 1006 1118 782 571 376 281 501 224 547 195 438
is_linear=0
shrinkage=0.0895109


Tree=2
num_leaves=13
num_cat=0
split_feature=21 48 24 0 0 81 90 69 10 127 101 13
split_gain=615.655 62.3532 58.2321 38.5817 37.9335 24.3546 23.6704 23.2079 9.53191 7.35882 7.0501 6.51633
threshold=-0.44392395380442157 1.0000000180025095e-35 1.9502997386237377 -1.2672733311148696 -0.7376532117036122 -0.046585440415058257 -0.46406773583813032 1.0987003044048458 0.74531666303232202 -0.45218243763959487 0.56607305800725183 0.58973296470699499
decision_type=2 2 2 2 2 2 2 2 2 2 2 2
left_child=2 3 5 -2 9 11 -5 -6 -4 -3 -7 -1
right_child=1 4 8 6 7 10 -8 -9 -10 -11 -12 -13
leaf_value=-0.097369692264541646 0.16870786335611423 0.21060238593212005 0.011848064681447796 0.02048702477283575 0.085119046121659422 0.036450404828791971 0.10373739428313473 0.1602175367026433 0.090769098794608913 0.17181004880514336 -0.042623723868201679 -0.052605489490669989
leaf_weight=92.381487354636192 42.775992706418037 99.37753301858902 31.686269581317902 47.133446872234344 52.903815969824791 18.762496814131737 65.243187963962555 87.517725065350533 20.001149252057076 64.730370536446571 17.421650677919388 36.294769391417503
leaf_count=495 90 162 127 177 155 76 190 192 68 132 83 177
internal_value=0 0.142547 -0.0405095 0.0963604 0.166079 -0.0664999 0.0688206 0.131925 0.0423885 0.195302 -0.00162164 -0.0847437
internal_weight=0 459.682 216.548 155.153 304.529 164.86 112.377 140.422 51.6874 164.108 36.1841 128.676
internal_count=2124 1098 1026 457 641 831 367 347 195 294 159 672
is_linear=0
shrinkage=0.0895109


Tree=3
num_leaves=14
num_cat=0
split_feature=21 25 48 8 8 145 114 146 126 85 114 3 146
split_gain=485.032 68.6148 49.6031 30.0283 28.7627 25.7276 19.4717 19.3917 11.5049 10.832 9.40922 9.0757 4.50374
threshold=-0.44909113058436206 1.0710303435707151 1.0000000180025095e-35 -0.45247314740524297 -1.1043132943729443 -0.38710118713506331 0.85429905085178248 1.3537983587282476 -0.17836969262918109 0.043503170493650711 -0.43471840661786088 -0.80698135096952328 1.3537983587282476
decision_type=2 2 2 2 2 2 2 2 2 2 2 2 2
left_child=1 9 4 8 10 -6 -5 -3 -4 11 -2 -1 -11
right_child=2 7 3 6 5 -7 -8 -9 -10 12 -12 -13 -14
leaf_value=-0.0056364518672288449 0.096108899833969336 0.074355822765425031 0.17726548048599791 0.063000487681346015 -0.0037181101136272983 0.098991488909556766 0.13900411251699049 -0.032111638425045705 0.12782837403801386 -0.11559365136314495 0.15705319247056482 -0.070359881304205132 -0.057168341881145772
leaf_weight=23.983905509114265 50.917249083518982 41.920243248343468 155.72848682105541 46.055645734071732 41.066481813788414 37.276844725012779 65.308051258325577 20.365125700831413 49.783633872866631 45.691577881574631 33.758963972330093 62.837023213505745 13.75609505176544
leaf_count=113 133 148 257 138 160 109 139 88 107 263 68 328 73
internal_value=0 -0.0391339 0.124365 0.145006 0.0842423 0.045153 0.107573 0.0395447 0.16529 -0.0726375 0.120407 -0.0524805 -0.102075
internal_weight=0 208.554 479.895 316.876 163.02 78.3433 111.364 62.2854 205.512 146.269 84.6762 86.8209 59.4477
internal_count=2124 1013 1111 641 470 269 277 236 364 777 201 441 336
is_linear=0
shrinkage=0.0895109


Tree=4
num_leaves=13
num_cat=0
split_feature=81 0 123 48 104 40 56 60 94 126 147 111
split_gain=302.831 82.4804 78.3577 69.7815 42.6224 30.0647 25.6544 16.4221 11.1258 9.98858 8.27035 8.10633
threshold=-0.61723060523360995 -0.69691320251813094 -0.61657880947528687 0.82186379942914223 -0.37557215497967256 -0.31004176460856497 1.3474723986593824 1.4208669102006823 -0.5092517928825756 -0.30232339690247295 0.57775651124531724 0.32086559647404828
decision_type=2 2 2 2 2 2 2 2 2 2 2 2
left_child=1 5 8 11 10 -1 -6 -5 9 -2 -4 -3
right_child=2 3 4 7 6 -7 -8 -9 -10 -11 -12 -13
leaf_value=0.10281468143757064 0.16294381637314859 -0.063062385303095825 -0.042864838654047013 -0.0026303603408080185 0.063697963166874608 -0.012844229143825157 0.14937263339443929 0.086102335240102496 0.11033044506170225 0.11902871985565007 0.036701333389688236 -0.11628686158921922
leaf_weight=64.231849759817123 198.76932229101658 79.152800962328911 24.009574934840202 37.66550700366497 73.830819353461266 25.022078931331635 45.11650738120079 30.038285657763481 58.178531557321548 52.461340755224228 18.555558860301971 32.278873071074486
leaf_count=157 332 420 99 149 221 116 102 89 137 114 62 188
internal_value=0 9.2033e-05 0.119225 -0.034934 0.0686881 0.0703902 0.0961949 0.0367383 0.145605 0.153774 -0.00817924 -0.0784808
internal_weight=0 268.389 470.922 179.135 161.512 89.2539 118.947 67.7038 309.409 251.231 42.5651 111.432
internal_count=2186 1119 1067 846 484 273 323 238 583 446 161 608
is_linear=0
shrinkage=0.0895109


Tree=5
num_leaves=12
num_cat=0
split_feature=21 85 1 81 133 148 1 111 96 102 26
split_gain=370.272 61.4853 54.7762 29.2967 29.4337 23.5728 22.7332 16.5644 13.5616 9.30412 9.08374
threshold=-0.44650754219439176 -0.15983414651003416 0.84819044640887731 -0.61723060523360995 1.0000000180025095e-35 -0.57434199946265496 0.16087645723624169 1.8307888339671685 -0.3945532089029683 1.338669317351034 1.6319708808579179
decision_type=2 2 2 2 2 2 2 2 2 2 2
left_child=2 3 8 5 -5 -2 -3 10 9 -1 -4
right_child=1 6 7 4 -6 -7 -8 -9 -10 -11 -12
leaf_value=-0.10008122421325896 0.11186884593366644 -0.030462333455692079 -0.044513866485759321 0.14108797430580625 0.06887924579275044 0.02217253735368279 0.067734325863207753 0.091928431069347102 -0.017669539939652524 -0.029979338107337751 0.040983446451267481
leaf_weight=82.014705508947372 57.668601378798485 27.143592745065689 21.068602368235588 312.49363695085049 52.885722547769547 39.593132600188255 62.113956108689308 22.489520683884621 29.03130903840065 18.612779587507248 18.876736521720886
leaf_count=497 135 112 99 549 139 125 153 80 137 95 65
internal_value=0 0.105892 -0.0383974 0.119015 0.130636 0.0753559 0.0378723 0.0304839 -0.071566 -0.087115 -0.00411087
internal_weight=0 551.899 192.094 462.641 365.379 97.2617 89.2575 62.4349 129.659 100.627 39.9453
internal_count=2186 1213 973 948 688 260 265 244 729 592 164
is_linear=0
shrinkage=0.0895109


Tree=6
num_leaves=10
num_cat=0
split_feature=22 85 80 97 103 37 69 123 68
split_gain=303.775 52.0688 50.1121 28.777 29.3733 15.9796 11.6393 11.4134 9.65291
threshold=-0.5370440694772155 0.29767481674825685 1.4745940841374952 -0.60699504904008672 -0.473911229661518 0.43185116560330933 0.53354166069771469 -0.57730250641416003 1.2794703916206676
decision_type=2 2 2 2 2 2 2 2 2
left_child=2 3 6 7 -5 -3 8 -2 -1
right_child=1 5 -4 4 -6 -7 -8 -9 -10
leaf_value=-0.085233445773369262 0.083306176402112242 -0.043630274294744656 0.048882086471237408 0.1245466436872323 0.049243058722544163 0.058543838321041083 0.0035079753391356219 0.021591774826383085 -0.026896346959522893
leaf_weight=95.349549919366837 77.637487858533859 24.457078903913498 42.822329089045525 347.65600892901421 47.129984140396118 24.598447918891907 19.205612614750862 34.760893061757088 29.838542863726616
leaf_count=580 198 94 155 630 122 66 82 108 151
internal_value=0 0.0956631 -0.0361556 0.10418 0.115557 0.0076041 -0.0613751 0.0642203 -0.0713291
internal_weight=0 556.24 187.216 507.184 394.786 49.0555 144.394 112.398 125.188
internal_count=2186 1218 968 1058 752 160 813 306 731
is_linear=0
shrinkage=0.0895109


Tree=7
num_leaves=12
num_cat=0
split_feature=21 133 77 8 81 14 8 114 84 8 1
split_gain=251.392 38.1186 33.9408 36.1793 29.3198 18.7147 12.5403 11.4981 11.4342 10.7958 10.4731
threshold=-0.40775371634483781 -0.14182856968499494 1.2543655738586852 -1.0228332760019816 -0.61723060523360995 0.47719863347675168 -0.94135325763101896 0.85429905085178248 -0.37993474561414753 1.0000000180025095e-35 0.18596090939582691
decision_type=2 2 2 2 2 2 2 2 2 2 2
left_child=2 4 3 -1 6 -4 -2 -5 -6 10 -3
right_child=1 9 5 7 8 -7 -8 -9 -10 -11 -12
leaf_value=0.044384894184673097 0.090458042734670965 0.025137459165350165 -0.011945660329878633 -0.074681428081741261 0.12536254098385258 0.091940844165298255 0.014668766209449211 0.010969013718590319 0.084346107050446997 0.0049468342539134074 0.084813701613609904
leaf_weight=29.457464560866356 34.810798481106758 36.221926972270012 30.23738269507885 116.40752990543842 248.4706497490406 25.70362950861454 35.159649416804314 14.076271936297415 69.748547986149788 32.66822861135006 67.422886878252029
leaf_count=99 74 111 122 725 422 84 101 59 146 100 143
internal_value=0 0.0905379 -0.024224 -0.045214 0.104837 0.0357884 0.052375 -0.0654417 0.116373 0.049816 0.0639583
internal_weight=0 524.503 215.882 159.941 388.19 55.941 69.9704 130.484 318.219 136.313 103.645
internal_count=2186 1097 1089 883 743 206 175 784 568 354 254
is_linear=0
shrinkage=0.0895109


Tree=8
num_leaves=12
num_cat=0
split_feature=193 46 64 2 60 25 130 3 9 138 145
split_gain=155.404 41.8192 31.7389 31.4271 28.9785 19.9599 16.1392 15.6846 10.438 6.98669 6.70366
threshold=1.0000000180025095e-35 -0.34163240703955278 1.4904535791773086 0.33381264432037488 0.1980969103711282 -0.25398217243652449 -0.47105666940259888 0.16141769713666865 -1.0318706240286046 1.672967488636117 -0.25783672865735136
decision_type=2 2 2 2 2 2 2 2 2 2 2
left_child=2 3 5 4 -2 8 -7 10 -1 -5 -3
right_child=1 7 -4 9 -6 6 -8 -9 -10 -11 -12
leaf_value=-0.01344497106041441 0.05796501504838291 -0.043096409544465968 0.079478867871542208 -0.00091978228249867578 0.11104740694833989 -0.044896325375941883 0.034624098108435732 0.064870175859425602 -0.086913403147213214 0.058008164928951646 0.021187601228861097
leaf_weight=21.101999558508396 119.70820885896683 28.67575204372406 21.875230774283409 33.966727420687675 264.41044728457928 40.14908005297184 41.675116613507271 32.912755101919174 58.305572845041752 30.681684896349907 23.771374672651291
leaf_count=112 313 102 71 97 466 245 158 89 391 70 71
internal_value=0 0.0738636 -0.0216934 0.084787 0.0945047 -0.0354204 -0.00439462 0.0164353 -0.06739 0.0270473 -0.0139601
internal_weight=0 534.127 183.107 448.767 384.119 161.232 81.8242 85.3599 79.4076 64.6484 52.4471
internal_count=2185 1208 977 946 779 906 403 262 503 167 173
is_linear=0
shrinkage=0.0895109


Tree=9
num_leaves=10
num_cat=0
split_feature=22 30 45 117 7 96 120 73 158
split_gain=131.408 31.9143 31.102 28.0541 29.1674 14.1615 16.4717 11.9009 10.5947
threshold=-0.53729928193302035 1.4944059561695962 0.99282373665671553 -0.25975561729754815 0.33381264432037488 -0.3945532089029683 0.19798246596342148 -0.91452502230919397 -0.36166750230281797
decision_type=2 2 2 2 2 2 2 2 2
left_child=1 5 3 4 -2 7 -7 -1 -4
right_child=2 -3 8 -5 -6 6 -8 -9 -10
leaf_value=0.023156063752432048 0.094069332024808161 0.082365218925557551 0.037930676972298225 0.011726990439828541 0.026895204661442969 0.070652114737548469 -0.032209744906720447 -0.06608259116654723 -0.034199615666709364
leaf_weight=13.834501393139361 348.88132500648499 21.296267464756966 48.360609769821167 47.938470408320427 60.819121107459068 18.615275233983994 37.800719879567623 88.999838478863239 24.622031301259995
leaf_count=79 687 66 125 150 155 82 173 580 88
internal_value=0 -0.0205442 0.0678625 0.0765166 0.0840975 -0.0343064 0.00173147 -0.0540771 0.0135961
internal_weight=0 180.547 530.622 457.639 409.7 159.25 56.416 102.834 72.9826
internal_count=2185 980 1205 992 842 914 255 659 213
is_linear=0
shrinkage=0.0895109


Tree=10
num_leaves=12
num_cat=0
split_feature=22 46 96 108 25 123 12 158 31 43 123
split_gain=109.718 33.4649 23.9866 23.8338 20.9167 14.7078 14.4412 12.6975 11.3957 10.6746 12.9472
threshold=-0.53729928193302035 -0.19542094718625033 -0.57417237261252529 0.023747789435076553 1.0710303435707151 -1.0093418400865555 1.7493931300141996 -0.35042060599719571 -0.39960171220411767 1.4025699106472025 0.56171028235851939
decision_type=2 2 2 2 2 2 2 2 2 2 2
left_child=4 2 5 -4 6 -2 8 -3 -1 10 -6
right_child=1 7 3 -5 9 -7 -8 -9 -10 -11 -12
leaf_value=-0.080300148764920518 0.076331021360478229 0.03735189648923231 0.09145599900008991 0.023723227793562788 0.045319225770687303 0.009266996006071903 0.047306040936735974 -0.0425443661244337 -0.02118614577492707 0.071515931959883441 -0.060940875004308455
leaf_weight=54.734529584646225 42.010975137352943 35.859948635101318 302.69438445568085 48.261558338999748 19.013794958591461 69.622483238577843 13.188225224614142 28.685470104217529 49.994553774595261 23.193094998598099 17.775556370615959
leaf_count=377 89 102 571 120 74 220 68 103 302 70 89
internal_value=0 0.0622217 0.0706462 0.0821418 -0.0190747 0.0345055 -0.0409652 0.00184407 -0.0520812 0.0239592 -0.00602276
internal_weight=0 527.135 462.589 350.956 177.9 111.633 117.917 64.5454 104.729 59.9824 36.7894
internal_count=2185 1205 1000 691 980 309 747 205 679 233 163
is_linear=0
shrinkage=0.0895109


Tree=11
num_leaves=12
num_cat=0
split_feature=22 47 7 64 136 111 11 25 72 109 137
split_gain=92.0301 28.0885 23.7902 23.4368 18.2071 14.071 13.5931 11.7154 10.8899 10.3644 8.76742
threshold=-0.53729928193302035 -0.41790399897297509 0.33381264432037488 1.2073600203503283 -0.60335948314723276 2.113899440997129 -1.0309652430708727 -0.25398217243652449 -0.1879853777160391 1.2315850989458528 0.99015936968358031
decision_type=2 2 2 2 2 2 2 2 2 2 2
left_child=3 2 4 5 -2 7 -3 -1 -8 -5 -4
right_child=1 6 10 9 -6 -7 8 -9 -10 -11 -12
leaf_value=-0.056326212148062701 0.062601527548791794 0.063541917555183222 -0.015306224398215522 0.080510585604155943 0.10592369360644795 -0.11153410918841683 0.01974631196930305 0.0017577287179240777 -0.052990285801711189 -0.0046147575380087917 0.050607858617403745
leaf_weight=52.399830013513565 235.41703397035599 33.17317308485508 32.159055203199387 22.557291850447655 116.04416763782501 17.628593288362026 47.296786263585091 59.317388363182545 25.320260748267174 23.293132141232491 32.515340313315392
leaf_count=374 530 83 93 70 202 126 131 320 92 90 74
internal_value=0 0.0572549 0.0677248 -0.0177221 0.0769057 -0.0372142 0.0160705 -0.0254861 -0.00561589 0.0372654 0.0178326
internal_weight=0 521.926 416.136 175.196 351.461 129.346 105.79 111.717 72.617 45.8504 64.6744
internal_count=2185 1205 899 980 732 820 306 694 223 160 167
is_linear=0
shrinkage=0.0895109


Tree=12
num_leaves=11
num_cat=0
split_feature=22 126 25 48 120 83 130 0 3 77
split_gain=82.4204 33.6327 30.3959 25.1326 31.3596 14.9248 11.9038 10.7336 8.4758 6.61578
threshold=-0.54442700123442889 0.70252726155729517 0.25515288347625298 1.0000000180025095e-35 -0.83421868883554973 1.7501365517180354 0.63060444532871962 -1.0228332760019816 -0.059673407854517795 0.36942248814969508
decision_type=2 2 2 2 2 2 2 2 2 2
left_child=2 3 5 4 -2 9 8 -5 -4 -1
right_child=1 -3 6 7 -6 -7 -8 -9 -10 -11
leaf_value=-0.052004194547746005 0.060502114728328518 -0.015235040809830536 -0.063231284473944854 0.10052194776347403 -0.025098120840665285 0.018917648215751648 0.052413321937248146 0.064867469558281349 0.034332451228435056 -0.11101524437395345
leaf_weight=50.941254466772079 124.30842043459415 47.814629703760147 16.182247944176201 120.7897060662508 47.352136820554733 19.298328757286072 48.165302500128746 153.79052731394768 12.758860088884829 21.709821812808514
leaf_count=406 287 141 98 213 171 86 153 322 69 151
internal_value=0 0.0561114 -0.0162961 0.0637561 0.0368895 -0.0510527 0.0251512 0.0805523 -0.0202199 -0.069639
internal_weight=0 494.055 169.056 446.241 171.661 91.9494 77.1064 274.58 28.9411 72.6511
internal_count=2097 1134 963 993 458 643 320 535 167 557
is_linear=0
shrinkage=0.0895109


Tree=13
num_leaves=11
num_cat=0
split_feature=60 45 121 40 105 126 73 158 3 40
split_gain=72.609 30.9522 31.3278 25.3422 22.1939 16.0589 15.634 14.1864 7.14062 0.962913
threshold=-0.63744223037154391 1.0064773662022151 0.90981259434828499 0.25491071381809655 1.489332403063474 -0.25377002147487188 0.081356711673424648 -0.24353120928349747 1.4409449518141677 2.8196517366009037
decision_type=2 2 2 2 2 2 2 2 2 2
left_child=3 2 5 4 7 -2 -3 -1 9 -5
right_child=1 6 -4 8 -6 -7 -8 -9 -10 -11
leaf_value=0.0023738093260871158 0.085838244692894847 0.037081211485016245 -0.010623289634826217 -0.10655356117275953 -0.06771555900376014 0.042274701185607298 -0.062072275279979022 0.060793899912500955 -0.010633353087480955 -0.070620853854419685
leaf_weight=109.25198663026094 246.31402023881674 27.39357715845108 39.239594906568527 19.716126598417762 26.964089058339596 93.55120638012886 23.818965204060078 47.908208481967449 10.986973673105238 8.5834935531020147
leaf_count=397 487 81 135 164 147 235 111 181 80 79
internal_value=0 0.0562805 0.0651039 -0.00661551 0.00731014 0.0738471 -0.00903531 0.0201826 -0.0718797 -0.095657
internal_weight=0 430.317 379.105 223.411 184.124 339.865 51.2125 157.16 39.2866 28.2996
internal_count=2097 1049 857 1048 725 722 192 578 323 243
is_linear=0
shrinkage=0.0895109


Tree=14
num_leaves=12
num_cat=0
split_feature=123 146 77 184 21 31 143 47 92 90 64
split_gain=64.646 28.7302 33.4514 24.9945 23.3133 17.5961 9.50757 9.15635 8.18347 6.52051 4.22927
threshold=-0.65585511253641371 1.6060371308789381 1.5085692630319081 1.0000000180025095e-35 0.94475480580459537 -0.57274519700713244 2.092932739518353 -0.13793823303598926 -0.32650643818906006 -0.10540018553532611 0.96513771842405827
decision_type=2 2 2 2 2 2 2 2 2 2 2
left_child=4 2 3 -2 5 8 -3 -7 -1 10 -6
right_child=1 6 -4 -5 9 7 -8 -9 -10 -11 -12
leaf_value=0.062020648786467361 -0.039154108394303305 -0.11145942041775872 0.083686442247273729 0.023337308783149074 0.075738423368308147 -0.055154530436414932 -0.021101791152206895 0.028018614699420286 0.008666001437171094 0.051886979991354235 0.10814492124316812
leaf_weight=108.09457436203957 88.689151592552662 21.300025470554829 42.926614657044411 121.5769576728344 67.474563479423523 22.108959339559078 16.60326636582613 20.379842154681683 29.269757822155952 45.648881658911705 61.857639908790588
leaf_count=243 540 142 107 367 135 92 93 66 105 98 109
internal_value=0 0.000799099 0.0116794 -0.00302129 0.0577117 0.0350806 -0.0718801 -0.0152605 0.0506519 0.0809728 0.0912385
internal_weight=0 291.096 253.193 210.266 354.834 179.853 37.9033 42.4888 137.364 174.981 129.332
internal_count=2097 1249 1014 907 848 506 235 158 348 342 244
is_linear=0
shrinkage=0.0895109


Tree=15
num_leaves=13
num_cat=0
split_feature=60 8 18 120 63 65 1 8 89 77 17 28
split_gain=55.5938 24.4727 21.2016 17.8961 13.4865 12.3003 12.2406 11.0182 10.384 9.72543 4.99059 1.08718
threshold=-0.63744223037154391 -1.0228332760019816 1.0000000180025095e-35 -0.91896318961183743 0.44827089941361026 1.3283824801138777 0.34482910640653347 0.89194715571564132 0.56711974431422263 1.1438178326509039 -0.33985831966227115 0.10046947467618804
decision_type=2 2 2 2 2 2 2 2 2 2 2 2
left_child=2 6 8 -4 7 -5 10 -3 11 -6 -2 -1
right_child=1 4 3 5 9 -7 -8 -9 -10 -11 -12 -13
leaf_value=-0.10853249592233355 0.081142650071162795 0.051215411914528212 0.073525838360089246 -0.018449853638120843 -0.041437990873878727 0.044599955408654371 0.10596019439062153 -0.0043832436911981206 0.012421133695610877 0.037467520707969743 0.039089942726996431 -0.069735475419761384
leaf_weight=19.059626094996933 37.298167631030083 171.46155890077353 26.560492910444736 125.10849557816982 30.591080613434315 30.917319104075432 65.568170085549355 34.265597656369209 9.3703282773494703 21.180013820528984 57.42545123398304 8.3188165575265867
leaf_count=163 73 419 77 553 121 93 119 127 83 59 131 79
internal_value=0 0.0487714 -0.00687896 0.00560627 0.0316787 -0.00595606 0.0762294 0.041955 -0.0689107 -0.00915696 0.055649 -0.0967463
internal_weight=0 417.79 219.335 182.586 257.498 156.026 160.292 205.727 36.7488 51.7711 94.7236 27.3784
internal_count=2097 1049 1048 723 726 646 323 546 325 180 204 242
is_linear=0
shrinkage=0.0895109


Tree=16
num_leaves=13
num_cat=0
split_feature=21 45 11 122 103 60 122 8 132 17 65 156
split_gain=65.5017 36.5752 28.8378 20.3891 20.1607 24.1474 17.9925 24.0839 13.3578 12.1019 10.9915 9.2997
threshold=-0.40646192214985272 0.99623714404309038 1.0000000180025095e-35 0.65554600366616722 0.2884532274473936 0.78810481238678698 0.98830955681632748 1.5437873026833429 -0.36795192487294365 1.0360932096812678 0.51921263099795401 -0.4192303698465128
decision_type=2 2 2 2 2 2 2 2 2 2 2 2
left_child=2 3 6 8 5 -4 9 -8 -2 -1 -3 -6
right_child=1 10 4 -5 11 -7 7 -9 -10 -11 -12 -13
leaf_value=-0.10528415895372967 0.073679315592985503 -0.066230473170478824 0.003823683670641067 -0.0073952461932468598 0.0055501344822959783 0.11297035765236062 0.054808674644297936 -0.087909334265585351 0.036350405504704038 -0.0022303639035245273 0.011074100490318961 -0.099642604412830446
leaf_weight=48.285936526954174 203.96155224740505 26.58967125415802 56.680072709918022 40.922060340642929 11.906734324991705 22.762142404913902 21.767543829977512 16.773127608001232 123.20397478342056 11.259103022515772 33.056751921772957 15.497614450752733
leaf_count=344 419 96 277 113 90 67 87 99 292 62 95 102
internal_value=0 0.0416349 -0.0199107 0.0521715 0.012261 0.0350976 -0.0549558 -0.0073035 0.0596221 -0.0857985 -0.0233877 -0.0539391
internal_weight=0 427.734 204.932 368.088 106.847 79.4422 98.0857 38.5407 327.166 59.545 59.6464 27.4043
internal_count=2143 1015 1128 824 536 344 592 186 711 406 191 192
is_linear=0
shrinkage=0.0895109


Tree=17
num_leaves=12
num_cat=0
split_feature=91 46 27 64 107 108 12 42 108 80 128
split_gain=55.8251 36.8119 27.6287 19.5577 24.9466 22.7032 14.4582 8.55687 7.49859 9.75544 1.16479
threshold=-0.53682851157302569 0.26978365306291802 1.0000000180025095e-35 0.57686077786730838 -0.23317071633092851 0.48204579078322707 -0.41765359451797679 1.4971487591836856 0.83593351592551512 0.12200612139430379 3.1140749035952036
decision_type=2 2 2 2 2 2 2 2 2 2 2
left_child=2 8 3 4 -1 -5 -3 10 9 -2 -4
right_child=1 6 7 5 -6 -7 -8 -9 -10 -11 -12
leaf_value=0.0032310717764680824 0.045013717386478039 0.011813466422132435 -0.10309635948992503 0.061231870251751662 -0.089415913790552082 -0.028958449256829364 -0.11055466862878173 -0.018744505954670407 0.014968715636916145 0.079489857004547138 -0.06288683644721059
leaf_weight=92.050245225429535 169.94208643585443 15.572785258293154 26.969907224178314 70.469110608100891 31.171343013644218 32.756962478160858 15.372388690710066 18.335707254707813 36.071107298135757 107.27264069020748 7.3497553318738928
leaf_count=337 411 81 258 166 177 105 92 85 117 233 81
internal_value=0 0.04416 -0.00970964 0.00387078 -0.0202062 0.0326116 -0.0489755 -0.0681123 0.0533596 0.058355 -0.0944868
internal_weight=0 344.231 279.103 226.448 123.222 103.226 30.9452 52.6554 313.286 277.215 34.3197
internal_count=2143 934 1209 785 514 271 173 424 761 644 339
is_linear=0
shrinkage=0.0895109


Tree=18
num_leaves=11
num_cat=0
split_feature=8 46 40 14 23 143 148 24 95 43
split_gain=48.2783 38.88 32.2723 15.4254 14.4357 14.3475 13.9692 11.263 8.75964 4.20677
threshold=1.0549071924575668 0.3040958575024168 -0.31004176460856497 1.4104044233981232 -0.34269223847376246 0.25904978484692626 0.54493991974054279 1.9502997386237377 0.35679638289295362 2.103342231969775
decision_type=2 2 2 2 2 2 2 2 2 2
left_child=1 2 5 7 -4 -1 8 9 -3 -2
right_child=3 6 4 -5 -6 -7 -8 -9 -10 -11
leaf_value=0.048741882519666838 -0.11083576064828983 -0.12452992399233256 -0.074533341504430625 0.020665714469338764 0.029005542315441585 -0.0087656096759047702 0.024243308825365812 -0.0041997954829096785 -0.032909634308918391 -0.054808930922158626
leaf_weight=397.63610428571701 28.705386951565742 17.231573991477489 28.439500294625759 21.69243860989809 17.383267253637314 38.089495234191418 14.845875777304171 16.795792326331139 16.242234110832214 17.158362716436386
leaf_count=945 233 103 251 111 73 124 77 66 79 81
internal_value=0 0.0285195 0.0362002 -0.0443895 -0.0352551 0.0437148 -0.0480243 -0.0669113 -0.0800754 -0.0898764
internal_weight=0 529.868 481.548 84.352 45.8228 435.726 48.3197 62.6595 33.4738 45.8637
internal_count=2143 1652 1393 491 324 1069 259 380 182 314
is_linear=0
shrinkage=0.0895109


Tree=19
num_leaves=10
num_cat=0
split_feature=57 152 64 94 60 9 143 139 54
split_gain=46.8579 26.7524 20.1268 27.4884 18.2984 14.7899 11.0325 8.83433 5.60284
threshold=0.77542247785368301 -0.045073055550429598 0.7920359244916374 -0.49663084132738228 1.5393571099843653 0.60390428410531982 0.25904978484692626 -0.49961299574498946 1.4272586366695987
decision_type=2 2 2 2 2 2 2 2 2
left_child=1 2 3 -1 5 -3 7 -2 -9
right_child=6 4 -4 -5 -6 -7 -8 8 -10
leaf_value=0.019053385219878489 0.084570005156539313 -0.026700638578605305 0.07457549478316669 -0.079508626679444389 0.032940850726927574 -0.094686486381178575 0.0022454466177006019 0.053234192478240204 0.010820545161234672
leaf_weight=148.79028877615929 60.34660878777504 84.744836457073689 39.74552296102047 26.746460132300854 28.048565745353699 36.758049301803112 36.260976925492287 111.8274847343564 32.12335155159235
leaf_count=506 132 461 83 109 78 269 148 271 86
internal_value=0 -0.00314366 0.0170586 0.00403527 -0.0322252 -0.0472687 0.0477458 0.0558216 0.0437695
internal_weight=0 364.834 215.282 175.537 149.551 121.503 240.558 204.297 143.951
internal_count=2143 1506 698 615 808 730 637 489 357
is_linear=0
shrinkage=0.0895109


Tree=20
num_leaves=11
num_cat=0
split_feature=0 98 36 123 9 68 23 157 36 98
split_gain=27.4481 27.6337 16.5683 13.8477 16.8297 13.7252 11.1323 10.4379 6.5239 1.6557
threshold=0.7697271281591973 -0.31847489010101365 1.1332432789488298 -0.85223662784204801 0.30160146933917859 2.1079971359120129 -0.46845544333592654 -0.2573606375020091 1.3985971002549078 0.94636007463148852
decision_type=2 2 2 2 2 2 2 2 2 2
left_child=1 3 5 8 -5 7 9 -2 -1 -3
right_child=2 6 -4 4 -6 -7 -8 -9 -10 -11
leaf_value=0.043348760772298905 -0.059102795803764825 -0.11515042604709363 -0.10920118572617464 0.038934160622291339 -0.011266069261672859 -0.080426967198897359 -0.00030213981777886984 0.024624611661499197 0.083935621986905518 -0.059788096711702536
leaf_weight=191.68288753181696 14.762919537723063 11.292777411639692 14.872007690370081 132.99505996704102 89.526899017393589 16.949694834649563 22.895075157284737 62.149387340992689 38.027126416563988 7.0224950723350039
leaf_count=457 130 100 77 407 298 93 95 327 81 89
internal_value=0 0.0282572 -0.0214241 0.0346516 0.0187372 -0.00751544 -0.0419129 0.00855316 0.0500679 -0.0939264
internal_weight=0 493.442 108.734 452.232 222.522 93.862 41.2103 76.9123 229.71 18.3153
internal_count=2154 1527 627 1243 705 550 284 457 538 189
is_linear=0
shrinkage=0.0895109


Tree=21
num_leaves=9
num_cat=0
split_feature=50 96 74 34 84 10 42 157
split_gain=28.4502 21.0057 25.5141 19.2693 16.3787 17.0352 14.7262 8.69039
threshold=1.8075663209887576 -0.55086362833495917 0.20986466182814614 -0.3900559426613327 -0.38390945160873696 0.70066527561926362 1.7586499924572372 -0.16407337111360165
decision_type=2 2 2 2 2 2 2 2
left_child=1 2 3 -1 7 -6 -2 -3
right_child=6 4 -4 -5 5 -7 -8 -9
leaf_value=0.0069152990560460738 -0.10303335630437351 0.060077191585465525 0.082426655728220097 -0.058841233249453298 0.031766931556779725 -0.044596158971514761 -0.0046900243812544526 0.013063242567584841
leaf_weight=134.62124786153436 21.430419810116291 181.55312146991491 27.167699530720711 48.593990381807089 83.393039166927338 32.538391396403313 28.322920337319374 38.116173453629017
leaf_count=580 110 455 83 350 239 113 109 115
internal_value=0 0.0236531 0.00147816 -0.0105254 0.0375541 0.010334 -0.0470507 0.0519196
internal_weight=0 545.984 210.383 183.215 335.601 115.931 49.7533 219.669
internal_count=2154 1935 1013 930 922 352 219 570
is_linear=0
shrinkage=0.0895109


Tree=22
num_leaves=10
num_cat=0
split_feature=60 122 34 63 68 25 22 158 54
split_gain=21.4827 15.0323 14.082 13.8922 12.763 11.3343 7.02137 6.63733 5.72652
threshold=-0.30884569695081471 -0.80522843728356963 -0.3900559426613327 1.6747273076491969 1.3352443870900361 0.23460524882381975 0.191551032923545 -0.14833347300271785 -0.19692189062609175
decision_type=2 2 2 2 2 2 2 2 2
left_child=1 8 5 4 7 -3 -4 -2 -1
right_child=3 2 6 -5 -6 -7 -8 -9 -10
leaf_value=-0.00079323074954058142 0.047046028991133235 -0.016310313487064406 -0.074329025749264033 -0.023301416944550235 -0.013070173744646238 0.0583065296620826 0.0063632480349677745 0.01019640250370712 0.054525603970780233
leaf_weight=25.810678027570248 251.51630022376776 81.406507633626461 42.795666292309761 36.275994256138802 39.123428791761398 20.396788854151964 10.825268015265463 46.386661790311337 35.773685902357101
leaf_count=93 664 413 354 123 131 97 35 145 99
internal_value=0 -0.00608475 -0.0209142 0.0293306 0.0349957 -0.00136015 -0.0580386 0.0413082 0.0313411
internal_weight=0 217.009 155.424 373.302 337.026 101.803 53.6209 297.903 61.5844
internal_count=2154 1091 899 1063 940 510 389 809 192
is_linear=0
shrinkage=0.0895109


Tree=23
num_leaves=12
num_cat=0
split_feature=121 97 10 10 84 35 37 145 156 100 31
split_gain=20.3288 13.8081 22.7192 13.3378 13.9418 11.7811 11.1471 9.26723 7.83342 6.65013 3.62532
threshold=1.0679064466361246 -0.60699504904008672 -1.1062103959312739 0.74531666303232202 -0.43683774585296797 -0.46007332073729562 1.025659891325952 0.016121465212543616 -0.15891911132422515 1.9455260174378808 1.5376615712439012
decision_type=2 2 2 2 2 2 2 2 2 2 2
left_child=1 2 -1 8 -5 -4 7 9 -3 -2 -9
right_child=6 3 5 4 -6 -7 -8 10 -10 -11 -12
leaf_value=-0.075543956667416964 0.045662446851035779 0.056721081663965396 0.028793585500487412 0.028070035939932885 -0.0395079276640979 -0.033794236391929064 -0.10296777027163977 -0.018748109821455281 0.023347279291727474 -0.032423925968425256 -0.087803263763526249
leaf_weight=26.726335108280182 22.787787009030581 142.46877203881741 106.54313579201698 74.483205534517765 36.419788151979446 31.138723451644182 13.292161490768192 11.504573006182911 93.223231874406338 14.172556072473524 12.945876426994799
leaf_count=151 137 362 388 199 123 199 89 97 261 77 71
internal_value=0 0.0213419 -2.20247e-05 0.0314759 0.00587777 0.0146383 -0.0286488 -0.0125617 0.0435209 0.0157199 -0.0553125
internal_weight=0 511.003 164.408 346.595 110.903 137.682 74.703 61.4108 235.692 36.9603 24.4504
internal_count=2154 1683 738 945 322 587 471 382 623 214 168
is_linear=0
shrinkage=0.0895109


Tree=24
num_leaves=9
num_cat=0
split_feature=117 73 121 112 11 4 3 3
split_gain=42.8442 18.7619 29.8274 12.9706 12.1707 11.25 7.67895 5.0148
threshold=0.83035610078734334 1.1602285901545952 1.0679064466361246 2.2231668902635637 0.2258768063207276 1.2250228024633829 -0.79297557961261533 -0.31477852899819442
decision_type=2 2 2 2 2 2 2 2
left_child=1 2 4 -4 -1 6 -3 -2
right_child=7 5 3 -5 -6 -7 -8 -9
leaf_value=0.0067170362342996569 -0.12832805313666196 0.071589661797973755 -0.097606300047831954 0.014356689198503584 0.037556194541735692 0.099490422878529397 0.012883541628786976 -0.055168815390634542
leaf_weight=199.38104016706347 12.193143703043463 30.662900499999523 25.195857875049114 12.35498984903097 211.08442007750273 34.3301742374897 42.728528991341591 19.536940969526768
leaf_count=675 95 86 216 81 649 98 126 145
internal_value=0 0.0236553 0.0155906 -0.0607686 0.0225763 0.0571961 0.0374114 -0.0832845
internal_weight=0 555.738 448.016 37.5508 410.465 107.722 73.3914 31.7301
internal_count=2171 1931 1621 297 1324 310 212 240
is_linear=0
shrinkage=0.0895109


Tree=25
num_leaves=9
num_cat=0
split_feature=40 133 122 69 12 124 25 4
split_gain=19.5014 13.8442 10.1634 9.85975 18.373 10.666 3.24427 1.09561
threshold=0.67168113002030261 1.9483572020222011 1.1867005163600461 0.50888491160371829 -0.063827704013372552 0.77186004330317115 -0.14493714600426819 0.20152366353912096
decision_type=2 2 2 2 2 2 2 2
left_child=1 3 -3 4 -1 -5 7 -2
right_child=6 2 -4 5 -6 -7 -8 -9
leaf_value=-0.0086275684498896468 -0.10086742000778678 -0.077808347639641909 0.021005173165306465 0.045048437928519092 0.035507957155065079 -0.012733680499503169 -0.0083261357260934251 -0.051914270158168664
leaf_weight=156.44287287816405 11.35426682233811 19.535935260355473 14.551271654665468 194.81411918252707 146.18843299895525 29.467033378779888 5.9906986504793158 5.4116605184972277
leaf_count=587 157 119 80 520 482 86 75 65
internal_value=0 0.019657 -0.0356269 0.0232335 0.0126925 0.0374568 -0.0648676 -0.0850694
internal_weight=0 561 34.0872 526.912 302.631 224.281 22.7566 16.7659
internal_count=2171 1874 199 1675 1069 606 297 222
is_linear=0
shrinkage=0.0895109


Tree=26
num_leaves=8
num_cat=0
split_feature=116 40 73 7 3 59 158
split_gain=21.0781 16.3918 12.3881 27.5894 10.5993 10.5005 5.08035
threshold=1.0764902328317492 0.014767425985510145 1.1602285901545952 1.0866635928880595 0.37150426749028437 1.8330683444511549 -0.34905991363727856
decision_type=2 2 2 2 2 2 2
left_child=1 2 3 -1 -3 -4 -6
right_child=-2 4 5 -5 6 -7 -8
leaf_value=0.021578792919260539 -0.070334740624516487 -0.10595779562180886 0.065345014674907151 -0.067084500136401271 0.049587770962625122 0.0010401788617009692 -0.045985980783416328
leaf_weight=388.19329202547669 22.301169436424971 13.119087520986797 80.823490858078003 30.314720183610916 8.5913179218769091 27.190456241369247 9.2570521421730501
leaf_count=1181 147 149 215 189 74 95 121
internal_value=0 0.0184093 0.0221316 0.0151563 -0.0448788 0.0491576 1.85718e-05
internal_weight=0 557.489 526.522 418.508 30.9675 108.014 17.8484
internal_count=2171 2024 1680 1370 344 310 195
is_linear=0
shrinkage=0.0895109


Tree=27
num_leaves=10
num_cat=0
split_feature=27 132 73 154 11 144 16 12 135
split_gain=18.2965 16.9113 15.6834 13.3829 16.7738 11.9176 11.6764 9.42522 0.0326674
threshold=1.0000000180025095e-35 0.59977595190569943 0.66995908105810986 0.70787261909740351 -0.46175963747565807 0.60546258592590552 -0.89695493317727626 0.1984891987328761 0.058332154758500933
decision_type=2 2 2 2 2 2 2 2 2
left_child=1 2 6 8 -5 -3 -1 -4 -2
right_child=3 5 7 4 -6 -7 -8 -9 -10
leaf_value=0.053960872026684203 -0.1037976529798951 -0.056798038325623364 0.029658963924554801 -0.075150237983368409 0.043145710906652118 0.015638790808227998 0.0047598733714861825 0.073363837392422804 -0.095542799602647818
leaf_weight=46.236905746161938 5.8551260158419636 36.733316607773304 95.672079250216484 16.218932401388884 23.544428437948227 36.063689939677715 235.41399563848972 67.379997923970222 12.082270834594963
leaf_count=141 56 152 262 139 146 116 789 158 212
internal_value=0 0.0190802 0.025627 -0.0340599 -0.00510606 -0.020913 0.012837 0.0477199 -0.0982414
internal_weight=0 517.5 444.703 57.7008 39.7634 72.797 281.651 163.052 17.9374
internal_count=2171 1618 1350 553 285 268 930 420 268
is_linear=0
shrinkage=0.0895109


end of trees

feature_importances:
num__tenure_0=9
num__Contract_Month_to_month_MonthlyCharges=8
num__ABSOLUTE_DIFF_MonthlyCharges_=7
num__Contract_One_year_TotalCharges=7
num__DeviceProtection_No_internet_service_TotalCharges=7
num__MonthlyCharges_OnlineSecurity_No=7
num__SeniorCitizen_No_tenure=7
num__Contract_Month_to_month_TotalCharges=6
num__tenure=5
num__COSINE_tenure_=5
num__InternetService_DSL_TotalCharges=5
num__InternetService_Fiber_optic_MonthlyCharges=5
num__MonthlyCharges_PaperlessBilling_Yes=5
num__MonthlyCharges_SeniorCitizen_No=5
num__MonthlyCharges_StreamingMovies_Yes=5
num__PaymentMethod_Electronic_check_TotalCharges=5
num__PERCENT_CHANGE_tenure_=5
num__MonthlyCharges=4
num__COSINE_TotalCharges_=4
num__EXPONENTIAL_WEIGHTED_STD_MonthlyCharges_com_0_5_=4
num__MonthlyCharges_TechSupport_No=4
num__OnlineSecurity_No_TotalCharges=4
num__PhoneService_Yes_tenure=4
num__SeniorCitizen_No_TotalCharges=4
num__StreamingMovies_No_TotalCharges=4
num__TotalCharges_0=3
num__COSINE_MonthlyCharges_=3
num__Contract_Two_year_MonthlyCharges=3
num__Dependents_No_TotalCharges=3
num__InternetService_DSL_MonthlyCharges=3
num__MonthlyCharges_PaymentMethod_Credit_card_automatic_=3
num__MonthlyCharges_PaymentMethod_Electronic_check=3
num__MultipleLines_No_TotalCharges=3
num__MultipleLines_No_tenure=3
num__Partner_Yes_TotalCharges=3
num__PaymentMethod_Bank_transfer_automatic_tenure=3
num__PhoneService_Yes_TotalCharges=3
num__StreamingMovies_Yes_TotalCharges=3
num__StreamingTV_No_tenure=3
num__TechSupport_Yes_tenure=3
num__gender_Female_TotalCharges=3
num__gender_Female_tenure=3
num__TotalCharges=2
num__ABSOLUTE_DIFF_TotalCharges_=2
num__EXPONENTIAL_WEIGHTED_STD_tenure_com_0_5_=2
num__EXPONENTIAL_WEIGHTED_VARIANCE_tenure_com_0_5_=2
num__Contract_Month_to_month_tenure=2
num__Contract_One_year_MonthlyCharges=2
num__Dependents_Yes_TotalCharges=2
num__DeviceProtection_No_MonthlyCharges=2
num__DeviceProtection_No_TotalCharges=2
num__DeviceProtection_Yes_MonthlyCharges=2
num__DeviceProtection_Yes_TotalCharges=2
num__InternetService_DSL_tenure=2
num__MonthlyCharges_MultipleLines_No=2
num__MonthlyCharges_OnlineBackup_No=2
num__MonthlyCharges_PaperlessBilling_No=2
num__MonthlyCharges_Partner_No=2
num__MonthlyCharges_StreamingTV_Yes=2
num__OnlineBackup_No_TotalCharges=2
num__OnlineBackup_Yes_TotalCharges=2
num__OnlineSecurity_No_tenure=2
num__OnlineSecurity_No_internet_service_TotalCharges=2
num__PaperlessBilling_No_tenure=2
num__PaymentMethod_Mailed_check_tenure=2
num__StreamingMovies_No_tenure=2
num__StreamingTV_No_TotalCharges=2
num__gender_Female_MonthlyCharges=2
num__gender_Male_TotalCharges=2
num__tenure_1=2
num__PERCENT_CHANGE_MonthlyCharges_=2
num__PERCENT_CHANGE_TotalCharges_=2
num__EXPONENTIAL_WEIGHTED_STD_TotalCharges_com_0_5_=1
num__EXPONENTIAL_WEIGHTED_VARIANCE_TotalCharges_com_0_5_=1
num__MonthlyCharges_tenure=1
num__TotalCharges_MonthlyCharges=1
num__Contract_One_year_tenure=1
num__Contract_Two_year_TotalCharges=1
num__Dependents_No_MonthlyCharges=1
num__Dependents_Yes_tenure=1
num__InternetService_Fiber_optic_TotalCharges=1
num__InternetService_Fiber_optic_tenure=1
num__MonthlyCharges_MultipleLines_Yes=1
num__MonthlyCharges_OnlineBackup_Yes=1
num__MonthlyCharges_PhoneService_Yes=1
num__MonthlyCharges_SeniorCitizen_Yes=1
num__MonthlyCharges_StreamingMovies_No=1
num__MonthlyCharges_TechSupport_Yes=1
num__MultipleLines_Yes_tenure=1
num__OnlineBackup_No_tenure=1
num__OnlineBackup_No_internet_service_TotalCharges=1
num__OnlineBackup_Yes_tenure=1
num__OnlineSecurity_Yes_TotalCharges=1
num__OnlineSecurity_Yes_tenure=1
num__PaperlessBilling_No_TotalCharges=1
num__PaperlessBilling_Yes_TotalCharges=1
num__PaperlessBilling_Yes_tenure=1
num__Partner_No_tenure=1
num__Partner_Yes_tenure=1
num__PaymentMethod_Bank_transfer_automatic_TotalCharges=1
num__PaymentMethod_Credit_card_automatic_TotalCharges=1
num__PaymentMethod_Mailed_check_TotalCharges=1
num__SeniorCitizen_Yes_TotalCharges=1
num__StreamingMovies_No_internet_service_TotalCharges=1
num__StreamingTV_No_internet_service_tenure=1
num__StreamingTV_Yes_TotalCharges=1
num__StreamingTV_Yes_tenure=1
num__TechSupport_No_TotalCharges=1
num__TechSupport_No_tenure=1
num__gender_Male_MonthlyCharges=1
num__gender_Male_tenure=1
num__NATURAL_LOGARITHM_TotalCharges_=1
remainder__TechSupport_No=1
remainder__Contract_Month_to_month=1

parameters:
[boosting: gbdt]
[objective: binary]
[metric: auc]
[tree_learner: serial]
[device_type: cpu]
[data_sample_strategy: bagging]
[data: ]
[valid: ]
[num_iterations: 3000]
[learning_rate: 0.0895109]
[num_leaves: 16]
[num_threads: 0]
[seed: 0]
[deterministic: 0]
[force_col_wise: 0]
[force_row_wise: 0]
[histogram_pool_size: -1]
[max_depth: 4]
[min_data_in_leaf: 79]
[min_sum_hessian_in_leaf: 0.001]
[bagging_fraction: 0.448463]
[pos_bagging_fraction: 1]
[neg_bagging_fraction: 1]
[bagging_freq: 4]
[bagging_seed: 3]
[feature_fraction: 0.486962]
[feature_fraction_bynode: 1]
[feature_fraction_seed: 2]
[extra_trees: 0]
[extra_seed: 6]
[early_stopping_round: 200]
[first_metric_only: 0]
[max_delta_step: 0]
[lambda_l1: 8.5438e-06]
[lambda_l2: 0.000713542]
[linear_lambda: 0]
[min_gain_to_split: 0]
[drop_rate: 0.1]
[max_drop: 50]
[skip_drop: 0.5]
[xgboost_dart_mode: 0]
[uniform_drop: 0]
[drop_seed: 4]
[top_rate: 0.2]
[other_rate: 0.1]
[min_data_per_group: 100]
[max_cat_threshold: 32]
[cat_l2: 10]
[cat_smooth: 10]
[max_cat_to_onehot: 4]
[top_k: 20]
[monotone_constraints: ]
[monotone_constraints_method: basic]
[monotone_penalty: 0]
[feature_contri: ]
[forcedsplits_filename: ]
[refit_decay_rate: 0.9]
[cegb_tradeoff: 1]
[cegb_penalty_split: 0]
[cegb_penalty_feature_lazy: ]
[cegb_penalty_feature_coupled: ]
[path_smooth: 0]
[interaction_constraints: ]
[verbosity: -1]
[saved_feature_importance_type: 0]
[use_quantized_grad: 0]
[num_grad_quant_bins: 4]
[quant_train_renew_leaf: 0]
[stochastic_rounding: 1]
[linear_tree: 0]
[max_bin: 255]
[max_bin_by_feature: ]
[min_data_in_bin: 3]
[bin_construct_sample_cnt: 200000]
[data_random_seed: 1]
[is_enable_sparse: 1]
[enable_bundle: 1]
[use_missing: 1]
[zero_as_missing: 0]
[feature_pre_filter: 1]
[pre_partition: 0]
[two_round: 0]
[header: 0]
[label_column: ]
[weight_column: ]
[group_column: ]
[ignore_column: ]
[categorical_feature: ]
[forcedbins_filename: ]
[precise_float_parser: 0]
[parser_config_file: ]
[objective_seed: 5]
[num_class: 1]
[is_unbalance: 0]
[scale_pos_weight: 3]
[sigmoid: 1]
[boost_from_average: 1]
[reg_sqrt: 0]
[alpha: 0.9]
[fair_c: 1]
[poisson_max_delta_step: 0.7]
[tweedie_variance_power: 1.5]
[lambdarank_truncation_level: 30]
[lambdarank_norm: 1]
[label_gain: ]
[lambdarank_position_bias_regularization: 0]
[eval_at: ]
[multi_error_top_k: 1]
[auc_mu_weights: ]
[num_machines: 1]
[local_listen_port: 12400]
[time_out: 120]
[machine_list_filename: ]
[machines: ]
[gpu_platform_id: -1]
[gpu_device_id: -1]
[gpu_use_dp: 0]
[num_gpu: 1]

end of parameters

pandas_categorical:[]
